1870 128
224 -0.000666814 0.33153844 0.205866 -0.0011353481 -0.014491591 -1.1183383 0.77591336 0.32324582 0.48084575 0.05490359 0.52752125 -0.0833809 0.7218841 -0.10696454 0.13003668 -0.037834633 0.011170549 0.2885672 -1.3833486 -0.46155393 0.4981836 -0.08701885 0.27382308 0.48019126 0.29242122 0.28721118 -0.42305195 -0.40879744 -0.60217524 -0.3874907 -0.24957412 -0.1971834 0.3879555 -0.56062967 0.06641931 0.1410916 -0.21750216 -1.1776903 0.5957942 -0.34407362 -0.41930637 -0.40239885 0.49714082 -0.2661674 -0.7060342 0.12354698 -0.113543846 0.3586614 0.6252293 0.15684837 -0.82384664 -0.039280582 -0.15481298 -0.42169005 0.10761823 -0.20139098 0.77331644 -0.3513741 -0.5021001 0.41998848 0.227305 -0.08391924 0.33413714 -0.47417173 -0.13355106 1.0632758 0.08725418 -0.041852333 -0.51811373 0.01944866 0.1447092 0.167124 -1.059069 -0.6021557 0.17799792 0.3439044 0.5256798 -0.5628913 0.3069428 0.13621195 0.042240974 0.50382555 -0.038508635 0.9072128 -0.03175392 0.59652025 0.2312327 -0.78584313 0.1654272 0.764441 -0.26048 -0.49795005 -0.016693639 -0.50222224 -0.43296126 0.337389 -0.95764166 -0.9009389 0.894638 0.0027162614 -0.87925744 0.0027603519 0.4285481 0.58908856 -0.23628733 -0.11500339 0.44788972 0.10870851 -0.72468674 -1.1782576 -0.4775241 -1.0449319 -0.7377025 0.79327804 1.2256094 0.68132883 0.87699795 0.027023815 0.40287504 0.08231775 0.13913396 -1.0532373 0.24537787 -0.33733574 0.4435373 0.37397408 -0.25507098 -0.23586021
1846 0.1172084 -0.28726548 0.78954506 0.014135567 -0.112338 -0.23220785 -0.63768184 -0.6909313 -0.15170462 -0.18835418 0.9200894 1.0471652 -0.11799626 0.09895673 0.0641198 0.8184657 -1.047617 -0.16347198 -0.1743915 -1.2268103 0.12386887 0.65819937 1.0974858 0.10587939 -0.22725269 1.0410482 -0.8735554 0.5261625 0.8156367 0.65974814 -0.6648431 -0.111219324 -0.5405283 0.22912653 -0.26314542 -0.32786947 0.16514088 -0.18034746 0.5179332 0.085276365 0.56441027 -0.6550084 0.3070392 -0.74009186 0.3385903 0.11612301 -0.7343154 -0.909382 -0.3831168 -0.5051638 -0.81368744 -0.4822704 -0.482654 -0.5961782 -0.22048984 -0.62846047 0.86371505 0.059035487 -0.65260077 -0.64995813 -0.63814956 0.06728719 0.39500415 0.5268143 0.5833344 0.24522553 0.28723323 0.6946038 0.10513867 -0.48265648 -0.8431934 0.33956885 -0.308368 0.6779898 -0.636374 0.14905193 0.42229617 0.633054 -0.5212888 0.24255379 -0.44841674 0.19526722 0.07430924 0.55420995 -0.2117957 -0.8177619 0.5946538 -0.43980852 0.6342631 0.82870036 -0.27415356 -0.3235598 0.35282102 1.025822 0.63347244 -0.29871023 -0.123111196 -0.5085948 0.17029555 -0.10493166 -1.539055 0.10769084 -0.51918614 0.07922694 -0.35817146 -0.26149008 0.4604309 0.28831363 0.007203433 -0.2943399 0.16036642 -0.352093 0.14720029 0.54370445 -0.07587834 0.102952816 0.5491641 0.033860676 0.47638288 0.9109093 -0.27306178 -0.70583177 -0.6549371 -0.17159194 -0.52021295 0.38180187 -0.7257235 0.111526795
819 0.4074384 -0.26295084 -1.0582181 0.30448353 0.47942564 0.19318116 0.8072484 0.38648865 -0.61955994 -0.26406062 0.86370593 0.68277156 0.19938402 -0.2591663 0.12108711 0.6631347 0.10549478 -0.10528716 -0.5376539 -0.025731953 1.1438763 0.2208053 -0.20987588 -0.3543305 -0.7733031 0.24072912 -0.93499637 -0.2622613 0.17398877 0.13384254 -0.5337503 -0.65064305 0.3626869 0.01185961 -1.0086272 0.3168649 1.3328532 -0.7505882 0.8937068 -0.10170514 0.4562771 -0.58668226 1.5373255 -0.8922252 -0.21749401 -0.14218746 -0.34591436 0.22741786 -0.30035484 -0.3573046 -1.1603819 -0.43637398 0.089208335 0.22574486 0.3728147 0.29441217 0.24600093 -0.15893339 -0.0019619586 -0.19438206 -0.005129961 0.1113743 -0.51741314 0.28434807 0.3284474 -0.29440892 1.0978045 0.34739068 -0.11245803 0.12607503 0.4059904 0.13246533 -1.7855492 0.56678903 -0.5604873 -0.55117345 -0.07527622 -0.051321868 -0.11822919 -0.5463479 0.05362451 -0.21497534 -0.111539595 0.6337082 1.0586547 0.4746599 0.40994015 -0.12584497 0.7593143 0.5918422 0.24585807 -0.20306627 -0.54508626 0.16321105 0.59384185 -0.58659977 -0.8441965 -0.06516834 0.22077487 0.06415107 -0.82655877 0.5930364 0.68635416 0.46092144 0.4035639 -0.41415793 0.41222906 -0.34923467 -0.8715521 -0.60729146 -0.3576002 -0.36943975 -0.74555355 0.02178101 0.6348139 -0.4789422 0.8661256 0.7310094 -0.08489931 -0.6198845 -0.6065173 -0.27085763 -0.53886557 0.11367435 -0.6226115 0.38457996 -0.4275639 1.3231331
1183 -0.23208992 -0.16388725 1.0626246 -0.2689871 0.1395172 -0.5009098 -0.67434055 -0.27326798 -0.6911285 -0.5232205 0.9196969 -0.17983396 0.44526187 -0.44368863 -0.07085902 0.18622696 -0.35899568 -0.07624859 -0.47768003 -0.7701992 0.14551032 0.033729576 -0.122995235 -0.3820119 0.32557648 0.886527 -1.1165298 0.064009786 -0.4856989 -0.11742253 -0.06421945 -0.082045674 -0.4834034 0.018563192 0.93928826 -1.3083299 -0.35582203 -1.0199412 0.597309 0.57904094 0.17839268 -0.45095235 0.2695435 -0.41317335 -0.39916956 -0.3492078 -0.012544297 -0.020797238 0.28820398 -0.58522534 0.06140823 -0.56394166 0.2192039 0.65124005 -0.4224289 0.050752938 0.26784638 0.17139304 -0.7278017 0.8522396 0.7105483 -0.25809595 0.42895946 -0.67188525 0.7970179 0.21138941 0.47957155 0.00069002993 0.26054168 0.27031103 0.08913211 0.0019367969 -1.1669602 -0.814429 -0.8179371 -0.21977243 0.44380778 -0.22721271 0.5156188 0.08902035 -0.52079904 0.27407223 0.03861031 0.11062597 -0.44194725 1.186328 -0.21117923 0.8220362 -0.9537635 0.4252656 -0.064375736 -5.0226685e-05 0.024967622 0.12669794 0.70972764 -1.2541629 -0.46168604 -0.83611554 -0.18852113 -0.2472687 -0.8452463 -0.9311367 0.5154992 -0.014043812 -1.082873 -0.29231736 -0.7948217 -0.742759 0.3137602 -0.37551618 0.32634145 -0.75533044 0.22976463 0.4786443 -1.0189005 0.2951962 -0.42144993 0.33838457 -0.13151488 -0.49912214 -0.13479018 -0.53608006 -0.038278285 0.12415115 -0.043043148 -0.2763642 -0.4364893 0.9549113
1390 0.033437345 -0.36101988 0.54270583 0.050619356 -0.081759974 0.26876077 0.2557734 -0.07026775 -0.18662634 -0.27843672 0.18675286 -0.21097024 0.6489013 0.28460413 0.52170753 0.40232372 -0.29246318 0.32825693 0.16504289 -0.8650683 -0.7676643 0.1804871 0.5754354 0.64376193 -0.011870848 0.5837708 0.0010094396 -0.04145307 0.10293319 -0.22100078 0.6870906 0.16709062 -0.47348094 -0.27010152 -0.35365134 -0.019230334 0.16602749 -0.31212062 1.0782595 -0.44519228 0.40555704 -0.913788 0.5669625 -0.14906488 0.20399538 -0.47024897 -0.12617406 0.053314466 0.4597094 -0.0973565 -0.5877551 -0.56919104 -0.067413636 -0.20635065 -0.21999669 -0.5661711 -0.2745873 -0.38976792 -0.08210538 -0.20222142 0.8712403 0.023427973 0.089398175 0.85350335 0.24547966 1.1099855 0.02711844 -0.4774106 1.0587578 0.25030893 0.18791695 -0.84522057 -0.982127 -0.57881755 -0.8051303 0.96712685 -0.012213581 -0.6003143 0.2735862 0.0008024551 0.19092791 -0.009270182 0.08972269 -0.08640326 -0.13899165 -0.11060725 -0.50588906 -0.56086713 -0.2103013 1.0796791 -0.84625334 0.027458077 0.4100445 0.54380286 -0.033435464 -0.45404834 -0.027130796 -1.1279277 0.58360606 -0.49274573 -0.90039986 0.8524873 -0.8620994 0.5802251 -1.27142 0.26277086 -0.61525387 -0.7075371 0.83912075 -1.3314581 0.76481235 -0.7037407 -0.8298175 0.778623 0.7893982 0.19269384 1.0202037 -0.4044375 1.1027638 0.66272086 -0.6324331 -0.029990694 -0.37366614 -0.5004658 -0.73263997 -0.35636398 -0.22260298 -0.5277581
929 0.19853103 0.12680326 0.9824101 0.19749312 -0.4804792 -0.00682719 0.052126996 -0.6286149 -0.41749364 -0.71337503 -0.020041239 -0.013865154 0.14426613 -0.019165726 -0.11936986 0.0039012267 -0.27545938 -0.32396257 -0.8066184 -0.572579 -0.017357515 0.39494047 0.42954642 -0.58650166 -0.26843137 0.49914533 -0.76837754 0.39496526 0.22637899 -0.35558096 0.103075966 1.2932303 0.057012387 -0.4731254 0.93793947 -0.82465726 0.07394076 -0.4077748 0.48229167 1.5112306 0.67459124 -1.5262156 0.11987772 -0.4660745 -0.20664737 -0.62525076 0.43760988 -0.5426671 -0.1272969 0.25573835 -0.27542716 -0.06999095 -0.92882323 -0.7850039 -1.1112013 -0.028526848 1.7824446 -0.74248207 0.28239718 0.66009855 0.30936167 -0.017274344 0.5562561 0.35218793 -0.541618 0.31355357 1.715344 -0.7086578 -0.012398398 0.010599088 0.107382454 0.24166611 -0.90884316 -0.6440308 0.14752398 0.5673109 0.22200166 0.34359634 0.14401829 0.045530688 0.602684 0.29721597 -0.009243951 0.38354728 -0.3772545 -0.054165993 -0.18376666 0.13935408 -0.29089466 0.5924258 -0.2096866 -0.7078476 -0.36468506 -0.8839924 -0.102945924 0.105220445 -0.86710536 -0.7530689 0.31121185 0.07390704 -0.4082708 0.20898275 -0.09015642 0.76478994 -0.2911824 -0.10375795 0.044682477 0.5401978 0.6166059 -0.8281359 -0.54316384 -0.806117 0.2559966 0.16146427 -0.19873868 0.12131195 0.6142316 0.352222 0.3070411 0.1929805 -0.03587505 0.08909472 -1.0567461 -0.2767318 -0.1280781 1.0259092 -0.70090866 1.0080388
1789 0.16314632 -0.29421505 1.2934743 0.088326305 -0.10613846 -1.5206907 -0.75663495 -0.25321847 0.10105714 0.17765088 0.3777035 -0.44548783 -0.1032545 -0.40097004 -0.35032055 0.54472315 -0.24820869 0.22758496 0.7579069 0.0788664 0.19685899 0.73130214 0.5685049 0.32841992 -0.7756614 0.45860198 -1.2210363 0.6679941 -0.46724907 -0.5449437 0.119270846 -0.14977519 -0.29991555 0.45736533 1.0418218 -0.44819245 0.40481266 -0.88579744 0.94851243 0.12312122 -0.4882635 -0.24614221 -0.09004589 -0.38662866 0.255092 0.76680285 -0.16187458 -0.881829 -1.0685077 0.36535197 -0.33997306 -0.44830623 0.3275002 0.2728831 0.88837886 -0.2829619 1.0284901 0.14760096 -0.5448966 0.024023615 0.1273779 -0.8463697 -0.2978812 0.3511044 0.7224923 -0.7645161 -0.75783634 0.63515836 -0.17217106 0.59283215 0.6280419 -0.26585898 -0.5679451 -0.6944569 -0.06590231 -0.14799637 -0.15061428 -0.5919599 -0.30058736 0.13720945 0.92818236 -0.31035727 0.4764506 0.33963504 0.32870445 -0.020989891 0.9900343 0.2431092 -0.04709951 0.37307516 0.24622032 -0.034842238 -0.37407586 -0.5386659 0.6682551 -0.43551198 -0.5843962 -0.080675125 0.471547 0.03589219 -0.7954552 0.15875447 -0.40025347 0.5841271 0.16189529 0.121919796 -0.13876107 0.11946805 -0.047287602 -1.1110995 -0.8589982 -0.012217309 -0.5137431 0.0014446545 0.20786047 -0.26172772 0.9351769 -0.30270976 0.48150206 0.2493683 0.5145581 -0.4998826 -0.6690481 -0.034516625 -0.14061044 0.21216196 0.78622216 0.7626798
1045 -0.21452451 0.30826145 0.20249102 -0.06238158 0.27867532 -0.38301727 -1.1025842 0.48587638 -0.48406503 -0.32165566 0.49310768 1.3244457 0.6736476 0.49396625 0.4574573 0.585344 -0.14287941 -0.28399706 -0.89493924 0.8688046 0.6087473 -0.70523727 -0.13634446 -0.5718335 -0.00668403 0.21472518 -0.57890636 -0.70812255 -0.772184 -0.04959281 0.2457608 -0.7066812 -0.2041633 -0.87971026 0.28917003 0.3224826 0.3573875 -0.3994897 -0.21254718 0.40721914 0.37910724 -1.3220825 0.078761734 -0.28697985 0.6110456 -0.07526509 0.8063239 0.4931877 -0.22270733 -0.53193474 -1.1037915 -0.2069895 -0.19232361 1.2642486 0.8903135 0.24033006 0.70860094 -0.008366301 -0.12419393 0.47244164 -0.123278715 0.5462009 0.52070975 0.042654388 0.31302133 0.69087976 1.1040679 0.050310574 0.16426335 -0.7046914 0.50804406 -0.65997475 -1.1594888 -0.739741 0.089497395 -0.39418787 -0.56930476 -0.9502487 -0.04037675 0.0074413116 -0.38998967 -0.8447879 -0.04156209 0.14694662 0.3517677 -0.035731643 -0.022195857 0.40456894 -0.19866282 0.24435651 -0.3486229 -0.5416683 0.6737961 0.33208865 -0.18609528 -0.3544506 0.39837298 -0.13113134 0.6039129 -0.35605264 -0.84955573 0.15042566 0.32144773 0.717373 -0.96093774 -0.39215308 0.21392927 -0.50857526 -1.1608 -0.40556917 -0.30183563 -0.49233732 -0.9171455 -0.1606922 0.45072192 -0.030686922 0.78236276 0.45233756 1.1613616 -0.27682215 -0.6086108 -0.021466145 0.0964691 -0.4337705 0.03010884 -0.08639503 0.83283114 0.47889844
1905 0.7087183 -0.5219059 -0.31479156 -0.4684975 0.36638677 0.14439492 0.1725604 0.5840889 -0.4033893 0.2539678 0.8041354 0.47080216 0.8512993 0.14867769 0.5115683 -0.16474833 -0.22320785 0.55169594 -0.5041803 -0.63222575 -0.88188124 -0.89056385 0.82606393 -0.34613046 -0.63099134 0.50982565 -0.75842774 -0.39366388 -0.2919908 -0.09592363 0.59169984 0.51104856 -0.59897804 -0.06314242 -0.12769671 0.12124382 -0.9668449 -0.80328876 0.25168785 0.34207276 -0.45656237 -0.4712785 0.18193431 -0.15524657 0.09411214 -0.61122316 -0.80676883 0.751023 -0.0032477658 -0.047400888 -0.8322549 0.3626134 0.7312417 -0.20053692 0.018459698 0.074060254 -0.026037596 0.30132246 0.026515862 0.68665755 -0.12341851 1.0770969 0.010053298 -0.2012678 0.3107741 0.8446006 0.54320896 -0.07879635 0.98668844 0.43101245 -0.18184675 -0.52118856 -0.12811354 -1.0356636 -0.29853347 -0.3108709 0.29979935 0.43571687 0.29981154 -0.2740855 -0.44240946 -0.010156556 -0.25022107 0.028337285 0.02245383 -0.7959533 -0.053510297 0.662044 -0.27854842 0.82064486 -0.5442503 -0.4894458 0.12475922 0.19522019 -0.70623237 -0.7314867 -1.10546 -0.6351131 0.8665439 -0.8053983 -1.0566998 -0.046470966 -1.0740606 0.15498987 -1.0079466 0.041093852 -0.1039921 -1.1446948 -0.22076352 -0.05554901 -0.4597682 -0.43024173 -0.84011865 0.7481099 -1.1417757 0.44024476 1.0073854 -0.21705997 0.48184377 -0.18399054 -0.6067419 -0.38935506 -0.3588145 0.12552144 -0.58713645 -0.02543527 0.087803915 1.6244656
1626 0.2919023 0.062368184 0.37078342 -0.21420756 0.5154731 -0.17656375 -0.06791735 -0.28264084 -0.39976707 -0.141287 1.1314405 -1.2879126 -0.19510446 -0.5887969 0.9493522 0.71598226 0.025044138 0.07239689 -0.67964077 -0.0050059697 0.3552385 0.17340355 0.74470705 0.1706395 -0.405407 -0.00058537035 -0.70450884 0.07969008 0.26255858 0.5769016 -0.1952642 0.3276426 -0.34406435 -0.2828491 -0.46120825 -0.7196028 0.62751836 -0.24355699 0.2720162 0.24704318 -1.5906075 -0.030670885 0.64154893 -0.7990076 -0.30281004 -0.59560233 0.036292158 -0.21506523 -0.21257277 0.32683647 -0.014492941 -0.016577207 0.70611197 0.873205 -0.0407907 1.1681439 1.020844 -0.4145371 -0.6238243 0.19231284 -0.11929846 -0.14986025 -0.13375363 -0.40611947 0.18482463 0.09811583 0.25654104 0.1582676 -0.2605828 -0.5829054 0.12932627 -0.17982574 -0.50856644 0.45913553 0.20113043 0.27307135 0.18286787 -0.4750693 0.60600513 0.36375594 -0.1885401 -0.21800783 1.0993873 0.44055972 -0.30249408 0.30745852 0.59599775 0.78706586 -0.8546187 0.54805964 -1.3031578 -0.06573294 0.29576847 -0.030988729 0.44704425 -0.16264164 -0.7486426 -0.92434305 0.33302307 -0.7070434 -1.0344605 -0.18623339 0.20220634 -0.14421959 -0.4099187 -0.3684378 0.43314838 -0.5380483 -1.0767543 -0.8027617 -0.17640625 -0.38465634 -1.1607641 0.67559296 -0.4143908 -0.4445971 0.19480753 0.5815331 0.47268057 0.48363242 0.37584105 -1.0936409 -0.5457046 -0.49601686 0.3987875 -0.22053722 -0.270572 1.0013071
205 0.42421943 -0.028655626 0.15844198 0.38437265 -0.44764784 0.117572956 0.36010045 -0.065050215 -0.44053936 -0.41100547 0.5271095 0.42152423 0.58732957 -0.5071867 -0.14965217 0.79162365 0.851106 -0.39371732 -0.0181128 0.20941946 0.094967104 0.26613528 -0.34491637 -0.118130766 -0.15135907 -0.05909121 -1.2786529 -0.5140334 -0.53633994 0.17423636 -0.50320417 0.83280194 -0.8562127 -0.59471136 0.8070164 0.40141258 0.9867821 -0.85474455 0.9437748 -0.15751913 0.8795284 -0.08579242 0.8124007 -0.517724 -0.15342726 -0.15081589 -0.7253529 -0.6635068 -0.37107283 0.4531229 -0.844083 0.019496918 -0.05449121 0.032820035 -0.3694131 0.067057945 -0.5697767 1.0598842 -0.30579787 -0.22262768 0.34840444 -0.25085145 0.176602 0.7314716 -0.14414795 -0.33931395 0.092465416 -0.18919082 0.628841 0.61930007 0.51585025 0.27523124 -1.7636052 -0.21343109 -1.1890571 -0.47076902 0.5343699 -0.46477473 -0.4390696 -0.40249085 0.8890774 0.5037074 0.17628725 0.6756909 1.0580854 0.5632606 0.51430297 -0.19806613 0.24322882 0.0760046 -0.46944463 0.007124503 -0.88060063 0.31986845 1.1182927 0.15065771 -0.4497772 -0.7272958 0.3518095 0.276167 -0.39274493 0.5228456 0.87859684 1.0824283 0.030577581 -0.67470884 0.47439104 0.19035336 -0.61281276 -1.3629717 0.43764555 -0.12659757 -0.0612714 -0.5230566 -0.116697095 -0.4262755 1.585781 0.27778673 0.1767305 -0.3733258 -0.30246273 -0.17915027 -0.7129222 -0.64098084 0.18328308 0.5887062 0.08364519 1.3972371
1750 0.8722848 -0.49906072 0.7413682 -0.044631492 -0.57899433 -1.1759104 -0.656681 0.77217823 -0.26623333 0.055323776 0.73172736 0.22906946 1.3079923 0.43415195 0.31864235 0.0024070821 0.1838192 0.6479199 -0.16019645 0.22120684 0.104063146 -0.9182022 -0.35749772 -0.29462337 0.11214224 -0.5702286 -0.61042506 -0.50910246 -0.9107892 -0.07797383 -0.22397183 0.91332775 -0.24246944 -0.61481756 0.6299807 0.21062547 -0.17620555 -0.49444327 0.28757057 -0.21137816 0.8368641 -0.81600803 0.1338119 0.024385931 0.06602059 -0.78205544 -0.29435733 -0.64716256 0.44959185 0.06493738 -0.09705277 -0.11824296 -0.11658054 -0.2253565 0.002084206 -0.6626658 0.34499246 0.3774022 -0.11936644 0.51710236 0.3258623 0.49032903 -0.5309895 0.046650574 -0.095418625 -0.090891264 0.6528544 -0.41443148 1.1478318 0.16273035 1.0050691 -0.2105157 -0.8074551 -1.25475 -0.3636892 -0.8351743 0.55711615 0.13805212 -0.109145276 0.1467899 -0.3661608 -0.26824674 0.21625897 0.0744273 0.5083644 0.39988735 -0.62705326 -0.19370605 -0.45949167 0.14229698 -0.5709328 0.13852583 0.15516466 0.5414656 0.09821471 0.022609603 -0.12952599 -0.7910007 0.3893087 0.25091487 -0.81950945 0.9084763 -0.55825895 0.35376433 -1.2273484 -0.051452346 -0.53600574 0.104031734 -0.13585746 -0.6120579 0.28128117 -0.29875642 -0.17867567 0.77042216 -0.49238995 0.54066914 0.7961461 0.78892124 0.8933331 0.8956763 -0.64051574 -0.70042485 -0.6937259 -1.1419775 0.34549537 0.6429823 0.56057686 1.0175257
1925 0.47048107 -0.5993603 -0.41418552 1.4322262 1.302412 0.14640951 0.0038176156 0.15545501 -0.14499903 0.119142465 0.9126493 -0.85044056 0.06250625 0.3639835 0.042966537 -0.41865867 0.019480865 -0.5558449 -0.23241818 -0.7647175 0.43172067 0.43054074 1.10825 -0.1363053 -0.64985794 0.47983098 -0.7243649 0.46214524 0.88228095 -0.5187475 0.4430846 0.6781898 -0.3251895 -0.106267735 -0.65340173 0.17278641 1.162823 -0.34190997 1.3020742 0.81141734 -0.24605149 -0.8131775 0.37393802 -0.48714924 -0.62612456 0.0660262 -0.509881 0.5264666 -0.5438442 -0.32160908 -0.59870833 -0.9644151 0.23766439 0.27787197 0.45161432 -0.4974586 0.04259128 -0.9962577 -0.4540958 0.8598395 0.1151192 -0.09989592 0.9235876 0.57986856 0.7264014 0.05092785 0.5532044 0.32174906 0.4062582 -0.42020595 -0.6458655 -0.095805205 -0.3975782 0.8635143 0.4328885 -0.18571095 -0.6695361 0.18474054 0.6936459 0.60624844 -0.27814528 -0.48781794 0.21026959 0.16337982 0.072227776 0.032398067 0.20544887 0.5411597 0.18510947 0.92948705 0.38048634 -0.40187517 -0.15908903 0.093392275 0.91025734 -1.073316 -0.2654157 -1.2922949 0.09069356 0.3718274 0.023330826 0.4551264 -0.47596762 -0.24555622 -0.6491762 -0.5386113 0.4893711 -0.00540434 0.5117618 0.28543288 -0.28591898 -0.84954524 0.15157978 0.876015 -0.12904018 -0.032150533 0.66690403 -0.03124084 -0.01452327 0.47030494 -0.03726144 -0.52506727 -0.15332827 0.34943303 0.34887826 0.29628873 0.16329807 0.30884415
42 0.34520835 0.16271889 0.10465649 1.1760924 1.1395513 -0.29932272 -0.87809664 0.9193072 -0.10348153 -0.13458659 1.5046065 -0.015409022 0.57292837 0.11125137 0.76546735 0.207652 0.055013716 -1.1331413 -0.33670685 -0.83302075 -0.16365674 0.9230481 0.090314984 -0.7487437 -0.80093557 -0.09802844 0.21955468 1.1347888 1.0050946 0.6481982 -0.17243612 0.7791358 -0.6115604 -0.45311907 -0.124698736 0.38042942 0.8298174 -0.35734814 0.8224222 -0.14483356 0.34281117 -0.7541997 0.092598714 -0.27373677 -0.29450274 -0.6916921 0.243125 -0.14375262 -0.09957113 -0.11936925 -0.12972571 -0.6383598 0.27027607 -0.108978175 1.0592692 -0.5645854 1.1026238 0.5577106 -0.4945437 1.0646812 -0.007580066 0.3524479 0.32421154 0.20403145 0.9187098 0.078279026 -0.07421935 0.5492415 -0.19726913 0.053026244 -0.26795647 0.30292594 -1.3246355 1.2055686 0.025681475 -1.0284328 0.5085499 -0.13354476 0.52850986 0.73026335 0.48095194 -0.6521029 0.20147407 1.058748 0.38193086 -0.19343673 0.8239091 0.27885997 0.054411553 0.46668807 0.28584203 0.4209897 0.7564504 0.014569696 0.9738713 -0.32574314 -0.7869417 -1.0849812 -0.5783377 -0.40465176 -0.79370284 -0.3293803 0.20479997 0.4879547 0.48398915 -1.2985507 0.73727924 -0.58920467 -0.5623998 0.16705897 0.2631529 -0.603323 0.495 0.46622023 0.47355518 1.04962 0.09925925 0.34958667 0.57197565 0.5013258 0.052563574 -0.15089639 0.13374966 -0.08211586 0.898523 -0.36933938 0.16050436 0.83395433
1095 0.04090512 -0.9207178 0.48707217 0.75174797 0.23244785 -0.6805238 0.547704 -0.27865225 0.2983595 -0.98224986 0.18776469 0.14350902 -0.31883392 -0.6809471 0.5674079 0.60122615 0.28551325 -0.7357898 0.24656484 -0.33299446 -0.18422915 1.5471444 1.2122676 -0.07832752 -0.18022038 0.59730214 0.28306377 0.8945596 0.044196054 -0.63927805 0.1239986 -0.2575403 0.595239 -0.31493568 -0.3616328 1.0543405 1.2144824 -1.2459968 1.0487963 -0.28573906 -0.364306 0.2392227 0.69106793 -1.124714 0.2658905 0.6191184 0.39780062 -0.8164679 0.005092604 -0.43035367 0.43560216 0.15664203 0.15354179 -0.14619404 -0.3879415 1.0370291 0.13203308 0.266726 -0.77387875 0.10701112 -0.39031217 0.22137178 -0.24349059 0.5577246 0.032590523 -0.022836586 0.7510148 -0.664259 0.43399045 1.196222 0.7006114 0.82120025 -1.266428 0.23469491 0.16447125 -0.17440556 -0.9323985 0.14117631 0.66620135 -0.23836261 0.81728166 -0.19436835 0.41722122 -0.3065338 0.628335 0.026621137 -0.18170087 -0.1503509 -0.7837253 0.5797815 -0.860935 -0.10695859 -0.27978653 -0.04704042 0.9034531 -0.091750726 -0.043349538 -0.44122228 0.96877086 -0.3560026 0.10016176 0.0949954 0.59012306 0.69820416 -0.010365999 -0.35299975 0.4756946 0.08700213 -0.20016009 -0.17347531 0.29275793 -0.28340152 -1.0721114 0.89605886 -0.23980817 -0.7885096 0.41251782 -0.14170119 -0.20207696 -0.648993 0.12515529 -0.5100356 -0.71863675 -0.36141947 0.9810739 -0.028506909 -0.07888574 0.62721634
920 0.10954345 0.6051515 0.4359702 -0.015413468 -0.34145266 -0.92271394 -0.9987227 -0.12299929 1.0649343 -0.09055059 0.5570924 -0.28497276 0.3069292 0.25677985 -0.36455116 0.74166614 0.34349042 -0.48494276 -0.10125397 -1.1209283 0.021460962 0.7220929 0.85432166 0.6406753 0.42421725 0.24881583 -0.6024216 -0.020591607 -0.24569333 0.009120631 0.043417666 -0.64644384 -0.77606547 -1.0077382 0.5849079 -0.2536712 0.47144645 -0.3878435 0.27783713 0.013117099 0.08382028 -0.95636106 -0.08172449 -0.57663935 -0.5052338 1.2981347 -0.31598788 -0.22097538 -0.40724477 0.41879225 -0.2817571 0.1995435 -0.47854933 -0.3375156 0.40897343 0.7690406 0.47776955 -0.19674578 -0.8203003 0.34960753 -0.56543374 -0.54380375 0.79234934 0.26659477 0.40752864 0.40565237 -0.2518566 -0.023180915 -0.082934156 -0.77217376 0.0092128385 0.16276956 -1.3064123 0.4786429 -0.6599343 -0.32684192 -0.26059827 0.07155383 0.23757064 0.63857216 0.14192192 0.20187849 0.41040266 1.1542664 0.09947797 0.39621243 0.5094553 0.086273305 -0.044877637 0.2813432 -0.66330856 0.36864874 0.6191048 1.4100636 0.18352024 -0.37948668 -0.2398131 -1.0124805 -0.6619581 0.3033617 -0.25066647 0.11843731 -1.1046083 0.66833687 -0.28027013 -0.54420894 0.32154444 -0.7448912 -0.6921428 -1.196699 -0.026191922 -1.3927162 -0.7702551 0.066845156 -0.20004095 0.33901292 1.5379196 0.25158387 -0.11421351 -0.16637701 -0.1644027 -0.6906068 -0.56128424 -0.03562306 0.025463562 0.5256701 -0.40735644 -0.19456089
1219 0.3977094 0.10254236 0.57678086 -0.021297349 0.35818106 -0.34281734 -0.8763918 0.49827647 -0.090019464 -0.55573314 -0.028290654 0.43498093 0.36990196 0.8844039 0.55764204 0.6403957 -0.4775641 0.31319815 -0.5415706 -0.42316288 0.62176293 0.89129287 0.8835539 0.08407502 -0.58039117 0.2040079 0.08872532 0.803764 0.60431117 -0.13842617 -0.2792851 -0.2471071 -0.9818082 -0.1771437 0.401871 0.40621597 -0.3724394 -0.27859035 0.32433653 0.033510517 0.29963166 -0.74968004 0.34302512 -0.39499778 -0.1333765 -0.002719038 0.7026949 -0.32625824 -0.1652575 -0.35833213 -0.2148976 -0.82363504 0.065421514 0.4144679 0.6456636 0.6899464 0.13005535 0.21355401 -1.1693554 0.32592505 -0.19631398 0.89851993 -0.12040503 0.3143685 1.0012323 0.75983834 0.9623452 0.31119564 0.19287173 -0.019450683 -0.103511356 0.6750331 -1.2935686 0.27440092 -0.74316245 -0.23185506 -0.3892533 -0.12733692 -0.61032885 -0.3592707 0.40333351 0.26641718 0.22512002 -0.25427055 0.61044204 -1.0241698 0.94282144 -0.25000653 -0.05204369 -0.04079222 0.36610007 -0.60139316 0.13171583 0.12040281 1.0549749 -0.6726187 -0.7222669 -0.97547454 0.48485306 -0.1795505 -0.8598037 -0.70338833 0.66726196 0.70465195 -0.30485418 -1.1178123 -0.40999648 -0.2918269 -0.86673236 -0.14560692 -0.4294182 -1.2326666 -0.43444452 0.790394 -0.24052586 0.6971214 -0.04452259 -0.32222667 1.2348504 -0.49285948 -1.0442182 0.6826822 -0.5879803 1.0366939 0.44396675 -0.25077263 0.44891253 0.40174013
857 0.33206305 0.02319696 0.95557535 0.6793204 0.2585946 -0.8062287 -0.4145226 -0.25829986 -0.25625938 0.33766094 0.91593623 0.2592425 0.3231662 0.08973669 0.7960224 -0.42310968 -0.635975 0.04979215 0.01992773 -0.6503441 -1.015493 1.0488043 0.5884534 -0.09967099 -0.43779334 0.04307419 -0.4119347 0.8889904 -0.07032724 -0.44774014 0.21937293 -0.3521133 0.66958725 -0.9211569 -0.3099622 -0.88101953 0.5413597 -0.38397285 0.5716214 -0.04547075 -0.2806776 -0.2712952 -0.21724196 -0.38067436 0.04770697 1.2146988 -0.29476926 0.36890742 0.24574134 0.42929327 -0.6477486 0.3578979 -0.1553956 -0.23349454 0.3916867 0.31936705 0.43482202 -0.016961653 0.51245755 0.8922416 0.3517372 -0.7246266 -0.24774073 0.94547176 0.6457341 -0.17933 -0.66360915 -0.16449536 -0.13172224 -0.49028313 0.5505936 -0.060499627 -1.0435449 -0.28461525 1.5360634 -0.13623264 -1.0200238 0.05542258 1.3778635 0.83397603 0.33684498 -0.9816792 -0.31445092 0.54650193 -0.7613525 0.6557072 -0.22013341 0.85512555 0.31089962 1.1434186 -0.48352066 0.2827358 -0.01873438 0.030221289 0.29561648 0.27430755 0.3145011 -0.6717743 -0.14679943 1.1169785 -0.56689656 0.029859718 -0.21529436 0.29771864 -0.6729844 0.024701534 -0.03188984 -1.0277474 0.10225835 -0.4627061 -0.6578464 -0.74305874 -0.31667152 0.5919869 0.825166 0.1951704 0.7336521 0.69264203 0.105945736 -0.12132242 0.22516665 0.36118796 -0.072004884 0.6376473 -0.49452785 0.5474892 0.54984826 0.15879823
150 0.051160973 -0.38829556 0.7264782 0.743643 0.022717746 -0.29705486 -1.0844342 -0.18654642 -0.62448275 -0.4113892 0.62713116 1.0950199 0.2364423 0.24945073 1.0872245 -0.4656968 0.6800586 0.35189262 0.14458191 -0.9626833 -0.10859459 0.44411066 0.5012921 -0.36790308 0.3495023 0.7454112 0.109213665 -0.13336506 -1.0898933 -1.010223 0.34236774 -0.2633822 -0.0377119 -0.44601756 -0.34390545 0.06498441 0.36969078 -0.16900626 0.5820457 -0.1571085 0.386791 -1.2294517 -0.018997574 -0.073081456 0.11355916 -0.098781295 0.5099368 0.3499322 0.48230278 0.09300765 -0.41195214 0.53477854 0.30812114 0.5505662 0.30601764 0.13877574 0.062885456 -0.771892 -0.3566394 1.2619069 -0.26567063 0.1485895 -0.48823428 -0.52970344 0.7377691 0.8237747 1.0129789 -0.92853993 0.28373384 -0.19213358 1.0558817 -0.18950269 -0.7229241 -0.43619362 0.44788137 0.7181751 -0.43157393 -0.14703585 0.6604083 0.5209302 -0.052255638 -0.45239344 -0.2992889 0.636905 -1.2208582 0.4767682 0.10178876 -0.24914843 -0.58838016 -0.0621852 -0.29842466 -0.001777029 0.9947253 0.627388 0.5800633 0.04146729 0.21699652 -0.768614 0.17722371 0.42386168 -1.0575548 -0.33537325 -0.30330724 0.95703053 -0.78089464 -0.47638616 -0.5039928 -0.0007777483 0.4116478 -0.112875134 -0.038639646 -1.0830992 0.19864038 1.3817525 -0.84275806 0.19845574 -0.11507238 0.43056586 0.03202908 0.35776997 0.26973045 -0.5189582 0.063886255 -1.1549299 -0.38638654 0.7463818 0.8245094 0.039637268
594 0.18810311 0.2551072 0.40882483 -0.123407826 0.28584924 -0.7537781 -0.17430528 0.017615147 0.74814814 -1.3923283 0.4733344 0.13941333 0.34682626 -0.02923897 0.6390205 0.27771223 0.96231705 -0.73030615 -0.10016442 -0.26425976 0.081341036 0.9412015 0.9260283 0.045022994 0.12141873 0.7144316 0.5273628 0.9127622 0.010443498 -0.33805707 0.024913358 -0.22082523 -0.045155227 -0.3485108 -0.046469152 -1.1897826 0.07317002 -0.89284104 0.619204 -0.056552052 0.305934 -0.49003115 1.228022 -0.46570393 0.032391086 0.46667013 0.041731793 0.5734134 0.7620325 0.46674353 -0.3653264 0.27866676 -0.07350431 -0.43973807 -0.5006648 1.0433098 1.7952574 0.121276595 -0.052603535 -0.65031445 -1.0330884 0.25631574 -0.73300815 -0.024863768 0.76054925 -0.043845892 0.9700656 -0.59760803 0.72993594 0.5077871 0.36781216 0.14639561 -1.4111209 -0.376385 -0.90927315 0.2770771 0.058706168 0.33413184 0.323276 -0.012506776 -0.055700697 -0.32671484 0.570755 0.86894745 0.3771572 0.12536915 0.39421403 -0.073118724 -0.8896989 0.5549902 -0.41968623 -0.19518502 -0.13165161 0.8463546 -0.15030964 -0.4492548 0.1406303 0.074306324 0.6165365 -0.022620972 -0.26740342 -0.49709412 -0.32398325 0.9130208 0.69642854 -0.5277549 -0.020718465 -0.6789653 -0.68114936 -0.28383636 0.14884722 -0.3946415 -1.497821 -0.19515508 0.36144403 -0.5728298 0.6575046 -0.25641 -0.38159314 -0.7255304 -0.2154594 -0.61857593 -0.16306877 -0.84094095 -0.090401344 0.8673515 -0.6272768 0.82244354
1599 0.20943196 -0.67038876 1.2276005 0.86239326 0.14488527 -0.5908362 0.4727713 -0.09932005 -0.91100234 0.72527057 0.10790428 -0.28774023 0.010933095 -1.1278684 0.009640933 0.044904713 -0.7783726 0.33609056 -0.6972545 -0.23018609 -0.21189924 0.24984144 0.82676935 0.14290123 -0.8705388 -0.0086766705 -1.0332123 0.6667921 -0.5584108 0.07549406 -0.5124737 0.13836253 0.22005403 -0.19771527 0.27530122 -0.4685754 -0.9330152 -0.27298406 -0.036787607 0.30813888 -0.08612239 -0.61931837 -0.9228836 -0.0047542937 1.3027132 0.4079889 -0.6379796 -0.7190616 0.21789466 0.6668347 -0.97783345 0.418786 0.8342328 -0.07159787 0.0781282 -0.5574651 0.7899361 0.2399734 0.1718252 0.0431138 0.37703457 0.08277068 0.44750786 0.02922707 0.047376353 -0.44014683 -0.008971023 -0.5377814 0.33018404 0.09323836 0.2776122 0.07628392 -0.25745744 -1.0301213 0.6879124 0.45338207 -0.47028592 -0.6405541 0.6932295 0.86765915 0.25518948 -0.23332568 0.4473517 -0.4281818 0.63926226 0.39842382 -0.48974073 -0.19023448 0.7083025 0.74557054 -0.26931846 -0.7719234 -0.5048776 -0.6372807 -0.34234905 -0.035609264 0.092689134 -0.38279498 0.6885193 -1.1667632 -1.472768 -0.14418562 -0.46972415 0.3256887 -0.65929884 -0.4851428 0.12895505 -0.67831796 -0.7729903 -0.65016615 0.05145472 -0.5708856 -0.33203328 1.1739055 -0.42101473 -0.94694704 0.91116077 0.18091755 0.6086084 0.6927413 0.9628076 -0.371188 -0.45273456 1.2895399 -0.012025508 0.6270403 0.48179388 0.9360426
382 0.49965945 -0.06449943 0.7464631 0.32495314 0.29639268 -0.26675472 -0.76463085 -1.0839565 -0.21849495 -0.41585422 -0.08000871 0.15132388 0.28085333 0.7147093 0.6428878 0.16515578 0.014376535 -0.08710439 -0.24248317 0.53952616 0.8565786 0.7063072 0.37317014 -1.2404933 -0.92844546 0.58742154 -0.5652436 -0.050427053 0.09814871 -0.77989954 -0.12341876 0.9603497 -0.7144059 0.106660224 0.8545813 0.7458714 0.12865782 -0.73603874 0.5503142 0.13395284 -0.1956054 -0.49090803 0.30626103 -0.2921404 -1.0113289 -0.43491662 -0.5295483 0.08800041 0.061279424 0.5656382 -0.50543034 0.105277054 -0.009539145 -0.6085208 -0.86893433 -0.2752298 0.17498796 0.7508191 -1.42076 0.45299628 0.7902273 0.25984204 -0.22274354 0.69603723 0.65392905 0.4782559 1.0860901 -0.4856145 0.82482344 0.41040996 -0.35098666 0.7219635 -1.9372263 -0.19976288 0.49710637 0.090416916 -0.22737285 -0.48572457 -0.58348334 0.46392393 -0.5114578 -0.18140131 0.32763696 0.4965861 0.90777135 0.2362495 0.8200913 -0.7242507 -0.9029441 -0.027054345 0.15728618 -0.5042618 -1.3367896 -0.3209546 0.7245505 -0.28900918 0.7317798 -0.88656867 0.6650281 -0.36611518 0.5026412 -0.06613205 0.815595 1.1059005 0.101748 -0.8849464 0.03958061 -0.05978885 -0.014893431 -0.263912 -0.38295418 -0.94256014 0.14698137 0.03949931 0.38561577 0.22468777 -0.33131388 0.26977482 0.70749277 -0.06319506 -0.24590823 0.33237055 -0.24521306 -0.738464 0.7338531 0.95453393 -0.36513093 0.32790697
1104 0.0594698 -0.66432875 0.65442985 -0.12300155 0.8740642 -0.8600495 -0.31315175 0.45901677 -0.16017045 -0.003476022 0.89709246 0.2912046 0.26699895 0.1038599 0.7721846 0.12675071 0.5719613 -0.4422396 0.25793594 0.54929584 0.02294244 -0.0077484255 0.07999279 -0.685213 -0.17041515 0.3652517 -0.15146276 -0.6273698 -0.70361865 -0.713651 -0.41057694 -0.17095566 0.3383279 -0.32801017 -0.7925761 0.65451026 0.23745607 -1.8236054 0.94778764 -0.47511873 -0.25830328 -0.22524866 0.010355589 -0.52400243 -0.7934996 -0.29879376 -1.217612 0.64057976 0.3545449 0.051169958 -0.96475774 -0.57334894 1.0709904 -0.66062504 -0.175022 -1.1899438 0.8413654 0.9415191 -0.547312 0.02475514 -0.0021352526 0.7199103 -0.7986933 0.1747377 0.35901108 -0.10564881 0.010470766 -0.6436644 -0.13548788 -0.041188475 0.2532035 0.06976248 -0.8349642 -0.33606026 0.17388321 -0.27253997 -0.90405774 -0.20623022 0.0031447501 0.8761909 -0.3458049 -0.9443449 0.62663573 1.1366117 1.0353203 0.57520974 -0.2013675 -0.69744664 -1.3289752 0.28070793 -0.29920074 -0.5628176 -0.397095 0.63585913 0.39430463 -0.33292094 0.5635489 0.21179605 1.0660037 -0.18252805 -0.245049 -0.21077125 -0.19652636 -0.07274721 0.11755003 0.38109204 0.15226789 -0.4444212 -0.56134224 0.68215114 -0.2249029 0.11488664 -0.21692865 0.6465665 -0.46288633 -0.0065929173 -0.6322445 0.7250807 0.37843755 -0.45383814 0.4369149 -0.8232503 -0.27584678 -0.83378524 -0.49856287 0.8068631 0.8647621 0.85775375
199 -0.075031765 -0.97102964 0.141576 0.20780735 0.20781182 -0.6260556 -0.17438757 -0.14655408 -0.3790728 -0.4713963 0.40445626 0.28065664 -0.01819188 0.12460253 1.107846 0.7155612 -0.123722486 -0.79637444 0.684487 -0.8871466 -0.9480042 0.69932574 1.1332178 -0.39601496 0.25357416 0.89249927 -0.23606932 0.26278034 -0.34217212 -0.58597463 -0.801025 -0.15614937 0.5643682 -0.08566158 0.3112296 0.33974403 -1.0063338 -1.6947433 0.11618286 0.11331866 -0.5483366 0.2845319 0.41613346 -0.95441943 -0.043290623 0.112403624 -0.737928 -0.25773144 0.95789033 0.3986263 0.1307765 0.45296374 0.6646613 -1.0927871 -0.8213511 -0.02502992 0.3381328 1.1064328 -0.9534417 0.06829481 -0.2858779 0.61835676 0.29110995 0.42899296 0.2128969 0.6145049 0.36314836 -1.1437656 0.4088143 0.56686413 -0.43141624 0.41966364 -1.177285 -1.0698323 -0.016042588 -0.4385976 -0.18793018 -0.1285251 0.3835905 0.8200988 -0.039680384 0.0055830167 0.762868 0.27322888 0.9303362 -0.30164143 -0.13308072 0.06999788 -0.7571134 0.37686267 -0.87725043 -0.4930411 0.43682808 1.0577255 0.56163704 0.74120843 0.065928206 -0.023329144 0.6061036 -0.73410964 -0.100123644 -0.61471736 0.5261835 0.24660692 -0.06694607 -0.14214423 0.16192539 -0.14990018 -0.43406442 0.056252703 0.29907283 -0.11003349 -0.15733755 0.5334654 -1.1466184 -0.06759573 0.16271494 -0.63054293 0.10336535 -0.49985975 0.3367805 -0.63705605 -0.70363504 0.14351025 0.9355058 0.016219608 -0.08297107 1.0083321
203 -0.21094185 -0.43298736 0.089976974 0.9482651 0.15585218 1.0531367 0.2879256 -0.47499207 -0.51804364 -0.60089797 0.65134895 0.23042537 -0.13417752 -0.82210964 0.4518262 0.094466045 -0.85763985 -0.04551831 -0.13798511 -0.15564616 0.1506134 0.042903166 0.25242546 -0.5111145 -0.45826086 0.20185831 -1.0463368 -0.016129859 -0.073097244 -0.031547822 0.5697641 0.7526345 0.30124626 -0.39918396 -0.06636829 -0.24202083 0.39914915 -0.43614385 0.4377854 0.120220855 0.5843798 -0.9829601 -0.40542984 -0.591686 0.05650139 -0.8702579 -0.22815683 -0.06234966 -0.3892547 0.03256839 -0.8025132 -0.6319502 0.045582637 -0.16844176 -0.7675415 -0.7734942 0.31901553 1.3449639 -0.20628172 0.2453897 0.524061 -0.032173384 0.1409587 0.63223 0.16044512 0.7313878 0.5860063 -0.18329753 0.21493757 -0.50583917 0.17207323 -0.0975697 -0.1927549 -0.6608635 -0.19690679 0.23971815 0.05680877 0.05349394 0.8670738 0.5958752 1.3608192 -0.3220041 -0.33376768 0.6034915 0.4331158 0.9302717 -0.023534153 -0.3717324 -0.23790619 -0.050028834 -0.51948726 0.15916207 0.35768712 0.100694716 -0.41372606 -0.27490902 -0.28261173 0.14421615 0.08664529 -0.14971891 -0.6864633 -0.25926465 0.41065553 0.4351356 -1.0132095 0.27264717 0.45801738 0.8086125 0.6078034 -0.35670018 0.124617346 -0.7257384 -0.5669071 0.7339477 -0.032740723 -0.63264155 1.6158572 0.88700724 0.43791354 1.1258842 -0.5733548 -0.66403 0.111196615 -1.157352 -0.83602303 -0.11143567 -0.9267337 0.016947096
506 0.27584863 0.31764707 0.42642856 0.204455 0.46480247 -0.30771667 -0.86832243 0.7152154 0.26061308 -0.3105188 1.0269536 -0.0153073305 0.04712702 0.036728486 0.43579215 0.72678304 -0.5000129 -0.24296704 -0.082874075 -1.1306384 -0.5949892 0.072930776 0.48267075 0.20094064 0.49207067 -0.16223297 -0.43813938 0.6263059 0.10183315 0.61082226 -0.17442846 0.1487678 0.03758709 -0.4368672 0.71640855 -0.884188 -1.0777588 -1.0038161 0.54603124 0.47285753 0.29958054 -0.45671672 -0.48751873 -0.9074904 0.43011227 -0.47087818 -0.26315132 -0.63118064 0.06744074 1.2732486 -0.18008888 -0.86121196 0.20386536 0.26510948 0.48918906 -0.6921306 1.256285 0.78622055 -0.057188183 0.3072708 -0.34423646 -0.14310266 0.6671109 0.4303444 0.18771262 -0.11731149 -0.17665133 0.4244246 -0.7440067 0.30658355 0.2862123 -0.45523173 0.7057853 -0.7207213 -0.31403014 -0.30067667 0.33521494 -0.20965686 0.23406847 0.59947705 1.3710253 -0.4750032 0.65940315 0.62034476 0.5768725 0.28621113 0.3912178 -0.46784854 -0.44350502 0.014692792 -0.33570585 -0.01130244 0.5169131 -0.25694585 -0.19879785 0.46359012 -0.2591372 -0.5503312 0.5904396 -0.8134318 -0.64038783 -0.92374086 -0.06432022 -0.1504407 -0.41406438 -0.6800439 0.4641876 0.715513 -0.37905237 -0.5672791 -0.29094613 0.26060766 -1.1901945 0.60416865 0.2056598 -0.44374162 0.87056714 -0.40423065 0.83342403 0.79923266 0.0630842 -0.59813637 0.44564152 0.103297174 0.70185417 0.29822585 0.3765023 0.66976506
403 0.011039522 0.15865377 0.6811758 0.0013105201 0.21430755 -0.8171045 -1.1265196 0.5787604 -0.51501316 -0.24153823 -0.06212892 0.2785715 0.1952772 0.9637831 0.43961293 0.8204845 0.27084297 -0.13948826 -0.11732741 -0.6174059 -0.2407251 0.25478142 0.3791719 0.9840883 0.09933798 -0.30380353 0.17423819 0.3463529 0.026983473 -0.28809986 0.4678081 -0.8611721 -0.68688786 0.0004011304 -0.007086653 -0.5500869 -0.6872629 -1.1859246 0.12780623 0.315157 0.5173293 -1.4212936 0.40152824 -0.37250867 0.11556119 -0.693325 0.66472083 -0.2675435 0.2961777 -0.1287828 0.05175473 -0.6990854 0.3887709 -0.27045026 0.7398126 -0.8351386 1.0308237 0.20476364 0.28394216 -0.46782058 -0.1644219 0.7832515 -0.28923735 0.2941704 1.0860339 0.5053492 0.35175064 0.39292306 -0.132261 -0.122434564 0.3197252 0.0159256 -0.11535769 -0.58333796 -1.0003656 -0.0014430187 -0.5473834 -0.4207568 -0.27415237 0.16298729 -0.051771965 0.11323254 0.8173592 -0.6851323 0.6203996 -0.065098636 -0.2577823 -0.27993634 -0.30250913 0.7740717 -0.52224123 -0.36703098 1.1631186 0.62964624 -0.26067895 -0.9532832 0.30035365 -0.49049002 0.9391672 -0.60147256 -0.673832 0.12485376 -0.95724994 0.23852652 0.04541802 -0.97024125 -0.8223788 -0.2696734 -0.32089835 -0.8924593 0.076691784 -0.4482017 -0.50324804 0.48773924 1.131763 0.074519604 0.47632277 -0.52150047 0.75407326 -0.08542492 0.41172764 -0.30691758 -1.031285 0.21682748 0.38212785 -0.021662494 0.48904192 0.48786077
1400 0.5335515 0.074326664 0.30275065 -0.53092617 1.0473982 -0.799452 0.22566018 0.24422398 -0.3044797 -0.26370794 0.9821495 -0.340024 0.18171267 -0.109783456 0.55849737 0.5622403 0.069966614 -1.0358496 -0.037556052 0.041673187 -0.28912452 0.34602875 0.22158022 -0.6210633 -0.21432772 0.25327206 -0.29969108 0.9083596 0.3128034 0.35898656 0.86353105 0.5093224 0.04926344 -0.075946085 -0.6052219 -0.3563785 0.35433695 -0.9495669 0.5019102 0.5941031 -0.18283363 0.095625944 0.8641886 -0.694217 -0.4793238 0.31984833 -0.22180983 0.054335948 -0.6870703 0.08590709 -0.45676664 -0.85073346 0.05155677 -0.18611118 0.055388335 0.92825216 0.47504148 0.0044103223 -0.5606767 0.77029705 -0.12562443 0.36032015 0.38866714 0.21567343 -0.3449396 0.1553559 0.22024062 -0.7968148 -0.32152063 -0.14542004 -0.26829168 0.1433032 -1.3430454 0.24211891 0.41642663 -0.7549111 -0.17424873 -0.59497625 0.60772413 -0.60599154 -0.07547043 -0.105046704 0.12667055 0.31242317 -0.11869721 -0.18481782 -0.51829046 0.51242626 -0.1361411 1.6062928 -0.5375112 -0.80409396 0.010418564 0.24410523 0.6011797 0.28302637 0.10340841 -0.5959494 0.2711108 0.046913262 -0.60596687 0.04534781 -0.68873435 -0.10524941 -0.31476474 0.11802577 0.26228058 -1.0128287 -0.69157875 0.40436524 -0.5148158 -0.18524358 -0.4494412 0.49781248 -0.22048436 0.049853805 0.5425699 0.14839742 -0.8921568 -1.1814498 0.39801338 -0.36486703 -0.58923286 0.73131174 -0.04116111 0.18531157 -0.72562325 1.2406546
109 -0.024535716 -1.1786578 0.38854232 0.50626487 0.8680471 -0.06795593 -0.4966689 0.60412055 0.3114412 -0.13899054 0.31189072 -0.3109321 0.12147978 0.7168962 0.6399802 0.2301098 0.5793093 -0.18194923 -0.62159216 -0.2783987 -0.58780074 0.752254 1.3597064 -0.48599237 0.29032293 0.60379887 0.19088818 0.59646165 -0.7734313 0.08998228 -0.123475485 -0.50775284 0.38653436 0.6341551 -0.2416184 -0.23196876 0.19863069 -1.1466138 0.30787843 -0.33498862 0.26304555 0.11974541 0.71200836 -1.1365516 -0.16734685 0.23316413 -0.74328583 0.37304005 0.22026609 0.59681684 -0.98850936 -0.5135156 0.6246883 0.6381169 0.7712506 0.46619758 0.024943834 0.2097541 -0.40770793 1.0961615 0.6751957 -0.036767583 0.26011378 0.33961046 0.80659974 0.43516922 -0.100610256 -0.6401038 0.46069604 -1.1504385 -0.07820457 -0.5674575 -1.701931 -0.2742628 0.62709594 -0.23032653 -0.81009054 -0.7119416 -0.029669875 -0.78344077 -0.2605827 -0.52348745 0.7104565 0.3474503 -0.49217898 -0.637671 0.408698 -0.6476591 -0.14028753 1.4340203 0.2267737 0.20299736 -0.18137105 0.23435198 0.2855573 -0.61042863 0.46728867 -0.78053933 -0.47099885 -0.21348326 0.21433538 -0.28742862 -0.7343795 0.59276706 0.12963806 0.17720038 -0.44593972 -0.1630814 -0.38008714 -0.5391087 -0.32743976 -0.62640226 -0.94685066 0.52298707 0.45993176 0.04341322 0.8676738 -0.37090683 -0.029009901 -0.36197767 0.0074940072 -1.0686829 -0.03319897 0.2074718 0.31114176 0.7610336 0.2665088 0.11207522
631 0.46197322 -0.82993424 0.029843342 0.9669254 0.77095526 0.74718076 0.30440035 -0.5488085 -0.46571574 -0.31340423 0.280055 0.79511696 0.114451334 0.29448792 0.33511138 -0.11214081 -0.9413153 -0.8026512 -0.50402814 -1.1338513 -0.089497894 0.39410537 0.69607 -0.74565154 -0.5695716 0.034148175 -0.8040816 -0.16748042 0.104381874 0.58067715 0.45220065 0.5690942 0.71230257 -0.48502654 0.0038688004 0.29406568 -0.023982728 -0.5751124 0.19748917 0.35695145 -0.08626316 -0.50142324 -0.25928348 -1.3819239 -0.36963493 -0.25172353 0.42000198 0.23295778 -0.72871333 -0.5369994 -1.1433868 0.029087674 -0.38737342 0.047058225 -0.12891224 0.19158292 -0.86365974 0.32332882 -0.026295276 -0.30314517 -0.013964038 0.0015940309 0.8821015 0.775429 0.005874654 1.2476351 -0.3223825 -0.33061796 0.8084513 0.4950847 -0.5630883 0.48789907 -1.1678894 -0.32341886 0.48282948 0.18348804 -1.1648746 -0.5344589 0.9642176 0.50235164 0.9770578 0.24085633 0.72930634 0.48149964 0.84136474 0.14874561 -0.3434816 -0.3773216 0.036055695 0.8216452 -0.5323538 -0.014320927 -0.08572781 0.8221859 0.3295885 -0.5546469 0.28790787 -0.48381087 0.4966597 -0.6137761 -0.26069036 0.2201921 -0.095456555 -0.13954459 -1.6422405 -0.30682936 -0.18220018 0.62190604 0.03771689 -0.17339967 0.26345903 -0.8879346 -0.020963382 0.37519047 0.15291706 -0.62698895 0.95344776 -0.22771563 0.08891909 -0.479932 0.5391526 0.5454406 0.019051759 0.18947151 0.17909516 0.38397372 -0.50200224 0.39645776
1582 0.022702469 -0.062823996 -0.36595327 0.0019874542 0.46967494 -0.124138966 -0.18326771 -0.4131646 -0.16013974 0.14618243 0.355405 -0.26013726 -0.02103394 -0.1390116 0.6483318 0.5997459 -0.01838567 -0.31951433 -0.24548197 -0.7466425 -0.21237347 0.31763884 0.048030775 -0.49197078 -0.50805235 0.5415515 -0.48840672 0.5956893 0.21315165 0.0020339263 0.8270288 0.183961 -0.37340096 -0.38989154 -1.3050711 -0.0033762236 0.027210336 -0.9259098 0.7110726 1.0635961 0.13616122 -0.09410534 0.24437572 -1.4305371 -0.76396036 0.111509085 0.37381527 -0.026070874 -0.45976913 -0.10455695 -0.20006856 -0.8354102 0.12027772 -0.13056608 0.231501 0.53385895 0.26435524 -0.58190215 -0.40634975 0.6341384 -0.022339385 0.05110242 -0.42776427 0.36904424 0.5008452 -0.18030445 -0.21702793 -0.8565336 -0.46121982 0.8177563 -0.6613473 -0.31312782 -0.7630795 0.39561054 0.3021838 -0.12098931 -0.38443223 -0.42099217 0.8412752 0.90840197 0.2056597 0.48389336 0.952701 0.50501955 -0.1696013 0.29336476 -0.018035159 0.14675494 0.08711287 0.6368105 -0.79981315 -0.17404349 0.17652175 0.28733778 0.28268558 0.1853442 -0.4905665 -0.3413113 -0.19416714 -0.30772412 -1.266727 0.40244535 0.08518058 0.3184283 -0.86859673 0.02892258 0.01446775 -0.3661256 -0.006236852 0.0754656 -0.349141 -0.024466828 -0.2749937 0.75830716 -0.43231523 0.047205154 0.56653565 -0.48108703 -0.96124375 -1.0603815 0.527456 -0.20621245 -0.17586936 1.1012257 -0.025118686 -0.40117294 -0.7267856 1.0876418
1974 0.3270607 0.42972046 0.49030197 0.12846273 0.28019574 -0.49609426 -0.028277213 1.0282655 -0.0022563708 0.27027687 0.40894935 0.15482907 0.3390765 -0.065306 0.07166287 0.47697333 0.36810964 -0.2639854 -0.56285006 -0.21599616 -0.24156421 -0.3261169 0.2490893 0.7226871 -0.3070984 -0.22194985 0.06360647 0.101557136 -0.90553904 0.32636163 0.104782894 0.17188779 -0.60980546 -0.8936074 -0.5405521 -0.0051392904 -0.19335756 -1.3129767 0.2609584 0.2222005 0.5196767 -0.079628535 -0.24385776 0.02529253 -0.68677115 -0.19955434 0.65320134 0.028166477 -0.9363407 -0.34009552 -0.49059007 -0.36296105 0.045516506 0.07458239 0.3430113 0.04725657 0.3345208 0.3681442 0.3179276 0.24715124 -0.12835427 0.7099801 -0.16136147 -0.029839305 -0.0062452042 -0.0070268996 -0.77645934 -0.42846748 -0.08784029 1.1153648 0.39803255 0.15963514 -0.62492335 0.2420819 -0.906763 -0.3562852 -0.27496102 -0.90593904 0.1218509 0.42889887 0.96124876 0.39657012 0.6342259 0.023711177 1.0247386 0.512193 -0.34471315 -0.53869665 -0.07707455 0.53478044 -0.3174542 -0.2740582 0.34253907 0.03460903 0.07533272 -0.36898196 0.046366505 -0.8409181 0.8665675 -0.49008343 -1.1964484 0.60621494 0.32639945 1.0014989 -0.5950424 -1.4100295 -0.24779813 -0.14360672 -0.70820767 -0.9067774 0.07506526 -0.90989727 -0.417332 0.42588377 -0.16318518 0.5129007 1.033774 -0.38264126 0.35898873 -0.6934332 0.09384381 -0.27745798 -0.4308376 0.23331575 0.0020770866 -0.4090879 -0.12923415 1.0222228
1383 0.35545257 -0.2949294 -0.49605748 0.74462956 1.006046 0.12298457 0.082507476 -0.3856289 0.67345685 0.3524265 0.9158628 0.14969191 0.3342857 -0.34218428 1.0198623 -0.50877285 0.11807376 -0.9342457 -0.032096647 -1.4040534 0.043617733 0.94075537 0.49072066 -0.64878595 -1.1601454 0.28186852 -0.49119854 0.50736684 0.28021967 -0.19290495 0.59076005 -0.1050214 0.118270524 -0.9126924 -0.98560715 0.53532034 0.16600795 -1.0596064 0.5136956 0.66418964 -0.42961833 0.099793 -0.17816019 -0.98089933 -0.72230977 -0.20117375 0.6442961 -0.14313573 -0.5166602 0.10290074 -0.6308523 0.17004822 0.263343 -0.30423126 0.46952674 0.4622353 -0.738422 -0.089685775 -0.41307756 0.38701048 -0.09988024 -0.12391058 -0.11677261 0.1916088 0.48009026 0.074887335 -0.5474501 -0.6000404 0.18089113 0.44440928 -0.48365903 -0.639044 -0.8172109 0.20235246 0.96969825 -0.222616 -0.6330497 -0.2055366 1.2336494 1.254291 0.4638547 -0.05719988 0.66910535 0.8006062 0.17580105 0.44311792 0.24287882 0.08415833 0.30574057 0.5852943 -1.008981 0.24318348 0.4117791 0.65307957 0.08883137 -0.12070867 -0.30108353 -0.66027635 -0.25244522 -0.35599196 -1.2511404 -0.14434537 0.42810065 0.15752397 -0.4639408 -0.39479604 0.010467348 -0.5078511 -0.05636445 -0.12907606 0.13231352 -0.54323536 -0.14545988 0.8799771 -0.15292418 -0.111835234 0.83564675 -0.6890988 -0.54097563 -0.66281444 0.50544226 -0.1266697 -0.13785349 0.5783126 -0.6314287 -0.52049965 -0.5145376 0.81952715
1009 0.17209668 -0.09955473 0.6452105 0.23848426 0.5195149 -0.66193557 0.9976787 -0.48055664 0.15894493 -0.6299216 1.1787459 -0.7939114 -0.012430979 -0.4818791 0.29036626 0.46120816 -0.37759334 -1.0228599 0.2628283 -1.3204879 -0.15313388 0.29517743 0.69623816 -0.17861213 -0.39787585 1.0540226 -0.9039558 0.68444693 -0.06337025 0.10733526 -0.4051125 0.50440425 0.46040815 -0.087846905 0.1803467 -0.99123436 0.09879951 -0.46377492 0.6542124 0.69007605 0.38259798 -0.09401643 0.5433256 -0.93150896 0.21414812 -0.19777529 -0.59788054 -0.46361673 -0.46283364 -0.04738229 0.13425338 -0.87650317 -0.3643615 -0.027647901 -0.30964357 0.2642178 0.3085693 0.22449242 -0.4059436 -0.09599346 -0.53964734 -0.6700907 0.29545957 -0.42305022 -0.4441361 -0.56836224 -0.8650547 -0.6141508 0.30060622 0.64873224 0.6436264 -0.7654612 -0.6186705 -1.3965986 -0.53114194 0.5118425 -0.23108077 -0.6950296 0.27473703 -0.5291194 1.2484441 -0.41595483 0.2359672 0.45603758 0.18897215 -0.15273033 0.1284593 -0.16764827 -0.13452037 0.6661665 -0.81528425 -0.4223846 -0.21792535 0.10228548 -0.3516155 -0.35175818 -0.60092115 -0.27730137 0.28964728 -0.9342145 -0.98811454 -0.1918911 -0.13671689 0.70102334 -0.2460288 -0.5470762 0.5548801 0.73574173 0.31225985 -0.28134564 0.18700866 -0.40560758 -1.2517053 -0.024362098 -0.68981516 -0.21237373 1.280902 -0.24258952 0.15916646 -0.29463765 0.064142354 -0.8570611 0.16020274 -0.17136261 -0.6099908 0.44841555 -0.29931208 1.0366018
520 -0.19048834 0.35686338 0.2540865 1.5133255 1.0769944 -0.25528517 0.40924326 0.5204601 -0.302382 -0.553013 1.0692288 0.08738016 -0.54839116 0.20532276 0.08330525 0.9025603 -0.21227695 -0.79726374 0.18527459 -0.6255026 0.2220943 0.80438143 -0.48955265 0.13723814 -0.12494648 -0.31197017 -0.4747394 0.062478203 -0.17758977 0.105793945 0.8092326 0.13764267 -0.12431685 0.17230755 -0.010907904 0.5960063 0.68948007 -0.17622241 0.99640894 0.67221725 0.11114288 -0.7375123 1.0437062 0.059977293 -0.22505444 -0.41971284 -0.22596437 0.59340525 -1.19426 -0.61880594 -0.6133357 -0.9451774 -0.16947632 0.40959346 0.07410622 -0.54668885 0.39948368 -0.5449427 -0.07137599 -0.18774559 0.21962768 -0.30791664 0.041814573 0.07516323 0.6694015 0.16755533 0.40703812 0.88571715 -0.56446177 0.85685176 0.3288392 -0.30545366 -0.18090032 0.19528863 -0.8397344 -0.008872398 -0.4474935 -1.0250247 -0.105447784 0.110298604 1.027343 0.031321142 0.16449158 0.65595347 0.2988109 -0.42887977 0.1935811 -0.6420308 0.28838894 0.3250342 -0.3760565 0.019777363 0.3753869 -0.45158246 1.1642584 -1.239714 -0.037212946 -0.21073864 0.96753293 -0.59054816 -1.2162617 0.23244783 -0.225503 0.23032154 -0.9320373 -0.92261714 0.8444394 0.62671435 -0.3880743 -0.119136415 0.40886417 -0.5531073 -0.44884217 0.6234883 0.54325324 0.21457474 1.2942141 -0.290805 0.40865186 0.25867563 0.4319144 0.26555088 -0.4654671 0.23198907 -0.37745792 0.20394948 0.46951786 0.65859216
1783 0.08986291 -0.621513 -0.053327255 0.8578259 -0.047812026 -0.49653265 -0.110573724 0.28312016 -0.38399628 -0.82655257 0.4365954 0.18330091 0.24847887 1.0602162 0.62034357 0.617444 -0.39186546 0.10633879 -0.47913444 0.41999575 1.0715042 0.16065986 0.41783538 -0.7946068 -0.45232105 0.12855363 -0.2444718 0.1434009 -0.15632528 0.07566024 -0.47578016 0.41040775 0.1878543 0.13077286 0.16051523 -0.4029217 0.8109823 -0.2848324 0.655639 0.65434283 0.30640924 -0.0629104 0.63159364 0.1325482 -0.47348976 -1.2899475 0.096031584 0.5803864 -1.08132 -0.019020673 -0.6946078 -0.7267278 0.33070594 0.08561531 -0.07796439 -0.2392669 1.1457198 0.16731298 -0.61758965 0.5189414 -0.25995377 0.6410608 -0.06049971 0.1176141 -0.21769796 0.29411316 0.7656849 0.18995064 0.61693025 -1.3244184 -0.093168125 -0.85776573 -1.3075902 -0.51476544 0.22768132 -0.091288194 -0.77404004 0.3306042 0.027058244 -0.013360898 0.21844551 -1.0431652 1.2205716 0.7625252 -0.34895036 -0.43335298 0.6339848 -0.6964289 -0.5640585 1.0751532 -0.10184682 -0.6779219 0.17408419 0.19348189 -0.36500952 -0.4372966 -0.43299723 0.19641174 0.23795266 -0.032353714 -0.54457366 0.16183409 -0.18273516 0.32850567 0.2406609 -0.1012546 0.5129522 0.24861872 -0.1252609 0.07183492 -0.505317 -0.085633725 -0.094459645 -0.44115496 -0.39294 -0.30411068 0.63446796 0.7865359 0.5091165 -0.23497291 -0.52653044 -0.68000495 -0.1664115 -0.76912814 -0.17284274 0.6477689 -0.16002089 0.96607536
668 0.54286927 0.2112308 0.23028809 -0.031269286 -0.32437047 0.800583 0.07526801 -0.0799158 -0.4029161 -1.1638618 0.4417836 0.21078587 0.25751093 0.3489903 0.919022 0.41266343 -0.4596965 0.3955136 -0.46407762 -1.0520049 -0.2921454 0.22576731 0.6548681 0.3236554 -0.40335044 0.21391733 -0.49823597 -0.26219964 -0.17254886 0.084529564 1.0803654 -0.057821356 -0.84466153 -0.0634773 0.38286284 -0.022891805 -0.18100612 -0.49241543 0.018944401 -0.05293954 -0.29977626 -0.5630548 0.75357634 -0.390772 -0.26029477 0.55369484 -0.12385967 0.510873 -0.41264465 0.6153647 -0.5038789 0.42892066 0.32087544 0.33621678 -0.46397337 0.117997564 0.46462864 -0.15480117 -1.0444555 -0.65829694 0.6751738 -0.74734324 -0.32007086 0.5421187 1.1248533 1.0785567 0.84105897 0.28808847 -0.8366612 0.4456203 0.19852063 0.2510042 -1.0836607 -0.057412174 -0.1081383 0.3706962 -0.76789814 -0.18539126 0.5336852 0.35484758 0.4413358 0.5286731 -0.18144633 0.33426252 -0.53597975 0.25312734 0.25275925 0.79339355 -0.31980187 -0.05744247 -0.5460036 -0.1701158 0.13915034 0.7753052 0.6928811 0.35690776 0.0033352142 -0.0029969506 0.5217174 0.58169293 -0.42992234 -0.12255666 -0.3676326 -0.055190522 -0.7421998 0.18433228 -1.2082311 0.16742189 -0.11072604 -1.4656321 -0.253218 -0.5503545 -1.0289254 0.3742014 0.2521843 0.011758524 1.2662654 -0.3036903 0.7608706 -0.5628405 -0.29719862 -0.00012385815 -0.9742867 0.72184557 -0.13040897 0.17384851 -0.2153839 0.21253204
1693 0.3199204 -0.24456774 -0.03860952 -0.049904574 0.9218655 0.15111679 -0.033834197 -0.21301691 -0.27351046 -0.45571473 1.1758628 -0.7293121 -0.49408135 0.23822874 1.2042971 0.29306492 -0.12346359 -0.034844507 0.041055296 -0.99121225 -0.45242947 0.46021694 0.27494308 -0.54488075 -0.56754416 0.8056745 -0.23276976 0.4317802 -0.056218363 0.5599726 -0.16439791 0.9063009 0.03461723 -0.52786344 -0.45284733 -0.65763676 -0.07301946 -0.10587381 0.12267349 -0.05886463 -1.1856637 -0.0244091 0.18951665 -0.6626523 -0.23611927 0.1517352 -0.4392133 -0.28090277 -0.34258717 0.2853516 -0.004009001 0.24440289 0.9717174 0.19699857 -0.26920804 0.3099985 0.85493505 0.2442005 -1.04517 0.29026598 0.037077427 0.17759661 0.25706407 -0.373089 0.5455712 0.14041619 -0.11149579 -0.20610033 -0.20958827 -0.5323456 -0.15582539 -0.43091762 -0.71654844 0.43433836 0.06370093 0.018263815 0.28049576 0.043432947 0.677529 0.9790882 0.043009266 -0.22202902 0.7681948 0.33964312 -0.30805874 0.4525346 0.51453257 0.8459132 -0.9043252 0.64124656 -0.8887061 0.1355675 0.5557341 0.16692425 0.09652629 0.21570724 -0.7187324 -0.5569869 -0.40387464 -0.7598103 -0.5545691 -0.56388015 -0.4627189 0.23699449 0.0777876 -0.2215854 -0.063596144 -0.22419803 -0.40052634 -0.5044468 0.0035944008 -0.7212703 -0.9727886 0.001715184 -0.5615344 -0.12774357 0.22925907 -0.2300519 -0.13642345 0.49442798 0.2833268 -1.3494233 -0.44015026 -0.6569609 0.2677672 -0.30592224 -0.74191564 0.83767337
1680 0.42075697 0.34644383 0.4929311 0.01077478 -0.4487659 -0.26442507 0.32898343 0.20016296 0.114667594 -0.20762207 0.25992107 0.27577767 1.0014789 -0.5898132 0.16972503 0.11454437 0.087880395 -0.20600417 -0.519391 0.54714006 -0.3298891 -0.28145313 0.3146125 -0.185056 -0.49141005 0.2622524 -0.7621889 -0.5024969 -1.222777 -0.43610927 -0.704514 0.2278848 -0.39336783 -0.6960819 0.505848 0.030709978 0.1508182 -1.3251628 1.1250818 0.28974074 0.67506343 -1.0371037 0.6251453 0.54596305 0.15081367 0.44597587 -0.9888307 -0.001567311 0.07543827 -0.3715881 -0.24571474 -0.028820533 -0.013227248 0.12190197 -0.45279095 -0.1588355 1.1241188 -0.26029155 -0.089408316 -0.39481682 -0.49984953 -0.58850884 -0.40507612 -0.38457024 0.21946546 0.11706648 0.9464415 -0.003887184 -0.8062903 0.8032941 0.95645136 0.24936798 -1.6685383 -0.72989464 -0.40406907 0.0884618 -0.17170517 -0.12973268 0.5903665 -0.4354345 0.22884028 -0.44880503 -0.37811282 0.19763671 0.67428297 0.61515003 0.068837605 -0.28558215 -0.1381376 0.10172523 0.17288727 -0.9541875 -0.31212586 -0.0693066 -0.0067557963 0.8826157 0.30137062 -0.55057985 1.4500127 0.74652004 -0.20220433 -0.22911507 -0.028181013 0.7814867 -0.037396252 -0.43721122 -0.23024268 -0.36405087 -0.07636919 -0.3360792 -0.24105199 0.4380419 -0.22177204 0.25643152 0.41964045 -0.40958327 0.7375338 0.56831443 0.22005439 -0.17749462 0.7281385 0.33158448 -0.075980924 -0.5408256 -0.7323418 1.0404336 0.72316796 0.75277716
1901 -0.026292391 -0.22429593 0.6029748 -0.18481578 0.10789919 -1.2253587 -0.20845614 0.12916553 0.16113496 -0.46465316 0.19807343 0.016883485 0.3645375 -1.11836 0.18499622 0.43087906 -0.26634884 0.26200777 0.47256938 -0.08362055 -0.28934327 -0.01706564 0.033425372 -0.5123404 0.22808485 0.19577117 -0.68926376 -0.059792195 -0.2860484 -1.3208138 -0.30517924 0.96540904 -0.09095368 -0.91596645 0.5376304 0.19341348 -0.023994913 -1.036796 1.3309214 0.6862812 0.12816992 -0.57211584 0.21658456 -0.74073803 -0.5882917 0.8886539 -0.7445381 -0.82665855 0.5857586 0.010732971 -0.3776749 0.024115182 -0.1054418 -0.32695082 -0.007830208 -0.045440674 1.2768564 -0.15102856 -1.1687423 0.36587596 0.49443695 -0.18527107 0.45705044 0.13268952 0.09749179 0.3981627 1.1815087 -0.413565 -0.14885026 0.14517131 -0.06498769 -0.27634943 -1.0390513 -1.0385886 -0.2817883 0.043973684 -0.20386414 0.2737516 -0.015823672 0.4293896 0.3958523 -0.17964554 0.16820775 0.26243275 0.6513572 0.12960084 0.1351329 0.6818279 -0.85404766 0.7484183 -0.5410469 -1.1616874 -0.9566272 -0.024265701 -0.40663624 0.39551976 -0.53574187 0.3075389 0.78626883 0.35936043 0.40567088 -0.06721625 -0.38819307 0.04731556 0.54507446 0.7194703 0.77112955 -0.37132707 -0.056808095 0.13694592 -0.24716575 0.2110162 -0.4388179 0.65834856 -0.97206604 -0.4646605 0.42590982 -0.012650825 -0.07204674 0.069509536 0.12617116 -0.62600183 -0.17469463 -0.43867135 0.23291771 0.44824427 -0.35537118 0.67682797
638 -0.14498721 -0.37943238 0.7083184 -0.023720264 -0.020623347 -0.5753535 -0.54281753 -0.13700445 -0.22766143 0.03962015 -0.39521745 -0.46334046 0.33375645 -1.2021537 0.46598753 1.357804 -0.5229816 0.70555526 0.5169582 0.3587177 -0.07087386 0.38689893 0.61271757 0.4184081 -0.23026529 -0.22713353 -0.016858984 0.0035851058 -0.8549235 -0.14534351 1.0716443 0.24831635 -0.7306638 0.352778 0.19281232 -0.15252608 1.0093493 -1.078428 1.3407956 -0.19373742 0.09452785 -0.14399782 -0.10386676 -0.25720358 -0.79942733 0.61237466 -0.005780725 0.39963675 -0.019797133 0.16180383 -0.80817187 -0.16957974 -0.25274947 -0.271815 0.1513988 -0.56917703 0.86105376 0.18479544 -0.5082656 0.6943386 0.91553545 0.08950828 -0.3208162 0.7038693 1.0727072 0.13497564 0.030615015 -0.18765794 0.6021186 0.50673157 -0.4537825 -0.3924119 -0.8914271 -0.47937274 -0.20129956 -0.4423124 -0.43115708 -0.14149417 -0.6304493 0.8649448 0.3691178 -0.66017085 -0.2528222 0.78514266 0.2725024 0.5732561 0.6926921 -0.3194534 -0.68255043 0.6665488 -1.0074283 -0.07070602 -0.5458099 -0.52332544 -0.20777787 -0.8821943 0.334297 -0.099741995 0.7332909 -0.60671854 -0.09300936 0.69606644 0.5647222 0.507822 -0.6683612 0.4515354 -0.1650519 0.23887122 0.42289895 -1.3488659 0.13542381 -0.09549556 -0.44406548 0.22848937 0.5087288 -0.24106659 0.97783655 -0.370512 0.33648297 -0.16685493 -0.994411 -0.1756725 0.021928912 -0.36362535 -0.19377701 -0.10832454 -0.03113136 -0.4304872
491 0.059436202 0.041120835 0.888569 -0.20046683 -0.19893363 -1.4421084 -0.3667415 0.547526 -0.4635599 0.7790229 0.5483192 -0.060822427 0.49898648 -0.9282119 0.02061963 0.34214485 0.29911202 0.17592385 -1.0910378 0.4217489 0.270568 -0.0580461 0.027788593 -0.027799841 -0.12572302 -0.87883675 -0.40895343 0.46181947 -0.010765247 -0.35730806 -0.29192612 0.3220815 -0.6841758 -0.1721419 0.7529326 -0.071443796 -0.5377609 -1.5321947 0.301815 0.58643645 0.28559005 -0.28680563 0.13275634 -0.4577648 0.5616205 -0.10638395 -0.27685985 -0.79429317 0.85750437 0.9779837 -0.23683675 -0.061841894 0.7176115 -0.34944013 0.40538228 -0.46379593 1.5795388 -0.4599034 -0.55743754 1.0050763 0.6397388 0.2053506 -0.0594342 0.056792405 0.33221883 -0.6356448 0.70060897 0.33209875 -0.68373036 -0.27267492 -0.14517838 0.57566726 -0.44134706 0.074548796 -0.008735015 -0.94283485 0.18657808 -0.64717144 -0.41881856 0.9563315 -0.29795814 -0.52513796 0.015927799 0.10381489 0.83589786 0.59863836 0.27292535 0.08983407 -0.07483523 -0.13761902 0.35986584 -0.8128409 0.22995912 -0.8322684 -0.012339915 -0.011866022 -0.38034496 -0.8442603 0.69721067 -0.18867688 -0.40910134 0.33184025 -0.06197032 0.31841168 0.12336265 -0.64134353 -0.19252512 0.040022466 -0.9642491 -0.8580577 0.1389432 -0.07554684 0.062361006 1.0181775 -0.43858802 0.018071784 0.35568798 -0.060422294 0.9795951 0.1777488 0.01610972 -0.35973936 -0.64591575 0.43580657 0.94278836 0.36628696 1.00142 0.27522406
233 -0.16728137 -0.45850772 0.6469679 0.38059786 -0.14535485 -0.5953588 -0.5127477 0.1127972 -0.6918074 -0.07221643 0.5743102 0.19831368 -0.11839709 -0.3646176 0.042104453 0.75922334 -0.41682303 0.57544106 0.40946993 -0.47964105 -0.8471424 0.93785644 1.7214018 0.05526899 -0.104205795 -0.08011787 -0.18040885 -0.009745577 -0.6829141 0.01593288 0.1822984 -1.1907488 0.6306238 -0.13903718 -0.061706647 0.18594982 -0.22914629 -0.8671921 0.37611783 -0.76756024 0.44886392 -0.8116347 -0.16461116 -0.65823615 0.9165877 0.68791324 -0.39575925 -0.3789111 0.5953601 -0.38855383 0.49093792 -0.17780636 0.21279755 -0.23494199 -0.10907518 -0.42500907 0.9310817 0.4285137 0.5653575 0.20774958 -0.4316953 0.2616487 0.3606028 -0.74754184 0.6895593 0.29660243 -0.07084353 -0.41491035 0.4669663 0.300981 0.6288893 0.5487013 -0.27681464 -1.0466647 0.40475315 -0.7110108 -0.63580114 0.31264237 0.13290915 0.8915906 -0.01602962 -0.80377454 0.35317472 0.1892045 0.0657925 0.44788638 -1.2154758 -0.17297748 0.07067377 0.49114907 -1.0222874 -0.41321918 0.08079248 -0.23375572 0.4958468 0.015722759 0.98337305 -0.4579393 0.97768265 -0.4895487 -0.44359124 -0.49167556 -0.82820576 0.31269237 -1.120339 -0.08276081 -0.5198302 0.31995255 -0.15950003 -0.7537509 -0.0762517 -0.10406687 -0.03331335 1.0535995 0.33395576 -0.37546062 0.18357733 -0.022607902 0.56009793 0.07190488 0.070814826 0.07326268 -0.5647785 0.39376664 -0.20828004 0.74784595 0.98963284 0.09961037
834 0.41415206 -0.46275803 0.8468617 0.36479673 -0.1035818 -0.904602 0.16913748 -0.45126227 0.08757909 -0.11688885 -0.23792808 -0.123137064 0.13695772 0.28117368 0.27073246 0.3960222 -0.18616465 -0.42214644 -0.26587433 -0.50433254 -0.8909568 1.0283525 1.446938 -0.5546444 -0.51820755 0.25470123 -0.67758137 0.6559626 -0.16609137 0.20845696 -0.3597274 -1.1449865 0.34779006 0.14264348 0.30693087 -0.46217853 -0.31700504 -0.43482575 0.34235892 -0.02312573 0.5278698 -0.89880013 0.4675962 -0.4765234 1.1715702 0.42568052 -0.34210682 -0.35706282 0.5962092 -0.7561464 0.6715873 0.24946988 0.11801725 0.49771944 -0.28481257 0.6281314 0.59380716 0.2158156 -0.046694033 0.556223 -0.6999049 0.00463836 0.13314448 -0.69508207 -0.028775204 -0.111075014 0.2326546 -0.58049315 0.34080082 0.6896564 0.6872631 0.9478185 -0.890111 -0.96817565 0.23953953 -0.3784843 -0.2821199 -0.09991822 0.26195332 -0.38436157 -0.36901483 -0.25414187 0.1776636 0.1516187 0.48648402 0.48947328 -0.42940944 -0.40848857 -0.057934176 0.62399864 -0.3918693 -0.8396179 -0.006360604 -0.22921723 0.42150778 -0.49852455 0.8257645 -1.3585217 0.26387447 -0.7216942 -0.7014536 -0.51195055 -0.09785358 0.86895674 -0.5347451 -1.1507392 -0.76869905 -0.026705801 0.61776215 -0.6355857 0.6253573 -0.41617158 -0.5381531 0.5375648 0.08343618 -0.098657615 0.39143047 -0.11198462 0.0026141214 0.12422741 -0.039847117 0.7490128 -0.7131142 0.40280017 0.024046523 0.58243 0.3979018 -0.11886704
611 0.43253878 -0.29451534 -0.13183355 0.4498632 0.35837507 0.048416767 0.4790482 -0.15870462 -0.44777274 -0.3039006 0.34019196 -0.24010573 0.37855917 7.106728e-05 0.48493356 0.22760332 -0.22279988 -0.46125326 -0.1972707 -0.509998 0.069126464 0.22209124 1.0008951 -0.78225726 -0.7811671 0.6191627 -1.0822104 0.31437102 -0.34827963 -0.43498716 -1.2190158 -0.4528996 -0.21255137 0.267652 -0.75901085 -0.7008092 0.025947846 -0.72583604 -0.19632575 0.33812284 -0.05142191 -0.17478356 1.2964917 -0.57291824 0.5153268 0.28783166 -1.411206 0.0867846 -0.07140772 0.025684759 -0.054367818 0.23034692 0.78222424 0.36245787 -0.82734776 -0.043937802 0.5589324 -0.29979414 -0.91379666 -0.054521475 -0.6781427 -0.54603213 -0.060708515 -0.32417837 -0.52897495 -0.4338972 0.8703033 -0.116098896 -0.6387808 0.2803706 0.15012068 -0.48511672 -0.44948426 -0.6872296 -0.07370969 0.25925368 -0.66299474 0.04851788 0.60434145 0.11948637 -1.2291634 -0.12466357 0.35415 0.1225573 0.049801525 0.4168924 0.15624154 0.6462085 0.122232586 0.4867548 -0.9501622 -1.091915 0.77228314 0.80366933 0.4294439 0.24458332 0.08107431 -0.57207906 0.27278954 -0.33384606 -1.7955765 -0.11922653 -0.2526063 0.28254715 0.46755928 -0.5502471 0.20668542 -0.45291454 0.0420864 -0.68037087 0.15750086 0.19296208 -0.6815197 -0.01695603 -1.0510541 -0.31218085 0.6715627 0.6164928 -0.66277224 -0.26701164 0.3212733 -1.0076116 0.0018987447 0.38832092 -0.3866154 0.4080428 -0.08005513 1.0658277
1388 -0.024278192 -0.34530577 0.47330147 1.1649811 0.09940203 -0.41306195 -0.3704386 0.40312317 -0.7453808 0.42622858 1.0611423 -0.42184722 -0.090195775 -0.18515559 0.77151406 -0.28920978 0.42670396 -0.35062805 -0.2013002 0.36978456 -0.0018968871 0.024640441 0.24913546 -0.42165065 -1.0461829 0.5370339 -0.20688656 0.5225337 -1.0356253 -0.047846876 -0.50201714 0.65608835 -0.619786 -0.21163647 0.29195943 0.38987038 0.7309092 -0.77626246 1.0173734 -0.6824622 0.3852328 0.63627726 0.0043121 -0.23068406 0.17479779 0.59695 -0.6845626 -0.06538526 0.26189917 0.50641876 -0.45422307 0.27475566 0.37461346 -0.22334003 0.85665077 -0.4120889 0.0086479 0.33467516 -0.4106581 1.0176722 0.7441362 -0.26575905 0.103470005 0.20750725 0.75053924 -0.62581563 -0.010391079 -0.9119562 0.04615977 -0.19842474 0.28846595 -0.21190889 -1.7185775 0.014095512 0.831034 -0.3636282 -0.12715842 -1.2710506 0.41224518 0.33537534 -0.12049514 -0.737519 0.39812428 0.009493048 0.048280872 0.52063197 0.09087575 -0.16378012 0.10506405 0.38245738 0.14886288 -0.25559244 -0.57502425 -0.5955889 0.30792418 0.8367026 0.71289945 -0.9628019 0.16332899 0.58819574 -0.2526862 0.3167877 -0.032319058 1.0502743 0.3017357 -0.64714235 -0.12351623 0.15745045 -0.2945424 -0.75488526 -0.26383552 -0.42083758 -0.10714743 0.22171627 0.46043995 0.057905268 0.41485065 -0.07459901 0.42312327 -0.011061832 0.85307497 -0.94160545 0.011380488 0.28630406 0.3302763 0.71153146 0.50917935 0.4870353
2014 -0.25719908 -0.24077758 0.7682572 1.1084509 0.66370255 -0.35161075 0.012227354 0.03727842 -0.5222813 0.3654139 0.43101725 -0.53664106 -0.06548625 -0.45125335 0.41324896 0.1723605 -0.36597416 0.1884508 0.013321508 -0.4335104 -0.1758453 1.0947112 0.49873692 -0.36458105 -0.62083614 0.23430571 0.38914484 0.25053313 -0.3753073 -0.74594915 -0.7220677 -0.3465825 0.5395852 -0.2168411 -0.025825173 0.74856454 -0.31250247 -1.1102033 -0.10251176 -0.216175 -0.31049258 -0.4030851 -0.34722227 -0.3457937 0.17506014 0.1654812 -0.8201298 -0.377112 0.801071 0.09831345 0.24103789 0.34870884 0.9073425 0.027069874 -0.08901479 0.060588274 0.21669206 0.6898303 -0.9549887 0.62255883 -0.24259765 0.7213546 -0.13948981 -0.16228355 0.52416545 0.26961067 0.94094104 -1.0130457 -0.8454124 -0.20042482 0.3808374 0.60622776 -1.0693078 0.10569037 0.6339701 -0.01321158 -0.93410504 -0.3899571 1.0252849 1.0170541 0.29434443 -0.06447893 0.38317874 -0.12998274 0.51183337 0.76373196 -0.57937044 -0.54581076 -0.38292187 0.08571805 0.14150289 -0.7703808 0.4916101 -0.1971072 0.603676 0.29565218 0.70188636 -0.6075135 0.06344635 -0.157833 -0.42399055 -0.77299696 0.03162611 0.9027214 0.4027079 -0.6380716 -0.42475915 -0.41899097 -0.27271792 -0.44144282 0.37377188 -1.2076203 0.17581597 0.73162955 0.10031957 -0.045652244 -0.74651927 -0.27283293 -0.2317609 0.47546124 0.85948414 0.044973288 -0.49842012 0.19351862 0.29022723 0.8558729 0.8341843 0.02063027
1699 -0.6553946 -0.32740197 0.5791267 -0.049568176 0.14124325 -0.28367358 -0.69888186 0.0117357075 -0.39125344 -0.3673939 0.37962997 0.4995044 0.4487961 0.39843386 -0.1258771 -0.41178608 0.3437387 -0.034754593 -0.55008274 -0.49286664 -0.119986765 -0.09279079 0.05080379 0.02391842 -0.36610675 0.7669117 -0.89485043 0.42043635 -0.33091694 -0.29050246 -0.06493537 -0.08028328 -0.27244166 -0.3186763 1.163552 -0.2885591 -0.26375398 -0.6834126 0.3068701 0.9362078 -0.0325088 -0.77199465 -0.5007472 0.33650535 -0.2663952 -0.4963045 0.029706119 -0.30438352 -0.2952308 -0.24075675 -0.16034852 0.2119475 0.25832823 -0.22173412 -0.08949187 -1.0231347 0.31597078 0.08566053 -0.53011715 0.64727724 0.12209861 -0.0179488 0.47577614 -0.46304405 0.39588395 0.21481736 0.43749237 0.089801155 0.53174424 -0.12144322 -0.12736988 -0.21087196 -0.08859114 -0.6407944 -0.24862035 -0.110728644 0.2966106 0.621503 0.2766861 0.6313311 -0.32643104 0.17383622 -0.2740919 -0.09782677 0.59551215 0.93713504 0.3479476 -0.20438728 -0.8052741 0.020614842 0.364024 0.060624186 0.49279225 0.3826983 -0.7599616 -1.508866 -0.87944645 -0.59728366 0.127994 -1.081252 -0.83693135 -0.87701684 0.23369716 0.26928943 -0.45696276 -0.41912666 -0.41148594 -0.26000628 0.35534522 -0.24244492 -0.07289031 -1.16634 -0.2739726 0.27059734 -0.7480584 0.22411893 0.38101697 0.37938353 0.77836627 0.42321432 -0.43872717 -0.3487011 -0.60072243 -0.37829614 -0.55851895 -0.74753183 -0.5389399 0.83014154
1873 0.39300844 -1.0500256 -0.06876604 0.121702515 0.6024885 -0.19346154 0.1523908 0.4587835 0.6426702 -0.6065761 -0.5049263 0.06630576 0.6822787 0.6628184 0.33067003 0.4727 0.44697815 -0.121185355 0.41286364 -0.48400474 -0.24922422 0.6705657 0.36041194 -0.07640617 -0.5895825 0.019572468 -0.023196952 0.77838814 0.25174788 0.348594 -0.25080585 -0.0035505279 0.5331629 -0.43998516 0.46705425 0.35499135 0.7167715 -1.166897 0.22125356 0.39417413 0.097364195 -1.0578338 0.7027627 -0.21529047 -0.3517059 0.62253386 0.6888472 0.06859925 -0.5594938 -0.33084363 -0.35622126 -0.055580486 0.7374275 0.4284814 0.34096006 -0.6097492 0.8575728 0.07604985 -0.87830687 0.7360267 0.022409875 -0.14340064 -0.18819067 0.79732 0.2541084 -0.28958738 0.17235956 -0.14150761 0.2282857 0.37592506 0.3710169 0.45000783 -1.2811178 0.068407044 0.38136107 -0.7089584 -0.49070254 0.67976296 0.56152767 0.26731208 0.51367486 -0.21790285 0.45415747 0.09257158 1.0449543 0.16029538 0.40577257 0.28157645 -0.61482203 0.5488397 -0.44240025 0.28725266 0.48340636 0.17143491 0.23040023 -0.855221 -0.3365325 -0.34084097 -0.47680807 -0.69690204 0.07896673 -0.063359536 0.6672484 0.19844966 -0.10583821 -0.1970848 -0.9456245 0.14141071 0.8792033 -0.7306489 -0.18602587 -0.62066424 -0.7165582 -0.3910977 -0.21271086 -0.122085854 0.97128403 0.17287152 -0.22015913 0.044611644 -0.33481088 -0.23716873 -0.69584036 -0.266579 0.22791877 -0.9218859 -0.48213652 0.76065546
529 0.22521514 -0.8406272 0.28290856 0.14139119 0.089192264 -0.49513632 -0.12368645 -0.037682768 0.4263528 -0.47702107 0.5535661 0.845954 0.5853413 0.030830974 0.640843 -0.13285106 -0.29165754 -1.3082027 -0.06574985 -0.36003178 0.043587238 0.8705081 1.5480709 -0.8171576 0.045059256 -0.1355532 -0.80116856 0.21251036 0.04892724 0.2534897 -0.3221285 -0.6213863 0.38466057 -0.53644496 0.4396641 -0.008147719 0.43180978 -1.4906037 1.1557541 0.172968 0.7694302 -0.89970636 0.47873595 -0.8869886 0.055605676 -0.32168478 0.21226507 -0.8519064 -0.3447725 -0.50421125 -0.37802443 -0.6794208 -0.44408724 -0.30207998 0.112310275 -0.1427043 0.053211592 0.23779345 -0.048519265 0.4853247 -0.27553293 -0.17074293 -0.113779955 0.077969275 -0.081875 -0.069248185 1.0410643 0.4391517 0.78376025 -0.0058607 -0.3201143 0.5315717 -1.5127366 -0.17496426 -0.5340405 -1.1019521 -0.38820925 0.52539265 -0.07306664 -0.20679957 0.09334907 -0.15909187 -0.028635118 0.50840193 0.2017784 -0.5618977 0.38668022 -0.33849147 0.04228313 0.6305697 -0.2145889 -0.5945706 0.1694739 0.32014975 0.71576214 -0.9068995 -0.3638084 0.019156849 -0.09952674 0.16271468 0.05195735 0.007735853 0.39210427 -0.0020293235 -0.4584382 0.02511617 -0.14721957 0.67884845 -0.14218107 0.24417718 0.46387395 0.2999896 0.007842961 -0.2697104 -0.6006072 -0.2170578 0.36488137 0.5690054 0.28473678 -0.80193794 -0.92071414 0.84617794 -0.6444457 -0.20463964 -0.24956197 -0.14284515 0.027681157 0.66556156
1233 0.65156156 -0.8733608 0.56409496 1.0661678 0.51629746 -0.20712233 -0.73267454 0.4011848 -0.3724303 -0.15172717 0.58584774 0.57651216 -0.070353985 -0.29797018 0.5435583 0.22599728 0.016601028 -0.49328297 -0.110907555 0.1261164 -0.07327496 0.7958581 0.6440402 -0.25496268 -0.26857582 -0.15189919 0.4094944 0.28803846 -0.44019237 0.28786108 -0.7753714 0.50290835 -0.0026033833 -0.59676266 -0.4167243 0.9584316 0.28921428 -1.1727002 0.079648964 -0.48440194 0.46437114 -0.15887584 -0.013460053 -0.6861229 -0.4642482 -0.6513027 0.3970704 -0.17345533 -0.23209305 0.08718923 -0.2991744 -0.73459136 0.20028368 -0.34792593 -0.33749083 -0.3086346 0.18737127 1.3405069 -0.46571234 0.9389431 0.3138046 0.5649077 -0.6551441 0.8425293 0.23870252 0.04691706 -0.09878799 0.21946432 0.3852829 -0.05243823 0.24372482 0.7997609 -0.85048395 0.324881 0.17015025 -0.9137433 -0.7560323 0.49387258 0.017080935 0.26852512 0.44157502 -0.68386096 -0.04155731 0.1511308 0.9521697 0.103219114 0.08671589 -0.4994021 0.12135115 -0.01497098 0.55942667 0.01108421 0.456693 0.6137556 1.3045013 0.1822732 0.07912379 -0.27885756 -0.039965812 0.23367418 -0.40424246 0.00093742704 1.0198046 1.1157129 0.45473436 -0.90065736 0.4505058 0.1496702 -0.4976059 -0.4716536 -0.10847681 -0.8930682 0.6538205 0.6129429 0.003058251 0.25814673 0.030328363 0.43178222 0.37114546 0.41431054 -0.54347837 -0.37090647 -0.37080508 -0.21669328 0.54244715 0.105420664 0.086551294 0.38623184
1722 -0.033019282 -0.56005895 0.33452964 0.60852295 0.46115798 -0.0027824999 -1.2261205 -0.48112848 -0.3126021 -0.14546286 0.29485264 -0.36120933 -0.25384432 0.16165613 0.55896276 0.26768273 -0.40606967 -0.22368255 0.08323253 -0.0147776585 0.1868271 0.7378431 0.7468479 -0.3515553 -0.6349463 0.611723 -0.41415393 0.616095 0.79260814 -0.3991285 0.66772944 0.60007966 -0.642945 -0.07802935 0.0109318895 0.7885415 0.7156666 -0.7294807 1.1642455 0.1486643 -0.18950579 -0.348298 -0.40337604 -0.6421791 -0.7769408 0.25401455 -0.28940326 0.067288816 -0.43707585 -0.13258353 -0.39163217 -0.34368008 -0.28337452 -0.60042715 0.18840048 -0.37279496 0.2046883 0.018898983 -0.47567636 0.6684329 -0.13076963 0.17206116 0.40602073 1.3120579 1.0906073 0.9032435 0.76515996 -0.21550429 0.72268677 0.22319436 -1.4117996 0.39356503 -1.1834702 1.0897014 0.06057195 -0.25008938 -0.02441467 0.50034237 0.03917773 0.3883943 -0.39017406 0.121505186 0.36335015 0.80667675 0.3846594 -0.4899077 0.6282232 -0.2001877 -0.2772575 0.43380064 -0.06410555 0.12055029 -0.40169668 0.74055266 1.0397104 -0.5421704 -0.17959929 -0.8998743 -0.057547 0.40488392 0.12952554 0.41975322 -0.10632762 0.24836802 -0.72176665 0.16674322 0.29394394 -0.5058122 0.42033896 -0.04291845 -0.25625113 -0.88859445 0.027468113 0.76771116 -0.064099774 0.2058471 0.39378825 0.21428172 -0.11015546 0.49462917 -0.6370466 0.025061216 -0.3899192 -0.25758258 0.11388953 0.0679099 -0.49671274 -0.04677076
1685 -0.1360683 -0.83011115 0.745465 -0.6406301 0.12296669 -0.63272494 -0.068023205 -0.18068473 -0.6100518 -0.44955036 0.2702225 1.0996301 0.032516662 -0.25913367 0.3324654 1.1960913 -0.707098 0.1427352 -0.1521824 -0.48095635 -0.86107683 0.38193876 0.69343084 -0.59094596 0.5155235 0.2659979 -0.71593636 0.109021954 -0.42212638 -0.69090676 0.39013863 -0.5330771 0.3484785 0.06321725 -0.41764545 -0.5418798 0.13754469 -0.64188325 -0.57409465 -0.22527969 0.15662287 -0.12888274 -0.20783053 -0.41602105 0.37126255 0.6477624 -0.9006502 0.31914955 0.5910756 -0.086505584 -0.8658294 0.15075481 -0.010971703 0.27738506 -0.40327278 0.08799184 0.26143736 0.44619942 -0.7595927 0.2939626 0.10935843 0.51186746 0.13014598 0.3622293 0.23554137 0.9071971 -0.013290615 -0.6205068 0.2468555 -0.054057647 0.038184498 0.2108327 -0.8985084 -0.82781696 -0.29401693 -0.15243335 -0.7726414 0.3015153 0.5677009 0.084597215 0.041463915 0.2980298 -0.66034204 0.35954815 -0.10115062 0.13653368 -0.39884597 0.5593846 -0.5806672 0.8927292 -0.6379042 0.21839301 -0.23462662 1.1151304 0.33395538 -0.291288 0.09874484 0.48772454 -0.29284173 0.5135926 -0.6888014 0.3851903 -0.8367552 0.10581091 -0.58642703 0.62115455 0.25118846 -0.8504642 -0.31667256 -0.15387374 -0.23387638 -1.066082 -0.49096355 1.1083513 -0.77008575 0.39963037 0.6046847 0.33278662 -0.2445006 -0.48459265 -0.544917 -0.35340905 -0.9234293 0.103547 -0.5320446 0.2704835 0.015201647 0.6400191
1371 -0.29439318 -0.08709176 0.82830775 -0.121496856 -0.038983375 -0.8890014 -1.3825487 -0.82509124 -1.1273111 -0.4767647 -0.29553416 0.7469594 0.1454487 -0.28143588 -0.222987 0.46347317 -0.13251802 0.68193626 -0.34497675 0.1888653 -0.08050237 0.45567897 0.025482295 -0.88778585 -0.36397702 0.22692147 -0.72013515 0.13993572 0.42350838 -0.6652538 0.74394566 0.6818656 -0.38877818 0.21382983 1.1188315 -0.20310874 -0.07200977 -0.56056416 -0.07761272 0.49983215 0.086536326 -0.69589907 -0.36150202 -0.22577776 0.04978283 0.301845 -0.14923066 0.21548042 0.4295716 0.44404984 -0.55150455 -0.2539712 -0.6022108 0.018115759 -0.06934218 -0.39379674 1.2243075 0.10279071 -0.4586398 1.2068149 0.5771852 0.01974113 -0.26829758 0.82355887 0.7104676 0.3796081 1.0597763 -0.2612925 0.55814636 0.66279954 -0.05049344 0.9192259 -0.55449444 -0.42465937 0.11099107 0.09996918 -0.20262113 0.33802196 -0.072043195 0.2152465 -0.20403579 0.37275526 0.08825295 0.54437214 -0.32225057 0.4872734 0.5125482 0.18859285 -0.6105366 0.11857027 -0.00070107833 0.5537946 -1.0540186 -0.30249593 0.38448143 -0.5646739 -0.296809 -0.5603777 -0.33965197 0.09040848 -0.09692215 0.36589655 0.02755635 0.8387771 -0.22940004 0.039529275 -0.11013477 -0.31145546 0.645927 -0.408841 -0.48255694 -0.7014579 0.44253084 0.4243844 -0.063728034 0.31847692 -0.008775244 0.61154354 0.329159 0.16131644 -0.6986265 0.47299948 -0.67360014 0.03264501 0.37666112 0.9070685 -0.070468396 0.80318654
196 -0.7706257 -0.12005076 -0.16478911 0.5285366 0.27184886 -0.52093995 -0.81595284 -0.51039577 -0.51686966 0.032725897 0.20744956 -0.31497812 -0.38919523 -0.32584822 0.12627776 0.6542988 0.07286547 0.40777865 -0.25114912 -0.5401972 -0.23529848 0.5914825 0.49423873 -0.4955146 -0.19966766 0.6025858 -0.3799512 0.20865539 -0.19514352 -0.6874899 0.6954142 0.008961583 -0.4145059 -0.05476859 -0.54488146 0.091832995 -0.35148954 -0.8516363 0.21746679 0.5533309 -0.289358 0.071967326 0.27674267 -1.4280224 -0.74329567 0.6528422 -0.22309285 0.4668359 0.10308282 0.26350594 -0.2550241 -0.33378306 -0.058724836 -0.23369305 0.27744254 0.60628605 0.27923977 -0.47618642 -0.5160897 1.0962143 0.42257047 0.24043992 0.09193286 0.046726737 0.4423774 0.49043736 0.35985944 -0.70255256 0.08398369 0.3873764 -0.68443334 0.0056179767 -0.5969904 0.011243427 0.4788653 0.11816383 -0.60102195 -0.15643395 0.6256918 1.4286566 -0.21173383 0.50850654 1.263134 0.555586 -0.17265217 0.17310767 0.11633714 0.36800417 -0.15271278 0.8341 -0.87125003 -0.15866528 -0.2047951 -0.14080814 0.42964414 -0.24259917 -0.47800413 0.057375025 0.13131367 -0.35226732 -0.83751607 -0.037490536 0.22699344 0.41274646 -0.49074244 0.17082267 0.51968783 -0.319976 -0.7468405 -0.4205448 -0.68673736 -0.6325693 0.18578987 0.80185246 -0.63349587 0.14609204 0.3498623 -0.32778937 -0.9409585 -1.0485191 0.15973711 -0.78629875 -0.04038767 1.043575 0.40263996 0.30263725 -0.31470466 0.73452747
1536 0.559905 -0.22605461 0.24119735 -0.03348466 0.70282966 0.75255704 -0.5643852 0.10763964 -0.25165433 -0.3384233 0.58168596 0.94914484 -0.08912639 -0.15637635 0.28349128 0.25176346 -0.56441885 0.4355084 0.18980989 -1.0370811 0.037185363 0.26127517 0.30152616 -0.752628 -0.10616805 -0.019419868 -0.9776245 -0.80115366 -0.060826574 0.32387093 1.274094 0.076848336 0.0022555946 -0.36010164 0.058987133 0.19511406 0.5755394 -0.5140728 -0.22914675 0.26276016 0.13776675 -1.185974 -0.12954465 -1.1609803 -0.19616391 0.38456583 0.17825171 0.8113772 -0.5969168 -0.37653628 -1.4398389 -0.70317864 -0.33884138 0.87488943 0.6200473 -0.03989959 -0.1847799 -0.38093987 0.15655768 0.052314814 0.40587142 0.0522817 0.6179958 0.017269313 0.57076496 1.031635 0.081299804 0.232712 0.4656757 -0.017961256 -0.19507207 -0.18306218 -0.9737459 -0.13435042 0.22753172 0.27825114 -0.8697039 -0.5180007 0.085251115 0.37761512 0.5169327 -0.026625207 0.53463274 0.5389076 -0.19751185 0.016367186 0.08165017 0.26762143 -0.065820284 0.8708291 -0.46755522 0.040542416 0.07221758 0.52788377 0.40231767 -1.1529913 0.013150484 -0.0904243 0.5438872 -0.6395283 -0.59481543 0.38858575 -0.574153 -0.21961322 -1.4281213 0.84758705 -0.4650984 0.12102465 -0.18315022 -0.3594156 -0.5513625 -0.6638398 -0.12916616 0.3876037 -0.38149783 -0.19773374 1.0102266 0.17600898 0.1955279 -0.8055459 -0.115978956 0.43414432 -0.09491208 0.5580239 -0.6117414 0.19565532 0.061440647 0.43542972
1570 0.4360662 -0.09468509 -0.043729775 0.49685565 0.21912351 -0.041259985 -0.3453933 -0.49133104 -0.596021 0.19787174 -0.21870522 0.75410163 0.1857327 0.16310598 0.6649708 -0.14551069 0.20423494 0.42642605 -0.056150522 -0.13991515 -0.2766827 0.52622193 0.96305865 -0.87054616 -0.023854658 0.32532814 -0.52996486 0.016415786 -0.082630284 -0.5939892 0.5001009 -0.45719832 -0.09954681 -0.021569328 -0.06586818 -0.23318909 0.32449198 -0.7895511 0.60346764 0.37659636 0.30061194 -1.2796872 0.36142668 -0.29647967 -0.07263135 1.0032252 -1.1523024 0.15709424 0.5620729 -0.2131468 -0.11370413 0.1791449 -0.01932083 -0.027256599 -0.41144776 0.7873318 0.2055803 -0.19633856 0.14638464 0.97165275 -0.7633139 -0.012446992 -0.11728383 0.24866429 0.52839804 0.5342835 1.0306813 -0.55639344 0.566962 0.052610464 -0.48030904 0.52194464 -1.4889907 -0.1945594 1.0493748 -0.08751484 0.055163886 0.24512008 -0.008206573 -0.054860298 -0.32738575 -0.013903924 -0.19866432 0.6150759 -0.49176842 0.053060267 0.4078463 -0.0095739085 0.31461573 0.8205483 -0.4737267 -0.27870023 -0.49358097 -0.020671235 0.6743321 -1.0016651 0.101014584 -0.58581835 0.715262 0.20677666 0.13715613 -0.010670239 0.25253943 0.3621976 -0.71548945 -0.15587962 -0.19695336 -0.51180166 -0.1436491 -0.13436407 -0.2573722 -0.54307353 0.172501 0.1355251 -0.11910569 0.27211994 0.6966198 0.63158685 -0.52335924 -0.55163807 0.12381888 0.7610432 0.19589971 0.20973364 0.1650321 1.326584 0.6124528 0.25607517
1121 0.015349962 0.117903724 0.47846243 -0.09661656 0.9136146 -0.3570337 -0.088855214 -0.538688 0.028930562 -0.8488487 0.50459325 0.49051178 0.10976485 0.65438306 0.00262561 1.0486571 0.2993182 -0.82683027 -0.2772493 -0.81243867 -0.60399526 0.95265317 0.15340684 -0.54643595 -0.0024773753 0.4496882 -0.1713702 0.2759796 -0.40204775 0.104593076 -0.073924504 -0.30583212 0.03864263 -0.38487753 0.3042781 -0.58858764 0.041518725 0.5077213 -0.02551548 0.85276407 1.2077703 -0.8967591 0.58330643 -0.4043553 1.1308037 0.47078457 -0.2580945 -0.30869436 -0.1229349 -0.10834184 -0.81351626 -0.34237698 -0.117451936 0.44669834 0.09611207 0.31292337 1.3537377 -0.4826636 -1.5142174 0.49874175 -0.66031563 -0.36950162 0.61447936 0.121398 0.5583788 -0.06554057 0.114962466 0.1243803 -0.21403737 -0.0461948 0.6445492 0.18490034 -0.8741011 -0.28659856 -0.9408817 0.117774814 -0.16411135 -0.22302462 -0.631095 0.015522813 -0.3048708 -0.3459564 -0.20732942 0.11156346 -0.10319777 0.1886166 0.44936922 0.09519313 -0.44496983 0.625492 0.007410942 -0.4663042 0.5013627 0.47686407 0.003126496 -0.60176015 0.3791467 -0.9079847 -0.69563323 -0.93090373 -0.13921453 -0.48170674 -1.0496767 0.90969193 0.045693647 -1.3335483 -0.1896335 -0.46115112 0.016284036 -0.56968796 0.53124833 -0.36114913 -0.09921769 -0.13173287 -0.09830373 -0.024821442 0.19336672 -0.58263206 0.05011222 -0.0034976257 -0.41733086 -0.21270832 -0.030671906 -0.45478308 0.5269063 0.5961913 0.6413023 0.17880349
1868 -0.028352818 -0.19390883 0.033561755 0.5440225 -0.27657306 -0.7466373 0.014556401 0.27056947 0.015293648 -1.0136242 0.42291787 0.5197788 -0.074898556 0.040427815 0.103408605 0.47714376 0.03881041 -0.6569303 0.022625634 -0.099999025 0.26521304 0.5019979 0.87668276 -0.7749054 0.19642532 0.13296185 -0.025239546 -0.15108863 -0.5718722 0.43330178 0.077023774 0.3201616 0.94405055 -0.57532513 0.2163995 0.0013194458 0.21689461 -1.6029019 0.89888424 0.033505578 0.3510148 0.060110025 0.36936858 -0.9878058 0.08644808 0.058879115 -0.19399962 -0.45878112 -0.5682155 0.06939368 0.3481185 -0.3877933 0.16946904 -0.6576825 -0.5859397 -0.28486916 1.2984434 0.51306266 -0.03077356 0.17605865 -0.67953235 0.5712069 -0.64796966 0.072389714 -0.13585927 0.1532428 0.55779713 -0.34363297 0.35304114 0.37307727 0.01747835 0.67619365 -1.383843 0.056960557 -0.6730183 -1.0061973 -0.4852135 0.7522498 0.33371308 0.6041917 0.674567 -0.7383194 0.96584356 1.0938847 0.6326879 0.11010804 0.19406071 -0.78067195 -0.4854762 0.32952327 -0.26517257 -0.7535829 0.0132444715 0.51465404 0.29024488 -0.08191308 -0.054401748 -0.074902005 0.19021003 -0.30733272 0.32349008 -0.4481397 -0.0019921777 1.0995078 0.17428172 -0.3300955 0.026938666 0.44665375 -0.5198086 0.23914915 0.34984097 0.086516246 0.47073218 -0.36294505 0.3018583 -0.8297338 0.18820004 -0.0028399196 -0.3567184 -0.67385167 0.13098419 -0.16122943 0.053053338 -1.1828593 -0.03496608 0.6493358 -0.26539254 0.8672147
582 -0.033563953 -0.23104252 0.44763586 -0.16688539 0.4040405 -0.9653577 -0.13967974 0.044011597 0.12350043 -0.29598528 -0.042069446 0.31160805 0.44347018 -0.0453674 -0.25670016 0.5284389 0.5370404 0.66418016 -0.4285052 0.43210813 -0.18854322 0.20569335 0.30516773 -0.51425624 -0.076448396 -0.40484574 -0.091692045 0.03400477 -0.7702908 -0.1870519 -0.5501813 -0.11333733 0.18212952 -0.06907606 0.24598086 0.24081422 -0.012298089 -0.99207544 -0.049779788 0.13583565 0.71150124 -0.5247411 0.29857132 0.003882485 0.47143173 0.72041947 -0.9045125 0.06285705 0.69236284 0.4314883 -0.31007388 -0.17273529 0.21378513 -0.22845219 -0.6428406 -0.61370456 1.9571143 0.53604525 -1.5124857 0.84988517 0.04157855 0.5431344 -0.43867803 0.25520903 -0.041809823 -0.19530538 0.68965423 -0.15452413 -0.3883872 -0.4460031 0.34553248 0.5079978 -0.40838873 -0.6657055 -0.23331861 -0.35199723 -0.027780125 0.4060712 -0.71979004 0.46183154 -0.771215 -0.57365495 0.07593767 -0.024971252 1.3614107 0.9621283 0.6532363 -0.8900253 -0.8600883 0.3168863 -0.3103024 -0.84619397 -0.13123226 0.36146772 -1.0087826 -0.2980403 0.7122793 -0.4250326 0.1522058 -0.8829959 -0.0048425314 -0.27859935 -0.06005848 1.2284604 0.79653215 -0.35329434 -0.15271458 -0.43562222 -0.07489101 -0.7296815 -0.094979614 -0.06445622 -0.44461575 0.28556588 0.05344867 -0.38463777 0.5063792 0.6023476 0.33333394 0.43212265 -0.6194832 -0.5378737 -0.4836783 -0.94298834 0.3884675 0.80779064 0.3614262 -0.23476702
1170 0.0039477977 -1.0773815 0.18333535 0.80506843 -0.18435098 0.02445197 -0.27147526 -0.99500746 0.037579514 -0.55338794 -0.2431513 0.30109057 -0.4847367 -0.1991227 0.51961225 0.70317465 -0.82823896 -0.16593954 0.5405414 -0.4337215 -0.52769583 1.720592 1.3223279 -0.42429882 -0.16482396 0.16951975 -0.10642057 0.7714428 0.27144718 0.15235642 1.0022523 0.074982606 0.3147253 -0.21702889 0.37533092 0.3437283 0.27064815 -0.25793642 0.49823183 -0.088432565 0.055639256 -0.5079336 -0.52197754 -0.41871393 -0.096927814 0.1679531 -0.08222669 -0.19112559 -0.13316329 -0.1508724 -0.6822443 0.24157387 -0.2610672 -0.6836493 -0.58294064 -0.48132375 0.32649645 1.2582198 -0.407608 0.41193876 0.19832097 0.2178011 0.05541805 0.2908215 0.14711581 0.72284114 -0.109550215 -0.37687364 1.0105193 0.53854287 -0.7319699 0.40938666 -1.1856745 -0.30415446 0.18214715 0.08813475 -0.20665745 0.49385932 0.056508597 0.5459814 1.123733 -0.41283587 0.27203164 0.92700213 0.7347195 0.25809127 0.23478034 -0.6856608 -0.30667466 0.6935743 -0.80665696 0.5105261 -0.12786853 0.27250382 0.52870935 -0.0761709 -0.42260695 0.31492546 0.29111293 -0.57078016 0.15021549 -0.026854815 0.095547386 0.557215 -0.6124336 -0.012680221 0.10450295 0.5850012 0.6864818 -0.86066806 -0.012664252 -0.6012508 -0.23987828 0.39933178 0.38783467 -0.20459075 1.2059823 -0.56861585 -0.39187637 0.88697743 -0.25500256 0.18654612 -0.20183963 -1.2019647 -0.0028118212 -0.017835412 -0.46046048 -0.22415325
1223 -0.31030387 -0.23621549 0.31726366 0.07712742 0.51549655 0.4291734 -0.5916325 -0.041595556 -0.58332783 -0.97716373 0.66838664 0.36602372 -0.7863614 -0.09275608 0.34777024 0.5183339 -0.32934085 0.21910575 0.80208623 -0.71184826 -1.0178431 0.66806173 0.32150087 -0.3768147 -0.13494524 0.38052863 0.49449626 0.041747563 -0.2531131 -0.2942451 1.0732363 0.34842885 0.11569024 -0.39571002 -0.25256902 0.3189987 0.6838484 -0.61461866 1.120133 0.06864209 -0.18054642 -0.16194354 0.40814024 -0.9731711 -0.5289609 0.68660766 -0.5740454 0.9069576 -0.1989617 0.5163263 -0.7384386 -0.08034682 0.16575268 -1.1191089 -0.19217655 -0.2745233 1.887397 0.2056242 -0.2913001 -0.26205763 0.31102076 0.13097727 -0.19341262 0.48529598 1.2448292 0.62120926 -0.1693726 0.45198062 -0.13213912 0.25381222 -0.39040473 0.073961355 -0.66514456 0.22645631 -0.53036875 0.052938543 -0.3976997 0.3839037 0.8069046 1.5628396 0.72987974 -0.8780133 0.05423705 1.1393871 0.500165 0.47809377 0.22597411 0.055192593 -0.9826889 0.26998225 -0.5187133 -0.09456295 -0.027611502 0.6410337 0.08632374 0.16607216 0.16626857 0.44778284 0.39130035 -0.5454195 0.560527 -0.095391095 -0.42392176 0.4614392 -0.004218529 0.4023228 0.1883704 0.26813984 -0.09409901 -0.73349637 0.17009568 -0.24003881 -0.13167089 0.51291806 0.818645 -0.3605253 0.6124399 -0.2953778 0.35966447 -0.17635672 -0.24600042 -0.8432269 0.14593518 -0.884967 0.0015811705 0.5604272 -0.5182239 0.3252073
1579 -0.48168227 -0.5688694 0.2034209 0.6525888 0.36039135 -0.5177059 -0.1613353 -0.8505033 -0.6600451 -0.48845392 -0.04381963 0.6921821 -0.4095635 0.25881788 0.45525125 -0.038236022 -0.628937 -0.12030256 -0.02945919 -0.4141253 -0.15233417 1.1954364 0.8950413 -0.40422666 -0.1844303 0.24813828 -0.4164791 -0.016151577 0.34580624 -0.039008666 0.68982285 0.17528285 0.20657544 -0.21892828 0.54192984 0.20787191 -0.6197149 -0.6084732 0.70068586 0.3873228 -0.49636793 0.017939404 0.1960068 -0.7106184 0.021782948 0.16149402 -0.8330731 0.44137505 -0.015587822 0.00444566 -0.37426582 0.25118563 0.17579144 -1.2689086 -0.38594535 -0.6376279 1.142063 0.14920849 -0.5867217 -0.19341904 -0.1913347 -0.19744213 -0.00403644 0.37459475 0.7159638 0.72899294 0.28677046 0.10867637 0.6754017 0.19579215 -0.81267536 0.88029283 -0.8753228 -0.031378057 0.22464512 -0.1171618 -0.54118615 0.18442464 0.33016804 1.5269549 0.03855577 -0.24240644 1.2750975 1.3017174 0.30906463 0.19519246 0.75640315 -0.42381164 -0.30537635 0.595901 -0.13895257 -0.17420004 -0.3772916 0.18610884 0.3562981 -0.12658118 0.19970222 0.4131808 0.7620062 -0.94937027 0.88759845 -0.5375823 -0.31070942 0.46612418 -0.6876012 0.31311864 -0.49942386 0.047990575 -0.38131636 -0.33111513 0.36736274 0.113349244 0.37396523 0.5504429 0.56072205 -0.81080186 0.5241765 -0.5397027 0.6554648 0.29324648 0.06746561 0.43415412 0.017013922 -0.23273869 0.36140114 0.9269569 0.13119 -0.2705765
320 -0.32926393 -0.90223986 -0.013082247 -0.050592754 0.2550315 -0.5464064 -0.75685877 -0.61251116 0.28632382 -0.080803275 -0.4422757 1.1090456 -0.34849897 -0.027483562 0.18874605 0.55635643 0.15195183 0.21758913 -0.21323192 -0.5609002 -0.8125824 1.2287132 1.0002311 -0.40800896 0.0771529 0.074743666 0.0040549794 0.38670525 0.021068485 0.20226258 0.5396356 -1.1666584 0.4331645 -0.10260733 -0.36587462 -0.015223218 -0.18929614 -0.26748407 -0.7857394 -0.30436432 0.012121769 -0.65884703 0.17681044 -0.43770063 0.80992144 0.78067076 0.7356853 0.35959455 0.5532034 -0.23933175 -0.33448863 0.09442238 0.08475344 0.14926708 0.4375256 0.29060635 0.8141465 0.3215452 -0.74201304 1.127689 -0.22163579 0.7416093 -0.8137492 0.17745253 0.6806763 0.28488433 0.015983164 -0.30692446 0.05418332 -0.14574857 0.65325993 0.7312892 -0.53770095 -0.14081651 0.13753305 -0.021921348 -1.1461973 0.18388633 -0.24169368 1.0349306 -0.03254 -0.017434167 0.34373453 0.31791085 0.7766011 0.85351175 0.11697721 -0.137395 -0.2771734 0.59706986 -0.6160828 0.39875066 0.76590484 0.56714505 0.26465708 -0.86453116 0.057459515 -0.005507449 -0.16075969 -0.921417 -0.54955673 -0.3167326 -0.4310591 0.7803454 -0.13542594 -0.6829791 -0.6574192 -0.33984762 -0.14040107 -1.0672913 -0.39745888 -1.1337112 -0.43701044 1.1933002 -0.25234568 -0.15964608 0.81862587 0.15941945 -0.17861703 0.1755154 -0.29777613 -0.043712974 -0.759056 0.0020651075 0.32836065 -0.06896029 0.3821487 -0.44363898
1471 -0.2144776 0.3853744 0.17232011 0.5947519 0.47545862 -0.28464812 -0.39704356 -0.43821678 -0.27072293 -1.0277932 0.66585237 0.095753685 0.12803109 0.19239703 0.7018986 0.10529586 -0.7704307 -0.50985354 0.105246626 -0.06672442 -0.1415628 0.35849726 -0.006994243 -1.075326 -0.45455587 0.43030986 -0.09485896 0.46165565 -0.05434631 -0.18305919 0.4594091 1.4645083 -0.09171532 -0.95883626 0.81305647 -0.13400216 -0.03276207 -0.69431484 0.7147611 0.8694729 0.29854888 -0.65223473 0.38337135 -0.49107504 0.24679005 0.13678911 -0.74602246 -0.38937116 0.51849276 0.16462055 0.0671546 0.09080986 0.2864092 -0.8493498 -0.70353276 -0.5422593 1.876989 0.05652222 -0.28196403 0.5275482 0.0036758066 0.2425966 -0.27013904 -0.073367655 0.194705 -0.15118043 1.1963191 -0.32704136 0.020465491 0.8585222 -0.31637165 -0.11115655 -0.59794927 -0.62045866 -0.10581484 -0.28808385 0.4407384 0.5358725 0.52986777 1.1694299 0.27117428 -1.0256896 0.22186318 0.810748 0.21143208 0.20638224 0.13352232 0.3050043 -0.8724543 -0.08356351 -0.59145266 -0.8608982 0.10087757 -0.266312 0.013203144 0.5365724 0.17614803 0.03730624 0.4127637 -0.34694597 0.011687666 -0.3027028 -0.28334054 0.8174343 -0.25699267 0.059480473 0.4011214 0.38885427 0.15013503 0.24438182 0.5512818 0.36510128 -0.08551456 -0.08016473 0.5693997 -0.52519053 0.3369753 -0.16581099 -0.24312603 0.36130095 0.043961212 0.20564024 -0.014547716 -1.2261599 0.20214905 0.6882857 -0.452858 0.5680187
1354 0.9347985 -0.7890481 -0.34587604 -0.148706 0.08712482 -0.59338385 0.056456033 0.26531148 -0.22749723 -0.014233869 0.3965038 0.7888871 -0.47944775 -0.38306972 -0.28606117 0.5559113 -0.35005388 0.14426896 -0.3210401 -0.8681864 -0.6371948 1.0745866 1.3925033 -0.16875443 0.22132435 -0.63070375 -0.39687863 -0.16751112 -0.29577866 0.18489464 -0.041491885 -1.2158829 0.8209193 0.56526476 -0.5956824 0.6143633 0.103711255 -0.43751016 -0.22057916 -0.20015483 -0.09501068 -0.24994995 0.58260554 -0.35932955 0.074227974 0.26293138 -1.3363254 0.4597126 -0.08391426 -0.31964448 -0.7036109 0.49164227 0.7834848 -0.14280875 -0.3516048 0.037841763 0.55643314 0.7682005 -0.71243423 0.5735043 -0.19259709 0.54377896 -0.32627997 -0.311675 0.015977165 0.20967072 0.54109365 0.05814157 -0.0075396625 -0.36311635 -0.008164361 0.82099384 -0.86876345 -0.46381888 -0.03555361 -0.7836033 -0.31376746 0.7530076 -0.121461526 0.47595015 -0.6747371 -0.1589276 0.3282014 0.8762278 0.3505489 0.35712108 -0.3381508 -0.28137675 -0.14628518 1.0626659 -0.48299614 -0.06692003 0.09919914 0.7090777 0.9300648 -0.85661125 0.20150897 0.0944932 0.14308855 -0.786009 -0.27086687 -0.3322848 -0.5781228 -0.023521893 -0.029496819 0.034177076 0.02995284 -0.25175905 -0.61808014 -1.0351809 -0.26850778 0.0048621586 -0.33091694 0.44379896 0.04863751 -0.66944456 1.2097965 -0.17375733 -0.39868394 0.5121811 -0.41472232 -0.6855509 -0.49223813 -0.23340373 0.27887994 0.46276557 0.25147614 -0.18066794
398 -0.03228275 0.17317887 0.40942803 0.24049689 0.8459277 -0.86702543 -0.7502361 -0.52911437 -0.18460864 -0.87451035 0.5938771 0.77065116 -0.6362499 0.18653525 0.06225949 0.6444338 0.51527995 -0.1650582 0.34600553 -0.13073629 -0.90124565 1.0229267 0.14926328 -0.40918735 -0.12751912 -0.11330463 -0.02639335 0.69694805 -0.3550252 -0.19429953 1.0956342 -0.09382694 -0.42128366 -0.6009071 -0.39412105 -0.3268914 0.4412825 0.109649345 0.4821425 0.47826728 0.4873412 -0.5040475 0.20863454 -0.39664835 0.4653002 0.29361552 -0.42888156 -0.20383176 0.046671253 -0.3319238 -0.04134904 -0.3838638 0.50253105 -0.75389117 0.41211307 -0.07158217 1.8142797 -0.21472082 -0.54335016 0.5154803 -0.63934296 0.33488947 -0.31509656 0.064266294 0.60633963 -0.41426075 0.14925748 -0.10247981 -0.3547711 0.4084048 0.16049783 0.20036155 0.22762935 0.07344453 -1.0804095 -0.59315526 0.123002 0.41108748 -0.28594202 1.2756575 0.07101038 -0.7428187 0.39757738 1.0746262 0.6010163 0.935803 0.61414725 0.125776 -0.7044079 0.23572734 0.08186519 -0.42273772 0.40303242 0.4787565 0.22940421 -0.81398153 0.21987814 -0.33435515 -0.0014349045 -0.821114 -0.11568871 -0.648274 -1.0896034 0.98114246 0.105010256 -0.40165433 0.13455537 -0.25617114 -0.6903871 -0.27876917 0.68461955 -0.2674135 0.3437253 0.8544339 0.39350334 -0.2782923 0.29165068 0.08438745 -0.068006314 0.03106697 -0.058735445 -0.31298724 -0.4880415 -0.7098068 0.25414824 0.7415306 0.31024122 -0.09194472
1698 -0.029778847 -0.5678912 -0.181251 0.52807856 0.6442579 0.07039873 -0.23592813 -0.5867767 0.7019488 -0.63449556 0.234583 0.5050321 0.18497396 -0.5795366 0.42177776 0.78734547 -0.71732914 -0.062485367 0.5400205 -0.81649315 -0.54538083 1.205584 0.90019333 -0.2047487 -0.4297183 -0.047983237 0.10168442 -0.10806311 0.042605285 0.25341287 0.40817985 0.09379011 0.6998545 0.10914224 -0.15631157 -0.87196875 0.31173557 -0.2888134 0.47404703 0.15644902 0.13632756 -0.16012423 0.2585908 -0.73281896 0.057207752 0.45729002 -0.31966108 0.1918525 -0.45722243 0.44358572 -1.1759443 -0.017542759 -0.23265935 -0.76138043 -0.19424532 0.0035617328 1.3118743 0.22628336 -0.9125549 0.27062306 0.056067027 -0.05921554 -0.13216576 0.3156682 0.6997006 0.0053112544 -0.2973646 0.16767795 0.48426825 -0.17604758 -0.10227133 0.3976852 -0.40507466 -0.22725737 -0.2244583 -0.23049872 -0.54814434 0.37872463 0.23471989 1.7005073 0.7455913 -0.9746096 0.46003667 0.9329973 0.30905172 0.6310453 0.7835495 -0.20275944 -0.2631197 0.35533187 -0.75609326 -0.041812316 -0.08596014 0.47600424 -0.66817087 -1.0531474 0.1131989 0.34552455 -0.37861612 -1.1771055 -0.018994227 -0.6306226 -0.4512991 0.6073585 -0.15367489 0.04190275 -0.1721301 0.27601758 0.4309093 -0.93627226 0.47843555 -0.11461193 0.019114155 0.39251232 0.46037725 -0.9610454 0.95850927 -0.20260291 0.03341129 0.11126703 -0.5966582 -0.5996576 -0.15272383 -0.49232036 -0.19774905 0.2764153 -0.6340745 -0.57350314
536 -0.1962395 0.35327354 0.40315658 0.361971 -0.13219815 -0.6171044 0.21043272 -0.9693864 -0.5432084 -0.30325735 0.72245586 -0.35444796 0.2656064 -0.15921794 -0.00057482946 -0.17471631 0.004664322 -0.13520671 -0.23656179 0.057107057 0.04842408 0.3313262 0.32406345 -0.39022794 -0.7888422 0.60672164 -0.6129818 0.16886795 -0.5049905 -0.46427378 -0.26828688 0.670788 -0.6910606 -0.0652521 1.3343055 -0.34321737 -0.34041554 -0.96986675 0.51334405 0.9269552 0.5932138 -0.09859679 0.7403073 -0.194163 0.8772934 0.3811991 -1.6089199 -0.19882248 0.959931 0.31750944 -0.26029137 0.4804814 0.032462094 -0.43533814 -0.6806719 -0.41708332 1.3165251 -0.31260306 -1.2469214 0.31157932 -0.3365291 -0.38567477 -0.09727883 -0.0669599 0.47827363 -0.078219935 1.3676891 0.16474639 -0.029736083 0.038612768 0.085749835 0.14073974 -0.5188433 -0.98823 -0.19688031 0.58424425 0.53687114 -0.5965124 0.51762617 0.34720677 -0.33538318 -0.15023674 0.4025985 -0.005205397 -0.25260863 0.54675543 0.54908794 -0.43983907 -0.7988251 -0.2615434 -0.3352603 -0.51748747 0.08513516 -0.25890985 -0.75726414 0.11542044 0.13301878 -0.75842243 0.5713528 -0.46899045 0.009080102 -0.29148525 -0.5482188 0.9643716 0.039003123 -0.48476622 -0.3940317 -0.09961301 0.5710344 -0.22559908 0.43211207 0.5434134 -0.25251234 0.041512005 -0.45168334 -0.49085447 0.35382092 -0.5996866 0.08424548 0.43333998 0.47876722 -0.1612539 -0.0066327746 -0.8175127 0.13310362 1.26753 0.50207114 0.56840634
