1063 128
1122 -0.051938362 -0.44612777 0.4231695 0.46421885 -0.3359142 -0.52384585 0.54722786 0.36928627 -0.39348006 0.04504879 0.583523 -0.7551059 -0.48517492 0.033666085 0.016042568 0.48662174 0.029484326 0.22895262 -0.7278815 -0.39916015 0.7551111 0.3057905 0.52910274 0.69485337 0.22840397 -0.29068336 -0.59325176 0.9572734 -0.63298017 -0.29096043 -0.11495088 -0.043151397 0.60254353 -0.4568849 -0.71405524 0.0054127243 1.1572198 -0.29583216 0.5769983 -0.105207935 0.12886505 0.321822 -0.2176261 0.0067825005 0.07574783 -0.041787356 -0.4208977 0.10682903 0.09783751 0.10454871 -0.27078146 0.34237304 0.37228018 0.059522726 0.25525153 -0.66456294 0.733804 -0.7690714 -0.07045354 0.4735399 -0.17770392 0.21406092 -0.14711757 -0.71424836 0.28182486 0.49673882 -0.5676539 0.12327386 -0.1303411 -0.0740608 0.8233911 0.19261353 -0.20934281 -0.9350495 0.2686552 -0.59222525 0.33785427 -0.22841321 0.18640165 -0.60604185 -0.6404949 0.34748545 0.5185766 0.27256465 0.47418866 0.47241566 0.74116546 -0.5792869 -0.44074324 0.49493107 0.08692181 0.21006489 0.59222627 -0.12586755 0.36440173 0.24146615 -0.58707327 -0.6214707 0.1429715 -0.36326572 -1.1864878 0.3282688 0.21236353 0.4424107 0.4622957 -0.3576277 -0.28629643 0.41200778 -0.012754321 -0.663877 -0.19855425 -0.3393493 -0.071198285 0.6269872 -0.2473908 -0.020566363 0.9843926 0.8010321 -0.032054394 0.47300047 0.54236466 -0.93053395 0.3328349 -0.6038289 0.18227033 -0.06771832 -0.655798 0.7113693
1121 -0.0656784 0.16358411 0.6421469 -0.30478576 -0.13653795 -0.09582912 0.071767524 0.4579576 0.39092296 0.72322774 0.51870334 -0.45282164 -0.22104962 -0.3018833 -0.1957366 0.02914978 -0.46024483 0.24985807 -0.095219575 0.21730597 0.25311658 0.4862775 0.4619192 -0.768066 -0.18464173 0.5713199 -0.19825333 0.637883 0.9563733 0.68430424 -0.72493964 0.37064388 -0.46636826 0.7352745 -0.24347657 -0.90818846 0.42258003 0.1759906 0.7699314 -0.17294669 0.76926714 0.36217186 -0.67566025 -1.3096001 0.58828396 0.16579847 0.060237925 -0.82430625 -0.3864945 -0.111358576 1.0292875 -0.26453704 -0.6106123 0.24929282 0.31454843 -0.6349604 0.61414605 -0.006299081 -0.40328115 0.15716977 -0.14778154 -0.63226414 -0.123453766 -0.029344933 -0.22800569 -0.47687435 0.33753103 0.27249062 -0.64842784 -0.4824047 -0.51118064 0.32695797 -0.16796575 -0.019131254 -0.31721026 -0.66032773 -0.006715786 0.3651689 -0.46185797 0.30261844 -0.039447445 0.5764798 -0.4816281 0.25151765 1.3342819 0.02710807 0.4883807 -1.0580345 0.08395623 0.45918915 -0.30861807 -0.45898274 -0.36237305 -0.31381655 0.26845708 -0.8352772 0.0002999345 -0.8243088 0.008486295 -0.64254624 -0.41593683 0.21804695 1.2960752 0.111913234 0.29912794 -0.16294762 -0.64632285 0.40964463 0.46089485 -0.15557659 -0.029159762 0.35778153 -0.21011615 0.39518237 -0.31640336 0.30130652 -0.1399763 0.17886652 0.21053407 -0.14705649 -0.36770275 -0.43697664 0.20381881 0.4220265 -0.03953221 -0.6150566 -0.26171687 -0.31589925
1114 0.13209055 -0.44908506 -0.39566505 -0.5814637 0.19637348 -0.6511472 0.48047167 0.22933076 -0.5383755 -0.0017078931 0.93622833 -0.25771287 0.37673256 -0.07884529 0.46433157 0.9866292 -0.0924875 -0.030630358 -0.85977006 0.5009845 0.52607095 0.39599124 0.08857754 0.24082354 -0.35723907 -0.33027318 0.37332022 -0.08861467 -0.28165755 0.073169276 -0.53267926 -0.4327938 0.8319737 0.11831815 -0.08747353 0.6625098 0.21982923 -0.12681046 -0.012504527 0.7033053 -0.12747736 0.31728294 0.30586162 -0.7796924 -0.7897389 0.64442325 -0.037803736 -0.003748662 0.101653524 -0.26524812 0.6140029 0.33663473 0.94389284 -0.24191175 0.27284163 -0.15797023 0.606433 -0.3752548 0.027051652 -0.07237357 0.25010836 -0.37128475 -1.0894827 -0.46546406 0.21294236 -0.7830446 0.3338917 0.17141153 -0.59015226 0.1280487 0.40488103 0.17491263 -0.17348039 0.10821087 0.46679097 -0.10459411 -0.65979254 0.2140914 0.122024864 1.2308561 0.10829004 -0.77882165 -0.3809337 0.73564905 0.13280241 0.06360445 0.607808 -0.93517184 0.821695 -0.14657614 0.74946564 0.24244164 0.266605 0.108402796 0.8938178 -0.35306624 -0.8537247 -0.8704724 -0.17681926 -0.5292038 -0.29621825 -0.059861645 1.1454637 0.11946811 0.11875679 -0.2593768 0.09785709 0.4306484 0.53076744 -0.9218487 -0.30235597 0.057047617 -0.1232432 -0.33483258 0.25754425 -0.18653779 -0.24930187 0.865931 0.19255124 -0.17422451 -0.19416851 -0.2815385 -0.31500304 0.72700363 -0.77505237 0.7111753 0.8280847 0.24553
1111 -0.14380477 -0.5989854 0.99962676 0.43487716 0.07205731 -0.77279085 -0.20415907 -0.064379424 0.025725726 -0.47747687 1.2892948 -0.01177091 0.44987577 -0.9879217 0.49724716 -0.026049599 -0.023352439 -0.1215103 -0.53315353 0.14147767 0.23233809 0.08926492 -0.20939451 -0.2328667 -0.5244331 0.42966485 -0.538759 0.13864098 -0.3628239 -0.20314145 -0.6124437 -0.27950504 -0.50512016 -0.25368187 0.29215488 0.110571004 0.24342656 -0.61726224 0.76681405 0.56960446 -0.56745577 -0.15457979 -0.3850969 0.07952733 -0.7350344 0.1608984 0.41742957 0.1953376 -0.37664703 -0.721042 1.0553899 -0.051169544 -0.22058627 0.43531862 0.12116093 -0.35232687 0.5374118 -0.16952546 -0.44958308 0.53954166 0.86728597 -0.42285386 0.5601545 -0.4343167 0.33626327 -0.9265088 1.1843597 0.48628423 0.4362737 -0.15495074 0.29061013 -0.39133158 -1.0245883 -0.38984683 0.10129522 -0.40196672 0.04580144 -0.16686411 0.05309405 0.07627044 -0.16101791 -0.15354878 0.3574211 1.4518837 -0.42960572 0.94761 -0.1145108 -0.24733163 0.2640088 -0.11074754 0.008037338 0.1291611 -0.23819922 0.034903254 1.0150748 -0.7169379 -0.93594885 -0.76015437 -0.08440367 -0.35748664 -0.38848644 -0.45395 0.9260272 0.16693008 -0.3393364 -0.28393462 0.33058867 -0.21717858 0.3408296 -0.83796906 -0.16793278 -0.42705965 0.5007143 0.18930377 0.68696404 0.27545804 -0.66113573 0.33027178 0.17397232 -0.395636 -0.6754627 -0.11011514 0.15894654 -0.00047995697 -0.5346171 -0.033883926 -0.61189955 0.37338606
1120 -0.13815093 -0.74933636 0.31195405 0.04049092 -0.061021935 -0.86722416 -0.1612029 0.2697338 -0.23561637 0.4165639 0.99752164 0.35179895 -0.47055793 -0.45328036 0.1412476 -0.042414557 -0.21842201 0.85051656 -0.29523543 -0.3406382 -0.06737169 -0.31991678 0.1339476 0.050089642 0.32126993 0.025331302 0.07480631 0.055905055 0.60523564 -0.64026344 -0.9547247 0.26687816 0.16710684 0.2408139 -0.6525909 0.66224456 1.0574512 0.18491325 0.24905555 -1.1469764 0.5055578 0.38814592 -0.3928459 -0.33919862 0.5319881 -0.5797156 -0.6392652 -0.9357267 0.6035039 0.39803043 0.79027796 -0.64530766 0.6748294 -0.16548462 0.13015921 0.35880727 -0.57084763 -0.20956278 -0.10860279 0.43464997 0.0104781315 0.057484753 0.45023972 0.56751347 0.062441602 0.43385816 0.5119936 -0.060770243 0.5989249 -1.019183 0.1014246 -0.1870585 -0.50826067 -0.7133653 0.61959344 -0.00035540055 0.029721288 -0.010750572 0.38073003 0.9481762 -0.58945984 -0.007876171 0.69986326 1.1666656 -0.033790965 0.5574318 0.6599569 -1.2516917 0.807718 -0.085757054 -0.32105285 -0.036694456 0.76792824 0.45782122 0.57285255 0.6328311 -0.450668 0.01459995 0.1400215 -0.013692461 -0.7228676 0.29303423 -0.6144828 0.22458251 0.87326866 0.3364619 0.26032928 -0.6726678 0.26250243 -0.40167844 0.7426947 -0.14062701 0.42307016 -0.34654483 -0.4493572 -0.53784233 -0.30875707 0.32399234 0.30321756 0.64585257 -0.16788879 -0.6112936 -0.043031164 -0.58629584 -0.2298567 -0.28699332 -0.23438512 -0.48272076
1117 0.5036812 -1.390639 0.75526977 -0.52463067 0.18467456 0.11181022 -0.47516564 -0.06130383 -0.33853108 0.39826107 0.648462 -0.7587109 -1.1806703 -0.025691286 -0.881225 -0.27116972 0.06485332 -0.29572484 -1.0952162 0.6138999 0.43842006 -0.21480243 -0.25262606 -0.1878509 -0.1899648 0.7533426 -0.73747253 0.25831187 -0.61142915 -0.51407063 0.17304012 0.1872092 -0.069663174 0.64781344 0.2912371 -0.55222 0.6187138 -0.07341945 0.18516554 0.11400313 0.27155954 -0.039026078 -0.24634956 -0.31026912 -0.17508072 -0.17150214 0.5772243 -0.49720138 -0.76839674 -0.3638311 0.1785512 -0.2173097 0.60985893 -0.13349345 -0.10935172 0.04908013 0.5685725 -0.4920017 -0.010443883 0.326516 0.7851992 0.36471155 0.5291891 0.19069712 0.026576461 -0.37925735 0.32749313 -0.15686652 -0.11629209 -0.280275 0.37551457 0.07918882 0.07939427 -0.7524967 0.2872084 -0.68974984 0.11506967 0.3809873 -0.73715574 0.24326818 -0.03306638 0.009775173 0.17376582 -0.3698174 0.57321495 1.2763759 0.3138301 -0.7245476 -0.25607362 0.56029934 -0.39650455 0.47066233 0.21920718 -0.09663237 0.63229424 0.5171889 -0.3589363 -0.7172806 -0.67381066 -0.6635942 0.0035317768 -0.25067052 -0.22463381 0.40152565 1.3566481 0.427038 -0.5803621 0.11874838 0.7119797 -0.11856385 -1.0454396 0.5677161 1.1392854 -0.5155091 -0.3931899 -0.05738439 0.13667466 0.60162157 0.061254077 0.2591824 0.3135687 -0.6073111 -0.02294628 0.6156536 -0.059718184 0.5172138 -0.49978685 0.34585968
1103 0.17570601 -0.41382262 -0.08906487 0.20877594 0.9758653 0.5398283 -0.017542463 0.28491825 0.8163632 0.28486726 -0.16533856 -0.970749 -0.49846852 0.26077655 -0.22650021 0.1731926 0.50162274 -0.09145963 0.07340894 0.9735884 1.6619202 0.007691971 0.37030324 -0.8537439 -0.8424321 0.6749872 0.1436856 0.15663956 -0.5041418 -0.39688072 -0.15577702 0.20619932 -0.51312906 0.22012965 -0.022749998 1.1296715 0.44905308 0.25828773 0.9107034 -0.40819588 -0.59384555 0.6204455 0.014912029 -0.63360286 0.39173475 -0.31909436 0.42393407 0.4598511 -0.05423698 -0.33713284 0.4119441 -0.02857054 0.7617503 0.7181743 0.37903175 0.69715595 0.54981595 0.41803262 -0.3306029 -0.26372722 0.23327887 -0.07784151 0.46686247 -0.12934484 0.4486203 0.4227997 -0.403064 0.59980345 -0.41275895 0.24633048 -0.19742863 -0.73410374 -0.44069657 0.12093004 0.12435881 -0.44484362 -0.31871969 0.08967442 0.12081555 0.52846307 -0.20294459 0.15491125 -0.26948154 0.5638659 -0.022867274 0.2149785 0.26440004 -0.64357305 0.68251675 0.385936 -0.12724869 -1.0073729 -0.30470586 0.004949727 1.219962 0.14081343 -0.7333355 -1.2186428 0.105068624 -0.22407319 -0.7772962 0.11657573 -0.3361716 0.51173174 -0.52479905 0.2677226 -1.09711 -0.76036114 -0.54503435 -0.5570312 -0.5630437 -0.80705756 -0.18633789 -0.46915615 -0.23467596 -0.22272354 0.37282062 0.33072472 0.5840534 -0.31571665 -0.99022734 0.066252574 0.31429467 0.31395197 0.0006855829 -0.13657743 -0.123432525 -0.006368107
1107 0.06407577 -0.8271503 0.06371821 -0.039776262 -0.12875831 -0.36462304 -1.3931792 0.030793227 -0.20237458 -0.006808426 0.6346965 -0.40321553 -0.7466137 -0.5906675 0.5820389 -0.769392 -0.29755536 0.26938555 0.18666144 0.15241237 0.9247418 -0.48755616 0.095961064 -0.31725934 -0.56099874 0.087173514 -0.22017571 0.24744181 0.70478725 -0.434759 -0.89175636 0.21804647 0.29559088 -0.3403714 0.3011752 -0.07054875 0.6548333 0.9526834 0.20150378 0.1785219 0.36014134 0.44261926 -0.41741568 -0.14212772 0.55133134 0.7668892 0.065461464 -0.24205631 -0.073060535 0.2830158 0.31135824 0.77678424 0.6486463 0.38665894 0.03452723 0.21142788 -0.122556224 -0.16219772 -0.2726911 0.23843467 0.48453435 -0.36034834 -0.09284752 -0.2953984 -0.10169069 0.22227618 0.13268968 0.78677815 -0.6713499 -0.21702804 -0.13565575 -1.1585724 -0.65300465 -0.4651199 0.44533637 -0.10846075 -1.2657661 -0.4625805 -0.3113359 0.2991294 -0.28833073 -0.15425473 0.9520013 0.5701185 0.8946292 0.63195366 0.32108852 -0.11475993 0.4874888 0.08677737 -1.0541157 0.025590554 -0.14188546 0.6241861 -0.2615625 0.2778039 0.115003355 0.13233054 0.07906564 -1.1470935 -1.122891 0.38505867 1.2323083 1.3391693 0.5039848 -0.0062267235 0.75029755 -0.4257271 0.077630475 -0.7355776 -0.6385775 0.27786246 -0.4888837 -0.92955697 0.34228927 -0.594415 0.63858503 -0.118195795 0.14211597 0.34365842 0.25882557 -0.2857699 0.7252389 -0.29655713 -0.71750873 -0.40837672 0.41306812 -0.5965241
1119 -0.4190294 -0.23442712 0.5809199 -0.15889852 0.5362332 0.29951322 -0.2848373 -0.09463601 0.66616994 0.33926123 0.74945134 -0.026837783 -0.24013783 -0.66478837 0.048554122 0.24436422 0.00875425 0.23968823 0.026155539 0.80897164 -0.38459963 -0.119330704 -0.20286281 -0.013018455 -0.48016998 -0.25297946 -0.6323706 -0.2237003 -0.38321027 -0.32523888 -0.085589714 -0.048287567 -0.78132635 0.102013014 0.08932097 -0.3570932 0.23730963 0.24356943 0.29814297 0.1591273 -0.6795989 0.7767348 -0.5230403 -1.1354616 0.2310734 -0.11565505 0.11361809 -0.12212878 -0.5573826 1.2510189 0.49236307 0.64854974 0.1672776 -0.51935756 -0.82456625 -0.097149275 1.4695457 0.2633828 0.0068240077 0.77581966 -0.44322696 -0.4331388 -0.39342105 -0.50836957 0.71605295 0.5558131 0.1453191 -0.25622243 0.548479 -0.21037346 -0.14899723 0.5388866 -0.48631424 -0.13045514 -0.22203328 -0.7557851 -0.34255868 0.4328548 -0.7809357 0.6361938 -0.21501213 -0.047893427 0.20390622 0.85304755 0.011634982 0.46862143 0.7106968 -0.40960762 -0.07659193 -0.15176253 0.5401297 -0.8014902 -0.07746532 -0.5029554 -0.5890947 -0.44770098 -0.18534079 -0.43529043 -0.33896697 -0.6438513 -1.6229551 -0.7439797 -0.0541286 0.54645437 0.0009065993 -0.42850325 0.16457345 -0.13441691 0.6643401 -0.95847565 0.2268437 -0.56647986 0.19584087 0.1875966 -0.98258483 -0.9004616 -0.6323771 0.22719115 0.106731676 1.1942916 -0.712834 -0.61717945 0.39796352 0.29481366 -0.380244 0.6767361 -0.51179034 0.33543676
1116 0.75821733 -0.52779824 -0.060800727 0.44852534 -0.05398729 0.47745255 -0.17821959 -0.3765997 0.42242074 0.2771707 0.8371888 -0.9439483 -0.7739447 0.36303782 0.99396366 0.24402995 -0.79370576 0.028929744 -0.030272447 0.68026584 0.4718485 0.94139063 -0.362831 0.26604316 -0.38629693 0.12303789 -0.54162467 -0.5735919 0.08137023 0.13592803 -0.86108404 0.42556518 0.78010297 0.3854418 -0.6510163 -0.73891985 1.1029102 1.0612665 0.8078407 0.103011236 -0.6308138 1.046784 0.4942063 -1.5398058 -0.27803263 -0.40868977 -0.9380712 -0.17405884 0.05831868 0.09260809 0.36068282 -0.80817324 0.46097082 -0.2577825 -0.5302178 0.58543986 0.7820734 -0.5618676 -0.47166014 -0.3081646 -0.21940875 -0.7286104 -0.4065999 -0.9162928 0.13181643 -0.35697094 0.57858 0.041034155 -0.60968846 -0.5038835 -0.2591783 0.15624674 -0.7018713 0.27343774 -0.6217751 0.032062154 -0.24323414 0.42566243 -0.43704534 0.65606505 0.08644914 -0.4081559 -0.30009377 0.7640055 0.049106125 0.43977445 0.56951046 -0.3390186 0.12267526 1.258789 -0.22764322 -0.28948516 -0.3276695 -0.71996087 0.6322137 0.07862433 -0.44942525 0.1448246 0.09230664 -0.70523214 -0.75008 -0.346807 -0.216946 -0.23643787 0.5467561 0.024142165 0.73549193 0.5102069 -0.59305936 -0.6501273 0.49773067 -0.12051189 0.23709749 -0.5949303 0.3913941 -0.39834046 -0.5319884 0.20347512 0.7705215 0.78657675 -0.12326811 -0.21118009 -0.30027795 -0.07459528 0.14395125 0.07378939 -0.3109282 -0.2599925
1096 -0.049098447 0.06274761 0.8792806 0.5863068 0.56816536 -0.28101835 0.49133274 -0.31852877 -0.4577661 0.3675149 0.6058089 -0.47031972 -0.036190122 -1.1534013 0.42953977 0.057786975 -0.053317457 0.59232706 0.2609908 0.9519844 -0.21153526 1.0281026 0.003060293 0.18702106 -0.89233464 -0.53474575 -0.70927095 -0.9113077 -0.2506144 0.1586886 -0.95921 0.77232355 -0.26605618 -0.21130191 0.29590484 0.0979334 1.2039549 0.45747095 -0.43053523 -0.20377705 0.26320556 0.30746314 -0.3507576 0.6836647 0.50738865 0.39851433 -0.68293506 -0.4593013 -0.5906934 -0.031167857 0.87448907 0.3491718 0.52559906 -0.5551535 -0.024448985 -0.40869105 -0.22925793 0.6750157 0.23705116 0.014644827 -0.23283763 -0.06813309 0.3639013 -0.01467274 0.40274578 -0.42735884 -0.30346516 0.22304578 0.096203096 -0.1542325 -0.24737032 0.3158624 -1.3870425 -0.64388293 -0.07034984 -0.9089226 -0.74295765 0.008660197 -0.6117407 0.6432007 0.11545195 -0.03622849 0.42973304 1.140878 0.6646371 0.43368876 1.0171646 -0.4452433 0.24298683 0.30867207 -0.5191054 0.3417552 -0.31983098 0.46406946 0.9562941 0.39595515 -0.3456906 0.4529938 0.07931444 -0.5226735 -0.1862256 -0.08764061 -0.33065233 0.32302025 0.6620434 0.34790054 0.1214556 0.69965297 0.21160817 -1.4278274 0.9296394 0.19053724 0.3949762 -0.26515335 -0.09706774 -0.43212616 0.29445937 0.20549355 0.0834879 0.542379 0.07967688 -0.4451404 -0.13541652 -0.3022855 -0.3206514 0.43404976 0.18171932 0.83600914
1108 0.4043081 -0.8397468 0.82116127 -0.19933501 0.092900865 -0.986265 -0.3509653 0.5314643 -0.024243642 -0.6619971 0.3943273 0.18398476 0.13945682 -0.3610094 0.1663808 -0.09172641 -0.5016379 0.39424145 -0.38639706 -0.41447964 1.0383327 -0.11017281 -0.9352537 -0.64469266 -0.108602874 0.0061307796 -0.260035 -1.0365694 0.46664876 0.6326702 -0.47655526 0.67867064 0.44121417 0.74213004 0.696586 0.49801496 0.5641225 0.70197624 -0.050944474 -0.692395 0.53718156 0.18627796 0.3153292 0.046054102 0.2829748 0.2077832 0.4377845 -0.4213363 0.34516928 0.43420118 -0.22737455 0.30838957 0.33767202 0.42503378 0.012517283 0.104779296 0.6792299 0.2548373 -0.4652095 0.16947512 0.20594284 -0.18760501 0.0033641567 -0.60895395 0.05794486 -0.72987705 0.36619017 -0.29194698 -0.24262734 0.31456736 -0.1739008 0.13964675 -1.0270482 0.29160222 0.0795412 -1.1270193 -0.6385158 -0.2778963 0.041791502 0.67154473 0.2355252 -0.03942223 0.8013831 0.597934 0.8478204 1.2494863 0.4768171 -0.96107626 -0.08019393 0.34350294 -0.1807155 0.2240528 0.39555073 0.10013888 0.35785767 0.35348505 -0.68998384 -0.4225185 -1.2213904 -0.18797792 -0.89914715 0.28051043 -0.24874294 -0.19912636 0.039244566 0.22790956 -1.0581458 0.24715918 0.032052096 -0.1381424 0.57651603 -0.1746837 0.73382735 0.22018385 -0.6959611 0.020491662 -0.29427865 -0.17811032 0.55801046 0.41997564 -0.5456888 -0.96437925 -0.3564442 0.11665149 0.54634935 0.29592273 0.3425788 1.3112451
1095 0.6267235 -0.63999295 -0.57656676 0.595054 0.9103052 0.6125459 -0.6346604 -0.22639452 0.17735843 1.1122142 -0.26401705 -0.35534704 -0.2225737 -1.2839427 0.15414175 0.06039782 0.19874603 1.0071367 0.044206176 0.667442 0.6922033 0.18904082 0.3995493 0.44814694 -0.45376274 0.14149685 -1.1626363 -0.03461341 0.08507402 -0.31032312 -0.4583332 0.50393903 0.46652672 0.027865103 -1.109509 -0.044056445 1.0602571 -0.34149367 0.6828983 0.27632415 0.7670663 0.20997414 -0.10573476 -0.45288977 -0.40613577 -0.1129718 -0.29432505 -0.104392156 0.26370558 0.61355877 -0.07066958 -0.21653014 0.5810303 0.51268345 -0.011964294 0.26347628 0.12729764 -0.4970088 0.102078035 0.4963006 1.3156987 -0.38940892 0.048411496 0.46088073 0.363364 -0.20744367 0.33985242 -0.056889422 0.02782721 -0.66147673 0.20619898 -0.14754684 -0.24405669 0.033815205 -0.36204588 -0.94090366 -0.85743904 -0.4307727 -0.26260504 0.5039751 -0.007808469 -0.3392315 0.67578083 -0.2869166 0.5617799 0.96680486 0.4888668 -0.26252457 0.022053013 0.14277829 0.20802401 -1.2594209 -0.45070872 -0.22034292 0.27738082 -0.020140016 0.19951186 -0.42147517 -0.09611622 0.18270369 -0.5442365 0.05635356 -0.3326865 0.024964647 0.13940762 -0.49028906 -0.46220505 0.43853453 0.43117177 0.3428757 -0.6290842 -0.20573795 0.6191482 0.07932636 -0.55824494 -0.62279636 0.08145025 0.6202177 0.49442616 0.6330357 -0.49237213 -0.8874138 0.06850875 0.5479188 0.45256346 0.3436159 -0.099824086 -0.6095071
1097 0.25725654 -0.41015014 0.5817936 0.13348204 0.38793215 -0.27875167 0.68095696 0.51517177 -0.5441609 -0.12337466 0.19655891 -0.7355442 0.16582014 -0.2986494 0.8966958 0.4103321 -0.36529788 -0.091829136 -0.9713316 0.038221736 -0.04853799 0.92129195 -0.6072832 -1.1480498 -0.22408032 -0.14126621 0.26160625 0.3111623 0.5044512 0.1358076 -0.46702224 0.32930267 -0.27265596 0.6933395 -0.8629651 0.19214515 0.25268665 -0.3256921 -0.12768742 -0.71382093 -0.14594965 -0.07790486 0.46304196 -0.6446367 -0.104356475 -0.25130105 0.19162624 -0.83079034 -0.08172279 -0.5010452 1.0539769 -1.1363053 0.79609364 0.071619004 0.24994196 0.10111872 0.7647318 0.059513383 -0.33357728 -0.57335496 -0.22606957 -0.36829636 0.11100587 -0.85752565 0.43255785 -0.28194013 0.46996167 0.22883125 -0.6316446 -0.6704023 0.5950405 0.44844782 -1.2961398 0.64871365 0.2604018 -0.78322715 1.1694365 -0.5954699 0.035797905 0.8153022 -0.3630683 0.04599985 0.089278035 0.8423508 0.5485247 0.10722125 0.6683867 -0.5317792 0.8530892 -0.30935052 0.72024316 -0.38147393 0.17857732 -0.19395912 0.31700933 0.20359248 -0.38548958 -0.977009 -1.3104318 -0.24088769 0.3264085 -0.17754236 0.28826115 0.96465397 1.7174499 0.41117197 -0.15720339 -0.043641638 0.3276445 -0.43532953 0.9034593 0.37272075 0.6547947 0.37484387 -0.23149925 0.1120922 -0.25243297 0.14878948 0.7604647 -0.3919275 -0.30321804 -0.2523104 -0.1453059 0.05743658 0.62475646 0.1745345 -0.41928226 0.67948663
1079 0.2900937 -0.3426019 0.90497106 0.358469 0.1677939 0.012114955 0.5303713 0.14433844 0.098075844 -0.4158065 0.9365233 0.86017853 0.14766237 -0.48110962 1.0221378 0.3361532 0.17140616 0.32834584 -0.7550594 -0.25796676 -0.16115597 0.66168857 -0.0034628853 0.6558299 -1.0239588 -0.41172743 -0.39077985 0.35265362 0.42605108 -0.5213501 -1.0645581 0.19368814 0.19512768 -0.41642335 -0.9426878 0.54313713 1.0669549 -0.107041724 0.4652796 -0.33352798 -0.42391333 0.5431996 -0.72218627 0.2936896 0.6855628 0.6650234 0.66235733 -0.2533014 -0.73826617 -0.08495554 0.704875 0.5520888 0.4555106 0.5639858 -0.3103658 0.10364478 1.0972357 0.83916754 -0.6754283 -0.09795121 -0.34264818 -0.13144985 -0.11244237 0.32079825 0.52502096 0.5220612 -0.2931508 0.059260968 0.6099715 -0.08491041 0.7178209 -0.10099145 -1.2949411 0.35269818 0.5926915 -0.29794714 -0.6257486 0.3434186 0.37573168 -0.079431765 0.26401708 -0.4760695 0.6305852 0.9150887 0.13212202 0.57627624 -0.4799145 -0.73411757 0.30113629 -0.88078034 0.0743667 -0.4670381 0.38714266 0.21593723 0.15512651 0.59447664 0.5753993 -0.6566307 0.91855454 -0.6287425 -0.7372604 -0.05574244 -0.20972821 1.0127114 0.07172894 0.06854704 0.024101429 -0.07936687 0.47777414 -0.15513596 -0.159851 0.35631883 -0.2650768 0.082162336 0.74706465 -0.5733217 0.7058836 -0.20543456 0.89437723 0.4376109 0.27461478 -0.99944437 -0.28430793 0.19258587 -0.10632089 -0.39431778 0.109480485 0.17346548
1091 -0.47031477 0.19205451 -0.6418177 -0.09170014 -0.3938096 0.25116062 0.03593726 0.18717872 0.33291104 0.50461715 0.005719641 -1.0765371 0.40079278 -0.107147366 -0.07227704 0.41599807 -0.27087098 -0.05566416 -0.5668659 0.38135377 0.29882184 -0.016757624 0.72729665 0.8958569 -0.62010276 0.3513403 -0.10359467 -0.66149986 0.07424069 0.36605048 -1.1563967 1.0052043 -1.0439894 -0.63995534 0.032636054 0.36027005 0.73865926 0.0918689 0.6939977 -0.51799166 -0.42734802 0.17567177 0.50757545 -0.04773125 -0.11848243 0.4234782 0.5429105 0.12513013 -0.09158292 0.34617367 0.1334157 -0.5752726 1.2888916 0.41784087 -0.25457758 0.5730703 1.0689884 1.1904888 -0.5400265 0.93969923 -0.3620194 -1.1261395 -0.08883513 0.16893744 0.28788036 -0.5874007 -0.38261774 0.089483686 -0.11777184 -0.65569305 0.22355662 -0.4469349 -0.95138216 -0.10002715 -0.47711083 -1.0396332 -0.3270929 0.39111906 -0.027276631 0.8554666 -0.1111976 -0.363372 -0.22985168 0.595177 0.52768546 0.48848957 0.25388798 -0.75388503 0.887524 -0.25202915 0.032173697 -0.375418 0.17571068 0.392655 0.1800995 -0.45706066 0.090763934 -0.3025683 -0.36385012 -0.5478948 -1.6062081 0.11105601 -0.037472308 0.8244539 -0.55819994 -0.53898704 -0.048220143 0.1772759 0.056484368 -0.35180452 0.40996757 -0.784226 -0.08319557 0.03331886 -0.79723114 0.46983704 0.35610005 0.41946766 0.64155483 0.6869475 -0.6214466 -0.7021156 -0.16068685 -0.0032608758 -0.62867486 -1.0635862 -0.72634673 0.6169238
1113 0.36230996 -0.4923644 0.13479178 -0.60064626 0.39955315 0.0045524635 -0.15127455 1.0097275 0.012034873 0.20848319 -0.3556171 -0.12812452 -0.067755245 -0.21767154 0.66393113 -0.010759282 0.12415218 0.96959174 -0.6832105 -0.63089496 0.40426618 -0.37124225 0.6164775 0.48267704 -0.57388717 -0.2961269 0.7309955 0.58876926 0.07013497 0.8209132 -0.718772 -0.06265724 0.2805739 0.39690107 -0.42761502 0.340065 -0.07951691 0.112614475 0.57596564 -0.50460476 0.5364852 0.47509181 -0.020096889 -0.151959 -0.102872305 0.80100214 0.7276463 0.121284984 0.44205293 0.21763086 0.32381058 -0.23134139 1.1871754 0.88675886 0.8582694 0.64706606 0.22409065 0.33368427 0.00080990174 0.13059786 0.030497836 0.16627789 -0.5244757 -0.46519977 0.4146471 0.015942216 -0.6497232 -0.20391087 0.34896597 -0.37255883 0.22270004 0.13141292 -0.56942886 -0.33633298 -0.6158696 -0.43302324 -0.30398008 -0.26304024 -0.6735471 0.31671733 0.23410036 0.11818175 0.8368693 0.13735978 1.3480451 -0.6290333 0.41904476 -1.7093506 0.614294 -0.60339296 0.2382618 -0.92382187 0.092342354 -0.03590874 0.1907777 0.035409946 -0.8022736 -0.8697761 0.12138856 -1.0118723 -0.59474367 0.20387834 0.5651228 0.7745657 -0.21705206 0.14278248 -1.4015875 -0.7828671 -0.5120284 -0.354297 -0.69550484 -0.087941416 -0.049567323 0.61642385 -0.8603533 -0.052400164 0.14186186 -0.007035201 0.3814358 0.72843033 -0.25757864 -0.6113312 0.93757486 1.6490763 -0.09170946 -0.23515198 0.26663536 -0.43089044
1094 0.420099 0.12625147 0.87184316 0.5183295 0.5950398 -0.2436897 -0.106428415 0.8175018 -0.315623 0.4588212 -0.22474349 -0.46137908 -0.5549211 -0.16016391 0.9079407 -1.1579189 0.55270195 0.2326297 -1.0802466 -0.39275786 0.5667503 0.13943043 -0.7878516 0.0035742323 -1.1517135 0.4757373 0.42956796 0.8817651 -0.44800127 -0.10601495 -1.1582971 -0.10170894 -0.6165437 -0.112917 -0.20696367 0.09035591 0.45915535 -0.2725927 1.3473246 -0.2891122 -0.05311347 0.17089738 0.15359166 -0.27479258 0.20100954 -0.02503837 -0.34489593 -0.10957722 0.39989635 0.44296452 -0.29084373 0.22856021 0.8000938 0.36871547 -0.56590515 0.3261888 -0.24571449 -0.15724848 -0.5877834 0.71321386 1.0004157 -0.41584772 -0.26042047 0.5442889 0.5774799 -0.27667326 -0.473047 -0.1220418 -0.25060847 -0.012167731 -0.60399556 0.2794239 -0.0071606226 -0.18990761 -0.34541243 -1.2233207 -0.7889629 0.5546836 0.118117325 1.0413353 -0.355035 -0.46654534 0.82082295 0.22659953 0.28452134 0.7797748 0.17421344 -0.7393133 0.8667965 0.12892726 -0.06348654 -0.68445945 -0.39505863 0.52086353 -0.25405324 0.07551539 0.25674686 -1.2082596 -0.4081687 -0.539022 -0.0830767 -0.2372761 0.6626553 0.6710334 -0.24463955 -0.44231483 -0.42960602 -0.32222584 0.29443827 0.118453786 -0.46848786 0.09846825 0.789993 -0.080297075 -0.108364716 0.20411064 -0.64410514 0.6433232 0.5243132 -0.49997157 -0.37126562 -0.59212077 0.09413066 1.085669 0.20071538 0.041094963 1.3582478 -0.1227504
1115 0.30904615 -0.06673759 0.25001085 0.14825211 0.60911095 -0.14061776 -0.38801256 -0.12501243 0.58999807 0.29871985 1.5497911 0.13985349 -0.13066758 -1.0623772 0.46665436 -0.15021458 1.021747 0.49751738 -0.38081318 -0.7099786 -0.12490492 -0.27199063 0.62295413 0.47791743 -0.42233667 0.9376278 0.035665944 0.23196118 -0.12599882 -0.41552147 0.17054978 -0.49377432 0.9889118 0.48710397 -1.1339961 0.2672555 1.884194 0.46269915 0.43683246 -0.10540883 0.28544515 -0.5333215 -0.04918439 0.0967988 -0.15580419 0.64006054 1.1826916 -0.4825794 0.15907143 0.033570174 -0.21541508 0.80645204 0.51344675 1.0971026 0.023503894 -0.36200973 0.29938176 -0.3002525 -0.6068015 0.8861877 0.48751366 -0.10350968 -0.27361846 -0.8938168 0.23383656 -0.5815644 0.26152217 -0.30710524 -0.49131575 -0.08862942 0.73065674 -0.29018787 -0.24362966 0.07486909 -0.4264422 -0.18596159 -0.82553047 -0.06963348 -0.0286694 1.3236375 0.1308558 0.27330944 -0.011600175 0.48444262 0.37842578 0.6262737 1.0090798 -1.3156965 0.104793735 0.21274897 -0.84016526 -0.021939997 0.19652827 0.5470391 0.71367633 -0.18616721 -0.1928627 -0.4512917 0.32954985 -0.68286794 -0.90121126 -0.28619835 1.4684489 0.08018452 -0.055190865 -0.7096005 0.2597196 0.045700137 0.2787719 -0.2115963 -0.69510937 0.117358856 -0.09110226 -0.4591484 -0.49434832 -0.3416658 -0.8531038 0.15625161 -0.30129775 0.8562478 0.46097994 -1.0577812 0.9092547 0.08130474 0.09218667 -0.9040106 0.012000614 0.18114474
1061 0.1778839 -0.086164 0.5137854 -0.35038823 0.768528 -0.22284497 0.21485265 0.096785076 -0.005735149 0.094342984 0.315744 -0.30366004 -0.051912155 -0.9663102 0.976969 0.44274148 0.025907068 0.21811774 0.9341013 0.8496068 0.5834193 0.55544543 0.05044893 0.25331408 -0.2354796 0.69033825 -0.93492293 0.21978132 0.5831066 0.084204845 -0.03283322 0.0958262 0.097573675 -0.14290269 -0.8323449 -0.8520692 0.5682422 -0.102951065 -0.37001973 -0.16626482 0.7194942 0.30745596 -0.21872143 -0.123680964 -0.09907994 -0.113440834 -0.14134873 -0.29520527 -0.024755007 -0.086636886 -0.41568416 -0.40924856 0.70054203 0.5276485 -0.04195412 0.14388914 0.3114507 0.51934505 -0.038345862 0.42541602 -0.31071737 -0.25959545 0.07947559 -0.3108795 -0.05399811 -0.5107917 0.4175605 -1.308825 0.26086605 0.28073925 1.1230608 -0.66869086 -0.6869054 -0.32714218 -0.80566126 -0.6696978 -0.19520046 0.2465544 -0.17750105 0.7755152 0.15225823 -0.3416154 -0.20099455 0.88958496 0.9332925 0.76351553 -0.303296 -0.23877098 -0.34940132 0.4786888 -0.11483484 -0.49035516 -0.52081543 0.18813108 0.056113414 -0.7821047 -0.728839 -0.09961088 -0.5499727 -0.098347515 -1.1483717 0.011467241 -0.9040871 0.0930701 1.1108528 0.10650677 -0.023603275 0.33725896 0.47574964 -0.35174617 0.14834979 -0.54103786 -0.10944592 -0.6096656 0.0040721744 -0.7242508 -0.17441344 0.11617034 -0.032215368 -0.0039741113 -0.9060535 -1.2196298 -0.33742446 -0.49191743 -0.7120375 0.15817182 -0.34092036 -0.035061486
1105 0.08001607 -1.6510655 0.5871872 0.3275898 -0.11570983 -0.25658935 0.99745995 -0.9128293 -0.19094688 -1.1636357 0.31239867 -0.64995515 -0.2671571 -0.39733997 0.805343 -0.18403718 0.08966038 0.3334371 -0.937579 0.022410017 1.4883275 0.8671234 -0.13871124 0.33037114 -1.0142545 -0.16144104 0.8926662 0.49624363 0.3288911 -0.86279577 -0.45767182 -0.045908675 0.4171858 0.06542935 -0.2909822 -0.56779623 -0.192484 0.1014814 0.29235893 0.14278162 -0.1861832 0.39218548 -0.5005381 0.56111765 0.5148125 0.21528396 -0.048892856 0.081991844 -0.32731634 0.41543773 0.49811947 0.11866043 1.0275707 0.58964694 -0.008126015 0.3024079 0.27389345 -0.4591414 -0.6555864 0.26968613 0.54767394 0.558283 0.47424632 -0.5158236 0.5367125 -0.2362194 -0.5065674 0.36177447 0.3621889 -0.14177409 0.048871547 0.43711713 -0.46131167 -0.37851086 -0.015138569 -0.21366605 -0.5504985 0.20745274 -0.24961992 0.62387824 0.22875735 -0.24619144 -0.11199944 0.5168895 0.3978989 0.04898422 1.4180781 -0.5288835 0.5133848 -0.33298543 0.32236612 0.12790416 0.19077699 -0.520925 0.39931154 0.3893642 -0.07188798 -1.0363755 -0.119596265 -1.6742771 0.26776958 -0.79120255 1.4146621 0.14406753 0.01944643 0.41652215 0.29737368 -0.22773165 0.24668339 -0.9021723 -0.07914052 -0.9646654 0.20268123 0.679772 -1.1254117 -1.2261435 -0.11451465 0.19836433 0.3854765 0.4159817 0.44848907 0.15121853 0.17084211 0.6092049 -0.19585131 -0.05910043 -0.7372904 0.14728303
1112 0.36708823 -0.7384603 0.77009153 -0.5351413 0.21947758 -0.5033389 -0.85197437 -0.13944358 -0.18829718 -0.3691197 0.6395897 -0.51620674 -0.3041136 0.77137566 0.38192582 0.4522038 0.3243596 -0.15881512 -0.19713967 0.08517118 0.7561258 0.3774712 0.058099747 -0.74735945 -0.81818104 0.15022007 -0.24285123 0.16612484 0.0027313903 -0.685901 -0.25587624 0.41576874 -0.9099531 0.8228936 0.049291667 -0.16216643 -0.28902316 -0.1969271 0.01675693 -0.069685705 -0.6847217 0.36365515 0.39734846 -0.7203515 0.37455156 -0.2209965 -0.6405655 -0.18550952 -0.33483592 0.31131265 0.056211613 0.23511156 0.5428184 0.72137123 -0.94338346 0.45147872 0.24732171 0.24630217 -1.1146973 0.1201118 -0.7226614 0.84167284 -0.55060315 -0.30237865 0.36591816 -0.03636608 -0.20235026 -0.2969567 0.973907 -0.17445043 0.44325426 -0.22407867 -0.9522169 -0.7208397 0.43679416 -0.5508836 0.4452077 0.66830266 -0.3809882 1.0491968 -0.19789588 0.47889462 0.549473 1.0749139 0.62992954 0.93010217 -0.11697837 -0.9404712 0.6176985 -0.21350467 -0.11692537 -0.47110152 -0.37940302 0.5651099 1.3651702 0.48894376 -0.062165525 -0.84765095 0.124580525 -0.98782235 -0.25644836 0.10233487 0.16447794 1.0234089 0.68990797 -0.11272988 0.22243589 -0.19489744 0.2450828 -0.39796743 -0.8499991 -0.7673642 0.7079862 -0.3507803 0.0020969633 0.64182967 -0.13188171 -0.095517576 0.9349628 -0.6904127 -0.22740999 -0.049150083 -0.05730311 -0.049665894 0.66015404 0.26662415 -0.11094468 0.5933424
1051 0.57640475 -0.38662997 0.44171503 -0.09936938 1.0346208 -0.19602089 -0.1858707 0.09447512 -0.0991974 0.09145593 -0.56211597 -0.5063917 -0.57492495 0.004766184 1.0532874 -0.36659688 -0.17559716 0.38046125 -1.1160312 0.41421917 0.622861 0.60642415 -1.006924 -0.16855301 -1.5155349 0.37485507 0.10481353 0.49372876 -0.31363302 -0.39200413 -1.2803575 -0.52330726 -0.3638665 0.26605976 -0.770651 0.14541113 -0.46591926 0.014196218 0.7129896 -0.51346904 0.25315318 0.2748544 -0.91207105 0.29107678 -0.23957548 -0.11850464 -0.81274986 -0.13338955 -0.5506953 0.40446204 -0.036053933 0.2570364 0.21669117 0.7193009 -0.50886214 -0.19789284 0.23751767 0.13652632 -0.14124821 -0.01588053 0.37843344 -0.04853423 -0.16087346 -0.085221216 0.47126147 0.099444024 -0.6516892 0.45208135 -0.7283257 0.35789895 -0.6889009 0.2657173 -0.45134297 0.20632038 -0.30676278 -0.68052167 -0.97298574 -0.20624825 -0.39724162 0.2188186 -0.5248273 -1.1981914 0.72018284 0.39910588 0.94101137 -0.32794455 0.6561877 -0.9371002 0.17814954 -0.08056808 -0.32088783 -0.8564488 -0.32277146 0.28630194 -0.11743732 -0.094756626 0.101013206 -0.5926792 -0.6159786 -1.0912215 -0.2924541 -0.66344863 0.54325145 0.7476543 -0.058072697 -0.029989418 -0.44256893 0.45622033 0.74345696 -0.016853156 -0.082449466 0.23725528 0.7164422 -0.18668514 -0.63422036 0.11050067 -0.47442666 0.22344263 1.0697258 -0.34801367 -0.2430281 -0.4419191 0.23446779 1.1590178 -0.4985964 -0.11020676 0.71693075 0.5162036
1066 0.2891639 -0.6668062 -0.58692014 0.7653157 0.5420342 0.41658106 -0.8918095 -0.41924375 -0.5117756 1.1969976 -0.59810126 -0.7235578 0.07836373 -0.11628554 0.5658426 0.71300346 -0.50975007 0.6020935 -0.11884356 1.0387195 0.6295711 0.68215644 -0.64601827 -0.13720404 -0.7062748 0.43165016 -1.3541349 0.9272489 -0.19104291 -0.12015403 -1.0578789 0.10319516 0.39046198 0.5553092 -0.7713216 0.54512346 0.6448381 0.12046584 0.70755124 0.33160844 0.3079738 0.45173895 0.115126744 -0.21587773 -0.1355973 0.15264349 -0.6589144 -0.28925186 0.7476132 0.435849 0.060309656 0.07554447 0.33899316 0.26717076 -0.23450126 0.00021586758 0.3778891 -0.7551641 0.20808432 0.049663153 0.7759355 -0.5010971 0.46850005 0.3995902 0.5247043 0.35340658 0.34553292 0.015844777 -0.27375922 -0.96247226 0.059882015 -0.9225969 -0.2891101 -0.5550064 0.22617221 -0.48544416 0.13923953 -0.44764394 0.019757703 0.3161419 -0.30564785 -0.26591378 0.30125666 0.16706406 0.48938313 0.3489677 0.7909104 -0.6740756 0.39317167 0.37080872 0.1343494 -1.1292979 -0.07312604 -0.2247022 0.027971648 0.15398669 -0.28218025 -0.8204711 -0.31080556 0.19592199 -0.7961917 0.43158343 0.112572655 0.37684944 0.23937489 0.50480837 -0.1520257 0.5062007 0.45843256 0.75666374 -0.6275671 -0.020296618 0.5119111 -0.506162 -0.9177002 0.048930388 0.16654153 0.37930676 0.82891315 0.452839 -0.5623709 -0.33169195 0.04030082 0.8953914 0.10493786 -0.3608498 -0.6969971 -0.64179546
1088 0.23205584 -0.27599192 0.14071539 0.27612242 0.91539985 0.8591685 0.28025696 -0.10770326 -0.2193053 0.29057795 0.2395269 0.0044790064 -0.351312 -0.97762215 0.54964304 0.0074563534 0.44489464 0.24263376 0.05102851 0.6614112 0.73508686 0.3031558 0.51972085 0.81454456 -0.7968609 -0.19293894 -1.0670518 -0.048277505 0.2367967 -0.4446166 -0.0028254685 0.24165085 1.0844558 -0.17883001 -0.7121877 -0.43859962 0.7846014 -0.45747277 0.28952554 0.16654244 0.64285165 0.2411088 -0.23721291 -0.5082163 0.15017653 0.18738607 0.6545225 0.11861576 -0.57586396 0.04025685 -0.050296158 -0.44659057 1.4653722 0.48494276 0.3783379 0.95804167 0.022845088 0.6147815 0.10117484 0.7334943 0.15957592 -0.5795203 -0.22264595 0.62133175 0.29813114 -0.35505998 0.25229928 -0.41912934 0.42041746 -0.4645173 1.5636113 -0.081528835 0.08535062 -0.15404864 -1.0975748 -0.54558283 -0.7489152 -0.15823504 -0.19344608 0.9625792 -0.048949152 -0.24217324 -0.6044014 0.42652845 -0.015420796 0.64354336 0.24618044 0.40108225 0.3511168 0.09709345 -0.32096598 -0.3032306 -0.07010024 -0.70979726 -0.07708716 -0.00807901 0.20424846 0.09135508 -0.18099627 -0.021555103 -0.6445875 0.15259087 -0.50042576 -0.40046674 -0.060715493 -0.044048846 -0.14200689 0.53756654 0.18307333 -0.22419049 -0.3250389 -0.5035962 -0.55395645 -0.14658539 -0.84511214 -0.95823246 -0.11029084 0.7651684 0.23545758 0.58080614 -0.54815364 -0.66510785 -0.024144575 0.39565247 0.101108156 0.62698054 0.15120855 -0.7963557
1098 0.21130826 -0.67926174 -0.124444894 0.0571926 0.7913986 0.9607995 -0.7078092 1.225712 0.3907643 0.73551273 1.5864903 -0.10511044 -0.5812127 0.08606381 0.311687 0.3548262 0.20134366 0.09079954 0.06743461 -0.08080538 0.66117156 -0.13161972 0.95820326 -0.10798225 -0.06578491 -0.003918669 -0.11149191 -0.049142662 0.16286717 0.68172 -0.081219286 0.14343804 1.0039386 0.1497845 -0.3221246 -0.03643982 0.5234579 -0.20108007 0.7867253 -0.38599622 0.13901706 0.18674451 0.017929628 -1.0938998 -0.22242576 -0.16716717 0.9053604 0.20741421 -0.5261512 -0.067248255 0.34358346 0.15475471 1.486619 0.90439516 0.24035205 0.20454563 0.25832558 0.28760386 0.32647583 0.5501672 -0.14457156 -0.257095 -0.5147621 0.1315701 -0.48119974 -0.7543152 0.2496933 0.88751686 -0.26788148 0.32930085 1.4707234 -0.6007511 0.08946554 -0.59102243 -0.19376816 -1.0030539 -0.7176333 0.12605762 0.24096362 0.5144112 -0.006475507 0.5706129 -0.57962155 0.6439699 0.9733742 0.67118627 0.30713022 -1.2271236 0.48852825 0.3415551 -0.6995412 -0.26071942 0.17156948 0.010521518 1.0799454 -0.031012395 0.23964608 -0.77369493 0.6420076 -1.2119368 -0.7758379 0.5522434 -0.15018173 -0.22861867 0.31291172 0.013368463 -0.72192115 -0.014397569 -0.8835902 -0.65978473 -0.6290603 0.932398 -0.35839957 -0.3649252 0.39719883 0.48232925 0.88376987 0.11300843 0.5702096 0.60432655 -0.52864796 -0.7104964 0.13751487 0.23773578 0.33592921 -0.24866794 0.32069686 -0.42963028
1100 0.17582694 -0.5123233 0.7244127 -0.019148113 0.23789853 0.05753156 0.39882764 0.30511844 -0.039389778 1.1359204 0.6491294 0.0016423243 -0.810543 -0.036923975 -0.49185464 -0.29508668 0.7626803 0.11926335 -0.878956 0.29331934 -0.21108297 0.25391358 -0.37304476 0.26247427 -0.5950886 0.07624084 -0.25184178 0.47138137 -0.21136102 -0.07514854 -0.5107274 -0.10316461 -0.38931644 0.67102855 -0.1901758 -0.0297723 0.7640679 -0.44366455 0.64748424 -0.10721424 0.24136011 0.5027781 0.2712544 -0.72174656 -0.24220994 -0.533181 0.23559304 -0.09290224 -0.44276527 -0.15573198 0.42662612 -0.18430029 0.47594258 -0.77270526 0.378895 0.15391803 0.6212017 -0.32762134 0.78971124 -0.4153832 0.95326823 0.46408248 0.28912035 -0.41294906 0.8669384 -0.31288972 -0.28000966 -0.00068000326 -0.005875806 -0.8723924 0.52678686 0.1747421 -0.40352815 -0.31016603 -0.44011408 -0.885262 0.16114399 0.015772356 -0.5823947 0.7906992 0.29698768 -0.49153534 0.06701593 -0.12932596 0.11170239 1.2483262 -0.10498868 -1.0295341 -0.3702875 0.40751407 0.7704927 0.30229986 0.5099764 -0.4105581 0.13302237 0.49456012 -0.38929123 -1.0419017 -0.028254978 -0.6413049 -0.20404895 -0.41250572 -0.7447876 0.14334497 1.1361632 0.22058466 -0.8086556 0.3092373 -0.017313814 0.008609517 -0.27643028 0.42554972 1.4664222 0.034777272 0.049663674 -0.9063439 0.32046637 0.71809256 0.29285908 -0.27731767 -0.16739601 -0.46004418 -0.51284254 -0.08478239 0.025513068 0.61348975 0.3275094 -0.08177458
1104 0.2089541 0.2513514 0.995931 -0.40379572 0.71551347 0.19104032 0.7907558 0.16226341 -0.22394483 0.28630617 0.822216 -0.21142866 -0.5581857 0.077414736 1.2660122 -0.7622868 0.37219295 -0.19259048 -0.3386315 0.6830279 -0.39808393 0.043249425 -0.2679185 -0.26240966 -0.10049819 0.022286952 -0.7167483 0.20357993 0.7520068 -0.031561654 -0.50905657 0.20615102 -0.4508193 0.878883 -0.42107192 -0.25097176 0.68992144 -0.13850802 0.035709582 0.041012146 -0.90226054 0.037335146 -0.4460435 -0.049277704 1.1013143 -0.2335794 0.051651973 -0.3762002 -0.7065148 -0.6984912 0.9677345 -0.23085022 0.36471018 -0.51362455 -0.43858534 0.70387 1.1884756 0.12906694 0.21130353 0.12880483 -0.71865916 -0.46831945 0.63325167 -0.15519571 0.89609987 -0.06337669 0.37535846 -0.0805664 -0.33722824 -0.39076793 1.1109718 0.19811831 -1.2939268 0.39758453 0.6155916 -0.7207731 0.03124492 0.017344972 0.03530905 0.15099731 -0.6386585 -0.11845946 -0.2769906 1.0843103 -0.1556301 0.5321133 0.15873149 -0.7895214 0.62575865 0.3403319 -0.37825716 0.08630685 0.79200345 -0.21279684 0.6402657 0.08107749 -1.101904 -1.1075518 -0.18688846 -0.22376925 -0.60280406 0.39329055 -0.3938478 -0.84179586 0.8542894 0.77454877 -0.36166367 -0.10151972 0.034093726 -0.6353502 0.6675496 -0.22635628 -0.3584405 0.23485507 0.14406209 -0.37053895 0.4722419 -0.13556352 0.24630941 0.36415613 0.4483916 -0.5795291 -1.1078027 -0.13745256 -0.85038686 -0.5779116 -1.4957654 0.68970174
1093 0.14736754 -1.0112314 -0.0975327 0.08170697 0.4791438 0.59729177 -0.23542057 0.6799355 0.41627255 -0.09710256 0.2616119 -0.5972742 -0.08690853 1.0771784 0.051636502 -0.2959577 -0.17400822 -0.028933939 -0.85670567 0.25695205 0.57664305 0.36397818 0.58880013 -0.65951467 -0.37237138 0.7042587 0.32982156 -0.51624274 0.23465852 -0.25947818 -0.4144923 0.47111544 -0.07424108 0.7298465 -0.7129688 0.7018219 0.23107432 0.49378297 0.06969509 -0.2770749 -0.8851282 0.9189943 -0.06267971 -0.5245768 0.12512042 0.042784188 -0.09797173 0.36272234 0.47165316 -0.13963516 -0.006018317 -0.034665428 1.3169938 0.8236374 -0.545596 0.7462086 0.18674327 0.042407516 -0.27952415 -0.5827833 0.7368316 -0.39576086 0.013028721 -0.13246514 0.16638121 0.019965544 -0.3137165 0.7249191 -0.7504918 -0.04146982 0.62215537 -0.8271272 -0.8733951 0.23114431 0.89593583 -0.71198606 -0.40531322 0.22274664 -0.007123079 0.3856893 0.3229238 -0.16148408 -0.26996678 0.6895847 0.30354103 -0.19279104 0.46768993 -0.77035904 0.81649363 0.35475048 0.60075736 -0.04688343 0.29999045 0.078126535 1.6336257 0.3226441 -0.4098693 -1.0387886 0.104126774 -1.0962298 -0.12884839 0.0704661 0.2106873 0.2954236 0.6676639 0.4135802 -0.8991806 -0.08498548 -0.24292523 0.028165808 0.26777378 0.26683563 0.563625 -0.51133245 0.32567945 0.19974354 0.660704 -0.5124483 0.97718185 -0.08771472 -0.000163666 -0.41087767 0.17430657 -0.19047275 -0.20293806 -0.6104458 -0.3744204 0.025275521
1034 -0.2252789 -0.98558533 0.374305 0.38331947 -0.432001 0.009879128 -0.9141527 -0.20674534 -0.46975213 0.55051 0.99674606 -0.58869356 -0.3637598 -0.083239034 -0.0133111635 -0.28714177 -0.5794391 -0.31743774 -0.25341174 -0.10406268 1.5003405 -0.07258715 -0.91463864 0.31221205 -1.0784642 -0.03506905 -0.6212978 -0.30282372 -0.13469279 -0.3093125 -0.6375812 0.6299651 0.7542864 0.083655745 0.43074548 -0.31065133 0.33019558 1.0314546 0.4163658 -0.33597946 0.28435612 0.5784471 -0.50902444 -0.38608143 0.1308571 0.34734583 0.28360617 -0.29884732 -0.0125596095 0.17841318 0.57996565 0.4874604 0.28948355 0.9718669 0.061478928 0.13621405 -0.46174 -0.23356186 -0.82056767 1.2659343 0.5771441 0.06401092 -0.21849744 0.15836568 -0.3753255 0.03535875 -0.56000626 0.81932527 -0.31533822 0.26270166 -1.1910903 -0.41216484 -0.35905603 -0.08575209 0.5896177 -0.43770006 -1.2411219 -0.44343188 -0.3086037 -0.12988105 -0.05326309 -0.1196948 0.9693357 0.094111316 1.1569581 0.81777203 -0.08224308 -0.54502183 0.10919139 -0.60459864 -0.74638563 -0.23472819 -0.12016876 0.28733897 0.7461759 0.29237357 0.39374778 -0.26942995 -0.07698548 -0.98026395 -0.96312815 0.040836807 0.421715 1.1164453 -0.4753524 -0.030476045 -0.0860754 -0.019866595 0.7503472 -0.62386745 -0.44876468 0.18622537 0.15595967 -0.43116307 0.22570065 -0.49491665 0.19699906 0.10319547 -0.09509427 0.44033527 0.08410214 -0.495226 0.9326605 0.61515784 -0.12586395 0.29668966 0.8992172 -0.4322351
1090 -0.27700874 -0.11233473 0.8468811 -0.17751282 0.22731516 0.58244395 0.09167221 -0.6543953 0.18673903 0.19287841 1.2194489 0.36374357 -0.21266283 -0.7814236 -0.037340563 0.592816 0.6123917 0.6668292 -0.250066 0.1245988 -0.004719124 -0.0882848 0.816172 0.15602237 -0.43893644 -0.25893593 -0.34423143 0.5267977 -0.19842508 0.5331568 0.0340864 -0.35287672 0.5625123 0.604102 -0.3849458 0.16900408 0.86531985 -0.3647154 0.047273368 -0.18899846 0.7655228 -0.72073627 0.67734754 -0.8892118 0.4745382 0.17089759 0.39335707 -0.54526025 -0.27043954 -0.058071446 0.2178961 -0.29040793 0.4769154 0.37069356 -0.36526942 0.59892195 0.27209395 -0.18599063 0.22905605 0.79772544 -0.7654772 0.18486151 -0.46342942 -1.4035696 0.09129516 0.014305283 -0.73143995 -0.5067162 -0.18569979 -0.44837138 1.3501799 -0.5699815 -0.79779476 -0.32148778 0.040596794 -0.9984008 0.13037065 -0.9349257 -0.22561423 0.7858254 -0.4044998 0.50327104 0.97675073 0.5930769 0.36213896 0.6578844 -0.04103622 -0.9669635 0.6018261 -0.1886196 -0.44355103 -0.26273918 0.6755437 0.51976544 0.3751788 0.42275518 -0.62063557 -0.8312525 -0.52525055 -0.19966745 -0.92201227 0.009659396 -0.6220468 0.6224991 0.796509 0.4973861 0.2472803 -0.58277464 -0.21184815 -0.9627473 -0.46181616 0.24086525 0.23753077 0.22175808 -0.70467067 -1.4153236 -0.47021434 -0.5125044 -0.37373197 -0.15302494 -0.078354895 -0.22427285 0.031019483 1.0686415 0.18979129 -0.23393384 -1.2116311 -0.54865164
1069 0.20680611 0.4328077 0.34789136 0.15305148 0.4456815 0.56814444 -0.6283078 0.5775318 -0.37827328 0.41631925 0.24116205 -0.22455792 -0.81012285 -0.3016037 0.46916518 0.18871558 0.4973613 1.2911863 0.15422629 -0.4647277 0.3487291 -0.0956891 -0.3465686 -0.26221123 -0.6457915 -0.02677811 -0.40146008 -0.29542708 -0.077707626 0.16803233 -0.5323418 -0.039593104 0.20417185 -0.115397714 -0.22509679 -0.1807787 0.34217128 -0.7663793 -0.09145691 -0.7501902 0.2030535 -0.24648255 -0.6644907 -0.23071797 -0.1339007 0.60154885 0.40609917 -0.6322833 -1.1898814 -0.07480608 0.68751675 0.88845366 0.77291507 0.5448821 0.03889996 -0.08965401 0.748177 0.9381458 -0.56531966 0.5962162 -1.0154997 -0.5794978 -0.1524355 -0.5631819 -0.10320397 0.12873799 -0.24947694 0.20993567 -0.10408736 0.07933012 0.07448998 0.09556758 -1.2273306 0.17127003 -0.6776757 -0.90259314 -0.99077934 -0.11893546 -0.54375875 -0.013200044 -0.23663029 0.018861273 0.63864845 1.0705965 0.7222737 0.4637396 0.7317577 -0.19925672 0.71164256 0.25825375 -0.62421924 -0.38334355 -0.8616868 0.16743407 -0.4927797 -0.4182648 0.23278189 -0.34773138 -0.86335737 -0.3097693 -0.38391456 0.34933975 0.20546883 1.7269855 0.95383567 0.019337408 -0.025663152 -0.3606451 -0.22220504 -1.1401702 0.17821103 0.042342264 -0.9531765 -0.026739059 -0.32454616 0.38745555 0.062656984 -0.727021 0.5534316 0.36775675 -0.36094353 -0.9932037 0.512428 0.12690522 0.3519511 -0.5618538 -0.46485737 0.4629506
1080 0.28875756 -0.6820638 0.2799164 -0.01313865 0.51962805 0.47954807 -0.088602 -0.34863213 -0.09730241 0.67303014 0.21744841 -0.2317562 -0.06533415 -1.0830716 0.9786422 0.33799067 0.5861836 0.66962695 0.30929706 -0.27704844 -0.2252029 0.09925786 -1.1858692 -0.18511058 -1.3512126 0.353622 -0.59614784 -0.5523337 -0.04838151 -0.45190546 0.5076239 -0.57078785 -0.36070815 0.43198138 -0.7489925 0.08471152 0.2626578 -0.7749427 -0.60137075 0.4038091 -0.43247536 0.25311825 -0.4481412 -0.34772247 0.20368026 0.043377653 0.36425787 -0.29881543 -0.20838617 0.08142701 0.15953845 0.8479269 0.7634207 0.78192323 0.033766527 -0.07773204 0.33249152 0.25368828 -0.79995084 0.55079174 0.2601428 0.043633137 -0.15108949 -0.5154044 0.3471309 0.440602 -0.16152751 -0.56217825 -0.48413578 -0.2637042 -0.09704181 -0.43553492 -1.1390429 0.6902929 0.32856387 -1.2072849 -0.25920618 -0.02687446 0.049769714 0.65382504 0.2864838 0.114089765 0.558012 0.6001192 0.67642665 0.586386 0.12769994 -0.65382934 0.18991953 -0.010917809 0.17575413 -0.2794364 -0.43964368 0.2077665 0.18062145 -0.39512867 0.31033656 -0.9568072 -0.46932647 -0.06987531 -0.2948902 -0.3872636 0.5767591 0.08222755 1.1687086 0.1392415 -0.3843581 0.014051661 1.1076295 -1.3224326 -0.16408877 -0.81538755 0.7062246 0.004556454 0.761556 0.07574079 -0.50179297 -0.7775306 -0.23604491 0.22358634 0.33061987 -0.70264184 -0.17585534 0.65043086 -0.3910385 0.056408353 0.28066272 -0.34468758
1060 0.17111923 -0.2739621 0.18033455 -0.49308202 0.21061145 -0.46646428 0.54137796 0.2059302 0.10006172 0.38298222 1.2207007 -0.37624767 -0.5709321 -0.41470197 0.9080984 -0.40442008 0.015703598 0.22630532 0.8890771 0.017452348 0.45029214 -0.042323377 -0.04588384 0.9504028 -0.115177855 0.0017175158 -0.41952762 0.8284889 0.008428367 0.5246144 -0.09808785 0.3053263 0.05894728 0.019179745 -0.53908396 -0.76548356 0.67243093 -0.21349622 -0.28129023 -0.1362854 -0.002525183 1.2114263 -0.55752474 -0.64204335 -0.5243671 -0.30671397 -0.54643536 0.14858371 0.012555733 -0.031875353 0.31894866 -0.63763195 0.5475342 0.33452028 -0.11427485 0.047156405 0.37643066 1.0738211 -0.57601684 0.7056177 -0.60191447 0.15489228 0.09389764 -0.5053017 -0.47208628 -0.7716304 -0.25156948 -0.767363 0.45628676 0.1589629 0.575677 -0.74455523 -0.5717135 -0.30263948 -0.44515917 0.019483862 -0.11136954 0.14354217 -0.5341481 0.1872754 0.14756902 -0.31191203 -0.36474216 0.9292793 0.9657121 0.5231635 -0.12086085 -0.95627004 -0.0066562304 0.861162 -0.64946955 -0.28814355 -0.3409167 0.576085 0.02960209 -0.8191473 -0.7321495 -0.97419035 0.16163082 -0.780499 -0.9548682 -0.77573824 -0.6458188 0.2489699 0.5139585 -0.10524757 -0.1840334 0.30575502 0.3898129 -0.44618857 -0.044934787 -0.28467104 -0.6580095 -0.8260513 -0.05201721 -0.72762424 0.35974017 0.1749547 -0.6078961 0.70321476 -0.59071875 -1.1984547 -0.059267443 -0.087677725 -0.110363364 -0.6238219 -0.009676303 0.03643646
1031 0.65967315 -0.49161714 0.6153148 0.3377794 1.0935407 -0.21393743 0.14932288 0.41758054 -0.50059 0.22012605 0.21608399 0.06882106 -0.66488117 -0.68672836 0.24629512 0.38348335 0.105387084 0.18775459 -0.06931125 0.011515559 1.1565179 0.50736105 -0.2948121 -0.49397188 -0.060408037 -0.16048118 -0.34602726 0.16378477 -0.30968472 0.1368442 0.2620123 0.16904037 0.7333426 0.76638883 0.35945255 1.0252494 1.0013803 0.27324173 0.7974981 0.074381195 -0.10975244 0.441797 0.2849465 0.68104774 -0.20126033 0.16314864 0.82537454 -0.21395311 0.21500361 -0.30575326 1.1059248 0.6858051 0.2904795 0.78837234 0.36847034 -0.2871189 0.7700262 -0.5312891 0.26625493 0.4299378 0.70629805 -0.8944417 0.7074714 0.5889494 -0.022363218 -0.9395751 0.6910699 0.7860323 -0.46377063 0.07828427 -0.45343938 0.02719018 0.37231895 0.016221376 0.41171953 -0.51955247 -0.35460666 -0.33583415 -0.19158316 0.6013805 -0.36812916 -0.2048766 -0.23679493 0.7011435 0.2362992 0.33577612 0.8000435 -1.5535616 0.13165289 -0.050374877 -1.1207889 -0.6839756 0.14557095 -0.48387027 1.1454573 -0.14450796 -0.49051055 -0.67282116 -1.0393773 -0.036344875 -0.85468924 -0.025389418 0.31379846 -0.6338199 -0.3098658 0.053124666 -0.0024976486 0.33070672 0.41962206 -0.59706557 0.3885594 -0.20138177 -0.42836875 -0.2109887 -0.3666901 0.30426875 0.7960861 0.28715143 0.166609 0.7304009 0.5496581 0.31646746 0.9740714 0.2085461 -0.20680052 -0.7251916 -0.2458038 0.10015412
1078 0.742821 -1.289034 0.26957077 0.6892283 -0.10667083 -0.8164448 0.5204173 0.20604417 -0.59659314 -0.6795193 -0.27134076 -0.04240505 0.22585082 0.40918636 1.2009635 0.5441859 -0.14988764 0.42408746 -0.826909 -0.5252576 1.4529829 1.1489602 -1.1072264 -1.0276198 -0.46263352 -0.13100891 0.6831323 -0.14107333 0.7161874 -0.055675145 -0.057355374 0.1621096 0.4763016 0.6374188 0.17749035 0.17182453 0.2969582 -0.3495961 0.4693103 0.53493255 -0.3682298 0.7664364 0.14032286 -0.10993344 0.41496596 -0.28836766 0.2314147 0.38947764 -0.18436633 -0.090725385 0.6685658 -0.38499767 1.7408017 0.491951 0.55655557 0.38874835 0.14061345 -0.30187944 -1.4166873 0.72245127 0.023462636 0.21478121 0.30332354 0.09073643 0.1303505 0.5110647 -0.30049726 0.41375175 -0.4004631 -0.23970126 -0.35432932 -0.17781268 -1.0292567 -0.105439454 0.5464598 -0.72908354 -0.2841689 0.4786178 0.221867 0.40421972 -0.34133434 -0.081950456 -0.10271189 1.0987943 0.32596925 0.536418 0.9126781 -0.06777548 0.62999487 0.6658175 0.7416689 -0.08579613 -0.022653935 -0.58859915 0.40144563 -0.38313136 0.29896912 -0.9896433 -0.19004403 -0.50309885 0.11115475 -0.2016467 0.7094124 0.6886835 0.47189873 0.49715862 -0.59028286 -0.2578505 0.23801479 -1.2630354 0.41437402 -0.698128 -0.20118599 0.13708982 -0.67380404 -0.28613558 0.10624046 -0.01345268 0.05516714 -0.4691612 -0.21322845 -0.033020288 -0.5636723 0.272439 0.51486945 0.21508554 0.0057832045 0.25716442
1101 -0.20180249 -0.2057375 0.39935416 0.027855609 0.72340006 -0.1455811 0.16666102 -0.14000364 0.3748169 -0.844289 0.93173015 -0.037742462 -0.8558304 0.31621787 0.15500678 -0.22899884 -0.101642214 0.0047704033 -0.3847976 -0.19088368 0.35274714 -0.33829924 1.0529044 0.7372723 -0.43298542 -0.09098208 -0.0698751 0.49038726 -0.33396208 -0.48299524 -0.07477292 -0.25953192 -0.10541624 0.2048527 -0.58910114 -0.3044915 1.0455441 0.39088795 1.085007 0.015921906 0.17303601 0.9005326 -0.046290603 0.100602865 0.5310488 0.26719674 -0.30802763 0.5761755 0.082739405 0.58383757 -0.6439311 0.66404516 0.5197045 0.33064377 -0.6996024 0.46051988 0.73140883 -0.6433696 -0.51451087 0.13963771 -0.039191995 0.015281145 -0.24380717 -0.26018342 0.61549366 0.13886012 -0.8024933 -0.5051359 0.5044362 0.16457224 1.2077789 0.10369995 -0.25590333 -0.5469742 -0.23852284 -0.92652464 -0.57913244 0.33427352 -0.5278366 0.3087706 -0.06506316 0.19575506 0.4504216 0.30239907 0.27854893 0.58842534 0.43718204 -0.55834454 0.12807684 0.8440834 0.06363118 -0.0910126 0.17549759 0.22618341 0.8122708 -0.20448327 -0.36603904 -0.04491579 0.80761755 -0.7348162 -1.146329 0.17063195 -0.056771874 -0.38494864 -0.007072953 -0.556334 -0.2216763 -0.10226203 -0.26746976 -0.364727 -0.08799619 -0.31663612 0.3765207 -0.15089619 0.11917873 -0.41235152 0.66658336 0.380635 0.29822487 -0.06732918 0.23098598 -1.1574646 -0.41785738 -0.27754015 0.09857325 -0.22215414 -0.47925714 0.42133915
1025 0.063537024 -0.9740172 0.26338652 0.26840332 -0.26225168 -0.3977208 0.10212464 -0.31191742 0.07848246 -0.53833234 0.98498464 -0.6144542 -0.61354595 -0.5712348 0.6886824 -0.18537363 -0.18187307 -0.08620041 -1.0066967 -0.7965003 1.2093658 0.6825167 -0.6191807 0.32343385 -0.8808096 0.2260592 -0.31239334 -0.10074984 0.22364749 -0.74616253 -1.0599986 0.12811933 0.5052965 -0.7796252 -0.17985986 0.06616462 0.7613192 0.80396616 1.5622412 -0.50218457 0.58434093 -0.03330772 -0.13505721 0.23407097 0.08370242 -0.06723103 0.27233502 -0.26880395 -0.09733398 -0.4347641 1.4974351 0.05635198 0.2996364 0.49316522 0.72772825 0.7264933 0.15165314 -0.2808833 -0.544841 0.65247655 0.6629979 0.34624782 0.15782338 -0.12538856 0.39278102 0.36952478 0.272527 0.61800927 -0.028540969 -0.2287955 -0.9741497 1.0523993 -0.75634074 0.31556004 -0.24585779 -0.5515136 -0.8254111 0.45860866 0.28865048 -0.13963114 -0.13126081 -0.60958743 0.8561887 0.111624286 0.68579566 0.122411944 0.8767378 -0.5272812 0.0045419727 -0.6598774 -0.28862026 -0.23810925 -0.47341838 0.14729102 1.1401215 0.6733532 0.045541637 0.054963265 0.15404613 -1.049901 -0.15478897 -0.07191194 0.8599331 0.92431456 -0.73597705 -0.2774232 -0.22296527 -0.648545 -0.20450477 -0.45769116 0.22809738 0.5843264 0.14750066 0.9831324 -0.30164844 -0.98617387 -0.21577899 0.20495754 0.6741171 0.15841867 0.11771795 -0.6657792 0.41109905 -0.007744583 0.16117921 0.4124654 0.17854412 0.38679555
1045 0.40185392 -0.91760784 -0.26547208 0.28373402 0.5859446 0.61188775 -0.565593 -0.082428284 -0.19793628 1.3470883 -0.045495152 -0.13614681 -0.6617366 -0.8724374 0.042831175 -0.18942362 0.4624646 0.71355855 -0.026064703 0.14985149 0.79766905 0.25500348 -0.03947115 0.06814429 -0.0733395 0.32630447 -1.026543 0.3423649 -0.45561004 0.24083225 -1.0430092 0.79102427 0.28765142 0.3334006 -1.1807218 -0.31930703 0.78520566 -0.35884756 0.7280335 -0.5277716 0.79971737 -0.025187248 -0.2891998 -0.10874209 0.3509103 -0.06548313 -0.47173446 -0.11037537 0.1427125 0.08543398 0.14166652 -0.21516955 -0.31429294 0.066480815 -0.4131884 0.06617452 0.18359658 -0.33624354 0.48775217 0.0056208563 0.9837276 -0.23668624 0.5154511 -0.021909198 0.70397246 -0.42406124 -0.50917965 0.23618793 -0.24179645 -0.20514831 -0.5981944 -0.53372365 -0.5674728 -0.38456962 -0.43575203 -0.8227411 -0.79278666 0.1241788 0.025175272 -0.52352387 0.28698078 -0.35346732 0.954893 -0.0028428354 0.73808074 1.04164 0.18405701 -0.9751755 -0.24944079 -0.29414627 0.04438498 -1.6243712 -0.50071925 -0.54273 0.56041265 0.0066327713 -0.04690287 -0.46594766 -0.35175693 -0.014737352 -0.3040866 -0.15394592 -0.5477528 0.79333776 -0.17857185 -0.0040591764 -0.5617468 -0.08394947 0.07068756 0.38721806 -1.1173574 0.054344073 0.32964474 -0.030364798 -0.30021742 -0.6216887 0.4537073 0.71742797 0.26187286 -0.29840207 -0.09082665 -0.96609056 0.6223551 0.9024351 -0.012806469 0.4847199 -0.09116559 -0.58082753
1037 -0.5220309 -1.020692 0.48426622 0.5258351 0.181977 0.2864879 -0.7245296 -0.5685002 -0.32072297 0.12625317 0.19435194 0.28559104 -0.6528078 -0.4628234 1.3584433 0.2096815 -0.4669415 1.0212936 0.04652735 0.2135483 0.01680753 0.9120283 -0.7449175 -0.13739574 -0.7545556 -1.0095227 -1.4411104 0.37845114 0.6262988 -0.20733319 -1.5685962 0.020383444 0.52423614 0.09148347 0.106898 0.065891206 0.6873088 -0.05571134 0.9039569 -0.014038645 1.0016831 -0.07186138 -0.37616336 -0.5158243 0.94967073 0.48420456 -0.5026924 -0.24850641 0.21242744 0.08068167 0.5509529 0.03694368 0.15735649 -0.05170499 0.11094895 0.72844994 0.5697941 -0.06467004 0.055986684 -0.07094002 -0.015307126 -0.049764223 0.43885946 -0.47329974 0.51071036 0.71508855 0.5413563 0.712928 0.47703806 -0.9326511 0.8381803 -0.38929725 -1.2932028 -0.72379696 0.007985483 -0.39069998 -0.69425917 -0.4946064 -0.2452461 -0.6032521 -0.3724772 -0.3538141 1.0110751 1.0497108 0.37479314 0.61420095 0.51676595 -0.08335863 0.4420151 0.42440227 -0.53109145 -0.5340575 -0.21287534 -0.5056876 -0.22735657 0.36619484 -0.0101540405 0.14332797 -0.16179948 -0.22491431 -0.08722891 0.6120229 -0.38427687 0.6217909 0.37643045 0.9876414 0.025310518 -0.042491674 -0.13336986 -0.43350714 0.15552711 -0.031238282 0.019849265 0.1116091 -0.7857388 -0.8293797 -0.39815745 -0.21421428 0.7471308 0.33789554 -0.4286187 -0.05770551 -0.2953112 0.60445654 -0.08061033 0.6675448 -0.6566948 -0.3411912
1099 0.6256513 -1.1420954 0.65490335 0.27398196 0.11360643 0.023084631 -0.3591364 0.06467661 -0.2319564 0.45406732 -0.89485025 -0.37916693 -0.56112176 -0.92707944 0.5392914 0.66514295 -1.0831895 1.2163926 0.05408411 0.18731526 0.5186988 0.86509675 -0.32448456 -0.22659831 -0.16930711 -0.7493069 0.012178528 -0.55267036 0.08695147 0.41361293 -0.5285581 0.24308944 0.29126313 0.82080513 -0.39656687 0.1193908 0.5580816 -0.053948767 -0.046593003 -0.4656019 0.71223986 0.47508267 -0.5462305 0.14328429 0.08490414 0.7837993 -0.3743941 -0.39332744 0.31802005 0.7679331 0.26316518 0.05988184 -0.18013534 0.19216077 -0.7746076 -0.8504724 0.3899757 -0.2286045 0.28784627 -0.52559066 -0.419026 -0.5972022 0.45432848 -0.13373369 0.29442427 -0.03000864 -0.13349782 0.2516879 -0.41890636 -0.26128978 -1.2670743 -0.613304 -1.1673536 -0.81538564 -0.029783789 -0.5807842 -0.99106586 -0.30834252 -0.77998364 0.12817654 0.676877 -0.37800887 0.40841326 1.2925117 0.7801822 0.69549286 0.81924665 -0.89232564 -0.2801006 0.52867776 0.10902859 -0.65733975 0.44748706 -0.75992095 -0.18292695 -0.59899616 -0.017276634 -0.0966055 -0.80707085 -0.64029586 -0.1691924 0.5175104 -0.24083127 0.75332236 1.0674016 0.49570218 -0.2299815 0.8392825 0.13037749 -0.86927587 0.34961408 -0.7036723 0.6145965 -0.39764932 -0.055683415 -0.27938884 -0.16701992 -0.3477591 1.0448862 -0.5498863 -0.17319418 -0.19984919 0.21427937 0.015942618 -0.3434909 0.7826753 -0.26438427 0.013420014
1067 0.37138978 -0.84614724 0.52289945 -0.41892824 0.09381973 -0.63166666 0.7555991 0.24798612 -0.15090178 -0.20947619 -0.062045723 -0.39463222 -0.13879153 -0.42721725 0.29564318 0.17793222 -0.766665 0.43323952 -0.8196403 0.7378281 0.09968288 0.8627281 -0.35049045 -1.0620424 0.20505485 0.033914927 0.09421161 -0.35953692 0.86748713 -0.08915211 -0.4339143 0.3731695 -0.16147336 0.9161113 -0.58479834 -0.32822955 0.06340724 -0.54737747 -0.7541705 -0.43758002 -0.3062091 0.3593107 0.19216245 -0.61221164 -0.06418248 0.11418368 0.26419997 -0.6990843 -0.13458163 0.19712307 0.48710373 -1.085527 0.573742 -0.15814856 -0.42499417 0.28739315 0.9860973 -0.12143673 0.014915622 -0.05789146 -0.10191876 -0.63235384 0.27416217 -0.6675264 0.11193356 -0.45656726 0.71832955 0.15956885 -1.0010237 -0.62464726 0.1329068 0.09324408 -1.177759 0.73450047 0.21107052 -0.68500113 0.3813288 -0.384458 -0.5994062 0.6110073 0.0388182 -0.6086661 -0.18226038 0.7276394 0.68592405 0.76891553 0.3557106 -0.62754136 0.2716644 0.4703984 0.45559335 -0.1034045 0.7251428 -0.117717825 0.13475554 -0.18962437 -0.23770212 -0.7507745 -1.2245672 -0.19894467 -0.4045427 -0.374857 -0.19333908 0.2673315 1.6874778 0.42136347 -0.33632886 0.78525907 0.48364002 -0.47270718 1.2451885 -0.0062666656 0.36276194 0.1080513 -0.57074773 -0.37159017 0.16397676 -0.14404668 0.40210417 0.07324047 -0.41955462 -0.30647066 -0.2708876 -0.25775567 0.065168574 -0.18122284 -0.3269015 0.40324938
1087 0.059221685 0.017391877 0.5564824 0.37688044 0.83304405 -0.065442584 0.16406806 0.18194838 -0.18745558 0.010395143 0.8993466 0.083152495 -0.08912979 -0.7515915 0.51539314 0.022816347 -0.26160887 0.3519883 -0.32535848 0.61629075 -0.24708322 0.6452562 0.3843279 0.17369403 -0.8291289 -0.6565621 -0.5963344 -0.5406102 0.44102558 -0.16469057 -1.1510134 0.74058616 0.23427378 -0.35063502 -0.36730054 0.22475798 0.90183955 -0.063104235 -0.09759001 -0.3052042 -0.16681467 0.2203341 -0.6645772 0.34432805 0.6972513 0.56885546 0.1005303 -0.1788146 -0.81677455 -0.29912877 0.69277453 0.12845524 0.4069983 -0.101633415 -0.36679575 0.321359 0.4795986 0.85590607 0.009594102 -0.25861382 -0.48882738 -0.23514119 0.030255958 0.3841379 0.5864886 0.16483597 0.03070223 0.18749006 0.63657105 -0.025532704 0.7211149 0.28318802 -1.1453875 -0.35085168 0.39662987 -0.87989044 -0.7394455 0.18967028 -0.32451802 0.38217372 -0.22180285 -0.32427356 0.3053816 1.0334522 0.10442974 0.43161178 0.16742365 -0.16893362 0.63343406 -0.15770675 -0.47601116 0.17470592 0.09016394 0.33963117 0.62978774 0.6662244 0.37477437 0.4553563 0.5658463 -0.34478745 -0.2774748 0.05863953 -0.77388877 0.07116697 0.09473249 0.16628924 -0.030899877 0.21509066 -0.1294742 -0.6421234 0.7051785 0.1618232 0.07862906 -0.24369645 0.70748705 -0.2148882 0.72745717 0.20799017 0.7804549 0.45586526 -0.1172758 -0.6601531 -0.6562415 -0.049913295 -0.30679575 0.32170954 -0.03242949 0.63501924
1059 0.1815386 -1.0220318 -0.002489162 0.4662783 -0.068993345 0.6498855 -0.5064785 -0.10637187 -0.19741978 1.2644783 1.090058 -0.17479819 -0.76953673 0.24259932 1.1719375 0.335596 0.23889773 -0.22738086 0.33724365 -0.32447508 0.081756234 1.0432367 -0.9095185 -0.5606744 -0.36323315 -0.4736454 -0.74386394 0.45330393 0.025915608 0.5203136 0.059852958 -0.18392332 0.66568625 0.9037411 -0.37778485 -0.488416 0.8921554 -0.04787657 0.36198574 -0.06601579 -0.26388386 0.48408496 0.49587572 -1.6121492 0.2754134 -0.9521218 -0.33217734 0.10964334 0.06142027 -0.49515504 0.81955105 -0.38703224 0.52520114 -0.1488017 0.045096513 0.46665448 0.7405584 -0.41624776 0.35884887 0.40193424 -0.2926609 0.55165523 -0.023570018 -0.9838775 0.03023701 -0.069181286 -0.060134213 0.74701375 -0.043584686 -0.57372147 0.7320373 -0.5828744 -0.76702785 -0.45829082 0.39158347 -0.5122596 0.32377407 -0.11761597 0.46041033 -0.08576731 -0.25745544 -0.11802665 0.30922517 0.88894093 0.49163628 0.8119551 0.27763948 -0.30376202 0.039730903 0.03591273 -0.10380554 -0.43751675 0.082987405 -0.49692556 0.25615126 0.08320779 0.56939226 -0.71626043 -0.095844746 -0.8356678 -0.61155605 -0.021476364 -0.46190986 0.82428676 1.0781401 0.5742287 -0.020051248 -0.06076467 -0.1522304 -1.0315917 -0.2122301 0.8367433 -0.16088164 -0.24795693 0.20419766 -0.7493517 0.37941143 -0.1721736 0.045068726 0.04385638 -0.41793752 0.24014445 -0.45408595 -0.029655881 0.07653585 0.6213592 0.13301086 -0.7080852
1081 -0.25825927 0.4264977 0.14354719 0.14969154 1.0031381 0.6831179 -0.43668315 0.23331307 -0.38372174 1.1224066 0.085957006 -0.7412692 -0.30320698 -0.7958126 -0.31033018 -0.5763186 0.43515104 0.57787603 0.07759294 0.881281 0.5464553 -0.37658492 0.45763683 -0.63232744 -0.24672699 -0.13896699 -0.35785154 0.23240662 -0.028711528 0.43519312 -0.86956817 0.18757059 -0.29678202 0.2838142 -0.37336877 -0.5409297 0.31508258 -0.5613823 0.0053913607 -0.31201544 0.523376 -0.39033565 0.24570748 -0.35658816 -0.17523573 0.30045944 -0.59321445 -0.16814743 -0.67270815 0.090239875 1.0799522 0.4814128 -0.15476404 0.23231865 -0.61300266 0.13091123 0.27747017 -0.21124901 1.0249653 0.6591643 -0.33131856 -0.86602265 -0.020902453 -0.89207715 -0.14453042 -0.72315884 -0.19326262 0.35169 -0.91932636 -0.012887212 0.5142327 -0.24063003 -0.68008786 0.02170692 -0.48359248 -0.92240906 -0.40732569 -0.8094104 -0.16825168 0.6160192 -0.34446782 -0.07260556 0.33449817 0.5044996 0.9334041 0.3415775 0.72158486 -0.89891565 0.26889834 0.16637178 -1.160348 -0.2692952 0.1349494 -0.27831095 0.24611494 -0.26890895 -0.30643243 -1.0656163 -1.4380791 -0.18099265 -0.7437778 0.07917381 0.23548028 -0.33462563 0.80386525 0.18272482 0.22176833 0.25736243 -0.078668974 -0.29076615 0.0045234836 0.28504458 0.15512824 -0.23095585 -0.89634514 -0.2718221 0.24121408 0.46115768 0.059545685 -0.045210153 -0.24570054 -0.21289125 0.3720177 0.88377035 -0.31298584 -0.26797906 -0.9036781 -0.6562568
1076 -0.25911376 -0.8359992 0.53206164 0.06797456 -0.13819869 0.5801663 0.28445238 0.036387153 -0.3902904 0.63925076 0.20081455 -0.0007904025 -0.25870973 -0.6571777 0.94311637 0.55786675 0.5979715 -0.017617516 -0.3015919 -0.39218315 -0.063615166 0.41961414 -1.2469785 -0.15538841 -0.74976754 0.0015827763 -0.5700886 -0.48015416 -0.09631317 0.36614624 -0.15412657 -0.076240525 -0.045907512 0.75844353 -0.24844854 0.0020443618 0.17412874 -0.79069257 -0.25080597 -0.1256957 0.10886907 0.32998252 -0.32695425 -0.64485425 1.1327043 0.114133224 0.2972951 -0.06119684 0.03173734 -0.4724936 0.43415648 -0.24866544 0.7530449 0.6914967 0.1333384 0.03320204 0.34381047 0.09857072 -0.42007056 0.6534411 -0.09179586 0.009694477 0.13221702 -0.8349541 0.21897753 -0.011464012 -0.49500433 -0.5032366 -0.10532709 0.02515717 0.15880498 -0.56208235 -1.1388601 0.008573388 0.09221433 -1.3610262 -0.24546279 0.3614939 0.12279652 0.13326472 0.33920333 0.047402382 0.5628975 0.6662501 0.47913292 0.66188604 -0.4049609 -0.42472187 0.113448605 -0.03906053 0.96945167 -0.48008934 -0.0421265 -0.5068404 0.14663228 -0.457856 0.065889455 -0.91865176 -0.805505 -0.30070144 -0.057089437 -0.21274522 -0.07089715 0.39956218 1.3972416 0.62403274 -1.038438 0.13887918 0.49350405 -1.0885122 -0.5102749 -0.37144434 0.74532425 0.14912501 0.45744595 -0.49914557 -0.32934994 -0.49869496 -0.018673189 -0.5497764 -0.1040907 -0.9555768 -0.59774715 0.8323101 -0.07460959 0.6298416 0.61111087 -0.33989576
1057 0.34263435 -0.30803138 0.49821144 0.21805462 0.95927745 0.32065764 0.18485068 -0.1139969 -0.16171105 1.1189849 0.56781435 -0.35723364 -0.262066 -0.59393877 1.1953026 -0.020341754 0.952734 0.5394728 -0.011236379 -0.37038815 -0.31459397 0.23232816 -1.1371437 -0.31841743 -1.11379 0.21801987 -0.21688655 -0.71340066 -0.16177016 -0.27673012 -0.2726004 -0.6774288 0.2517927 0.7317 -0.55193967 0.7938531 0.383659 -0.6876685 -0.32105288 -0.22461511 -0.3926227 -0.5842722 -0.17019887 -0.541573 0.13824272 -0.08411983 0.5770878 -0.07386059 -0.015473972 -0.27609658 0.011479493 0.6586013 1.2261204 0.35795635 0.48567873 0.3180468 0.20918879 0.6602589 -0.34062093 0.048187554 0.11144749 0.4427873 -0.2337239 -0.56001395 0.43176386 -0.17217867 0.4240773 -0.39148524 -0.5311527 0.38890073 0.06890919 0.33010918 -0.8476842 0.5847654 -0.008739293 -1.1780307 -0.61515814 0.008628157 0.36681902 1.1543493 0.07956208 0.40351954 0.23796408 0.8663231 0.38545144 0.27334505 0.5131292 -0.8516305 0.354452 0.19496639 -0.059357084 -0.3264444 -0.42833576 0.5143578 0.38501087 0.27093112 -0.36931974 -0.7117562 -0.45242146 0.02083799 0.16095543 -0.16859283 0.18201506 -0.39621022 0.59090525 0.5616895 -1.0709391 0.069160275 0.30647478 -1.2183324 0.05950165 -0.64660144 0.42027903 -0.2934277 0.5269743 0.14433418 -0.7965231 -0.5296882 0.009727829 0.45512465 0.026156675 -0.4375653 -0.14988613 0.7208031 -0.039623797 0.5704074 0.65893674 0.36681858
1047 -1.0820376 -0.3998768 0.64420086 -0.51997834 0.4707409 1.0796676 0.26845193 0.27209297 -0.27501854 0.09107467 0.19770369 -0.46838245 -0.62149584 0.37408566 0.8380527 -0.056310978 0.5304486 1.0142379 -0.24409173 0.51969236 0.024700366 0.37510028 -0.3343696 0.08965476 -0.6322867 -0.599506 -0.5393443 -0.13473405 0.33881298 0.2708313 -1.2527761 0.098721586 -0.56779337 0.15002573 0.2804812 0.6401567 -0.022594647 -0.51283866 0.46683106 -0.09480688 0.27331766 -0.4261767 -0.40035504 -0.4137546 0.5258507 0.66677016 -0.06594518 -0.14467692 -0.60582066 0.56065017 0.1892529 0.40628165 0.5038276 0.082479514 -0.679353 -0.12722433 0.6247658 0.725839 0.5393638 0.36947826 -0.6469738 -0.36889902 -0.012218742 -1.1297187 0.69286364 0.10559138 -0.9547757 0.52791494 0.48171088 0.11110505 0.8404689 -0.22752504 -0.65086365 -0.41338706 0.15280204 -1.2611661 -1.1481549 0.49194807 -0.61149 0.39671424 -0.4519577 0.44116074 -0.46199688 0.4231817 0.6381862 0.4278617 0.2303667 -0.80363 -0.044001296 0.16696985 0.45307624 -0.49916753 0.07724515 -0.20251845 -0.46173167 -0.50864774 -0.4438043 -1.0292658 -0.72488064 -0.62901646 -0.19105427 -0.027918834 -0.02908791 -0.083980575 0.7367007 1.1868557 -0.58565116 0.29545596 0.11903936 -0.7282034 -0.2874347 -0.83889467 0.0017662921 0.096864216 -0.35907352 -0.28827068 -0.042657237 -0.5612003 1.2382596 0.4324845 -0.2685062 -0.16017093 -0.7317349 0.7159783 -0.3225758 -0.10039435 -1.1018741 0.6763639
1089 0.4770952 -0.5996799 0.70672435 0.32112876 0.64068335 0.36195618 0.7282038 -0.04963864 -0.25690886 0.8025243 -0.13658816 -0.37941894 -0.31912178 -1.2143161 -0.40372866 1.019536 1.0531464 0.8743608 -0.51526374 0.36833662 0.44721 0.37252185 0.2066194 0.05675326 -0.38677463 0.34916723 0.18156485 0.17908266 -0.69252855 -0.0057287407 0.13212039 -0.29967847 0.5336455 0.33352795 -0.5368655 1.2185949 1.2772013 -1.1611797 -0.3212631 -0.4424091 0.1251547 -0.9155195 0.5330859 0.07384807 -0.057334844 0.5821961 1.113903 -0.63046044 0.21114704 -0.28758067 -0.31034318 0.19909985 0.82193667 0.29338402 -0.027168745 -0.84141445 0.68621814 0.01825633 0.08971715 -0.06283157 0.13391635 -0.46157914 0.7123428 -0.26874587 0.53938043 -0.52250105 -0.35655004 -0.67022973 -0.356297 -0.061017983 -0.50141233 -0.04855269 -0.4884213 -0.4302054 -0.08097483 -1.3558851 0.22926188 0.2652465 0.19729848 1.2290021 0.0428586 0.46544886 -0.09781345 0.67479753 0.22906363 0.6955071 0.8046963 -0.8352997 0.15119627 0.6515541 0.058389325 -0.49297026 0.43329313 0.21363701 0.39390478 -0.056308478 -0.17960003 -1.1086823 -0.6784145 0.36160943 -0.33095917 -0.1720429 -0.062694855 -0.035113942 0.5942837 0.35663584 -0.66855055 0.46652588 0.435974 -1.274819 -0.15661398 -1.1075149 0.059817616 0.05224075 -0.54941714 -0.42028403 -0.01757125 0.37372667 -0.2976835 -0.20777152 0.26275778 -0.2202244 0.40292624 0.5532365 -0.27829346 0.017482907 -0.82514715 0.21300656
1110 0.3197258 -0.35986605 0.40710115 -0.047424722 1.0752041 0.31262514 -0.4274311 0.80964166 -0.21713558 0.67180353 0.06954488 -0.2862508 -0.3902936 -0.03583997 0.60086256 0.41018632 -0.21168129 0.8015171 0.39724523 0.7549605 0.13956617 0.52329385 0.093844056 -0.84855914 0.42467391 -0.19197 -0.32130113 0.2909333 0.063963264 0.54930377 -0.3111216 -0.15451683 -0.5431461 0.6999777 -0.4803612 0.46972048 0.3275341 -0.9905647 -0.23531057 0.06530703 -0.40035003 0.08575286 -0.43114272 -0.6995166 -0.024940478 0.09983183 -0.08128877 -0.61171746 -0.83360493 0.35376695 -0.027681554 0.45590544 0.4052899 -0.6085749 -0.76020616 -0.9153875 0.5191374 0.61701334 0.36078358 -0.62227196 -0.84627134 -0.8639154 0.5156755 -0.25898665 0.110246725 -0.2960492 0.17907333 0.15648799 -0.035274826 -0.48232025 0.60971165 -1.0448687 -0.6992856 -0.6324952 0.23104103 -0.8375202 -0.038773842 0.50506943 -0.34386763 1.1914524 -0.39056563 0.7898992 -0.5454989 1.5091951 0.39558303 0.63170564 1.0021486 -1.113182 0.6362011 1.0872445 -0.33924973 -0.15134335 0.36079344 -0.2576011 -0.071190976 -0.517638 -0.6410579 -0.59779054 -0.5800279 -0.38272947 -0.63240457 0.20766374 -0.40914688 -0.10214579 1.2853764 0.64107203 -0.10436305 0.7486722 0.25965917 -0.9042512 0.020706503 -0.48484808 -0.039336693 -0.94141334 -0.18650265 0.5918074 0.5514429 0.0928317 0.5771158 0.15852778 -0.44030648 0.089268975 -0.45721525 -0.20402075 -0.31874785 -0.26931715 -1.0872142 0.32604182
1077 -0.056613106 -0.63671976 0.54390264 0.21646905 -0.12020945 -0.2710071 -0.16624278 0.67075753 -0.15684316 0.2338077 0.5467975 -0.7141641 0.005476559 -0.0066482257 0.3092486 0.40116733 -0.04078391 0.0013913874 -0.43207124 0.46187186 -0.56019026 0.35844812 -0.5280449 0.060303424 -0.011578671 -0.026580013 -0.44572014 -0.3194001 -0.45230308 -0.28015038 -0.4987946 0.4975971 -0.6423977 -0.20424211 -0.4628632 0.11783663 0.14861736 0.09308881 -0.20285018 -0.15283929 -1.2030756 0.62552345 -0.37637943 -0.9713468 0.09013524 -0.11460135 -0.06437641 -0.59465075 -0.63603646 0.7204095 0.5756419 -0.22512656 0.6753272 -0.7734857 -1.0198091 -0.47002807 0.6326639 0.74289185 -0.46035272 0.5394621 -0.29363236 -0.6505581 -0.14854182 -0.20993693 0.38585582 0.44705853 -0.34760055 0.20280777 0.31943002 -0.49789596 -0.64192015 -0.08155866 -1.020833 -0.4640212 0.4709071 -0.4190794 -0.028117064 0.83294916 -0.24745293 0.20929028 -0.5090899 0.10605178 0.13754292 0.995884 -0.051381074 0.3631351 0.2771877 -0.25301582 0.48797527 -0.19686298 0.81763864 -0.73354113 -0.07686731 -0.14563236 -0.2665194 0.03512892 0.64669776 -0.3117472 -0.21315075 -0.75728595 -0.9433294 -0.7279471 0.4641441 1.6547788 0.31599933 -0.624047 0.23542486 -0.18439558 0.662562 -1.0972068 0.5308098 -0.4476597 0.011323953 -0.14970236 -0.70662785 -0.11728535 -0.45028463 0.04303499 -0.14422905 0.8334298 -0.3489574 -0.7203845 0.12739383 -0.0060871816 -0.406712 0.22967915 -0.5061484 0.38183808
1010 -0.54317784 -1.2699568 0.16423692 0.22841491 0.23296195 0.12636384 -0.4302095 -0.5405693 -0.06711282 -0.11481071 0.024305642 -0.08382074 -0.44165996 -0.2546734 0.5027986 0.41074687 -0.29269397 0.27401683 -0.90010685 -0.087800995 0.72737455 0.76779526 -0.46827945 0.13199791 -1.0676316 -0.88582605 0.06404256 -0.58735716 0.34925243 -0.38060415 -1.2931184 -0.3637385 0.6802372 0.40852517 0.38343728 0.5944 -0.34610394 -0.05611149 0.44385904 -0.18059851 0.6544199 0.12147423 -0.09919959 -0.32101014 0.6807665 0.967286 0.36453742 0.37788844 -0.2085907 -0.06449703 0.5563552 0.09795355 0.62911063 0.43073216 0.14922813 0.5055113 0.40776458 -0.46066776 0.20071724 0.28023735 -0.0864914 0.64681065 -0.095954604 0.026777677 0.90372705 0.70485526 -0.3192699 0.90344524 -0.11092427 -0.033975393 -0.38029128 -0.010420012 -1.1794508 -0.36356518 -0.1682651 -0.8768544 -1.1984761 -0.36775923 -0.8754711 -0.16939004 -0.22793302 -0.6135462 0.91715837 0.41230297 0.8499347 0.23252366 0.32366928 -0.42599124 0.1704411 -0.43550485 0.22571093 -0.5081122 0.29124942 -0.31992462 0.16364056 0.23932952 -0.27864137 0.08535721 -0.44631898 -0.73159367 -0.19337663 0.39419612 -0.15342288 0.77455074 -0.23070474 0.22856016 -0.67472297 0.15058097 -0.39120376 -1.1156402 0.0806773 -0.64296407 0.24909155 0.6026124 -0.5316746 -1.1734802 -0.36787888 -0.29921412 0.41061965 -0.27919117 -0.3619855 -0.30666655 0.02035161 0.9732541 -0.40564197 1.1479423 0.6689744 0.098166585
1083 -0.6473013 0.26872286 0.25402114 0.16367868 0.19374077 0.42916217 -0.54338634 0.11332807 -0.33463457 0.58419704 0.3886879 -0.16079174 -0.40531695 -0.51108915 -0.52766836 -0.2609395 0.13501368 0.51306546 0.12087735 0.37909594 0.33810765 -0.35479268 0.4742088 -0.63118476 -0.17666681 -0.16796623 -0.40337887 0.16596854 0.5159455 0.40446863 -0.91741186 0.4941646 -0.21866018 0.41018373 0.060996324 -0.5590151 0.4459628 -0.13222723 0.1354376 -0.10128122 0.8698139 0.0626477 -0.016718924 -0.53110725 0.40714592 0.6198228 -0.41777873 -0.2779042 -0.3668506 0.19465356 1.1968577 0.29209137 -0.44971102 0.5428059 -0.28573668 -0.057786867 0.06278412 -0.1760941 0.40045828 0.75913227 -0.17113195 -0.7836157 -0.28175777 -0.62069225 -0.39554003 -0.28540146 -0.20957476 0.23248258 -0.48522943 -0.15671115 0.48003355 -0.2547726 -0.40299708 -0.23802717 -0.10468387 -0.68420464 -0.49472052 -0.46442637 -0.19116862 0.34451646 -0.13048008 0.25916007 0.1723527 0.1556339 1.0288047 0.18866743 0.29861492 -0.6197526 0.1381869 0.15342936 -0.8073801 0.015780998 0.05695821 -0.5040673 0.3008262 -0.46983 -0.001916455 -0.6652547 -1.0608541 -0.32475185 -0.4066765 0.39208508 0.8311739 -0.01348003 0.6172856 0.21070962 0.09625046 0.22270818 0.11378376 -0.024494184 -0.16125555 0.29088655 0.024473205 -0.12934387 -0.8110791 -0.20383584 0.20398772 0.1820459 0.23433127 -0.1594109 -0.3248005 -0.27700222 0.44260517 0.6638913 0.1656218 -0.5296026 -0.6328544 -0.7115544
1040 -0.15173961 0.2788264 0.25387388 -0.18702397 1.022653 0.12280496 0.15094942 0.43333936 -0.088917814 0.61529225 -0.0112177245 -0.7894527 -0.097972274 -0.8985849 0.64262354 0.25575426 0.2691286 0.39936352 0.7875108 0.8886076 0.5914663 0.113112845 -0.045989763 -0.23367213 -0.4238905 0.7427954 -0.80164075 -0.14448161 0.067339435 0.3984828 -0.13219194 0.13728935 -0.37130648 -0.0626392 -0.2846984 -0.34568846 0.59287906 -0.2773946 -0.06916356 -0.09243287 0.31256613 0.047382984 0.18565318 -0.20500727 -0.43987015 -0.17038405 -0.104761004 -0.43479368 0.14799234 -0.17001408 -0.07568837 0.00071133947 0.67287725 0.55545425 0.12890285 -0.12678361 0.25081447 0.27411726 0.18766877 0.5453851 0.16614912 -0.21366924 0.2273519 -0.3035106 -0.10882938 -0.41481486 0.4042988 -0.8601218 0.09803314 0.19052404 0.53228414 -0.3670633 -0.48116276 -0.38990465 -0.56902426 -1.1754051 -0.21681291 0.21030498 -0.040510174 0.7438536 0.13918075 0.13865514 -0.15481052 0.6370578 0.7730626 0.63710016 -0.052873816 -0.59199053 -0.22503628 0.48640415 -0.16469702 -0.25718936 -0.7877393 0.37862107 0.41365144 -0.89948523 -0.83062404 -0.78992516 -0.7674684 0.0840973 -1.0437452 0.20725144 -0.77933204 -0.37612447 0.9612983 0.36590368 -0.51719195 0.36091402 0.43856746 -0.6475672 0.08859355 -0.62887794 0.15235126 -0.51951796 0.35431844 -0.13996036 -0.006277165 0.10825141 -0.098983414 -0.015497155 -1.1270078 -1.0436188 -0.19754787 -0.12376261 -0.42254278 -0.089003496 -0.23244144 0.36637163
1044 -0.016236786 -0.77802074 0.619015 -0.30234167 0.49010542 -0.47238567 -0.45138276 -0.27835345 -0.4366399 0.5828311 0.34851503 -0.50758535 -0.66711134 -0.3475059 -0.45864227 0.3310809 0.048581716 0.25027192 -0.8942161 0.85569876 0.058335565 -0.054089855 -0.23806773 -0.5472091 -0.1638756 0.75330424 -0.76049346 0.5782899 -0.4437454 -0.66389203 0.14010477 -0.33759296 0.35179353 0.8540309 -0.39727303 0.18694186 -0.21278821 -0.7350664 -0.29361236 -0.08259442 0.32976437 -0.59592205 -0.34467825 -0.31603882 -0.05530872 0.19438094 -0.1651907 -0.48292416 -0.4167084 -0.25866488 -0.1555024 -0.2846146 0.29287884 0.6457516 -0.25115904 -0.07378574 0.10814505 -0.68056804 0.39419416 0.67860436 0.47257712 0.6637822 0.31010553 -0.38935632 0.12219662 -0.1568194 0.29721045 -0.18601935 -0.15933798 0.25375122 0.5129234 -0.08083313 0.11437461 -0.40130115 0.5391122 -0.7097962 0.2393226 -0.1934746 -0.20751646 0.8420011 -0.94344604 0.107906885 -0.008566979 0.08949125 0.5804035 0.4678672 0.3050702 -0.88537866 -0.13319862 0.4379631 -0.19545132 0.25983986 0.65671206 0.40292284 0.48537192 0.025799463 -0.87881166 -0.73142827 -0.9207071 -0.2886326 -0.6946873 -0.28966922 0.30522278 -0.2081126 1.0903624 0.6105425 -0.098908104 0.4842273 0.74197865 -0.09754264 -0.83959764 -0.21993412 0.9131122 -0.5350951 -0.6274397 -0.16990979 -0.25814426 0.41072467 -0.046449244 -0.029424218 -0.042001273 -0.5241518 0.07210339 0.63289285 -0.20493446 -0.43251792 -0.29650578 0.27922747
1033 0.26659337 -0.7722642 -0.22858948 0.16002578 -0.0077462154 0.7178233 -0.68330127 0.0934492 0.14570415 1.0499812 0.89584005 -0.19533056 -1.013815 0.19237545 0.6863241 0.38847604 0.34447497 0.041578054 0.8134696 -0.27687684 0.18252552 0.6630097 -0.7016684 -0.50715977 -0.6248983 -0.15467206 -0.35095978 0.48661596 -0.13395382 0.3866856 0.51520365 -0.4271636 0.26885948 0.55751854 -0.19275917 -0.6953622 0.62451625 -0.312679 0.24448586 0.10426776 -0.0577595 0.8217811 0.36882868 -1.6895691 -0.26320258 -0.8843908 -0.22006522 0.27482343 -0.12231536 -0.018715793 0.5611549 -0.120004915 0.394809 0.10575087 0.14111952 0.1632259 0.5106991 -0.1484159 0.028748319 0.48428205 -0.32921124 0.57896256 -0.39792547 -1.0116765 -0.030216876 0.09378419 -0.3783881 0.34898958 0.24151951 -0.5163826 0.5223008 -0.5565357 -0.42493036 -0.6014101 -0.15315668 -0.513372 0.17804551 0.03604662 0.07805032 0.45019042 -0.17943849 0.13815425 -0.05685035 0.5037105 0.636578 0.7262883 0.41062114 -0.31597653 -0.08058486 0.44797754 0.2032915 -0.4306648 -0.3032158 -0.20204829 -0.08105184 -0.4028215 0.49271765 -0.77775335 0.12101761 -0.9731286 -0.70989734 -0.24667704 -0.04432821 0.8307547 1.094876 0.37860107 0.15993202 -0.15684126 -0.061519157 -0.9692968 -0.6811519 0.55565095 -0.007529526 -0.36528322 -0.0039138943 -0.40635216 0.25730038 -0.10437681 0.292027 0.20817399 -0.70982194 0.0340959 -0.14893867 0.08366035 0.326631 0.30716375 0.32823694 -0.67998904
1092 0.2617813 -0.8426382 0.08857435 -0.58741564 -0.078912914 -0.14464611 -0.72992945 -0.1939538 -0.023998454 -0.6354013 0.11618055 -0.43287635 -0.38700604 0.5330893 0.5920173 0.4076047 0.14307323 0.15734169 0.17754553 0.18169913 0.47655976 0.1943122 0.60417145 -0.65078074 -0.3080297 -0.45432097 0.3747553 -0.079599135 0.29588088 -0.42054978 0.076326765 0.17089002 -1.1302251 0.7806547 0.054884937 -0.20670635 -0.06461767 0.18604745 0.07170778 0.23392668 -0.3266395 0.6767188 0.5546774 -0.0928637 0.3367107 0.2857621 -0.4615775 0.2830571 0.39966866 0.6425356 0.4107424 0.18708488 0.21243833 0.58131003 -1.0242358 0.18951154 0.8628269 -0.30789018 -0.67151743 0.10718913 -0.7476713 0.25153315 -0.58067435 -0.29751918 0.3524907 -0.22222964 -0.26298243 0.25535604 0.7105902 -0.52328694 -0.011942512 -0.6279191 -0.9894756 -0.7031459 0.69572365 -0.05056617 0.2563379 0.26752934 -0.4010675 0.8417706 0.3073326 0.14275075 0.41685796 1.1053758 0.5517163 0.7421192 0.27247733 -1.134812 0.6193764 -0.17392091 -0.114002824 -0.72727436 0.020577682 0.27429962 1.0525104 -0.22902453 -0.3006045 -0.53801423 0.111123815 -0.9342287 -0.538962 0.19067785 0.4836535 0.65464723 0.4083761 -0.13655677 0.5875966 0.06775663 -0.093165606 -0.6469514 -0.5056699 -1.1221341 0.36859494 -0.24014415 -0.047292978 0.4729311 0.46174076 -0.31946146 1.0003724 -0.4704044 0.076103784 0.36777684 0.54141515 -0.30651098 0.14911465 -0.11911627 -0.2581992 0.42635432
1072 -0.2799651 -0.9453137 0.9133777 -0.04490188 -0.5091131 -0.11315064 -0.391282 -0.23551334 -0.18669997 -0.1741108 0.7930448 0.22965272 -0.50687134 0.69497854 0.37628424 0.8258963 -0.2894941 -0.10350133 0.28059348 -0.17710568 0.41134784 1.1030648 -0.51699823 0.09320039 -0.100829884 0.06965548 0.09884497 0.45488515 0.13903755 -0.008121341 -0.35291687 -0.25617212 0.5387167 0.5903152 -0.20932345 0.19787426 -0.008600185 -0.042482488 -0.32100666 0.37452912 -0.23731078 0.77947164 -0.61329865 -0.91899675 0.6949127 0.034001052 -0.7456119 -0.28018242 -1.094177 -0.29438484 -0.01569833 -0.15695156 0.62806386 -0.49573392 -0.43253604 -0.18188196 0.11110427 0.37667733 -0.7903872 0.07828612 -1.4418771 -0.44832385 -0.1215016 -0.016941426 0.32612833 0.08916286 -0.5781968 -0.5273239 -0.08271336 -0.15977982 0.5984286 -1.0255896 -0.97978294 -0.89254147 -0.22964634 -0.015024582 -0.19262455 0.95092666 -0.6371454 0.8557255 -0.7917625 0.40443575 -0.41201508 1.3771569 0.5471411 0.4148223 -0.018199084 -0.14325872 0.1604939 0.6885439 0.5948314 -0.1825371 0.37417004 -0.12952684 0.2642295 -0.21016803 -0.75725293 -0.24680948 -0.058498982 -0.96053153 -0.56718355 -0.3049077 -0.29470596 1.0784571 0.95060647 0.024107868 0.41729042 0.1148798 0.3570019 -0.8345487 -0.38376603 -0.3353816 -0.18447635 -0.42675412 -0.941167 -0.3860086 -0.5768788 0.057206325 0.08912437 0.15608321 -0.07333033 -0.583636 -0.48413444 -0.3716704 -0.4177966 0.08095 -0.17964861 -0.10624192
1006 0.24535085 0.4837922 0.50134605 0.45136184 0.5646571 0.37106717 -0.88846016 0.14478746 -0.29093996 -0.05867408 0.27138278 -0.30000892 -0.44747138 -0.15822412 0.14467731 0.37851846 0.31850022 0.6982703 0.10555332 -0.07406205 0.4122666 -0.12151745 0.2643238 -0.3037832 -0.6481703 0.30360994 -0.20999242 -0.30816403 0.012858936 0.040209588 -0.3102111 0.22958872 0.22453544 0.06385572 0.22106494 -0.5367538 0.11562783 -0.5279171 -0.35992894 -0.3607962 -0.22518705 -0.0823745 -0.45457482 -0.4998289 0.38309515 0.43315804 -0.29690203 -0.71393484 -1.0841075 -0.16356581 0.69438976 0.89901793 0.8014549 0.43437064 -0.21901736 0.18180966 0.55241036 0.03699656 -0.64838874 0.5644944 -0.98187804 -0.20065972 -0.6808176 -0.39394838 -0.30116826 0.26515856 -0.10650435 -0.12224939 0.012187266 0.34199944 0.33771297 0.46431887 -0.99934626 -0.12590134 -0.46328226 -0.8044475 -0.90749305 0.21537867 -0.96775615 0.44859645 -0.22198959 -0.059531342 1.103591 0.9950531 0.69989467 0.17521326 0.39874056 0.12888286 0.9499374 0.2367374 -0.34950265 -0.3964482 -0.89765966 0.26683617 0.37828186 -0.0782137 -0.013724845 -0.09137219 -0.5903832 -0.25343412 -0.19200373 0.5328355 0.0031227672 1.5768939 1.3290983 -0.4024946 0.094620205 -0.5780888 -0.46482417 -0.9209632 0.14167145 -0.015040357 -0.3831636 -0.10797802 0.40411317 0.26218662 -0.028257925 -0.6923161 0.21479338 -0.17922907 -0.16729191 -0.9668897 0.32030848 0.0475044 0.08476287 -0.19939087 -0.6504841 0.23249246
1102 -0.008648592 -0.7066947 0.506493 0.48977983 -0.45845348 0.27475145 -1.0761826 0.31777534 -0.073166706 0.080129124 0.36337146 -0.096593894 -0.6837539 0.5756246 0.122477606 0.6704966 -0.5027881 0.985903 0.39098647 -0.4150885 0.9673804 0.95195 -0.77409416 -0.48313686 -0.37574515 -0.17632578 -0.38767713 0.72134364 -0.0801917 -0.40334308 -0.84342414 -0.19432262 0.2430981 -0.0573925 -0.18495008 0.26828238 0.48154435 0.29805946 0.59792274 -0.5705014 1.1697769 0.22777058 -0.5335465 -0.6732946 0.64446527 0.1004039 -0.64834833 -0.2925067 -0.7209805 0.64225525 0.5850857 -0.1334156 -0.16945909 0.04219194 -0.52557546 -0.08440555 0.07950245 0.60361487 -0.7239669 0.07013431 -0.88167524 -0.14685145 0.319478 -0.044334784 -0.1431863 0.38029727 -0.45921943 0.52723086 -0.17944613 -0.2686691 -0.43501234 -0.40347743 -0.9665465 -0.6797786 -0.47518748 -0.46859437 -0.30880815 0.18957776 -0.21756826 -0.078754485 -0.5687933 0.10851383 0.45668563 0.69613916 1.0165952 0.9898606 0.7916419 -0.6829919 0.254947 0.35463873 -0.24632956 -0.7342067 -0.16422106 0.25729343 -0.5343229 0.35616407 0.17019871 0.16526382 -0.48114428 -0.3791262 -0.21595453 -0.25909644 0.37581584 2.011445 0.275764 0.14833508 0.5797724 -0.1492344 -0.1826103 -0.15065227 -0.23275436 0.44702998 -0.07229509 -0.29309702 -1.184518 -0.22578782 -0.18664938 0.18252964 1.2274317 0.035242032 -0.56796545 -0.0842895 0.36161274 -0.5561063 0.5655216 0.075991414 -0.26399994 0.047079526
995 0.8022646 -0.51398623 0.55283284 0.24833006 0.6439793 -0.62670475 0.29653674 0.2811177 -0.20221873 -0.42527527 0.100878134 0.102807276 -0.37213716 -0.5797408 0.267003 0.16498113 -0.59658504 -0.06719988 -0.58038753 0.29004332 0.8509668 0.41855586 0.46634832 -0.37689573 0.18109706 -0.121326834 0.22546844 0.36852512 0.058114335 0.072069936 0.10302875 0.51625764 0.36014265 0.65961885 0.42431074 0.53397435 0.9715427 0.63701427 0.6623663 -0.07658281 -0.31091326 0.83997697 0.11436544 0.24907611 0.30395347 0.13624707 0.40393326 -0.24285059 0.5281458 -0.1981044 1.1612318 0.14502555 0.30025262 0.47784796 0.15410216 0.23758012 1.2458997 -0.6577658 0.048763815 0.094740964 0.39987987 -0.7573311 0.5937002 0.5668672 -0.13228245 -0.65986335 1.0079902 0.4434484 -0.5596202 -0.097195886 -0.30981427 0.5226229 0.050068907 0.3293412 0.39302695 -0.23170796 -0.26333955 -0.3505591 -0.3591238 0.3648224 -0.032934368 -0.70664215 0.33066446 0.7666846 0.30538902 0.155803 0.68418854 -1.1109211 0.36840537 0.021621015 -0.73454297 -0.5648852 0.38677642 -0.3679507 1.1666361 0.2678605 -0.75787514 -0.26549438 -0.50640374 -0.29442126 -0.95520353 0.11661229 0.12808165 -0.32774964 -0.24051988 -0.46090233 -0.114591345 0.20454453 0.18016015 -0.3687739 0.7630805 0.050363217 -0.3669015 0.20740186 -0.1072799 -0.01390747 0.6918186 0.28894213 0.09024144 0.5619812 0.49535447 0.026756903 0.70187944 -0.054212913 -0.17793502 -0.7648265 -0.10683418 0.18544833
1085 -0.020996109 -0.24445151 0.2390755 0.2915203 0.19843523 1.0734756 -0.23913863 0.61880183 0.084534414 0.8711464 1.0404676 -0.23903762 -0.70523226 0.18941635 0.6888191 -0.23557204 0.15816392 0.3878328 -0.10769979 -0.4765842 -0.073605485 0.5524935 -0.26351818 -0.014179306 -0.01073065 -0.43011096 -0.6340207 -0.041536976 0.12599316 0.1894147 -0.5563944 0.07454453 0.5348934 0.3490732 -0.806473 0.80796486 1.3844955 0.58990544 0.73036027 -0.67915606 0.17126895 -0.29951826 -0.13415077 -0.030545052 -0.039656132 0.557912 0.8762725 0.1012945 -0.63557047 -0.28657988 1.1200258 0.28667504 0.44267738 -0.26093066 0.05225587 0.31099057 0.7802045 0.42977357 0.5090393 -0.080539316 -0.27125287 -0.8373462 0.39675927 -0.40546373 0.38231537 -0.5632734 -0.009148167 1.4133114 -0.8889894 -0.42854306 0.33314332 -0.5044316 -0.771583 0.22989537 0.15400755 -0.2504568 -0.7918161 -0.29375258 0.27602395 -0.24361734 -0.1702922 0.3396248 -0.17086045 0.7490298 0.36367363 0.3992151 0.8076269 -1.2337633 0.44795626 -0.17243777 -0.64529026 -0.55402887 0.22695895 0.07794357 0.12003144 0.08715822 0.3837966 -0.66181135 -0.1376244 -0.5751894 -0.2797901 0.3249191 0.22141595 0.17483936 -0.10592617 0.32547066 -0.004435314 -0.041605897 -0.42330235 -0.68023723 0.28715715 0.72584975 -0.74908406 -0.027028805 0.0578967 -0.25020856 0.20575349 -0.13903657 0.87458295 0.907626 0.68000823 -0.02277324 0.2511752 -0.19673607 -0.2477125 -0.1790554 -0.8450042 0.112978816
1038 0.13316673 -0.80491173 0.16595338 0.27542865 0.008902016 -0.23143235 0.13857417 -0.3594132 0.039286308 -0.72563654 0.58281785 -0.24428694 0.15555766 -0.54984933 0.519275 0.28709432 -0.51309955 0.13184418 -0.6274992 -0.07610264 0.44996983 0.6371897 -0.09816934 0.21408159 -0.64882135 0.15069787 -0.50583565 0.1333952 0.35916415 -0.7398148 -0.738236 0.25826287 -0.020253286 -1.0270042 -0.53717804 0.23001246 0.5249632 0.60898894 0.76462185 -0.4676606 0.1074301 0.16387548 0.0801514 0.18379982 -0.06657961 -0.15688032 -0.120096825 -0.23422836 0.0029205454 -0.03303509 0.99226516 -0.1884609 0.41322872 0.48778093 -0.0014896126 0.5880693 0.31721768 0.15935037 -0.33322468 -0.003782421 0.26183116 0.30968246 -0.011571081 0.22588941 0.41377413 0.63497776 0.09194845 0.070084445 0.231132 -0.11244654 -0.2349566 0.593672 -0.9323429 0.46079808 0.1546249 -0.59172964 -0.2186683 0.34443355 0.5328552 0.18581201 -0.15452051 -0.5403302 0.9031999 0.27580628 0.67883575 -0.10484911 0.24335612 -0.42254794 0.026599383 -0.8652027 0.15013361 -0.49489835 -0.09573594 0.687604 0.7422785 0.6713115 0.2674852 -0.022758948 0.40945733 -0.68273276 -0.45495567 -0.1616187 0.034504004 0.96553063 -0.32940772 0.012438846 0.17097278 -0.40679175 -0.17114764 0.26087198 0.37991986 0.69190264 0.47642863 0.4994414 -0.009265965 -0.768418 0.58414334 -0.002027716 0.965625 -0.038004003 -0.14286922 -0.7637988 -0.03669179 -0.28026965 0.04663577 -0.039837338 -0.28763154 0.3796431
1056 0.027001189 -0.36905083 0.03826482 -0.17798045 0.14485182 -0.31421104 0.034737278 0.015519803 0.3946653 0.08706349 0.0689183 -0.673151 -0.31938133 0.10251511 0.24749993 -0.92103 0.56521684 -0.4804266 -0.426933 0.37170747 1.184474 -0.6198317 0.25848323 -0.8543744 -0.16277109 0.57433194 0.5048926 0.004801904 0.619014 0.1562269 -0.4496773 0.47228247 -0.2646787 0.116151884 0.0931614 -0.0933025 0.08174393 0.13733865 0.38627517 -0.41877273 -0.17738004 0.22216097 0.5116546 -0.25526208 0.76591176 -0.40517274 -0.049509402 0.31579697 0.45702064 -0.57024664 0.2639096 -0.58456904 0.7160034 0.55293006 0.54298735 0.6637602 0.1387537 -0.23764877 -0.38726643 0.4451 0.051104024 0.68747747 -0.1597655 -0.5427395 0.35784447 -0.061018933 -0.18314898 -0.048361108 -0.36890227 -0.0025053532 0.35004535 -0.5974216 -0.6264652 -0.1543561 0.41539687 -0.506217 -0.13155447 -0.18986833 0.29739013 0.83082455 -0.42772844 0.5454005 0.4498043 0.2601011 0.5684357 0.875329 -0.07943634 -0.5041939 0.58736235 0.2664407 -0.1777685 -0.14840391 0.44948342 0.48888084 1.1258018 0.30903396 -0.833303 -1.1309744 0.07840765 -0.46934015 -0.6486774 0.65122586 0.018513719 0.013826109 0.06857201 0.34424776 -1.074706 -0.7693152 -0.23352318 -0.4546959 -0.49541935 -0.74648046 0.16505621 0.16306426 -0.15230346 -0.07613943 0.37510642 0.46124223 -0.0095779225 0.006772068 -0.5317408 -0.3227855 -0.3492551 -0.19360316 0.04556234 -0.07667781 0.22240461 -0.088639006
979 0.32168394 -0.108667426 0.4629083 0.4646181 0.56153005 0.42050117 -0.7264153 0.21090047 -0.3348297 -0.16765709 0.75165945 -0.36091894 -0.22499378 0.40610006 0.22566333 0.22062834 -0.009824843 0.18557777 -0.3037267 0.109028436 0.7066275 0.20251064 0.3922909 -0.22109458 -0.5467679 -0.011101653 -0.2796471 -0.13755125 0.22244571 -0.2344188 -0.46275172 0.6047672 0.8244332 0.06385192 0.022399286 -0.41747698 0.2030939 -0.3034823 -0.39228645 -0.24463914 -0.65321785 -0.052228853 -0.19806553 -0.697011 0.69362986 0.38324288 -0.024196314 -0.4647716 -1.1960667 -0.12929225 0.40910345 0.41482827 1.0850892 0.23080255 -0.7888043 0.56210923 0.3077581 0.3898358 -0.6199085 0.1681948 -1.1022491 -0.33700457 -0.6909167 -0.09705558 -0.17666167 -0.00049070857 -0.20795119 0.39190096 -0.105108336 0.27980298 0.69728434 -0.08240716 -0.9240847 -0.44670022 -0.107769154 -0.41649878 -0.7430289 0.4170509 -0.5854405 0.5856595 -0.44845256 0.036702514 0.50567055 1.0860816 0.3655365 0.3270808 0.2312983 0.11784997 1.1824577 0.24377888 -0.58550763 -0.34862468 -0.31165084 0.048076615 0.6703034 0.5128704 0.7143219 0.013923301 -0.107273184 -0.31038958 -0.2877472 0.46616513 -0.16536556 1.3335949 0.72686964 -0.15062265 0.25812602 -0.27776584 -0.6399444 -0.50748086 0.0668427 0.04188224 -0.688826 -0.48773506 0.28292733 0.17647727 0.37009743 -0.117200896 0.42022142 -0.30627653 0.017848141 -0.40923595 -0.021561602 -0.08199705 0.23322676 0.10471302 -0.5593625 -0.0061957273
1017 0.27830884 -0.22853115 0.21951145 -0.4411389 0.3934546 -0.68491095 0.13365301 0.072190866 -0.29686552 0.35502967 0.87167543 -0.5602026 -0.7516392 -0.4461336 0.8277992 -0.40541473 0.052456666 0.13183914 0.7170082 -0.023090454 0.38392395 -0.09717119 -0.30713052 0.035591178 -0.28530627 0.094991654 -0.14068525 1.0448465 -0.07956485 0.03754616 0.059378397 -0.33172566 -0.18823671 0.23468332 -0.30012098 -0.5496522 -0.017384037 -0.560914 -0.5365833 0.04040964 -0.47691265 0.8848215 -0.56456816 -0.86883616 -0.20451032 -0.5829695 -1.148369 0.013182359 0.025403582 -0.14836344 0.49006292 -0.25995976 0.31507584 0.49077624 -0.13357788 0.0023278864 0.2870531 0.63845074 -0.571996 0.6604562 -0.68122095 0.6932661 0.05824118 -0.52510005 -0.40164262 -0.296617 0.06522212 -0.53172827 0.35676438 0.23866843 0.38986441 -0.31044036 -0.42896876 -0.3475302 -0.10179463 -0.013852627 0.11694874 0.11678851 -0.36647126 0.6819378 -0.4959551 -0.10467293 -0.065438874 1.1515833 0.78085756 0.1868592 0.007931606 -0.7591358 0.038956754 0.89815754 -0.7625027 -0.34384656 -0.24596027 0.7450142 0.11657025 -0.65957826 -0.802748 -1.0635056 -0.14092469 -0.88561106 -0.7441777 -0.76448965 0.06740858 0.1919262 0.66813016 0.03234619 0.024418201 0.1275929 0.34928402 -0.59410626 -0.21554695 -0.5433381 -0.52920705 -0.6872061 -0.08391477 -0.30504933 0.14078434 -0.0032711364 -0.5513841 0.4066686 -0.595027 -0.7552453 0.0064985575 -0.16791692 -0.060859412 -0.8280493 0.07943811 -0.03406503
1015 0.16568494 -0.91620606 0.2333744 0.2068159 -0.3257232 -0.37713948 0.051139824 -0.54467857 0.036075607 -1.171873 0.81703675 -0.07371978 -0.04153172 -0.35426378 0.5158742 0.2759287 -0.5056196 0.303977 -0.35252377 -0.17686602 0.69196904 0.50191575 -0.10560384 0.703653 -0.8024728 0.24157515 -0.64005846 0.27350762 0.066264294 -0.8422205 -0.8131318 0.17969753 -0.16584747 -1.0240909 -0.3674792 0.011290694 0.6488524 1.0292262 1.1318328 -0.075600564 0.5487758 0.7224957 -0.3641795 0.33518162 0.15010914 -0.06748808 -0.5464931 0.026536655 -0.071856245 0.35635346 0.68287563 -0.24020548 0.40225026 0.45992398 0.27406347 0.394614 0.29999503 0.10724571 -0.80209756 0.2578644 0.47340685 -0.08656087 -0.25315392 0.13968347 0.45373395 0.11188451 -0.060118526 -0.19941631 0.26787588 -0.02089973 -0.051191065 0.5248154 -0.6687585 0.0453534 -0.43814808 -0.28451318 -0.5510318 0.5826915 0.14286159 0.2980283 -0.17124768 -0.7851786 0.77117234 0.4115493 0.8289825 0.009595208 0.6129038 -0.5513646 0.09305382 -0.39434314 0.29273337 -0.53931874 -0.28090495 0.3613409 0.7162623 0.23934494 -0.45685157 0.05552496 0.24175428 -0.76994896 -0.5156714 -0.51174235 0.6820022 0.97846985 -0.77258897 -0.3820567 0.4047777 -0.2602911 -0.078630246 0.39682055 0.008222165 0.30404386 0.6761057 0.37846696 -0.784513 -0.5773265 0.23461151 0.5872608 1.2058889 0.17063288 -0.014176718 -1.0464013 0.1227922 -0.21614285 -0.040438984 -0.2150202 -0.1187518 0.3986001
970 -0.16331233 -0.64467734 -0.14171124 0.01787342 0.38296843 -0.6580751 -0.3747036 0.7902939 -0.13078809 0.2751712 1.2112212 0.31839517 -0.4836298 0.088673465 0.4796809 0.13316916 -0.4112769 0.59659344 0.1065235 -0.40453008 0.09681183 0.016090944 0.11188506 -0.19563362 0.3656946 -0.34888533 -0.26765516 0.39709878 0.438064 -0.38673186 -1.0813261 -0.042535912 0.41429082 0.04037643 -0.4430501 0.419604 0.62263566 -0.34494773 0.37325522 -0.5224564 0.39505252 0.23463094 -0.5094393 -0.52625865 0.050401863 -0.32803893 -0.44107637 -0.29814374 -0.13057084 -0.058043823 0.62851727 -0.4470491 0.5997952 -0.5052179 0.63061905 0.33247724 -0.19488972 0.51344174 0.2167666 -0.26575324 -0.05249787 0.19666049 0.49825704 -0.018864548 0.20568833 0.40788487 0.4987441 0.44288957 0.8930912 -0.61825 0.9726501 -0.059376497 -0.4351453 -0.8487625 0.29170138 -0.06439311 -0.17489354 0.035897773 0.22835805 0.23240423 -0.62324435 -0.39949 0.09323296 1.3402457 -0.037445523 0.3264402 0.6620676 -0.85657847 0.80420697 0.22040866 -0.21059468 0.039688863 0.2995948 0.3323646 0.309638 0.33101112 -0.7717188 0.20281066 0.099546395 -0.43309435 -0.13380149 0.015413855 -0.49450126 0.39232677 0.29656133 0.3405871 -0.110124685 -0.39920005 -0.098311104 -0.3552097 0.39473838 0.20565006 -0.18118577 -0.21493325 -0.29376417 -0.30681792 0.41544643 0.42511228 0.49835807 0.36291596 -0.5163342 -0.56006074 -0.21677418 -0.54527503 -0.15701818 -0.02547276 -0.23183252 -0.12172932
1050 0.7737981 -0.63365895 0.6385218 0.7712709 0.09960101 -0.49791223 -0.2536663 -0.7075984 -0.27677524 0.19844472 0.17810021 0.067156285 -0.17610654 -0.47442234 0.9710134 0.30814078 -0.7946346 0.13205937 -0.10895389 0.23733945 0.61426824 1.0903771 -0.34010363 -0.15798223 -0.60498303 -0.29533032 -0.6244835 0.70971346 -0.09900455 -0.27170664 -0.53829783 0.09996536 0.32266998 0.4797604 0.121947244 -0.38546506 0.7878974 0.34262338 0.46527573 0.18070772 -0.17286636 0.8027135 -0.5114764 -0.36831486 0.9802907 -0.15290083 -1.0269252 -0.25821114 0.18850553 0.23568906 0.034598883 0.18390922 -0.056314077 -0.023553994 -0.23709467 0.26042697 1.0913453 -0.52659166 -0.6603658 0.0017099057 -0.2832887 0.28988805 0.5509536 0.41226014 0.20325221 0.13084333 0.74968386 0.14114329 -0.03145149 -0.3575099 -0.5684255 0.0012200639 -0.7692236 -0.47739467 -0.20227857 -0.10050501 0.04016684 -0.10361518 -0.20797606 -0.22046667 0.14402337 -0.61420166 1.0092783 1.0884013 0.58094764 0.77381647 0.5678837 0.022316722 -0.0024472445 0.3496853 -0.48191756 -0.38800833 0.31604165 -0.26990536 0.054866794 0.5867758 -0.33284357 0.085079245 0.2687877 -0.47204563 -0.7181054 0.10168144 -0.77740705 1.1113224 0.3104857 -0.20609032 0.08721048 0.11706675 0.30416673 -0.5883052 0.24791844 -0.05138085 -0.04634853 0.0052986 -0.1591771 -0.7335252 -0.1657016 0.08673393 0.0019778532 -0.20336872 -0.2414861 -0.15907754 -0.15382288 -0.26439565 -0.18796964 0.53577733 0.20267901 0.02165399
