1703 128
1472 -0.3582711 0.12647267 -0.26280123 0.63463646 -0.106973544 0.7620246 0.43211064 -0.4439581 0.055381566 -0.49114656 -0.308527 0.008394219 0.16126595 0.38003662 -0.89249927 0.68281955 0.52281874 0.29832447 0.28096238 0.060416613 0.16772443 0.111966446 -0.24214804 -0.33375502 0.11622948 0.17553797 0.060782604 -0.33944985 0.35174283 0.7013832 0.19716139 0.24987534 0.35828698 -0.282744 -0.43500677 0.2502349 -0.51112294 0.17453615 0.16592598 -0.44478512 0.32022282 0.20192616 0.02035343 -0.4245549 -0.44858184 -0.65198815 0.66439694 0.4235441 0.063117065 -0.31169903 -0.07253509 0.12555349 -0.5072968 0.008496623 0.31546745 0.3383202 -0.014926587 0.24357268 0.17595166 -0.17310916 -0.38664714 0.25795782 0.119230464 0.65194255 0.102836676 -0.17081885 -0.29242116 -0.37142697 -0.17917508 -0.31078395 -0.06926913 0.079981595 0.04238909 -0.6111399 -0.2194858 0.006787779 -0.23700882 -0.13074575 0.29984206 0.24968055 0.514645 0.015047402 -0.22806558 0.20452844 -0.047623392 0.6577122 0.34965408 -0.0059116436 -0.3418374 0.17556874 -0.114354484 -0.14177711 0.12598722 0.39386192 -0.58795726 0.16528362 -0.3804864 0.5968658 0.38975072 -0.2763341 0.040198628 -0.46337107 -0.39453092 0.38519976 0.22564062 0.6560932 -0.06760622 0.018692818 -0.049252387 0.016216457 0.4014292 0.00046118005 -0.2514771 -0.05627104 -0.22844025 0.32417652 0.39581347 0.2859925 0.24697207 0.116213076 -0.08499152 -0.17631939 -0.2203407 -0.36489895 0.45484868 -0.4478817 -0.30792665 -0.00349211
1473 -0.47521248 -0.52716076 0.16104957 1.2154262 0.46918684 -0.65015113 -0.41356933 -0.1849397 -0.27177292 0.3478228 -0.65478766 0.29970613 0.83724606 -0.08038794 -0.23620255 -0.4919703 2.4520419 -1.4219232 0.52512217 -0.5972671 -0.019207507 0.23338138 -1.3726047 -0.35687968 0.3640749 0.120954424 -0.015732124 0.7410386 0.69276714 0.86851186 0.5143141 -1.1199971 0.34025896 -0.094917335 0.25378612 0.14818303 -0.3726136 0.47557577 -1.1121088 0.2999602 0.34622526 0.19887131 1.0546119 -0.21258697 -0.42372277 0.3792116 0.33605003 -1.033468 -0.1468613 -0.17451446 0.2443182 0.19382387 -1.227581 -0.2749782 -0.5202563 0.6416192 -0.031787377 -0.12044062 0.27407834 -0.31870636 0.15174644 0.027954718 -0.37191558 0.92584705 0.29709578 0.0695601 -0.7528335 0.24623378 1.2481842 0.6035295 0.6347151 0.3893138 -0.11245351 -0.4311881 1.0578123 -0.15009585 0.1904678 0.6561961 1.3994279 0.3799481 0.71303934 0.07071132 -0.22516811 -0.7091511 0.88783306 0.1801549 0.79310226 0.112573676 0.09670565 -0.481715 0.4293166 0.8808523 0.21478412 0.6722457 0.1399987 -0.41533104 -1.0132854 0.7500951 -0.88452524 -0.44789615 -0.11099821 -0.14450985 0.51492274 -0.7860584 0.36678082 -0.08736254 0.42012137 -1.0465662 -0.22042145 -0.23313734 -0.25881508 0.15655157 0.07271114 -1.4855331 -0.15815476 0.33911264 -0.37974152 0.35567522 0.17856456 1.1120512 -0.89184445 -0.6606519 0.5420575 0.17154205 0.24459852 0.22347836 -0.39867634 0.55413735
807 -0.92376333 0.08829506 0.505052 0.9133847 -1.2322787 -0.34013486 -0.44131777 -0.60966754 -1.0137821 0.08696992 -1.536714 0.18284617 0.09324506 -0.62833184 -0.6776755 -0.15747482 0.07285755 -0.6289646 -0.60746443 -1.2095 -0.22190352 -0.18806814 -0.39130455 0.22159891 0.0129051935 -0.48716977 -0.73962563 0.2435754 -0.5319109 -0.2553796 0.4330449 -0.9861509 -0.42258132 0.2853337 0.022059934 -1.2823678 -0.3976319 -0.39266586 0.7325157 -0.8715658 0.38310584 0.89123034 0.07684443 -0.3272443 -0.12875889 -0.9400972 -0.5025284 -0.37009704 0.5103472 0.1988832 0.25764394 -0.0995208 -0.8476563 -0.92847025 -0.18390255 0.8820821 0.6880076 0.5297416 0.88421607 0.71239746 -0.2475443 0.75554484 -0.6409276 0.060509905 -0.4372537 -0.55684197 0.49498037 0.11234617 -0.09712438 0.5955599 -0.1639662 0.35941643 0.6403426 0.42922053 0.11216408 -0.2867247 -0.5482005 -0.61667675 1.1147959 -0.16261627 -0.3450573 -0.17444104 0.44345385 -0.22650358 -0.4913422 0.85249084 0.50916207 -0.6280279 -0.707107 -0.06410919 0.6421862 0.7119842 0.43415767 0.13001063 -1.0550492 -1.0757421 -0.9220549 0.4150066 0.3724734 -0.08266775 0.20314616 -0.35624906 -0.6719454 -0.24900542 0.89414835 -0.50637543 -0.36875123 0.2449278 -0.913606 1.0128089 -0.22017325 -0.1171094 0.14285408 -0.012976667 -0.7362765 1.6976131 0.13999891 0.7103966 0.64396274 0.009834503 -0.79859006 -0.4290733 0.3345754 0.16995136 0.29984882 -0.2916118 -0.19149135 -0.19398363
1709 -1.0457217 0.77872294 -0.078189515 0.23104322 0.18436986 0.014729866 0.55595624 -0.47241467 0.22035016 -0.43132988 -0.07287224 -0.1871296 0.28428775 -1.130032 0.48732093 0.14503662 0.02343574 -0.13792822 -0.35505858 0.23372461 -0.11519324 -0.47585866 -0.62366164 -0.5921259 -0.20503195 -0.0073328353 -0.16034979 0.79727423 0.6029684 -0.2623218 1.1789944 -0.2736603 -0.06690359 0.7525281 -0.34596676 1.0232444 0.09500954 0.48034996 0.23147179 -0.38603392 0.3907848 0.83772486 0.04764644 0.036742583 0.39415804 0.35516146 0.7402151 -0.74189395 0.5005995 1.2209765 -0.117991224 0.3519114 -0.49185228 -0.61312366 0.17725629 -0.22721325 0.6911198 0.3487067 -0.4667932 -0.87388265 -0.070772976 1.0590012 0.7623506 -0.0404718 0.39498267 0.28516915 -0.78323716 0.23416206 1.1840795 0.5938559 -0.85559666 0.08680205 -1.0036371 -0.95591027 -0.40461978 -0.05824296 0.3802742 -0.6858221 1.0328283 0.95773566 0.30617568 0.44517273 -0.6272485 0.56925595 -0.1970191 0.13334362 0.84031487 -0.27275354 0.57914066 0.40025157 -0.5178182 0.1225171 -1.186722 0.5100098 -0.2743737 1.0859208 0.20005113 0.34384784 -0.8173192 -1.0476892 -0.5914729 -0.14107583 -0.0015887506 -0.12461097 -0.55772585 -1.1305451 -0.13131292 -0.22325699 0.49117535 -0.36149833 -0.13783017 0.4314058 -0.10986633 -0.41675487 -0.8551794 -0.6271547 -0.83173275 -0.86989397 0.45497447 0.22661035 -0.32602608 -0.31799248 0.85223365 -0.028267102 0.22216883 0.14681257 -0.14486922 0.07973872
961 -0.7524023 -0.16396146 -0.34759152 0.1234188 -0.17885728 -0.12702435 -0.44362363 0.047953725 -0.03070867 -0.15000154 -0.2677861 0.07530928 0.23778234 -0.77016467 -0.39990035 -0.14907928 0.16762455 -0.49326435 0.02864381 0.3280728 0.42524615 -0.52838486 -0.36646977 0.23479763 0.23791525 0.0019812125 -0.8012673 0.040809564 -0.3061122 -0.029311722 0.4130534 -1.3260802 -0.5063323 0.8529259 -0.06214733 -0.07481751 -0.487813 -0.07709647 0.35147408 -0.0041445084 0.9495111 1.415026 0.28119436 -0.35675296 -0.5225267 -0.058933284 0.56639093 -0.16613384 0.19434117 -0.3091973 -0.28354582 0.25468072 -0.8192795 -0.24590746 0.52959925 -0.079421766 0.5718545 0.27718374 0.24982512 -0.2544095 0.14373714 0.7043873 0.27206948 0.49023005 -0.39475104 -0.23419094 -0.058425378 0.057983708 0.1273028 -0.25442788 0.67755157 0.19721526 -0.004704589 -0.5522611 0.43381122 0.114592046 -0.13932586 0.1808352 0.6929308 -0.59848887 -0.10266205 0.33740467 -0.12242057 -0.22644827 0.4008023 -0.17057568 0.3643044 0.9314611 0.38679206 -0.15874444 0.36265275 0.5203611 0.6115523 0.75590384 -1.085269 -0.4302151 -0.7138644 0.37723175 0.71442896 -0.8095874 -0.2834735 -0.6621021 0.16920455 -0.64950156 0.4862403 -0.38767895 -0.63952804 0.20842186 -1.0238767 -0.1344173 -0.0715926 0.19688083 0.09961472 -0.4022091 -0.6357752 0.2976455 -0.59525734 -0.1045767 0.7242362 0.46677354 -0.5809819 -0.50583535 -0.20089817 -0.33544704 0.28122038 -0.26262122 0.42416286 -0.3785786
445 -0.89338803 -0.3401563 -0.6159451 -0.117664844 -0.087240994 -0.70753706 -0.24901716 -0.33906862 0.2780949 0.23544829 -0.40006533 -0.7163009 0.4045358 -0.41805974 -0.4023911 0.10859598 0.18946557 0.11003522 0.31493962 0.23831265 -0.13115218 -0.15483882 -0.14795735 -0.9399016 0.37808263 0.54926395 -0.13385189 0.07219363 0.7386135 0.2722746 0.9588434 -1.1288104 -0.16027144 0.41856897 0.13007282 -0.20771933 0.1930079 -0.0011668288 -0.024640953 0.24359234 0.59354234 0.95424837 -0.5668615 -1.0876926 0.25069132 0.9484637 0.21242015 -0.38301948 0.9241237 0.6215221 0.018881064 -0.18442841 -0.86274517 0.40713945 0.2985558 0.19182089 -0.05188877 -0.42926815 0.07596725 -0.32560226 0.22470056 0.97437954 0.29914844 1.1423308 0.09812895 0.7284461 -1.0587342 0.8337664 0.77530533 0.98348355 -0.0042587244 0.8036688 -0.5087282 -1.3216425 0.19525635 0.5799375 0.90350455 -0.5484872 1.0689243 0.33305362 -0.07231826 0.65467334 -0.30948147 0.06526607 0.9381513 -0.12423216 0.4511375 0.17765804 0.16043569 -0.37870237 0.7060274 -1.1695895 -0.96656054 0.66712004 0.26579955 0.57558095 0.02717933 0.38817522 -0.15939349 -1.1032401 -0.7061104 -0.5929102 0.07344788 -0.27770135 0.6722578 -0.9422153 -0.5237189 -0.81553406 0.27227923 -0.12406528 0.3866114 -0.93752277 -0.31630853 -0.63974977 -0.3189657 -0.22007327 -0.2582136 0.5257856 0.34587544 0.16876176 -0.32503662 -0.3997187 0.86619973 0.13319977 0.20713435 -1.0681145 0.6293953 0.42735255
909 -0.27005348 0.34441602 0.64336 0.8969825 0.028014233 0.08198239 -0.36702082 0.046601765 -1.2629302 -0.81388867 -0.70550215 -0.20262156 0.19778967 0.28057197 0.18635152 -0.82626 0.68453664 -0.30895352 -0.06377711 0.07004777 -0.43360403 0.07904131 -0.17189988 -0.08410618 -0.0044973367 0.48676133 0.03891764 0.6486755 -0.31579214 0.27794904 1.101502 0.18783298 -0.2718168 -0.06812383 -0.6099791 -0.7828856 0.23930942 -0.09722017 0.6369395 0.028865026 0.7961481 -0.17806679 1.1763875 0.2468187 0.47146997 -0.10461504 0.46888432 -1.2259163 -0.13423745 1.090451 -0.5931258 0.042511366 -0.05295611 0.20589928 -0.05484433 0.7252188 -0.38315466 0.23766796 0.08708902 -0.23003079 0.41197577 0.99247193 0.8364041 -0.28825018 -0.0381608 0.6296838 0.35337478 -0.31075424 1.2375672 0.16312715 -0.045844145 0.6611072 -0.58840877 -0.8294124 -0.3306507 -1.0213858 0.24985367 -0.8232288 0.4623005 0.040884998 0.9330237 0.3675738 0.38651496 -0.56260866 0.28506106 0.14697085 0.42264453 -1.1236484 -0.055582993 -0.28282776 -0.25181186 -0.08901756 -0.47659293 0.32707924 -0.67409027 -0.06490771 0.24246426 -0.086352736 -0.47300532 0.14699769 -0.34212345 -0.012809965 -0.18523869 -0.3270215 0.33650678 -0.54530966 -0.13074599 -0.31958523 -0.5656967 0.07068138 -0.70197904 0.90367925 0.4221771 -1.2371585 -1.0932155 0.545404 -0.10781976 0.2760639 0.7318699 0.5513468 -0.9803769 -0.049749058 0.5571927 0.10984282 -0.3463682 -0.46643233 -0.60045904 0.0038036795
996 -0.19222878 0.537225 -0.7512953 0.8890966 0.10195439 -0.07440209 0.3313013 -0.6582036 -0.95409924 0.5052139 -0.45738956 0.37794635 0.3319293 -0.19811428 -0.78405017 -0.31148756 0.4219225 -0.43261793 -0.27646235 -0.31215492 0.3191473 0.4179797 0.43145007 0.3415726 0.5379118 0.007867847 -0.8022549 0.21986456 -0.06850039 0.7460811 0.36975354 -0.71624863 0.32262337 0.81990266 -0.8147945 0.5010026 0.16849394 -0.31705773 0.13534164 -0.54276854 0.8205865 -0.50146496 0.96684927 -0.112027965 -0.09700146 0.46898118 0.42324942 0.19899195 -0.11496107 -0.27701348 -0.116035625 0.37767395 -0.5141532 0.26055163 -0.11877228 0.50083977 -0.4160448 0.29540342 0.13936436 0.2840939 -0.1427706 0.20186676 -0.23112525 0.4402918 -0.14883675 -0.84235686 0.28189698 0.7215507 -0.20562392 0.017720383 0.24870865 0.76269644 0.09975224 -0.7511826 0.064809956 -0.56246763 0.036624793 -0.49143022 0.35809377 0.26332316 0.119690016 0.5798781 0.31954885 0.32362267 0.33858386 0.62544984 -0.051641807 -0.13574158 -0.3778737 -0.6204695 0.45683098 -0.16518909 -0.15243109 0.22882931 -0.4566887 -0.2272283 -0.8298384 -0.40835202 0.17329739 0.06831918 0.6277264 -0.2449965 0.31901175 0.69259626 -0.40751517 -0.3238116 0.31410047 -0.7763948 -0.66639674 0.30058667 -0.28207254 -0.27434605 -0.72846663 -0.24833404 -0.19407684 0.58095896 0.119589604 0.6343196 0.45878306 0.1461043 0.14005154 0.09568268 -0.4314797 -0.23908928 -0.23746368 -0.5306673 -0.23990545 0.032360233
999 0.4626011 0.50612485 -0.48612022 0.6612476 -0.23443522 0.18357573 -0.15526369 -0.17442186 -1.5565388 -0.8698582 0.3715736 -0.74669874 0.75320464 0.3468537 -0.41779947 -0.033827122 -0.75489724 0.5146142 -0.29712978 0.39040416 0.052154385 0.48068935 0.11437454 0.07609696 0.8419144 -0.49824068 -0.7959774 0.73463696 0.37903327 0.6585083 0.07024556 -0.89726233 -0.73448884 0.78501767 -0.39095557 0.0039962335 -0.42392316 -0.16853799 0.19718513 0.22336662 0.25167075 0.2579544 1.2733037 -0.22908343 0.37799373 0.21604459 0.36435205 0.4129911 0.14236891 0.54228574 0.2367817 1.1778746 -0.11783511 1.1573915 -0.41718853 0.72926676 -0.018991511 0.5255836 0.18340853 0.62351483 0.3332216 0.86230826 0.24592073 -0.6794843 -0.36571068 0.20954907 0.3235292 0.59077156 0.22573029 0.05729939 0.117497854 0.18047425 -0.57055575 -1.4467812 -0.069424264 0.13731271 0.2614406 -0.862117 -0.39832404 0.14851972 0.55557394 1.4420264 0.3270344 0.49918836 0.9052731 0.34215418 -0.20189495 0.34801957 -0.48369017 -1.1166036 -0.6202877 -0.77018183 0.29170248 0.3452411 -0.8636981 1.0813658 0.8980985 -0.27799794 0.7374198 -0.2863291 0.6326476 -0.7887312 0.20423806 0.3450881 -0.18483563 -0.13910937 -0.6228653 -0.9688166 -0.554395 0.11055158 0.2510886 -0.09733622 0.5053394 0.47535092 -0.30776078 0.569552 -0.047308847 -0.2207393 0.82657313 0.48641166 -0.61587137 -1.0876492 0.3290975 -0.3973468 0.25790754 -0.31032693 -0.23416477 0.27140686
412 0.4714674 0.2696324 0.43547022 0.45315218 0.044893734 0.6435043 0.4734621 0.32246512 -0.8464136 -0.06622035 0.3105056 0.75235707 0.7364901 -0.67096406 0.2838734 -0.23709692 0.5049252 -0.5132887 0.8274941 -0.12354507 0.37560195 0.08607312 -0.31044805 0.39060414 0.24493717 0.16354714 -0.07995504 0.8182863 1.3207153 1.3114133 0.2306852 -0.3642506 -1.2035874 0.7890603 -0.63490415 0.7083908 0.39157313 -0.3097575 -0.07002121 0.006772843 0.9036419 0.1456524 0.5859879 -0.095609434 -1.2155213 0.20206042 0.7730321 -0.107549295 0.43967456 -0.5156605 -0.101591475 1.3012867 -0.66916347 0.6639089 -0.38043424 0.40385228 -0.0017009968 -0.114367925 -0.058162145 0.33946294 0.016027303 0.20586121 -0.33312857 -0.13872992 0.024198545 0.45882237 -0.30288628 0.6202481 0.55220735 0.5355445 0.708437 -0.47783774 -0.4057485 -0.36004186 0.54711324 -0.43523335 0.30462232 -0.4156333 0.33210135 0.72514635 0.7851005 1.1347438 -0.37525403 0.095612384 0.011126071 0.72620416 0.29883412 0.950238 -0.25965542 -0.1337645 0.16108085 0.35221848 0.04770743 -0.12889482 -1.2217623 1.1978838 0.28745338 0.3406174 0.6294388 -0.9706392 0.25572178 -0.6212985 -0.07499049 -0.12183346 -0.93082297 -0.59336686 0.46610385 -0.9625539 -0.034674548 -0.35389593 0.10644256 0.19795053 0.7043123 -0.21328649 0.38503417 -0.47017047 -0.7563997 -0.046257492 0.7154797 -0.07791743 -0.06761063 -0.5784334 0.6011273 -0.7928 0.26682198 0.15384421 -0.56221557 -0.10880604
237 -0.14619617 0.10265142 0.23653986 0.80195284 -0.5484553 0.50295717 -0.0897651 -0.32459888 -1.0783656 0.05287229 -0.7913624 -0.004699137 -0.08662874 -0.35220143 -0.2614971 -0.101958446 -0.15431863 -0.5364174 -0.23832063 0.11187453 -0.671326 -0.5394335 -0.4082244 0.7713262 -0.63589317 0.09629435 -0.5444411 0.19837725 -0.009416231 -0.11413148 0.5251459 -1.0682241 0.12986267 -0.04187476 -1.0138662 0.5071169 0.2838209 0.2806982 -0.43537658 -0.50539654 1.2932625 -0.28750512 0.54341197 0.09735226 0.37553942 -0.5790978 0.9013666 0.43103334 -0.22841835 0.1876866 -0.28217798 0.52302426 -0.40709767 0.43272227 -0.62153697 0.4215347 -0.14608616 -0.5177796 -0.49953526 0.017091034 -0.19227004 0.39211482 0.088509545 -0.050812338 -0.14042738 -0.7274194 1.1099316 -0.42847908 0.17578982 0.13975003 0.24276812 1.6501336 -0.7020565 -0.6256513 0.46142557 -0.019083656 0.016451212 -0.18970214 0.8743642 -0.115510345 -0.14670555 0.06585717 0.28563204 0.10880447 0.46476355 0.118803956 -0.23708452 1.2681369 0.31198025 -1.3044116 -0.4366389 -0.62246335 -0.033287443 0.9231514 -1.3888446 0.853946 -0.72890764 0.66282386 -1.3102392 -0.073619165 -0.4299982 -0.8211586 -0.37218982 0.4176818 0.23905085 0.58832383 -0.35531375 -1.125403 -0.31943473 0.62156165 -1.0107803 -0.15943976 -0.028308313 -0.827964 -1.0070432 0.065828145 -0.5315021 0.0618437 -0.14802991 0.12675866 -0.28476503 -0.30480012 -0.55466384 -0.7986502 0.13230707 -0.2445518 0.6867448 0.5890895
1686 -0.5154859 0.35475367 -0.59470624 0.5781905 -0.7590838 -0.6700662 0.085610874 0.583679 -0.9287963 -0.08202934 -0.6528792 -0.86243886 0.5626267 -0.5743294 -0.5814706 -0.3397748 -0.9620849 -0.21223554 -0.38875452 -0.31291956 0.25443998 0.9751895 -0.57817775 -0.94906783 0.22790374 -0.049675982 -0.85290074 0.77847517 -0.06781103 -0.1858857 -0.4094566 -0.39183494 -0.5105205 0.25973615 0.21625134 0.011013476 -0.10304765 -1.2760152 -0.29002705 -0.425846 -0.53431696 0.26547447 0.19895276 -0.4891444 -0.42923635 -0.36509123 0.4564134 -0.17839599 1.4465561 0.20361876 0.3811253 0.5146275 -0.0891143 -0.5565802 -0.6883553 0.3042681 0.2159056 0.24614649 0.51139575 0.57767856 0.19271366 0.1382541 -0.8474502 -0.2165633 0.05829529 -0.19473828 -0.42195177 -0.03823563 -0.61586046 0.6682541 0.70436347 0.035396166 0.16713 0.08132869 0.2969204 -0.23609875 -0.018678902 -0.42926338 1.3068402 -0.4942866 -0.04278318 0.35313928 0.568636 0.2943881 0.3524878 0.6633487 0.16997826 0.17637408 -0.9420895 0.12997517 0.07994572 -0.21562555 -0.4291496 0.3567307 -0.6799512 0.21005225 -0.03497562 0.27382118 0.37272847 -0.16975811 0.4181441 -1.2776902 -0.5426669 -0.19495387 0.7944823 -0.19539723 -0.17967431 0.057812944 -0.5368735 0.71072835 0.8734427 0.4739428 1.3824574 0.24113424 -0.8136166 0.94709057 0.08695567 0.662992 -0.28603363 -0.7734256 0.096839115 -0.90496814 -0.54104483 -0.09630197 -0.29347458 -0.88700366 -0.10193223 -0.18873057
920 -1.2911378 0.79306966 -0.21276847 0.100630574 -1.276081 -0.3336764 0.026861608 -0.5698839 -0.15416126 0.078748435 -0.9239994 -0.6595009 0.30373183 -0.5594928 -0.11413729 0.13042112 -0.4413997 0.60168606 -0.6865503 -0.3904437 -0.16123806 0.6304428 -0.3124189 -0.89491785 -0.45705923 0.09758077 -0.55721647 0.3538176 0.008532552 -0.94839096 0.8211698 -0.1507967 0.21529745 0.44202104 -0.17956646 0.15492395 0.29511896 -0.19284976 0.4746177 -1.0727496 -0.08208256 0.314787 -0.2431845 -0.39887995 0.51137495 -0.49143195 0.17722204 0.1655985 1.292456 0.9917001 0.37175003 -0.32822722 -0.27365842 -0.58104867 -0.0076856986 0.27026528 0.3660989 0.49404624 -0.133416 0.3439689 -0.31459552 0.99715686 0.39236608 0.09360525 -0.2985621 0.12869309 -0.3188884 -0.06390779 0.6304543 1.4587246 -1.2487216 0.59715647 -0.3802744 -0.29820177 -0.15230806 0.008877685 -0.13396351 -1.057795 0.8435665 0.84810597 -0.62143373 0.06455563 -0.42441472 0.0030406308 -0.721283 0.6880924 0.5711549 -0.5131225 -0.15643463 -0.081833795 -0.17021102 -0.506751 -1.2028581 0.21141493 -0.16046464 0.16506971 0.2848691 -0.08721602 -0.13708025 -0.5522221 -0.44993743 -0.2411502 -1.276551 -0.17790155 0.014667661 -0.39017174 -0.63078463 -0.14830558 0.39124423 0.63980937 -0.045708653 -0.15897943 -0.38803923 0.35001507 -0.9105099 0.2641946 0.23188318 0.2889549 0.08202735 -0.8702402 -0.26063514 -0.5702614 0.7522057 0.27630922 -0.61793584 -0.4356363 0.22897542 0.26554602
1087 -0.19463918 0.5184582 -0.8036599 0.070093304 0.05820979 0.20431146 -0.31212676 0.30768138 -0.54596394 0.6777047 -1.180801 0.094764315 -0.23298809 -0.506829 -0.12236306 -0.53582174 0.78652364 -0.22300826 -0.81951374 0.005291383 -0.4383461 0.45760068 -0.21140006 -0.9143575 0.0818084 0.19959894 1.0425999 0.4747495 0.39468172 0.39174616 0.6618245 0.5247767 0.1798094 0.33746997 1.0992514 0.007086847 0.09492185 -0.83256185 0.6425332 -0.23730738 0.58774924 -0.13689068 -0.5202391 0.025653504 -0.1863632 -0.78879476 0.7859714 -0.517422 0.9983203 0.55130476 0.3336382 -0.014034258 -0.33567017 -0.5196395 -0.8146324 1.0113935 -0.13405643 -0.24884284 0.45277584 -0.36533326 0.5710238 0.5163698 -0.31496042 0.3441585 -0.56115115 0.7901838 -0.47238508 0.039386306 0.51377136 0.90292346 0.23173405 0.5688354 0.03432525 0.39167947 0.1720221 -0.6074961 -0.06645391 0.3647307 0.7331132 0.514564 0.4843023 -0.439561 -0.016904123 0.33941585 -0.5416732 -0.14966711 0.6839905 -0.57862884 -0.8647875 0.6005172 0.35320833 -0.5664586 -0.5298364 0.08918428 -0.043129858 0.5690409 0.5071049 1.0658457 -1.3341341 -0.39470187 0.26896206 -0.6257471 -1.1679398 -0.40999258 0.64284277 -0.015893804 0.8999372 -0.6895737 0.1837983 0.7694859 -0.62426555 0.08622059 -0.09089428 -0.3695269 -0.6725685 0.33550215 -0.27707857 0.5182009 0.09560296 -0.27135292 -0.118778 -0.6314763 0.19466618 -0.6419576 1.2670386 -0.3430719 -1.0538659 -0.33970746
1021 -0.06253293 0.07109708 -0.5049125 0.50514305 -0.20378383 -0.054460388 0.23428732 0.07729225 -0.89349484 -0.21452856 -0.8170306 0.49661335 -0.096065626 -0.9134349 0.043475784 -0.20730168 0.32201397 0.48891354 -0.17280647 -0.73536885 0.014548714 0.20401451 -0.006916947 0.09000347 -0.49034762 0.21323615 -0.17998788 0.0071227876 0.5651173 0.661319 -0.15684298 -0.52500254 -0.96904504 0.54093164 1.0022497 0.18627009 0.5632893 -0.6351197 -0.5141834 -0.38926739 0.5087779 0.25402635 0.22429113 -0.1978108 -1.433675 -1.5722936 0.7650721 0.40802997 0.13846405 -0.55219513 1.0073768 0.37282905 -0.24769837 0.20899692 0.30655444 0.7912817 0.82674086 -0.055724543 0.7332616 0.10283546 0.542302 0.5954853 -0.44773996 -0.13586438 -0.3056892 0.7958778 -0.06468262 0.3005856 -0.14376423 1.0268457 0.6189804 -0.044120654 -0.70674586 -0.44903418 0.5124367 0.26912948 0.30073667 0.15047887 1.1028546 -0.10032058 -1.1617929 1.0600867 0.060927648 -0.13876703 -0.3079391 0.6268763 0.16653004 -0.0025698997 -0.8135606 0.23829176 0.49653205 -0.626858 -0.7950149 -0.20838958 -0.5048857 0.4736152 0.48361978 0.9448572 0.3365114 -0.51398486 0.7266927 -0.41161528 -0.9941387 -0.6389601 -0.33818287 0.5084353 0.18794447 -0.051968597 -0.3453581 0.40754625 -0.8855511 0.07359589 -0.2680422 -0.04946342 0.117765956 0.3302782 -0.9351841 0.29413563 0.23843023 -0.4140958 -0.81842035 -0.51156795 0.19426137 -1.2013836 0.32335803 -0.43527624 -0.88970554 0.31948724
1682 -0.38998488 -0.2348766 -0.3300208 0.10010112 -0.3756074 0.0838757 1.1723015 -0.6696141 -0.32660866 0.09793664 -0.9248849 -0.7990941 0.78838235 -0.9900087 -0.4842223 0.16921829 -0.0358313 -0.042338006 -0.28181607 -0.54368454 -0.25536686 -0.22520378 -0.37707362 -0.6801634 -1.1192005 -0.53996503 -0.79716104 0.52827615 0.008142113 -0.67981374 0.6589479 -0.9637205 0.4330195 0.4310222 -0.066386975 0.37029928 0.37130395 0.021146486 -1.2547373 -1.2131824 0.09656766 0.5405099 -0.16052726 -0.7799918 -0.39244565 -0.61486614 0.5881561 -0.007232957 0.21150205 0.20195568 0.44008464 0.010992597 -0.07732473 -0.8620326 -0.020744836 0.28931257 -0.067961976 -0.56769824 0.053151485 -0.34571138 0.20021379 0.47809586 0.39442834 0.14203952 0.04603754 0.4089578 -0.6374154 -0.6012216 0.6037358 0.809926 -0.16168654 1.4467765 -0.40682706 0.064846985 0.49512053 0.020386925 -0.22994249 0.13671766 1.2751482 0.64790875 -0.14314228 -0.017471736 0.07290058 -0.38318563 0.23456782 0.35999048 0.023884092 0.46946988 0.38539693 -0.23267768 0.5146545 -0.42394364 -0.6021688 1.055869 0.2899274 1.0176121 0.0014566951 0.5815052 -1.2690251 -0.31508696 -0.5850822 -0.49498326 -0.2438225 -0.22654812 0.40698949 0.15371297 -0.31969762 -0.52886134 0.13956004 0.0672149 0.12555455 -0.39918375 0.5127607 -0.8287713 -0.6323341 -0.02300859 -0.5293616 -0.19765942 -1.11912 -0.4567859 0.46631873 -0.3095947 -0.17013717 -0.37980753 0.7221502 -0.16934666 0.5150141 0.8749286
1717 -1.3523268 0.6653252 -0.3291444 0.62735134 -0.887368 -0.51775986 0.010148171 -0.11721645 -0.27264583 -0.053745374 -0.6099195 -0.7360787 0.3651602 -0.47174364 -0.46741644 0.54515344 -0.5503184 -0.045110397 -0.6971705 -0.31027043 -0.19652764 0.78102183 -0.7132655 -0.9693133 -0.3644532 0.03686815 -0.5254065 0.59062666 0.23513886 -0.8976297 0.51293236 -0.19334137 0.2532634 0.2652135 0.0013371158 -0.14610977 0.28842482 -0.1996318 0.14512998 -1.0574945 -0.41946152 0.20873329 -0.20271902 -0.6762361 0.62429047 -0.32797393 0.26267976 -0.295914 1.5125483 0.65228117 0.3068742 -0.7849912 -0.7035272 -0.29655623 -0.3552065 0.4570476 0.4408133 0.7968232 -0.029708868 0.38322935 -0.01635576 0.92773986 -0.06885709 0.34740043 -0.35691163 0.2690884 -0.08770782 -0.15708286 0.16809514 1.2859907 -0.6433742 0.30174038 -0.28496665 0.054919884 0.26370814 0.28044662 -0.25879484 -0.7580356 1.1046962 0.8358642 -0.63140637 -0.501321 -0.5459146 -0.17776228 -0.3927486 0.6379369 0.7761935 -0.03770172 -0.09875745 0.08558014 -0.25966552 -0.57318205 -0.71114963 0.18491009 -0.5453624 -0.418581 0.042352725 0.53995454 0.20546345 -0.87978214 -0.18314044 -0.6946156 -0.8847267 -0.06801131 0.376593 -0.35601103 -0.9477814 -0.11996319 0.4346149 0.48015457 -0.17892678 -0.06469234 -0.2891777 0.45399648 -0.32138312 0.6429273 0.22803755 0.29297793 0.013247716 -0.31592098 -0.30665833 -0.9830137 0.4279814 0.37767836 -0.52599084 -0.38417014 0.47911185 0.27605987
1720 -0.30076572 0.51362044 0.43644723 0.51513416 0.07245661 -0.004960259 0.2775208 -0.17081259 -0.9505669 -0.68225354 -0.27674255 -0.26386437 0.4853244 0.021892548 0.12656683 -0.13028607 0.52236295 -0.51874614 0.27238497 -0.24178466 -0.34904948 0.12489045 -0.16073121 -0.13363095 -0.5563573 0.3462863 -0.33222523 0.7263998 -0.13595492 0.35929027 1.0350428 -0.24445917 -0.44797847 0.08470826 -0.7821766 -0.593819 0.77496856 0.1624925 0.33619308 -0.20504148 0.4857743 -0.3112865 1.2943507 0.18025379 0.101736486 -0.2593983 0.5561382 -1.0172538 0.38854107 0.6960433 0.13786769 -0.12617968 -0.25499046 -0.022800589 0.5322716 0.47946563 -0.2874443 0.30548546 -0.09725297 -0.13071471 0.1807185 1.419851 0.9505059 -0.27534217 -0.28792343 0.3139347 0.15893734 -0.082331955 1.0843655 0.3146348 -0.7281097 0.7193928 -0.47608823 -0.5218399 -0.35064638 -1.1436301 0.45846084 -1.0008888 0.7877963 0.49949446 0.55786127 0.1773058 -0.28385285 -0.9756834 0.48480654 0.3824882 0.36363885 -1.213248 -0.15729469 -0.02736713 -0.06750927 -0.7071278 -0.5545805 0.63481903 -0.49082267 -0.18212783 0.18946424 -0.020935198 -0.2750123 0.3248997 -0.7723788 0.23497501 -0.30936325 -0.49879637 -0.38864642 -0.5843172 0.048416767 -0.050652333 -0.19505516 -0.55934983 -0.35276943 0.54333943 0.034466866 -0.93197453 -0.9748604 0.36194876 0.24956916 0.32480025 0.47082084 0.656037 -0.7499928 0.31936166 0.56493384 0.32607806 -0.24440347 -0.42535916 -0.062879845 0.5109105
1594 -0.31145504 -0.0015435517 -0.09919925 0.16688828 -0.07375599 0.61853766 0.7269004 0.31154218 -1.1859974 0.025657654 -0.2381076 -0.92158914 0.6452517 -0.29699403 -0.7107647 -0.050986193 -0.59196645 -0.15724406 -0.42367268 -0.044235658 -0.14396119 0.076079115 -0.033600576 -0.6876752 -1.2621245 -0.2848104 -0.23732442 1.5938784 0.26180297 -0.13000733 0.56531245 -0.3549085 0.25412393 0.111198954 0.3811588 -0.131343 0.79299754 -0.113647416 -0.43961447 -0.32360455 0.26737788 0.43169364 0.0115599 -0.24463412 -0.4894969 -0.2898946 1.3963342 -0.44932368 0.56813926 0.40895104 0.43107572 -0.18778448 -0.6871977 -0.098690435 -1.0468047 0.020462712 0.2687456 -0.015298021 -0.21984318 -0.82408404 0.58909315 0.76746917 0.53665096 -0.18878478 -0.09361291 0.08230102 0.18375623 -0.7960476 0.39580473 0.688883 -0.3472083 0.63973725 -0.29527053 0.21120824 0.5069459 -0.44020328 -0.1558733 -0.38166562 0.6123045 0.27814332 0.13204786 -0.56698567 -0.33051836 -0.32429197 0.053613637 -0.08759567 0.9111325 0.13985409 -0.5587348 0.7903513 -0.29224437 0.07143724 -0.7110445 1.1844306 0.037443474 1.2905128 0.2658172 0.7606799 -0.5745507 -0.26435483 -1.1752125 -0.005410711 -0.62324256 -0.5846526 0.21536013 0.10860465 -0.1289436 -0.39935243 0.4180853 0.07726265 0.25629845 0.66882324 1.1905531 -0.40823054 -0.6549598 0.057863995 0.12752587 -0.30598772 0.18999858 0.48887742 0.14715296 -0.38460305 1.4028549 -0.19523963 -0.44561437 0.19403383 -0.36608553 0.560056
1741 -0.4734793 0.5699744 0.19849327 0.47003835 0.4034501 0.32911786 -0.60082287 -0.28714225 -0.44627202 0.6072277 -0.4900028 0.18269707 -0.3048937 -0.8518859 0.21413189 -1.0705261 0.1499733 0.5976869 -0.076711625 0.35702902 -0.563469 0.118612 -0.40423265 0.027271649 0.16332552 0.17777209 -0.49621382 0.23061329 -0.08107249 -0.87064815 -0.17209625 -0.22300212 0.171467 0.72322494 -0.6407489 0.55803394 -0.011906808 -0.28651187 0.3005749 -1.2309018 0.7508942 0.84355104 0.03343149 0.0708399 0.11484092 0.41578826 0.85489875 0.36125803 0.65456766 0.4646095 -0.5553666 0.92074037 0.046417944 0.22863244 -0.099434406 -0.13169767 0.87607175 0.2745349 -0.18365571 0.5069965 -0.11889213 0.37536398 0.28546524 -0.2997492 0.078199945 0.6292655 0.32706183 -0.039401546 0.58147675 0.7803002 -0.8258336 0.17942691 -0.61627805 -1.2547542 0.25160807 -0.25662503 0.6447119 -0.22058211 1.7029657 0.3102809 0.15172505 -0.054842446 0.15320326 0.86505365 -0.18306877 -0.02153837 0.058259863 0.64962536 -0.3633642 -0.06935845 -0.8762384 -0.40328595 -0.9271186 0.8320027 -1.1804509 0.07786875 -0.3552738 -0.34237286 0.511686 -0.18349487 0.09646359 -0.061888766 -0.0027378767 -0.65759176 -0.3369892 0.027309284 -0.3420385 -0.5014943 -0.07508285 0.4706883 -0.7518222 0.5798651 -0.029021168 -0.4888803 -0.6805183 0.15574895 -0.29660672 -0.50172126 0.13644594 -0.8105881 0.012937402 -0.37851816 -0.54827666 -0.19883798 -0.40885764 -0.22066827 -0.07577724 0.51273465
179 -0.54179734 0.0012406503 0.4608985 0.9629007 0.7977897 -0.31376478 -0.027743831 0.09396569 -0.16609722 0.22787943 -0.34895286 -0.3066644 0.20310496 -0.16605832 -0.93391246 -0.5161697 0.6926689 -0.63689834 0.3003612 0.038309 -0.2672983 0.016892124 -0.952746 -0.008415937 -0.24789324 -0.56618655 -0.8448556 1.1603435 0.30096075 0.22387025 -0.06820954 -0.87795067 0.59595317 0.480965 -0.49964276 -0.13058436 0.08917436 -0.41518754 -0.50480825 0.20012386 0.18874097 0.67988664 1.0158373 -0.50599146 -0.555181 0.6137331 0.9893827 -1.3609008 -0.08801829 0.16191597 -0.21520925 0.30282262 -1.1509452 -0.17643595 -0.29092276 0.8293098 0.11062617 0.49632585 0.58710974 0.15551469 0.7827453 0.18358466 -0.7562896 0.8939782 0.6435903 0.13098025 0.13534252 0.34447065 0.62192005 -0.2228402 1.0153544 0.038497876 -0.0889866 -0.33853745 -0.06963758 -0.08668574 0.05803862 0.4156443 1.2774677 -0.3477016 0.29239443 0.19405173 0.18101762 -0.5919404 0.9233652 -0.26376417 0.009462345 0.13459228 -0.46684125 0.31847417 0.41686547 0.89264643 0.039766666 0.97887295 -0.21234868 -0.14458703 -0.9964628 0.34086755 0.380066 -0.0069975723 0.022258317 -0.60745645 0.7996284 -0.14797258 0.96242774 -0.23152533 -0.057523325 -0.04522905 -0.8957829 0.17981024 -0.42961317 0.92522174 1.4341617 -1.1299578 -0.61767566 1.1248078 -0.17692414 -0.17215507 0.086889334 0.6055902 -0.8668764 -0.6220892 -0.23888698 0.14667052 -0.11929709 -0.2713699 0.150262 -0.29486233
1702 -0.4455438 0.023438497 -0.47428304 1.0046033 -0.6191158 -0.63530767 -0.20494631 0.20121069 -0.6868908 0.20610198 -1.088614 -0.23233867 0.62912774 0.70010877 -0.6706996 -1.0391966 0.9593881 0.092728056 -0.35886964 -0.29703265 0.08899232 0.32214782 0.69339406 -0.23575197 0.6069021 0.5423288 0.708262 0.7485931 -0.57345456 0.3195746 0.57543117 -0.7810002 0.46438923 0.35826278 -0.13347317 -0.3286134 0.013447811 -0.5243668 0.40751973 -0.9120177 0.6208414 -0.3083278 0.40187618 -1.061778 -0.11976179 -0.16773337 0.39944643 -0.8120971 0.633406 0.4596365 -0.31160432 -0.032909915 -0.32840043 0.7841476 0.2989895 0.40721408 -0.5148016 -0.25586522 0.6643834 -0.37960744 0.29107183 0.2835498 0.059684508 0.6796753 -0.27909094 0.12997763 0.19817156 0.22719246 0.6132871 0.9412499 0.28628948 0.69692004 -0.29278868 -1.0963078 0.7283774 -0.22187711 0.09189346 -0.25822502 0.89667505 -0.0855678 0.1203897 0.36818004 0.16244923 0.008534258 0.20321609 -0.14501943 0.114698246 0.47669968 0.435814 -0.97727954 0.5058721 -1.0546682 -0.4779259 0.23613991 -0.15532768 -0.46375355 0.5924035 -0.28377455 0.45270225 -0.65069723 0.483354 0.058564298 -0.12563945 0.04721862 0.43761453 -0.7733428 -0.15816796 -0.09005472 -0.32171097 0.8777909 -0.13373925 -1.0350007 0.08004501 -0.45595378 0.18292871 -0.21782123 0.1669322 0.9184025 0.1793071 0.61034757 -0.16053647 0.2968181 0.015462626 0.12609385 0.054766793 -0.6787419 -0.82745457 0.23039468
1477 -0.6996517 0.24621014 0.7059653 0.5604421 0.16778678 0.92417157 0.06847945 -0.14792678 -1.0528595 -0.47159055 -0.26262963 0.65736 0.66464174 -0.30432916 0.109654315 0.5079818 1.3092954 -0.32010356 -0.40771386 -0.22232822 -0.037646294 -0.30086103 -0.10571959 0.5128404 -0.5044445 -0.33850774 -0.234661 0.55463445 0.31727237 0.5616167 0.61851984 -0.47743222 -0.79699033 0.005645154 0.9046654 -0.20125255 0.5822312 -0.5734159 0.2944742 -0.0284044 0.7335261 0.9728874 -0.3324373 -0.3355033 -1.4864459 0.21673766 0.16102435 -0.68816334 -0.23597848 -0.07705728 -0.016918171 -0.40764707 -0.45607468 -0.12490845 -0.0038526137 1.0145732 0.82691646 0.6007607 -0.10209379 0.05329843 0.7715183 0.41022897 0.018837316 -0.06743476 -0.44802 0.64215106 0.3016518 0.25854 0.17463621 -0.17464845 0.44731992 -0.9691366 0.3140064 -0.003662871 -0.3999594 -0.39527982 0.35650387 -0.38296825 1.1478847 0.057389874 0.28721294 0.45858845 0.37878346 0.008953091 -0.20486702 0.86107737 0.6917381 -0.92325455 -1.0222603 -0.24009645 0.5538114 1.171401 -0.52720076 -0.3574699 -1.0572586 0.4909323 0.7120952 0.59941465 0.16570486 -0.83438647 -0.30167454 -0.9965756 -0.3121288 0.073181905 0.100138806 -0.5799452 -0.1714758 -0.7575047 -0.3544253 0.66612107 0.40683818 0.60436755 0.41660327 0.16873181 -0.662829 0.00039736865 0.20420106 -0.4288062 0.43278033 0.08124879 -0.13236465 -1.0159969 0.7371482 0.085540555 0.53496605 -0.3474622 -0.43917623 -0.2647508
1712 -1.0331644 -0.30544817 -0.1739992 -0.113727696 -0.035628032 0.1329396 -0.2616238 0.47673357 -0.85546005 0.19290937 -1.4994123 -0.15583852 0.02003612 -0.3460906 0.40061423 -0.47103992 1.1137286 -0.61022145 0.16813633 0.2003171 -0.17745036 -0.15710008 0.068355665 -0.6586589 -0.089702465 0.18309776 0.07822649 1.1103855 -0.42499346 -0.37295136 0.95092255 -0.33442912 0.2741142 0.09743059 0.37362194 0.61446244 0.4322453 -1.187573 0.06672181 -0.73074526 0.962777 0.8813425 0.7061186 -0.76873565 -0.5044183 -1.3139517 0.2618669 -0.8782366 0.5593366 0.47892374 -0.3466256 0.5301971 0.06946693 0.20070304 -0.27464 0.09396008 0.008120146 0.68822336 0.34064537 -0.74378693 0.45801035 0.6378905 -0.13398853 0.14356175 -0.11675342 0.2650549 0.50332755 0.24802867 0.92403287 0.3314293 -0.27781656 0.02094032 -0.6448641 -0.23111373 -0.5348301 -0.20768712 -0.12327228 0.11922883 0.6167021 -0.35604733 0.20348123 0.44087794 -0.6342762 0.5996343 0.019381609 0.29052544 -0.6837234 -0.1899524 0.048991706 -0.46470955 -0.48497814 0.2209183 -1.0572553 -0.009733578 -0.525711 -0.42798087 0.19096725 0.37800923 0.41925716 -0.7645641 -0.17357351 -0.4477212 -0.4677058 -0.33998656 -0.0035380411 -0.6622194 -0.79753584 -0.084503315 -0.10888333 0.8255656 -0.34009174 -0.40717483 0.30670765 -0.20853756 -1.2720584 -0.06883741 0.3350663 -0.3543674 0.27939388 -0.36154157 0.055530068 -0.91035384 -0.28367224 0.26861912 -1.2137367 -0.3309914 0.19313747 0.17549498
527 -1.1748857 -0.12949583 -0.5271929 0.3514139 0.31576392 -0.3592187 0.21262361 0.10125965 -0.36247176 0.101801336 -0.6695097 0.21032545 0.3599012 -1.397603 -0.34052905 -0.30240798 1.083198 -0.27083236 0.16968878 -0.4422625 0.41604027 -0.46790177 -0.41941 -0.3416537 -0.42404017 -0.19634153 -0.5316128 0.8008888 0.46092924 -0.37016213 0.23556496 -0.71760035 -0.47628555 0.35406718 -0.0110654365 0.69803584 0.48099717 -0.70491123 -0.7918047 -0.3685086 0.37100756 1.348441 0.33665457 -0.8927509 -1.1660986 -0.64527965 0.96161246 -0.8934792 -0.3610958 -0.27162442 0.0059145987 0.13054334 0.37137327 -0.70468235 0.003310564 -0.005926986 0.49698108 0.39860368 0.63543355 -0.65668887 0.11985421 0.74502885 -0.052041925 0.7722837 0.8853363 0.39146525 -0.38527972 0.48648477 0.5297002 0.47937262 0.7761262 0.05031425 -0.39382666 -0.38823757 -0.18663266 -0.18967879 0.5030248 0.41406947 1.7137628 -0.48436275 -0.26889724 0.64596057 -0.09455369 -0.43964764 0.25949076 0.13442083 -0.54363835 -0.009310218 -0.03788013 0.2086393 0.2945017 0.20016465 -0.9941768 0.7288575 -0.30785507 0.48879364 0.13078615 0.4429818 -0.30621225 -0.87660724 0.06654236 -0.69420725 0.17499417 0.16152792 -0.14559409 -0.43742335 -0.46251127 -0.114580154 -0.5820072 0.4967602 -0.24287894 0.16395833 0.39585015 -0.68710023 -0.51067805 -0.37514776 -0.96948063 -0.63853186 -0.12790966 -0.042605862 -0.45408788 -0.30985433 -0.34235767 -0.01929844 0.6150134 -0.10336029 -0.3737988 0.2209232
1619 -0.88065547 0.35717228 -0.62639976 0.3684737 -0.36851105 -0.6754371 0.25258622 0.039075196 0.3000249 0.003830598 -0.39640522 -0.14389332 0.8534012 -0.88303125 -0.63487476 0.23136216 0.48952645 -0.6540986 -0.4357746 -0.20468213 0.68103415 0.12835024 -0.6880754 -0.003391011 -0.22536284 0.641342 -0.7759699 0.9762369 1.1922792 0.321729 0.8983605 -0.2609305 0.030012425 0.40045872 -0.15533665 0.8872938 0.2851379 -0.24505565 -0.5134314 -0.071827464 0.5985356 -0.11382821 0.321353 0.0334255 0.35245758 -0.0586134 1.0833627 -0.689658 0.15903465 0.31845868 0.3066487 -0.18182263 -0.42514512 -0.7715442 -0.6095185 0.1404479 -0.1023315 -0.04611494 -0.4302064 -0.32428464 0.18513419 0.8155066 -0.5984555 1.0277655 0.5039559 0.11886825 -0.51986146 -0.14617178 -0.12290018 0.76477677 0.9260303 0.43158188 -0.8280546 -0.25038162 0.605713 -0.6705272 0.17430921 -0.5134471 1.2500898 0.33806315 -0.5476745 0.56446135 0.51902616 -0.23535205 -0.23047684 0.41482094 0.3618341 0.23178965 0.20184095 -0.7861553 0.07658167 -0.09663126 -0.52494985 0.56760347 -0.5552416 0.5712411 -0.1939598 0.6848799 -1.2085845 -0.77506423 -0.1189054 -1.0366061 -0.18729629 0.8126473 0.21300608 -0.07888711 -0.706999 -0.9014742 0.18425861 0.25610775 -0.15554428 -0.61102664 0.09313239 -0.7515825 -0.025714306 -0.3737236 -1.4728392 0.23230426 -0.14273421 0.7548108 -0.083997495 -0.34995916 0.11774578 -0.5583502 0.17312704 -0.34166116 -0.002162044 -0.11817414
1692 -0.9671481 0.24786824 -1.2077905 0.98738354 -0.007690064 -0.20073748 -0.43461293 0.23453371 -0.5652774 0.43126103 -1.1089042 0.12854674 -0.05601811 -0.16037825 -0.21988556 -0.18798982 0.5207349 -0.5641992 -0.38538194 -0.18094158 0.092087194 0.2081619 -0.23709479 -0.40294895 -0.09367077 0.7799636 -0.82415944 0.7900958 0.038867433 -0.46230802 0.7530297 -0.15073785 -0.04799452 0.21679464 -0.31649733 0.22370787 0.4696246 -0.29970917 -0.22053358 -0.9480082 1.15465 -0.108399175 0.44025156 -0.16607304 -0.25771365 -0.5670657 1.432632 -0.6553507 -0.0017643798 0.23674731 -0.0027335563 -0.65041745 0.07868723 -0.6151321 -0.17093723 0.052218065 -0.35599986 0.19243795 -0.14040889 -0.2640929 0.6935765 0.34632054 -0.2845771 0.95702213 0.2723094 0.9318949 0.39442 -0.43070894 0.7726826 1.1852577 0.29904032 0.1553045 -0.38558537 0.14301565 0.7423077 -0.93877566 -0.06977253 -0.4306327 1.3486645 -0.088605545 -0.6491477 -0.016055193 0.25136268 -0.44706646 -0.3749357 0.46377692 0.7061177 -0.6055893 0.2125167 -0.4317843 0.25799844 -0.06932669 -0.9638891 0.717386 -0.846879 -0.25914505 -0.046490878 0.262105 -0.25837237 -0.31081134 0.103011325 -0.72777444 -0.29295084 0.07834983 0.8485377 -0.4067554 -1.2615231 -0.6686374 -0.09914223 0.43520847 -0.85490125 -0.46509707 0.3164436 -1.3594302 -0.3182444 -0.17356268 -1.1534953 0.2686823 0.44601685 -0.053315233 -0.54189557 -0.37807137 -0.05307938 -0.28490356 -0.11744466 -0.04747501 0.39245713 0.28655356
1628 -0.9242713 0.020055326 0.33812392 0.83853596 0.3363458 0.8432347 -0.5616482 0.46270242 -0.40145475 0.21395296 -1.387214 0.0055127214 -0.33860824 -0.5402525 0.3886034 -0.32475692 0.014039247 -0.49282438 -0.74880284 -0.18589394 -0.44597355 -0.11769199 -0.65205973 -0.4306654 -0.09734569 0.522973 0.08269598 0.099017926 -0.22241847 -0.84798384 1.0282779 0.44751605 0.08315465 0.017443947 0.37118116 -0.018595016 -0.27185246 -0.3651333 0.54060376 -0.30270532 0.7554594 0.55344903 -0.3476667 -0.016407512 0.32104364 -0.7235845 0.62884337 -0.54421633 0.45793065 0.896536 -0.6776548 -0.06797265 -0.24658915 -0.4435854 -0.6550539 0.6971162 0.25909168 0.32857934 0.51495284 0.1313626 0.44052443 0.26129934 -0.27438965 -0.23232923 0.21140797 0.31077653 0.25095606 -0.15629542 0.66454506 0.27318522 -0.14555173 0.52757055 0.15651803 -0.7646617 -1.180191 -0.17592087 0.61915 -0.6276138 1.0591224 0.0077791065 0.055489365 -0.05522678 -0.063535005 1.0178521 -0.40080798 0.4359249 1.105942 -1.1607034 -0.12183125 0.047877822 -0.41076267 0.5699465 -0.9110671 0.5380434 -0.62296915 0.111291945 -0.5190292 0.10454447 -0.47347742 0.0030571197 -0.29418656 -0.1233095 -0.63913167 -0.42940167 0.55897653 -0.32444152 -0.13082197 -0.05924208 0.14718215 0.55177724 -1.0023199 0.97626626 -0.00807919 -0.4873038 -1.5571564 0.06799331 -0.5261681 -0.29786813 0.5235636 -0.51286423 -0.6834789 -0.5727345 0.8125064 0.003947948 -0.70740074 -0.68034536 -0.22858997 -0.023553908
231 -0.6510016 -0.38629547 0.061088808 1.2395228 0.57888466 0.47119102 -0.062180683 0.53011805 -0.061761234 -0.19199121 -0.5117737 -0.15474412 -0.1420578 -0.07569365 -0.17971654 -0.5662921 0.48412213 -0.5091454 0.16546549 0.3382546 -0.18434712 -0.2534672 -0.18505281 -0.6116475 0.02735669 -0.2954431 0.66408825 1.0598704 0.16950813 -0.3686387 1.149447 -0.45172504 0.09006673 0.49628842 0.03309084 0.13460682 0.20743996 0.16082238 -0.2824729 -0.38745677 0.6409824 0.98078054 -0.09764734 -0.86741555 -0.46097136 0.16227925 1.4533865 -1.3123369 0.12886141 0.49045175 -0.57435644 0.54307085 -0.78839445 0.8059384 -0.42574406 -0.022166828 -0.20771058 0.15180512 0.49816433 -1.0507177 1.1034209 -0.14618747 -0.062354002 0.74437577 0.86916673 1.1940345 0.047902007 0.19816203 1.1610359 0.45177278 0.51729494 0.091026396 -0.43032616 -0.5852662 -0.0094888555 -0.4131985 0.1700283 0.21384616 0.87675315 0.18092535 0.09988782 -0.26633623 -0.68580854 -0.028365102 0.23557505 -0.6530925 1.0712051 0.31299967 0.5079815 0.92054373 0.06832907 0.1964426 -0.8225676 0.6133513 -0.4694223 0.182012 0.13617447 0.1385575 0.28744334 -0.75001645 0.16747561 0.16077429 0.49330828 -0.5620086 0.43338248 -0.8105449 -0.46420777 0.2060723 0.29822516 0.31375194 -0.73474115 0.6439804 0.8299752 -1.0430918 -0.31371215 -0.2644383 -0.75865656 -0.4570326 0.692571 0.17753486 -0.6798012 -0.9233076 0.7589512 -0.080404766 -0.11420061 -0.09294704 -0.45535755 0.11590519
48 0.12479054 -0.34496474 -0.62342113 0.19505362 -0.09937828 0.9397076 0.15640928 0.9702843 -0.5039614 0.12403248 -1.5091413 0.15318774 0.39747274 -0.2796089 0.4436714 0.2813795 -0.2506347 -0.5265074 -0.3811661 -0.3161854 -0.40361598 -0.25326195 0.22257784 -0.98277986 -0.101401314 -0.10658306 0.26040262 0.72207785 0.42568424 -0.36039698 0.89667803 -0.029154403 -0.8382741 0.43223616 0.6633815 0.23663615 0.43885207 -0.88024116 -0.0027041275 -1.0034089 0.48737094 -0.0102024805 -0.1724047 -0.49949744 -1.1777477 -1.6587445 0.6296017 0.15694837 0.03560603 0.29285267 -0.28376526 0.18611065 -0.12110609 0.026177432 -0.36912552 0.25209236 -0.025626319 -0.012175436 0.6189856 -0.6372538 0.63865995 0.26904806 -0.20829947 0.072998285 -0.17459574 0.5051786 -0.35111 0.08909181 0.3131107 1.2285028 0.7043707 0.26758248 -0.4321845 0.17683102 -0.421657 0.073610164 0.12675169 -0.65188175 0.73161185 0.16672635 -0.39642805 0.2654519 -0.4164843 0.41423663 -0.9327584 0.75724137 1.0380682 -0.45620403 -0.32392767 -0.020341652 0.8895823 -0.23207593 -0.8749031 -0.18591738 -0.21511278 0.23742713 0.25729293 0.7497068 -0.028120907 -0.7680454 0.14898059 -0.68290156 -0.8310953 -0.39776397 0.4922225 -0.49481392 -0.552203 0.14409575 0.24623987 0.50074065 -0.06593024 0.05311292 0.45733947 -0.41412106 -1.1064292 -0.026157934 -0.8291532 0.18438236 0.14902425 -0.7825285 -0.44585186 -1.0903304 0.66724706 -0.46875522 0.14224656 0.24738988 0.055139903 0.18603304
409 -0.29472587 0.123436324 -0.24207018 0.022065716 0.34633654 0.27685478 -0.14359383 -0.08688314 -0.715969 -0.045682743 -0.4081535 -0.016488522 0.86895174 -0.3274232 -0.70999867 0.18056501 1.1529212 -0.3352194 -0.06037807 -0.24483378 -0.4035189 -0.16985936 -0.23806432 -0.43744478 0.10228101 -0.4957127 -0.21087131 0.32866248 0.014123297 0.4346424 -0.11567704 -1.0215415 0.06745078 -0.041495472 -0.41698465 0.3089835 -0.556386 -0.36897904 0.09776233 0.38389492 -0.32497293 0.35546517 0.5945311 -0.21595977 -0.9627133 -0.03633458 0.2499053 -0.11318693 0.5825688 -0.036804724 0.33715355 0.543661 -0.64016855 -0.31324312 -0.13391691 0.5432056 0.16767931 0.9719096 0.80867445 0.24434936 -0.037109546 0.30789343 0.061072085 0.13744065 0.1616023 -1.2457052 -0.25723436 0.6182166 0.35852683 0.26567954 0.64004195 0.08626496 0.40998656 -1.0450541 -0.40134642 0.636694 0.3434022 0.12529178 0.740418 0.02497299 0.4832046 0.15239194 -0.19132847 -0.19761807 0.36525336 0.013808729 -0.30460095 -0.29395545 -0.5123093 0.6016077 0.40219453 0.009060998 -0.018722251 0.3716164 0.1067232 0.25415367 -0.3268132 0.44841057 0.17729846 0.24363954 0.13755652 -0.15479535 0.11111713 -0.3581385 -0.12593207 0.19789287 0.9345765 0.04257461 -0.39811286 -0.550425 0.6664832 0.04290233 0.35442564 -0.028712548 -1.1560369 0.26235804 0.51614136 0.03324265 -0.20265917 0.033571657 -0.47325027 0.08673895 0.05759918 0.49038976 0.27032503 -0.2371386 -0.3550399 0.09141252
1606 -0.7076565 -0.1794919 -0.15742771 -0.18401302 0.4407363 0.95433384 -0.10435316 -0.45767477 -0.5787327 0.08535292 -0.69442487 0.22449613 0.25673786 -0.57521266 -0.5938286 -0.48081186 -0.32471153 0.14781617 -0.71402675 -0.02193899 -0.33493435 -0.85634065 -0.019003142 -0.32273862 -0.63213253 -0.93143713 -0.5443002 1.0227969 -0.05221771 -0.8838605 0.45943376 -0.8949531 0.4149802 0.95210874 0.14815173 -0.51287776 -0.122680575 -0.2930736 0.4547369 -0.2797345 0.13059857 1.133218 0.42203546 -0.24942134 -0.5146571 0.05044909 0.23680557 -0.24255814 -0.587086 0.6092431 -0.5148266 0.8312354 -0.112870544 0.14667875 -0.41936576 1.0109525 0.26122826 0.52766037 0.30551073 -0.26773122 0.63376683 0.70368093 0.005095448 0.12771378 0.63788944 -0.22575764 -0.25824273 0.6870224 0.7743605 -0.365825 -0.017815882 0.33796164 0.17065403 -0.315683 -0.8061753 -0.037829626 0.18659313 -0.12739268 0.8226553 -0.09424549 0.33086985 0.20273228 0.013256378 -0.07593262 0.4323693 -0.18691127 0.49428096 -0.625059 -0.35328245 0.10593132 0.0015487224 0.43602398 -0.22805011 1.0536603 -0.28853568 0.8086398 -0.2978169 -0.35787958 -0.21344475 0.29167297 0.1488794 -0.09772044 0.56673205 0.092713095 0.66394645 0.06341264 -0.07799036 0.55006117 -0.5826966 1.0112115 0.19880924 1.1562265 1.2299329 -0.42695722 -1.3414828 0.35192198 -0.17508641 -0.8027267 0.22962494 0.09224352 -0.6311535 -0.95767635 0.019064056 0.17606053 0.7333835 -0.0630415 -0.26597887 0.27252135
67 -0.5051309 -0.1634656 0.3170372 0.33971637 -0.6475365 -0.4431147 0.6077702 0.44538853 -0.46805096 -0.116573505 -0.5918144 -0.18457556 0.8415769 -0.39587548 -0.64807606 0.19145513 0.59681976 -0.64432234 -0.22187884 -1.2217177 -0.14724205 -0.058840763 -0.6305791 -0.5886064 -1.3139459 0.33272284 0.34777898 0.61003536 0.048595175 -0.24037483 -0.04934732 -0.9490964 -0.05638549 -0.1138715 0.92197776 0.0103240255 0.15581775 -0.5580486 -0.60450375 -0.1887079 -0.43619087 0.22087082 0.4456441 -0.5549702 -0.619572 -1.0688531 0.6058773 -0.6122223 0.55257046 -0.317949 1.152554 0.0022952622 -1.4094158 -0.3189339 -0.057627145 0.6331453 0.6067021 -0.018679082 0.8458197 0.31984755 0.035611678 0.40869626 -0.42110804 0.2732538 0.18052702 -0.68431205 -0.08304913 -0.07314207 -0.19906509 1.149426 0.4000909 0.5892581 -0.29857364 -0.4698878 0.060869087 0.09237859 -0.019264566 0.06166487 1.8541254 0.33099878 -0.7451112 -0.22538535 -0.33669144 -0.70096964 -0.16001256 0.42619127 0.49156886 -0.034461603 -0.57561153 0.6845678 0.15000078 -0.029663248 -0.9997287 0.53731006 -0.076775864 -0.88145983 -0.04783238 1.3093317 -0.40626416 -0.30476016 -0.15437904 0.482778 -0.76982397 -0.8619265 -0.08563746 0.6672975 0.43135142 0.33567342 0.36053708 0.66674715 0.000237915 -0.17117769 0.30983302 0.09196178 -0.4778824 0.42177555 0.046578474 0.2676022 -0.6409344 -0.0146260895 -0.5796007 -0.3300815 0.42639276 0.17566177 -0.2354769 -0.31480563 -0.6242886 0.10617762
97 -0.29932496 -0.47920886 -0.68514186 0.92944914 0.6564646 0.3556259 -0.36914384 0.27387422 -0.5530182 0.39826244 -0.6612174 0.7131174 0.33174744 0.36835903 -0.3215613 -0.71660936 0.116541475 -0.90422547 -0.04380313 -0.25437906 -0.17527768 0.12469551 -0.376181 0.058660123 -0.09064636 -0.18804927 -0.7590207 0.6869324 0.18405336 0.13433899 -0.18654804 -1.4551154 0.82473224 0.4517597 -0.2846627 0.5959672 -0.37029657 -0.19507362 0.08064553 -0.3543455 0.45348164 0.4350292 1.3395367 -0.4708126 -0.37666634 -0.5496474 0.5026602 0.29278803 -0.33884224 -0.6873021 -0.23317116 0.8787002 -0.68231183 0.16755965 -0.0921419 0.80711 -0.1586074 0.8840773 0.21495055 0.010760904 0.3489886 0.7419379 -0.2791141 0.46105617 0.013081363 -0.33853492 0.34745646 0.7954052 0.23972324 0.046517022 0.46851876 0.74292123 -0.08705729 -0.9936009 -0.0037653588 0.03291112 -0.009313369 0.19455831 0.4014252 0.013362531 -0.8266747 0.4373445 -0.512124 0.10104705 0.8223726 0.10816403 0.016774071 0.47295913 0.06521453 -0.14106543 -0.3039763 -0.14495012 0.5525883 1.0554568 -0.9809884 -0.6615072 -0.9952837 -0.123339385 0.6400207 -0.12914935 0.516728 -0.030417966 0.68926 -0.54037726 -0.5233716 0.57931507 -1.2600971 -0.25986946 -0.5337268 0.6231647 -0.8468636 0.098005265 -0.31368852 -0.79530317 -0.6091069 0.45001006 -1.1215669 -0.45505685 0.6050163 0.69082046 -1.0237887 -1.2358421 -0.07290892 0.056535203 -0.36637726 -0.02525919 -0.51146185 0.4420798
1438 0.19015305 0.087835 -0.14896117 0.9796936 0.21850437 -0.0006824167 0.5295915 0.060050894 -0.22326732 -0.18596616 -0.12652594 -0.11199101 0.3468381 0.18551329 -0.8348883 -0.09455701 0.024082974 0.30681077 -0.22889479 -0.075912155 0.7189526 0.31487072 -0.41995287 -0.08137697 -0.09044508 -0.40508613 -0.47369647 0.26048017 0.135692 0.88541913 -0.25475803 -0.812455 -0.08003993 -0.100703426 0.15679026 0.6347026 -0.39146996 0.093556434 0.7651059 0.46874642 0.041996032 -0.052157022 -0.0557235 -0.38904658 -0.11534831 0.055183485 0.6414631 -0.23086637 0.39324173 -0.08122572 0.44762594 0.57429695 -1.2517514 -0.48763222 -0.49502435 0.14686416 0.3857938 0.4835271 0.087316826 -0.19279422 -0.31043863 -0.24024075 0.21901433 -0.15776038 -0.22410549 -0.32868 0.108444326 0.7859678 0.08474027 0.2894398 0.28285208 0.27949563 0.060059752 -0.42771313 -0.22697265 0.8003575 -0.29711527 -0.10885368 0.17111738 0.061998814 0.23642711 0.87198174 -0.044288784 0.3544937 0.24575223 0.52803063 -0.30589557 0.14165886 -0.5767139 -0.22140983 0.33963835 0.37878686 -0.5434063 0.013124862 -0.3998859 0.28600234 0.05566741 0.2775412 0.16445737 -0.34179562 -0.34567666 -0.105681755 -0.46696115 -0.07370019 -0.47911057 -0.118743345 -0.20358688 -0.291461 -0.019140381 -0.03495014 0.071479775 0.033424284 -0.4590351 0.14495635 -0.0136668235 -0.062823564 -0.23881635 -0.08616173 0.58188933 0.3555536 -0.09647307 -0.54217386 0.43154117 -0.5729565 -0.46672657 -0.020298062 -0.55456465 -0.61554515
740 0.33711123 -0.45895588 0.21227123 0.9590091 -0.36520398 0.043584123 0.20226602 0.656497 -1.4097246 -0.944679 0.35975662 0.1589969 0.94060254 -0.030968916 -0.44457203 0.19409446 0.19228947 -0.1596681 0.19045919 -0.66851914 0.04644412 -0.0203355 0.12242519 0.032629468 -0.5370277 0.21375386 -0.1973398 0.95651275 0.33203846 0.81535274 -0.31613854 -0.9412126 -1.1858809 -0.025987076 0.17850745 -0.17423573 0.07593193 -0.74693954 -0.9598714 -0.04199402 -0.12381413 0.61779976 1.0317526 -0.21093018 -1.1377119 -1.3379467 1.0057614 -0.017937997 -0.2938736 -0.5061419 0.84987366 0.7044105 -0.77616096 0.52996385 -0.18743335 0.15092757 0.22457738 0.17543064 0.66681546 0.4811786 0.10648656 0.41536817 -0.10892611 -0.504818 -0.16456313 -0.1891276 0.62385464 0.023649225 -0.43031755 0.41980568 0.57767695 0.112053 -0.17342186 -1.0695239 0.26370665 -0.42484492 0.29512975 -0.44070524 1.198175 -0.2956143 -0.17148288 0.7273199 0.2796033 -0.43681264 0.5615414 0.597285 0.27949652 0.19384372 -0.73310405 0.15712932 0.1178592 -0.24461173 -0.3462671 0.49734396 -1.0480919 -0.23396988 0.4944412 0.76535076 0.78429663 -0.65528905 0.24948154 0.2524758 0.046774216 -0.63726324 -0.40019575 0.3465767 -0.17842188 -0.17287487 -0.41393352 0.37681323 0.22018678 0.31444743 0.7299628 0.2170417 0.22212017 0.10378057 -0.24684693 0.0665206 0.37157708 0.75631815 -0.8599569 -0.34984577 0.6880956 -0.04445857 0.5399649 -0.36145726 -1.1483954 0.58339465
1444 -0.030019412 0.49256286 -0.7202146 0.64599067 -0.16732848 -0.110666364 -0.47559413 -0.65178204 -0.7530675 0.23125108 -0.50177795 0.3630822 0.32422128 -0.15427142 0.0043337513 0.15111135 0.33735898 -0.31538185 -0.2958865 -0.02281478 -0.029353557 0.24273512 -0.675551 -0.4921591 0.39923182 0.20965123 -0.87035763 0.038043514 0.18497092 0.14813328 -0.21741565 -0.5673976 -0.012975622 -0.38812226 -0.168502 0.106746 -0.08700743 -0.082756504 -0.08504834 -0.45787507 0.38749254 -0.29892796 0.6698272 0.2294679 0.24723426 -0.59786224 0.53890836 0.5529053 0.03756465 -0.21033148 0.43162113 0.07598737 -0.038987823 -0.8193116 -0.030220645 -0.13879411 0.2729574 -0.10558674 -0.07478901 0.09640216 -0.73379785 0.16738605 -0.1419966 0.23286249 -0.043446373 -0.40858033 0.2375888 -0.38506964 0.41123778 0.89183426 0.18007956 0.025488632 -0.18947515 0.01615781 0.48569778 -0.04364196 -0.69746757 0.10485027 1.0899376 -0.019825652 -0.020929217 0.40952978 0.094634436 -0.32393232 -0.13558155 0.50810117 0.07451356 0.06869431 0.10987461 -0.7630886 0.040179428 0.12676263 0.10158959 0.39966702 -0.5869952 -0.2395082 -0.53829163 0.49392587 -0.6226519 -0.32936922 0.20734455 -0.86643755 -0.45002058 -0.023096662 -0.089989915 0.40349343 -0.43213713 -0.82670325 -0.18086867 0.28733253 -0.12042509 -0.3872104 0.20670807 -0.41470382 -0.53798586 0.80418664 -0.4650937 0.49612263 0.21574073 -0.038477916 -0.37104923 -0.9449531 -0.19991672 -0.08083693 0.07821809 0.49634796 0.40047497 0.517363
1521 -0.059342995 0.06937601 0.23994142 0.35889164 -0.5808186 -0.044807013 -0.32231984 -0.86200523 -1.0955696 0.4101864 -0.91259027 0.52138686 0.25591615 -1.2318242 -0.10863051 -0.1274541 1.5416352 -0.73317325 -0.10648817 -0.9385284 -0.34909117 -0.51522315 -0.5951622 0.43872792 0.07301596 0.1801933 -0.13133228 -0.43894145 0.2941577 0.6398282 0.038373537 -0.8735272 -0.6640992 0.15985149 -0.13923189 -0.079969674 0.009305526 -0.07453218 -0.3041556 0.28901204 0.5813737 -0.18559767 0.31538212 0.33710712 -0.8379372 -0.46357152 0.027141018 -0.0778594 0.4042807 -0.009493281 0.5501384 0.3911152 -0.6689266 -0.15575443 -0.4074252 0.89656544 0.3980805 -0.12716906 0.8384807 0.7791305 -0.23260152 0.6526182 -0.7060177 0.3016153 -0.15867053 -1.1230019 0.16953942 0.28528455 0.17994358 0.32634723 0.4824334 0.5106255 -0.064267926 -0.40025386 0.66813195 0.31832874 0.43174136 0.06936856 1.458412 -0.20501702 0.30231166 0.28966293 0.3071504 -0.49076712 -0.18727145 0.62426966 0.08339299 0.37880272 -0.5179928 -0.21026012 0.5719153 -0.10258381 0.24457479 0.61468863 -0.50091326 0.36081982 -0.8862925 0.8763812 -0.6289667 0.4073716 -0.4405084 -0.45520216 -0.48787016 -0.057523124 0.23013143 0.3150889 1.2676448 -0.30929476 -0.6729468 -0.28952318 -0.24567911 -0.23211688 -0.11398754 -0.591497 -0.9774354 0.77321774 -0.07602366 0.71515596 0.15891504 -0.026170723 -0.28709748 0.19177744 0.08678492 -0.30305845 0.570665 -0.27149186 0.16379137 0.48661566
792 -0.38900408 -0.2413506 -0.67452294 0.025516646 -0.37610936 -0.6235041 0.56111056 -0.1701111 -0.44636986 0.15616146 -0.57439023 -0.6085168 0.722679 -0.052094012 -0.12258107 -0.4596642 0.78160584 -0.6591388 0.114449695 -0.32680264 0.20986688 0.401889 -0.5299784 -0.6367362 -0.48955494 0.995499 -0.65322685 0.76765686 -0.24967484 0.356423 0.48556045 -0.7489196 0.47266296 0.19419006 -0.11281121 0.29360047 0.12774417 0.14423972 -0.28107512 -0.15594415 0.21246523 -0.17783847 1.0334935 -0.4282797 -0.20112447 -0.71448576 0.93337893 -0.5674772 0.8208826 0.055708636 0.8833477 0.021991601 -0.6551906 -0.7472222 -0.057856623 0.25811324 0.11553752 0.2201545 -0.15613768 -0.04407112 -0.16608478 0.8826622 0.38443193 0.42856362 -0.3175458 -0.279773 -0.1381812 -0.6593013 0.5293205 0.7042144 -0.20704104 0.34801757 -0.27348068 -0.7724585 1.4280239 -0.27193356 -0.48708555 0.0071978453 1.2232006 0.30070996 0.19169453 0.18102919 -0.5571283 -0.6469916 -0.104703136 0.4757186 0.5210987 0.35394388 0.20449424 -0.09624349 -0.047060687 -0.3744634 -0.46204716 0.96438766 -0.49111694 -0.44264016 -0.34323758 0.29856983 -0.29431 -0.2130934 -0.68361485 0.24776432 -0.25001204 -0.5724157 -0.53327024 0.307042 -0.44048113 -0.17549644 0.063200824 -0.80757195 0.08807742 -0.5134366 -0.23613116 -0.81171113 -0.42830968 0.2641043 -0.08848869 0.43517083 0.20839943 0.7921173 -0.51968336 0.0015400642 0.6451604 0.24711064 -1.0335891 0.10552185 -0.011266473 0.98643005
1180 -0.060973458 -0.23475645 0.35393634 1.5758661 0.38360628 -0.2488103 -0.545703 0.7419594 -0.88665015 -0.45196187 -0.2900805 0.5088586 0.18283004 -0.16118808 -0.5569894 0.03395481 0.50780743 -0.31821874 0.4275177 -0.46446505 -0.13044123 -0.11869747 -0.16798142 0.004743187 0.489487 -0.15674338 -0.22422175 0.92496485 0.35470334 0.18675812 -0.006267715 -0.49623266 -1.0724924 0.084096804 0.005139456 -0.35105827 -0.2960259 -0.17969455 -0.30032405 -0.37793833 0.81061846 0.7714135 1.0010448 -0.09758034 -0.6388589 -1.0971096 1.1774205 -1.0004332 -0.3893596 -0.17842714 0.053954676 0.79242975 -0.68902326 0.47434083 -0.16114716 -0.0923435 -0.07939757 0.328076 0.84202296 -0.27138942 0.20640184 0.14893545 -0.29015493 -0.027585609 0.21594764 0.51628566 0.7823069 0.40989527 0.48541415 0.47272795 0.57745486 -0.101956934 -0.08394052 -0.31944138 0.16502656 -0.41075772 0.08751807 -0.3722372 1.1422576 -0.45259333 0.2941022 0.46012574 -0.030083798 -0.2914263 0.6124317 0.43097147 0.33233017 -0.06032599 0.0068442924 0.032931987 0.099432774 0.94035786 -0.055562265 0.32837403 -0.94132656 -0.6348289 -0.09239795 0.72012067 1.0047586 -0.5611051 0.54771405 0.092132546 0.15516597 -0.6010023 0.51411986 -0.31719458 -0.52375627 -0.07036455 -0.69822156 0.19756758 -0.71387774 0.2091197 0.89691305 -0.72628564 0.3511886 0.2372337 -0.97366554 0.06858396 0.5287117 0.49229893 -1.48245 -0.45626765 -0.17889792 -0.60255235 0.3886678 0.22096947 -0.50883496 -0.0019844454
224 -0.3308491 0.0996434 0.030753434 -0.10315216 -0.008529433 -0.009740074 0.37277034 -0.44831207 -0.14986892 0.404077 -0.75252646 0.5848726 0.6579567 -0.38710088 -0.48337877 -0.124573 1.6309798 -0.14434564 0.38481444 -0.43266615 0.24087593 -0.18858878 0.021823036 -0.057199825 0.08775883 0.2588406 -0.14259948 -0.049897436 1.1334139 1.272309 0.6777994 -0.75930333 -0.6657772 -0.01254353 -0.05119021 0.203205 0.14792088 0.26417154 0.48555204 0.61515176 0.78001344 0.2757014 -0.25419855 -0.40690652 -0.3400774 0.69419277 0.43533692 -0.4112213 0.26225078 -0.23989095 0.23034123 0.06905076 -0.72253954 -0.89598405 0.1278992 0.69843644 -0.07572056 -0.024555575 -0.2108022 -0.42967787 -0.14724383 0.6325601 -0.3333674 0.82724386 -0.11399504 0.5659128 -0.9442621 0.86567074 0.728541 0.72952956 0.44863254 -0.20618144 0.06590502 -0.085460044 0.50188535 -0.3789925 0.6865922 -0.17364801 0.90618455 0.8460363 0.52538943 0.8836166 0.0021990126 -0.75409275 0.12226222 0.6810784 -0.20049661 -0.13494311 -0.5444001 -0.32081535 1.2458521 0.06310623 -0.09883821 -0.48070854 -0.22187096 0.62385535 0.25816607 0.3906482 -0.6714911 -0.29620916 0.06026211 -0.7854042 -0.33999553 0.13751449 -0.19553745 -0.5277072 0.5137966 -0.8150265 -0.44298324 -0.11050321 0.042767826 -0.5724434 -0.232782 -0.5258066 0.009471702 -0.015466772 -0.65907276 1.1774774 0.34473974 0.412706 -0.211721 -0.29699305 0.6224098 -0.44253144 1.265479 -0.57170594 -0.56588286 -0.5990969
813 0.36064726 0.25241718 0.317415 -0.0002588242 -0.37519193 0.48307323 -0.15942039 0.20613898 -0.45474645 0.027319716 -0.5939587 -0.08388407 0.44987163 -0.23299535 -0.3631316 -0.106569 0.69357 -0.50790703 0.083262354 0.13280007 0.26032084 0.26298496 -0.6927829 -0.17033468 -0.047129776 0.47626758 0.02242767 0.0113242045 -0.18515635 -0.1540066 0.841195 0.47843474 0.47168648 -0.027767152 -0.04214869 0.42877778 -0.13190375 0.33301315 -0.22082551 -0.36732283 0.43579265 0.06687524 0.43509278 -0.070516944 0.013632139 -0.36846104 0.9556172 -0.370665 0.0734067 0.13940394 -0.5432956 0.38838133 -0.2446426 -0.7208241 -0.23248006 0.07609263 -0.27408588 0.46804905 -0.019043507 0.21913216 -0.41548696 -0.2859534 0.36887613 0.061047774 -0.7136227 -0.33328304 0.028066782 -0.15278767 0.57110196 0.6294038 0.076495156 0.8589606 0.12348547 0.026136236 -0.46744528 -0.3235906 -0.010465885 -0.537558 0.4055565 0.93152404 0.8190781 -0.49082753 -0.22424215 -0.14812061 0.00041300541 0.6413439 -0.011450793 0.049917206 -0.24871464 -0.016741952 0.24718615 0.261835 0.056750238 0.6610818 -0.373863 -0.00064131484 0.379122 0.5595324 -0.49652606 0.287117 -0.1443259 -0.6271301 -0.44447327 -0.11642847 0.25484866 0.26661786 0.34091863 -0.9371556 0.18913803 0.03221398 -0.120116636 0.25035632 -0.15621495 -0.68250775 -0.70194244 0.29550067 0.07903204 0.4763517 -0.42103416 0.016651612 0.4478509 -0.33577472 0.050053038 -0.35012498 0.3389216 -0.5648791 0.111748405 -0.28372812
240 0.31258655 0.027866907 -0.48045027 0.36014768 -0.34018508 0.08652404 -0.5088246 -0.48053712 -1.3303772 -0.01814011 -0.8319726 0.25325397 0.6740091 -0.75205946 -0.490708 0.22170566 1.2691237 -1.1419787 -0.32725918 -0.9751661 0.019022668 -0.32324827 -0.573019 0.59077114 0.019873936 0.43727407 -0.2644429 -0.17964123 0.6145827 0.8178774 0.44465658 -0.69934326 -0.63780546 0.14622417 0.48314494 -0.27876195 0.1914937 -0.07821877 -0.5146422 0.56149584 0.5618517 -0.55722946 0.740686 0.38244966 -0.818711 -0.5665977 0.2447313 -0.3820002 0.1177117 -0.2713579 0.6229608 0.4002512 -0.62824786 0.06399639 -0.7381634 1.120884 0.16179644 0.10648045 0.6593393 0.392965 0.28717408 0.6402 -0.6594811 0.37961996 -0.2302653 -1.1280491 0.1506637 0.12231324 0.012974192 0.3064021 1.0407311 0.50380653 -0.17277013 -0.09554946 0.6052387 -0.16885413 0.6103681 -0.3244911 1.2891543 -0.2360794 0.3276315 0.23358908 0.3630474 -0.6189053 -0.008629832 0.8768609 0.39542356 -0.027801136 -0.73030406 -0.672142 0.67011374 -0.13990588 0.3542463 0.7276909 -0.6058335 0.35138476 -0.5428881 1.058275 -0.75195235 0.40263563 -0.29541275 -0.39566123 -0.35598534 0.27908093 0.5148232 0.50346994 0.84997773 -0.46248686 -0.61427474 -0.16348049 0.3794911 -0.46476263 0.1305509 -0.81633997 -0.622993 0.55920374 -0.32309127 0.85293794 0.13039061 0.7043259 -0.3074754 -0.040906776 0.18145818 -0.77166283 0.80905557 -0.27305192 0.13115706 0.47376347
1001 0.0024325638 0.1965044 0.087877505 0.3821776 0.06270542 -0.23291792 -0.3988934 0.058356658 -0.3285089 0.3040124 -0.24365805 0.15704025 0.46432728 -0.074883774 -0.80706054 -0.23758718 0.7268475 -0.108947314 -0.2887066 0.069787666 -0.15480831 0.6109996 -0.43422556 -0.39219823 0.26682737 0.22163321 -0.30273712 -0.07572234 0.45236015 0.3161004 -0.0594593 -0.1398128 0.2894385 -0.003698212 -0.11189198 0.65582645 -0.38242388 -0.24093401 -0.21865413 0.13882154 -0.041300222 -0.3558365 0.035117954 -0.25826368 0.20072053 0.26003385 0.96982676 0.17617457 0.40616208 -0.25322664 0.11266322 0.40899393 -0.7291627 -0.6720185 -0.4933018 0.2095864 -0.03437414 -0.5076482 0.23767461 0.12923898 -0.52829 -0.37263262 -0.5605928 0.5577444 0.010722552 -0.02409916 -0.17534685 0.1057888 0.09008491 0.81074125 0.7285786 0.18969764 -0.04288206 -0.2033603 0.18841037 0.17780498 0.20980845 0.27266574 1.2724912 0.30581743 0.34401134 -0.0016581753 0.334902 0.18837728 0.2678127 0.30077025 0.104084216 0.4634312 -0.7697728 -0.15878606 0.04686786 -0.0089772465 0.013838592 0.27018735 -0.18167132 -0.006690631 -0.52886784 0.6888733 -0.9178333 0.3205855 0.32436025 -0.82643783 -0.3157804 0.027173663 0.10091929 0.68234354 0.78106785 -1.1581209 0.08903457 0.38885912 -0.10802155 -0.34719825 0.093802966 -0.023022804 -0.5054623 0.55944717 -0.20426291 0.8970577 -0.27369604 -0.30431128 0.1699345 -0.31419474 -0.1836504 -0.3208261 0.5408724 -0.5676543 -0.16246335 -0.16323219
1110 0.39921057 0.9705111 0.053485982 0.45410088 -0.7125537 -0.14051336 0.46429884 -0.9456019 -0.57196313 0.3370906 -0.63404256 0.03724362 0.525704 0.1867335 0.58182263 -0.04065625 0.7568511 0.30959365 0.17550425 -0.6599928 -0.09764921 0.32615656 -0.8922157 -0.14213756 0.56487095 -0.36614785 0.07036598 -0.20900911 0.46150637 0.9900584 0.5643825 -0.83369523 -0.11366055 0.26695305 -0.43974543 0.3925736 -0.12426069 0.11186331 -0.34034652 0.3202919 0.07497545 -0.5024927 0.57860184 -0.05879774 -0.21597597 0.3205835 -0.7619871 0.14400464 0.4879623 0.5471687 0.36906403 0.8490318 -0.56017035 -0.3110545 0.051364042 1.0623039 0.27884942 0.17203599 -0.54772985 0.85658294 -0.6888046 0.21950102 0.21116553 0.20684066 -0.88710135 -0.326433 -0.5525091 0.15516813 0.7999789 0.5978649 -0.24246906 0.68743616 -0.24672249 -0.9417178 0.43333462 0.10425239 -0.018318864 -0.42060196 0.15301786 1.3542649 0.5376208 0.83623946 -0.3080323 -0.26509255 -0.18927598 0.724768 -0.14711113 0.59197295 0.009922676 -0.41531357 0.3281166 -0.2201208 0.055544652 -0.07348659 -0.89536643 0.6891192 0.4632904 0.35552868 -0.4404845 -0.8355474 -0.015035803 -0.43247968 -0.066796504 0.03454565 -0.75656396 0.16962266 0.51693064 -1.2833185 0.18762559 -0.2734974 0.3729321 -0.9814839 -0.7412521 0.022640161 -0.745307 0.31786624 0.47487375 0.24212705 0.37408847 -0.15037522 0.24311878 -0.69456893 0.6543082 -0.24038775 1.4490523 0.1768925 -0.10306729 0.22355163
454 0.45178688 -0.82027394 0.029362407 0.6819191 0.15415199 0.1728463 0.16446853 0.57826 -0.05584023 -0.062511064 -0.74984396 -0.32917115 0.8105234 -0.34523654 -0.20828305 -0.5839331 0.9485971 -0.87367994 -0.23406917 -0.20333304 0.23515579 -0.41885123 -0.4574032 -0.64388955 0.16003394 0.10113234 0.8232806 0.21183014 0.36594525 0.65413237 0.83336496 -0.6328226 0.23067494 0.51451576 0.39157528 0.14570263 -0.11292824 0.06983449 -0.9345444 -0.034315858 0.29738754 0.09316696 -0.14020276 -1.1334602 -0.4860776 0.1324007 0.3460889 -0.7810341 0.19019596 0.017856697 -0.04379862 0.3461657 -0.8828582 0.17103201 -0.51702243 0.7411842 -0.027971007 -0.42156878 0.63147396 -0.24170676 0.25191945 -0.120395064 -0.1151644 0.7672036 0.028551025 0.5336521 -0.76677924 0.13913465 0.41215363 0.39522082 1.4391427 1.0862527 -0.4047826 -0.8191427 0.40631407 0.35237572 0.20038511 0.74280304 0.6052745 0.12780254 0.66150355 0.061172564 -0.39829418 -0.029952928 0.35269397 -0.024117608 0.32812023 1.5486871 0.06055559 0.17032987 1.1278347 -0.6759222 -0.29020554 0.86586857 -0.027529778 0.55893135 0.5581255 1.0071105 -0.43973896 -0.37899086 -0.51021266 -0.3076405 0.27708587 -0.16811231 0.0947659 -0.24632317 0.4170037 -0.34408334 0.29448146 0.017263778 -0.33231032 -0.18305491 0.047138568 -0.98374546 0.022423472 0.20266229 -0.8611721 0.11365376 -0.10089889 0.56224155 0.14266212 -0.4806103 0.60800946 -0.5780715 1.052458 -0.2901526 -0.20642683 0.30747578
1711 -0.4863153 0.3969083 -0.54799247 0.5738695 0.9386049 0.13439342 0.44545484 -0.4590018 -1.0236961 0.33729285 -0.18837948 0.4640801 0.029028965 -0.010451317 -0.626544 -0.3054021 0.5158551 -0.24962838 -0.13206725 0.3084633 -0.24551763 -0.031720676 -0.39672711 0.21575354 -0.7343673 0.13246043 -0.6373147 0.814984 0.64682966 0.24485815 0.4522415 -0.90286994 0.09291424 0.2644449 0.67309517 0.03593005 0.69494253 0.37423933 0.26423416 0.146643 1.1084145 0.27194154 0.31154755 0.20224537 -0.44396943 0.56294173 0.9453784 -0.58878136 -0.8849537 -0.49069268 0.44511613 -0.13022089 -0.12668975 -0.34714872 0.1405125 0.46623173 0.6317293 0.13298307 -0.81200933 -0.7304373 0.8056435 0.77325344 -0.09312916 0.086958714 -0.29398242 0.9450518 0.21502438 -0.37657103 0.38125366 0.19701672 -0.0574624 -0.5654269 -0.2353091 0.32740974 0.98135084 -0.49733806 -0.015858663 0.0948796 1.2030158 -0.03558568 -0.20799309 0.22599405 -0.027927928 -0.34558746 0.47386146 0.46254787 0.21806444 -0.2928325 -0.6746249 -0.34839126 -0.13967091 -0.048846472 -0.49172732 0.27648553 -1.304828 0.42274308 0.46811578 0.6753853 -0.3275405 -0.03737902 0.040908325 -0.67975914 0.4643534 0.0061322832 0.21756049 0.01797618 -0.5576269 -0.61443716 -0.5226007 0.5179364 -0.5356045 0.4712428 0.348754 -0.8415112 0.07205342 0.19184542 -0.76528245 -0.096637644 0.6857018 0.56680554 -0.2758344 -1.1042523 -0.16572069 -0.70071584 0.6534804 -0.050808433 0.028877873 -0.1104683
1132 -0.45752078 0.28842288 0.0030054103 0.12308915 -0.036179975 0.15085559 -0.51348096 0.16411926 0.37261325 0.00903937 -0.3911068 0.26754534 0.17872378 -0.99750984 0.38457885 -0.20215268 0.9784348 -0.83680344 -0.45791686 -0.547753 0.007036324 -0.25328642 -0.55437344 -0.35361835 -0.26600766 0.27250496 0.81263906 0.33326638 0.86617863 0.08081681 1.0024036 -0.15143678 -0.12986033 0.61032814 1.2891356 -0.22284162 -0.014489897 -0.27098826 0.101743735 -0.096408844 0.5846913 0.67972267 -0.3516239 -0.11306005 -0.35615122 -0.115036525 0.43370867 -0.94697356 0.69561785 0.33400142 0.33779907 0.10174728 -0.8482992 -0.4471182 -0.7785852 0.3762178 0.8843643 -0.33439118 0.08657148 -0.13982572 0.21169643 0.7079143 -0.0065031913 0.3263962 -0.13392788 -0.023945296 -0.6705973 -0.108218335 0.3634789 0.2503773 0.08441523 0.32561105 -0.28566375 -0.10631591 0.44559476 -0.98882747 0.2746168 0.14971416 1.3853793 0.43177578 0.30360374 -0.89965934 -0.106214695 0.2790897 -0.7142486 0.001111893 1.0932024 0.0020523516 -0.5069637 0.58443 0.22374833 -0.02786499 -0.43543416 0.63039374 -0.75279015 -0.15901448 -0.15624774 1.1703087 -1.1520867 -1.1184988 -0.62754864 0.012431923 -0.3823287 -0.3539739 -0.0006141779 -0.15008198 0.63273704 -0.38724837 0.34722584 0.8506742 0.111695014 -0.14804234 -0.08443533 -0.19659208 -0.18684444 0.11218454 -0.60353523 -0.09820793 -0.060645103 0.69784814 0.013801489 -0.42940512 0.6084663 -0.61519855 1.0498116 -0.044060346 -0.67078173 0.30053535
988 -0.6692677 -0.40986654 0.61041844 0.43976092 0.035065252 -0.4932693 0.08392302 0.58332646 -0.96130836 0.16751485 -0.4029144 -0.47035104 0.765901 -0.4265185 -0.70707947 0.2458482 0.09886044 -0.44586208 0.016123328 -0.83537185 -0.57446885 0.23307389 -0.7078607 -0.5629561 -1.1252197 -0.24939716 0.17785092 0.9553758 0.33754098 -0.33344036 -0.107870236 -0.8182142 0.22273654 0.20418689 0.43718463 -0.4818492 0.033923846 -0.41268098 -0.5475153 -0.19164708 -0.28069076 0.5571832 0.97608006 -0.37876064 -0.19633307 -0.73328394 0.34414813 -0.5138729 0.18868391 -0.42756557 0.33636048 0.092990875 -1.4115708 0.37691286 -0.3602359 0.8089889 0.78995043 0.2566821 0.8934781 0.3790721 0.048962656 0.42067534 -0.8548943 0.0381627 0.022119092 -0.55083305 0.23138694 -0.00010535695 -0.23152561 0.6754181 0.43085578 0.42972374 -0.27993083 -0.7795847 -0.44593424 0.80108875 0.1385488 -0.21299925 1.4291364 0.007482776 -0.33636603 -0.3351068 -0.63544077 -0.34278855 0.5838431 0.18830904 0.3132891 0.3345444 -0.44541523 0.623536 -0.32979843 0.27169043 -0.07504924 0.4218052 0.083864786 -1.1679662 -0.80384916 1.1537896 0.18724272 -0.3584975 0.40081796 0.2344245 -0.3882994 -0.4380417 0.25230289 0.5650791 0.126079 0.10967437 0.073015675 0.28449562 -0.4129216 0.56142175 0.7203888 0.124163754 -0.36541525 1.0795274 0.28922474 0.4357593 -0.014148907 0.21333215 -1.0443931 -0.9154863 0.31308258 0.5362686 -0.4618502 -0.107024916 -0.3920352 0.1359412
1613 -0.7561183 0.060531855 -0.35518703 -0.24625108 0.35031092 -0.38061032 0.33755514 -0.03283733 0.21359164 0.20445009 -0.27145758 -0.65882766 0.57291603 -0.5147982 0.15380803 0.2199596 0.66060215 -0.18047136 -0.2207792 -0.22302954 -0.34958568 0.1524563 -0.48551095 -0.38564995 -0.3503688 1.0710813 -0.63401306 0.28529266 0.6814083 0.73301107 0.65694 -1.049152 0.2164333 0.48877448 0.020929312 0.43150058 0.5192957 0.24963865 0.2986192 -0.537933 0.59663135 0.47067243 0.02168002 -0.44238263 -0.035352733 0.53075063 0.29909757 -0.46814203 0.9777457 0.065383755 0.60407406 -0.3414766 -0.8340526 -0.657147 0.6074142 0.42501616 0.8609179 0.47389275 -0.28555962 0.23011254 -0.15975088 0.67561173 0.019933505 0.14004806 -0.45781144 -0.04745858 -0.8348182 -0.093994714 0.4596583 0.9788659 -0.2085713 -0.14622575 -0.30363363 -0.84383285 0.52091247 0.62972647 0.30913475 -0.48570776 1.7834594 0.29799154 -0.0053223497 0.61489147 -0.460172 0.21573965 0.11054487 0.5392608 0.3606506 0.86236364 0.3094495 -0.7480841 0.41934636 -0.79527 -0.44482583 -0.027882589 -0.51573205 -0.24028705 0.21375331 0.372602 0.07359849 -0.94144607 -0.2657129 -0.37261474 0.018782701 -0.18421908 -0.29287663 -0.8657866 -0.32309496 -0.51606876 0.31526247 -0.48213637 -0.13247329 -1.2577894 -0.2991035 -0.40392548 0.27095327 -0.27006295 -0.32015142 0.42235357 0.16067247 0.34548798 0.056108814 -0.29510063 0.10904536 0.00548324 -0.13470632 -0.44886062 0.025882393 0.28143892
535 -0.31074122 -0.44663462 0.44386795 -0.1064137 0.009272427 0.26804027 -0.19087249 -0.081247866 -0.24671306 -0.021735873 -0.4830242 -0.058618367 0.743263 -0.12808107 0.045517746 0.16588397 0.38424215 -0.37791204 0.29057252 -0.081266135 -0.46457866 0.3032327 -0.34921965 -0.33708775 0.16006789 -0.036694396 -0.35408068 0.25100937 0.62636817 0.44494483 0.7225369 -0.4495032 0.07990092 -0.14497107 0.2995244 -0.07558631 0.13666822 -0.30654302 -0.37836236 -0.42466262 -0.034739286 0.42281762 0.09802263 -0.31156656 0.15238316 0.08979368 -0.1717057 -0.19233342 -0.49532473 -0.22733846 -0.092982076 -0.05495292 -0.76343507 0.058440432 -0.14428689 -0.16932984 0.47724652 0.116960034 -0.15967797 -0.106905594 -0.17292224 0.4537393 -0.47905377 0.25340736 -0.22685078 -0.10831251 -0.13568282 -0.27493703 -0.012193532 0.47712028 -0.07056528 -0.5584276 -0.320222 -0.1533067 -0.20564479 0.24933726 0.50453544 -0.871443 0.8411485 0.18699335 0.422403 0.1413567 -0.21324593 0.21624821 0.14494842 0.478747 0.43588024 -0.055851586 -0.86982346 -0.58247036 0.1911113 0.40580505 0.40546167 0.012380975 0.09429485 -0.22009088 -0.4979794 0.55036956 -0.39017183 -0.40869522 -0.042891778 -0.30211198 -0.16076368 -0.3241847 0.28534204 0.35318887 -0.4347356 -0.6152048 0.34118974 0.5498647 0.41810974 -0.4983343 0.4859041 0.14821048 -0.27892694 0.98690003 0.0035932274 0.26024008 0.20045847 0.3886675 0.026200276 -1.4451314 0.43089178 0.718561 -0.23299353 0.07614303 0.36213064 -0.11719434
1055 -0.1175359 1.1996685 -0.6667479 0.4500241 -0.15051393 -0.032240797 0.13373819 -0.2730648 -0.1882553 -0.06970606 -0.1477592 -0.66420686 0.34266767 0.18147272 -0.80141 0.0018952994 -0.035421494 -0.23972315 -0.35339403 0.17621675 0.12892762 0.22496903 -0.653547 -0.06323255 0.4103856 0.03801375 -0.7755677 -0.12138692 0.62153095 0.37330484 0.41277814 0.07322174 0.2555833 -0.010607319 -0.1369635 0.47799933 0.048201762 0.14734003 0.28346664 0.26989004 0.33842757 -0.14353424 0.35363662 -0.19476926 0.30541006 0.69686556 0.33528554 -0.22238907 0.82469535 0.20244938 -0.124938205 -0.024286283 -0.58910555 -0.4079554 -0.40124655 0.3223104 0.14191607 0.6469426 -0.028723521 -0.4650738 0.20398125 0.3295389 -0.54650056 0.3835477 0.034912635 -0.6524761 -0.48033977 0.25353023 0.14738433 0.14016731 0.41672412 0.23798016 0.18463956 0.1294321 -0.086460665 -0.29736567 0.36474153 -0.10652311 0.7126017 0.016256414 0.2828967 0.6296424 0.18201251 -0.21522272 0.31274402 0.27458823 0.47390792 -0.07477077 -0.76854515 -0.66488826 0.19973058 -0.36122495 0.23381825 0.49821332 -0.23213395 0.881922 -0.16128984 -0.04312313 -0.26439306 0.12051474 -0.07178692 -1.1893482 -0.33758554 0.36559778 0.5180666 -0.432284 -0.1326347 -0.36485374 -0.5935274 0.5055242 0.54136854 0.2295757 0.31237411 0.08707314 -0.56117195 0.2050711 0.023941 0.57575107 0.30210462 0.6019005 0.15424551 -0.47024074 -0.21254186 -0.41117024 0.097180344 -1.0130336 0.1755252 -0.3812288
1748 0.017366003 0.5804238 0.5653474 0.90094006 -0.60854304 -0.66968703 0.62198013 -0.11376863 -0.11551574 -0.44666424 -0.3276223 -0.7613833 0.5223409 0.1117986 -0.670939 -0.047718078 0.38012978 0.6361853 0.15479508 -0.33894086 0.012108963 0.78137547 0.030119136 -0.036289804 0.17001522 0.11153262 0.5268593 0.5584667 0.58461505 0.13279533 0.22323328 -0.20622025 -0.77714646 0.16914763 -0.024025247 -0.21579081 0.5392053 0.3163568 -0.23990348 0.2721032 0.46821412 -0.33978298 -0.36461937 -0.6772469 0.50543386 0.39609584 0.9064212 -1.0131108 0.74241155 0.6999314 0.31272927 0.7395869 -0.2603687 0.6400803 -0.59161574 0.46851552 -0.36907485 -0.564689 0.28043157 -0.34763676 0.449515 -0.07065663 -0.041575212 0.11107654 0.058863755 1.2659231 -0.06583124 -0.08630259 0.8098788 0.6659367 0.08231996 0.16572203 -0.51458716 -0.4873982 0.29306853 -0.5440345 0.750771 -0.8204715 0.18825242 0.8032472 0.20776835 0.6480912 -0.15099907 -0.24691235 0.48329672 -0.0034176956 0.15027635 0.1645056 -0.10997466 -0.34740478 -0.019151466 -0.4987398 -0.5971528 -0.35768783 -0.19149914 0.94701946 0.8431029 0.25055164 -0.19652449 -0.60416776 0.5441696 -0.307018 -0.6582375 -0.064396374 0.0417351 -0.37580523 0.3104983 -0.744072 -0.09401127 0.28785476 -0.056317523 0.13860828 0.7331723 -0.10251296 0.4918942 -0.1460583 0.06847021 1.0075988 0.05242498 0.03696084 0.08909465 -0.6025408 0.48782903 -0.90272254 0.6515654 -0.8841622 -0.6266114 -0.20094633
496 -0.0011333722 0.60992056 -0.71960354 0.73153514 -0.20813061 0.07053814 0.27639666 0.0021898663 -0.4939265 1.0421938 -0.81735235 0.008229378 -0.076741666 0.5400186 -0.59802246 -0.41057047 0.17797132 -0.61116546 -0.5345298 -0.32771516 -0.54952586 0.47212088 -0.4256217 -0.16408812 -0.15646182 -0.45441833 0.46419135 0.9455054 0.1128281 0.15575033 0.5028934 -0.73737884 1.1419382 0.08852824 -0.3127115 0.5095506 0.07278225 0.5242023 0.17167808 0.19861712 0.46446154 -0.8877279 0.73369336 -0.39797425 0.2527535 -0.20207958 0.6041604 -0.5482638 0.2885079 0.8157476 -0.12726666 0.7808303 -0.9557396 0.3503347 -1.4183339 1.2823176 -0.14645562 0.09666193 -0.55901843 -0.56524664 0.42493668 -0.025048243 -0.5858402 1.2089146 -0.19042112 -0.087365866 0.3871307 0.011314469 0.9376359 0.12373317 0.5090184 0.8369158 -0.34907424 -0.00087286386 0.88482845 0.016294086 -0.22160512 0.25351295 -0.08785844 0.71592593 -0.07170521 -0.38756102 -0.49892044 -0.45383546 0.18143277 -0.046405766 0.0566083 0.635401 0.38011423 -0.08767222 -0.32793728 -0.55341434 0.24816842 0.53906304 -0.5732989 0.45095304 -0.14116427 0.49068457 -0.8140524 -0.29861727 0.5626961 -0.25917852 0.14356773 0.5316559 0.53227663 0.33350483 -0.086059876 -0.9194545 0.0943825 0.7540319 -0.46393836 -0.20996344 0.12446374 -0.68028903 -0.25836048 0.23858719 -0.014660037 0.33877861 0.10581491 0.24365245 -0.34667137 -0.9727363 -0.15993921 -0.6542764 0.6952571 -0.008031225 -0.018777482 -0.11763801
1507 0.46706492 0.20174567 0.37923527 0.5814408 -0.58957344 -0.067233294 1.0208461 -0.054377533 -1.158578 0.46489736 -0.4024932 -0.36757538 0.5194769 0.5961751 -0.6107192 0.049181532 -0.32378116 -0.20316646 0.85416853 -0.6591149 -0.20770353 0.77351063 -0.802971 -0.46110752 -0.15870947 0.14157784 -0.898763 0.65009946 0.47564808 0.46935818 -0.23815638 -0.7373062 -0.7117986 -0.39393678 -0.034499954 -0.26191267 -0.311914 0.27515218 0.3890185 0.8148358 0.23319681 -0.3158788 0.41317964 -0.21138515 0.023523008 -0.1990785 0.6492264 -0.06319014 0.67860025 0.213639 0.6152571 0.7883179 -0.87499845 -0.52843064 -1.2715284 0.33477673 -0.47500855 -0.15719429 -0.46257257 0.41002977 -0.16553813 0.10983646 0.53278244 -0.48034984 -0.6420776 -0.07612625 0.29711697 -0.24502707 0.2844774 0.6586974 -0.4293867 0.37870508 0.14070815 0.0074454695 1.3655316 -0.57706994 -0.35047638 -0.9453635 0.22585827 0.493257 0.42148522 0.29063612 -0.024427919 -0.20868625 0.22777192 1.1809453 0.1421141 0.07814364 -0.8722077 -0.33639315 0.14849502 0.5036906 -0.47217107 -0.19088073 -1.0544982 0.5440568 -0.32786334 0.24921034 -0.5534619 0.18217047 -1.153738 -0.1469754 -0.5459856 -0.71592045 -0.049573 0.31035492 0.18206951 -0.46201202 -0.16919297 -0.45914623 0.0512729 0.40584356 0.02001862 -0.70226693 -0.8080358 0.7496602 0.06314497 0.19789673 0.27235284 0.20140134 -0.054875996 -0.28352344 0.7499161 -0.69940525 -0.15304366 0.12693277 -0.022810353 -0.5346529
204 -0.656181 0.06020974 -0.7642662 0.68564516 0.6817407 -0.089431904 -0.2358536 -0.59014785 -0.79648423 0.62162226 -0.92905307 0.42840078 0.050752822 -0.013599205 -0.71537024 -0.9628714 0.7916515 -0.353142 -0.5010924 0.3270674 0.26256245 -0.32181835 -0.7397722 -0.23484978 -0.175028 0.36613756 -0.5045934 0.6527125 0.2142002 -0.14821629 0.57884276 -0.37874204 0.452001 -0.08074135 0.5266687 0.12913612 -0.07535899 0.25470507 0.5384152 0.50460815 0.13524124 -0.11488997 0.5658161 0.73770297 0.27045968 0.45713678 0.4582425 -0.8965217 0.20184265 0.5063161 0.10052315 0.19316216 -0.15272893 -1.1440371 -0.19476978 0.6700199 -0.09169038 0.23240204 -0.492019 -0.47290525 0.6004886 0.544865 0.004588852 -0.0737081 0.14158453 -0.08771782 -0.39023772 -0.045494914 0.42550826 0.39110428 -0.37328056 0.3679886 -0.05718659 0.23333338 0.42225665 -1.037217 0.110392846 -0.050648116 1.5372555 -0.2435145 0.51373047 -0.15462251 -0.28966245 -0.20932192 0.6219864 0.19555089 0.4889735 -1.0422348 -1.0580363 -0.38069397 0.34744874 0.3158525 -0.67639434 0.57334286 -0.5951761 0.40000537 -0.290501 -0.1342054 -0.61051905 0.9860093 -0.50807655 -0.31896812 0.3848569 -0.33737394 0.32848707 0.36104012 0.29219016 0.14574076 -0.28732166 0.008193053 -0.37645257 0.6665873 0.11529779 -1.4193418 -0.8494043 0.5219415 -0.5304488 -0.08414024 0.5637831 0.40571907 -0.45576245 -0.603097 -0.21579872 -0.32737815 0.58867 -0.23536256 -0.44979036 -0.12392679
1747 -0.57760084 0.17371996 0.9664471 0.72661453 -1.1974994 -0.2581913 -0.06881925 -0.49619627 -0.47239953 0.07306774 -1.2067767 0.38369823 0.010817656 -0.12298145 -0.28107122 -0.75976086 0.37517598 0.38036495 0.5956006 -0.81963444 0.02329611 0.30315423 -0.43132123 -0.035081796 0.25846246 0.42579162 -0.27762774 -0.16953658 -0.12408418 0.3699706 0.120378435 -0.58128124 -0.946091 -0.05387177 -0.19915363 -0.3523995 -0.53600186 -0.08135897 0.7516518 0.021656724 0.25465447 0.3332101 -0.025790367 0.044122152 -0.115484744 -0.7481467 0.33447507 -0.089645684 1.0440952 0.35845554 0.6869006 0.49443313 -0.82824796 -0.7221615 0.004924579 0.16315453 0.2760312 -0.0016866621 0.44646743 0.8521352 -0.47376966 0.29194027 0.14897889 -0.5167931 -0.3035055 -0.08977341 0.033767033 0.12820478 0.23402905 1.1629347 -0.6752579 0.43898097 0.07858957 -0.31374112 0.6764541 -0.58703905 -0.55347115 -0.51042324 0.80629134 0.3029284 -0.044438828 0.6802853 0.3309384 -0.5211489 -0.5030707 0.76226383 0.105221 -0.26308453 -0.81479573 0.17610058 0.57745075 0.6794731 -0.29026467 -0.3763924 -0.73421526 -0.2304618 -0.22416501 0.013693563 0.06427444 0.2933747 -0.6563843 0.09628902 -1.3341311 -1.0212358 -0.23579265 0.22148791 0.41067842 0.18380506 -0.5757563 0.2330146 -0.82367224 -0.12912303 -0.12449645 -0.27118495 -0.6579427 1.1123576 -0.2120338 0.6888126 0.7338898 -0.5346265 -0.7454704 0.024459574 0.60632277 -0.5500598 -0.22963609 -0.316538 -0.5142275 -0.7098917
1663 -0.3158278 0.6405635 -0.12840399 0.31169438 -0.70585185 0.43572092 -0.039963804 -0.28455612 -0.5654483 0.7996533 -1.4827698 0.45816118 -0.66502607 -0.051775243 -0.09780146 -0.14395402 -0.47233677 -0.055152304 -0.68736947 -0.42624786 -0.5682034 0.008768409 -0.4430212 -0.75958335 -0.37388268 -0.52647996 -0.33084103 0.37099168 -0.009201041 -0.8056154 0.19586338 -0.21699162 0.32634667 0.029224493 -0.058676925 0.2357018 -0.24275123 -0.13411056 0.92290956 -0.5094692 0.5354725 -0.05763543 0.44520953 0.16898744 0.4798002 -0.92789185 0.27827343 0.24675758 0.29964674 1.0022428 -0.42618108 0.3156792 -0.5821642 -0.24828552 -0.7997476 0.89671284 0.19605906 0.7038403 -0.2320237 -0.32034144 0.00023927062 0.378451 -0.29596183 0.16445464 -0.071660876 -0.018899892 0.17951173 0.39245585 0.9251159 0.87189496 -0.4392743 0.72133064 -0.34298715 0.15613355 -0.33943444 -0.0056184605 -0.66221625 -0.26017213 -0.17690298 0.47142142 -0.5027683 -0.16286394 -0.5868198 0.0025782094 -0.94336736 0.45678073 0.6508119 -0.43827054 -0.2897585 0.13486867 -0.24681638 0.5026121 -0.19517812 -0.008818756 -0.528302 -0.1002931 -0.55194855 0.24512473 -0.29894444 -0.33456632 0.33856785 -0.25835225 -0.52377784 -0.44877157 0.47809887 0.031677034 -0.6465945 -0.51939046 -0.22176376 1.206449 -0.9941738 0.33023655 -0.045249686 -0.0050724754 -1.3139975 0.7983351 -0.20780171 0.23147003 0.46459103 -0.77051824 -0.8958456 -1.2176738 0.19487515 -0.4026615 -0.35239288 0.14616583 -0.0083807735 -0.36433348
1487 -0.65107507 -0.124325104 0.36945814 0.64330643 0.08214432 0.32204416 -0.66914946 -0.67032266 -1.6228862 -0.63174605 -0.68904954 0.16897929 0.3874922 -0.6607273 -0.25599664 -0.5965416 -0.19845976 0.28777245 -0.47042313 0.38496307 0.082853615 0.058753 -0.26920503 0.23785907 -0.33974445 0.87400997 -0.50453275 -0.21727161 -0.15991424 0.12018714 0.44740033 -0.07387897 -0.7179579 0.118640415 0.23055272 -0.43087402 -0.03482265 -0.60597485 0.30627742 -0.1327896 0.31295875 0.11917539 -0.24317622 0.7848653 -0.20682554 0.06688581 0.4480631 0.34171966 0.58799195 -0.1917482 -0.031226428 0.3873154 0.27683234 -0.18876903 0.28719074 0.47187248 0.50848764 -0.15834513 -0.059053242 0.9751676 -0.47813374 0.38356194 0.12449478 -1.1655143 -0.077380136 0.027250063 0.3606183 -0.21231143 -0.5941269 0.6762412 -0.17253108 0.29662278 -0.14255743 -0.8033428 -0.20860724 -0.055639923 0.38112578 -0.9492579 1.9864551 -0.28909215 0.4056254 0.48116136 0.42387775 0.95841146 0.2747347 0.39640552 0.4397166 -0.19456683 -1.1338389 -0.77351373 -0.18260358 0.011196845 -0.7636621 0.32842666 -1.1731515 0.37673804 0.45760766 0.17869383 -0.031137759 0.3180203 -0.484155 -0.68154997 -0.7856707 -0.3253941 -0.24305527 0.6857196 0.6005055 0.056395587 -0.1123523 0.31032157 -0.6128766 0.36295906 -0.03306165 -0.36515304 -0.9020748 0.51390225 0.0069987853 -0.069992706 0.46083054 -0.48367247 -0.20372397 -0.36871922 -0.008633966 -0.114797704 -0.18050602 -0.6854146 -0.5773825 0.654283
69 -0.56266224 0.5048397 -0.21667512 0.6301805 -0.65179145 -0.27019775 0.28084773 -0.67769414 -0.9370133 0.6102189 -0.50105643 0.23476669 -0.29894263 0.48204663 -0.45577702 -1.3816165 -0.42193532 0.5230104 0.16758879 -0.1105864 -0.5641329 0.48543322 -0.19751732 -1.0836055 -0.04065473 -0.09296279 0.17757118 0.40562195 -0.40556237 0.4337016 0.33774588 -0.9323158 0.83577174 0.073957495 -0.5393169 -0.002956955 -0.62746876 -0.38941333 0.8646301 0.108639725 -0.25911173 -0.19910201 0.30399933 -0.083258025 0.38597152 0.2870818 0.14140087 0.57907796 1.0094603 0.2853479 0.15312916 0.68961996 -0.5563394 -0.21823876 0.18044023 0.33418563 -0.18232366 -0.90056825 -0.266473 0.46000433 -0.41085976 0.047618154 -0.64674664 0.19615243 0.05412236 -0.0045771915 0.007898203 -0.2819092 0.72449607 0.6832165 -0.3347014 0.72774017 -0.0326273 -0.43258345 0.31987384 0.18316245 -0.6665074 0.59047705 0.8071627 0.75683016 0.17263457 0.23193336 0.38296705 -0.07135055 -0.096680626 -0.733145 0.58944046 0.14405455 -0.020550536 0.8004315 -0.54887563 -0.39819646 -0.2981841 0.3012152 -0.29422027 0.11763732 -0.2687378 -0.57919884 -1.133015 0.16479826 0.59967047 -0.5051526 -0.25613445 -0.31644195 -0.17926018 0.7917359 0.9902529 -0.21816921 0.08691738 0.88303626 -0.30131066 0.118002206 0.62740344 0.13107969 -1.5308603 0.6642153 0.02680908 0.6997776 0.4574179 -0.8084437 -0.1968187 -0.7120922 0.6293972 0.35373342 -0.073329605 -0.077179775 -0.8387505 0.09802885
1474 0.5370302 0.94232804 -0.6077255 0.74664474 -0.51595825 0.04890387 -0.2872141 0.75360847 -1.2005333 -0.08736427 -0.7358086 -0.31730184 0.6770676 0.21479233 -0.21431983 0.45977983 -0.29368818 -0.65272725 -0.83196825 -0.24244592 0.18596575 0.5844491 -0.51137245 -0.44326097 0.66497016 0.48969862 -0.32078266 0.31421345 0.49485946 -0.010830951 0.28341734 0.28620544 -0.625233 0.023595553 0.70032316 0.19762717 0.09873866 -0.71058357 0.4093319 -0.14465608 0.65787673 -0.43875995 0.5425035 0.0867113 -0.005514345 -0.89468116 0.37126696 -0.28561497 0.7078702 0.44925413 0.0035236527 -0.08674912 -0.25162822 -0.1044898 -1.0527055 0.6702144 -0.012587563 0.68764436 0.5936796 -0.18242297 0.57597804 0.32719555 -0.5999964 -0.23570454 -0.70506567 0.061481465 0.18039297 0.30667713 -0.06997296 0.99567485 0.608639 -0.12390779 -0.28054702 0.08513806 0.10174673 -0.5512351 0.39230934 -0.8273219 0.52877986 -0.07675997 0.13572867 0.42342362 -0.07533912 0.3765021 -0.23466197 1.1126243 0.7049839 -0.5141798 -0.9756243 -1.0067726 -0.09679191 -0.30156848 -0.44351038 -0.17652103 -1.073328 0.23405285 0.35162696 0.85313874 0.2947392 -0.34746042 0.62683946 -1.2013272 -0.9114781 0.19580339 0.73302555 -0.42711025 -0.4111542 -0.9700536 -0.24974146 0.64613765 0.44192 0.21900654 0.17288217 0.22370175 -0.34101254 0.34514523 -0.12186754 0.8676468 0.51656425 0.07435181 -0.24996182 -1.0252315 0.20360656 -0.91757596 0.096638605 -0.56842345 0.091177166 -0.28412685
1600 -0.8251144 0.4870109 0.7478978 1.4390483 -0.1301593 0.21261047 0.13676807 -0.6535959 -0.8553027 0.20697112 -0.41865483 0.5031305 -0.65708154 0.046251047 -0.23128453 -0.31597233 -0.508651 0.4484879 0.6202915 -0.16071457 -0.9913393 -0.11000226 -0.25983563 0.11283406 0.31714776 -1.0603038 -0.2433798 0.5228802 0.16945833 -0.34496886 0.3215697 -0.9864228 0.20066862 0.19755238 -1.7378608 0.42342928 -0.40810186 0.31853244 0.26856852 -0.53917277 0.6514021 0.5193329 0.5146683 0.045146953 0.047484152 0.44759235 0.27378288 0.017065933 0.09264814 0.7361276 -1.033117 0.98335975 -0.62834406 0.94150454 -0.36578828 0.3193366 0.016079683 0.12184182 -0.14223143 0.10898502 -0.22624645 0.19562237 -0.1799136 0.05356536 0.4699412 -0.006246756 0.8353647 0.6086695 0.9479711 -0.20108216 -0.785819 0.785975 -0.2539352 -1.0509903 -0.24158154 0.38566348 0.17055963 -0.36017957 0.63162917 0.5603056 0.303418 0.13558629 -0.19976084 0.36531198 0.46333292 -0.09819924 0.061655212 0.4356801 0.44710615 0.052598033 -0.91414547 0.37623632 -0.074561596 0.5461927 -1.0090026 0.29123104 -0.93564296 -0.7889411 0.1998514 -0.4123101 0.25902823 -0.29890624 0.47679964 0.18918599 0.12208945 -0.13075311 -0.22656572 -0.5668982 -0.37860993 0.56091505 -1.0248168 0.44523355 0.20310898 -0.15683213 -0.99749994 0.17788622 0.098358266 -0.42742157 0.69481575 -0.626458 -0.7931266 -0.77621925 -0.21785513 0.2174274 -0.32070342 0.060933832 0.36342233 0.4002617
1618 0.45720112 0.10558281 0.23018827 1.1989793 0.0038026397 -0.0056373607 -0.008324711 0.78963256 -1.3492577 -0.5731221 -0.3985317 -0.23805006 0.8712674 0.7455885 -0.16758919 0.4719709 -0.0024990467 -0.79477787 -0.039648682 -0.19281499 0.103408925 0.5689949 -0.5076954 -0.031549282 0.70790976 0.5649971 -0.8486924 0.43211734 0.69545126 0.7232489 0.4827108 -0.4321484 -1.1172748 -0.17080915 0.5304853 -0.5483332 -0.34001338 -0.53277004 0.38657537 0.61684537 0.61743605 -0.1407564 0.64895433 -0.02960126 -0.34210676 -0.84851605 0.50294626 -0.6599164 0.030661734 0.08742319 -0.05012783 0.53143466 -0.647046 0.12606415 -0.83950204 0.6025924 -0.109508924 0.30609348 0.45336974 0.2292159 0.06433878 0.13958117 0.3074376 -0.7767315 -0.7929858 -0.3886274 0.19879751 0.33652118 -0.26054066 0.10228291 0.6158025 -0.11908874 0.12876739 -0.8252133 0.04202692 -0.17422158 0.43039495 -1.3251923 0.5872468 -0.33094478 0.304869 0.7699389 0.20158722 0.69120795 0.40756777 1.4239541 0.62781525 -0.19709204 -0.76476365 -0.94590604 0.3804704 0.39060643 -0.00234982 -0.27092332 -1.2548361 -0.24602711 0.026908671 0.62714 0.33847263 -0.4630548 -0.36115545 -0.49276584 -0.30159074 -0.021589175 0.26078138 -0.32145655 -0.101236515 -0.35985962 -0.32676587 -0.004387594 0.2366867 0.17835902 -0.12093294 -0.33952457 -0.6826119 0.47670284 -0.1499586 0.30884877 0.7751855 0.8462337 -0.6074229 -0.69363844 0.694727 -0.6919297 -0.14502223 -0.13047108 -0.24913739 -0.20713739
1538 -1.1612011 0.42428514 0.5394403 0.8844136 -0.35908288 -0.0071739396 -0.33175117 -0.34970137 -0.56220573 -0.10779262 -0.67384017 -0.07246282 -0.10579148 -0.600092 -0.26387027 -0.8063278 -0.4107041 -0.0035457108 -0.37851307 0.3902401 -0.0123893935 0.06300715 -0.56160295 -0.8612852 0.3596844 0.121645294 -0.56223977 0.010077054 -0.9161643 -0.8404451 0.14818138 -0.47072098 0.036786962 0.33842722 -0.49277923 -0.17321956 -0.94841737 -0.6673252 1.0910658 -0.56064147 -0.23781182 0.8566876 -0.2781658 -0.27177224 0.42276832 -0.80316406 0.1431196 -0.22583078 1.2739093 0.8659544 -0.36744535 0.21561553 -0.72932786 -0.5080444 -0.13605665 -0.11129204 0.56076 0.63460916 0.2779579 0.5774101 -0.3202837 0.6168242 0.14540043 -0.35738227 -0.25091666 -0.49907687 0.08614704 0.4122269 0.3412287 0.23661049 -0.7903969 0.51454324 0.26093185 -0.6966191 -0.2137632 0.2278295 -0.48640555 -0.44495943 0.88856304 0.32966948 0.15823886 0.098754585 -0.21780927 0.60005474 -0.02451747 0.12400629 0.5572052 0.16898789 -0.13410713 0.47933164 -0.34178078 0.3258105 -0.26589033 0.32212105 -0.80358434 -0.24730895 -0.79157734 -0.017173506 0.5434839 -0.095708944 -0.48952946 -0.5066799 -0.511929 -0.8859158 0.16848437 0.08915995 -0.064768255 0.7554397 -0.4060139 0.43328172 -0.7472939 0.80537826 -0.43288052 0.016586628 -1.4000602 0.7871315 0.24556601 -0.55929244 0.649598 -0.44710094 -0.38515043 -0.588986 0.2611631 0.66727006 -0.5038299 -0.38996422 -0.33674985 -0.22414178
1497 -0.6732923 0.23101076 0.23565742 0.108781904 -0.20098868 0.12942909 -0.39387792 0.0696265 -1.2222928 0.11436428 -0.8251741 -0.69784546 0.34324518 -0.8045849 -0.3643071 -0.78720707 -0.2658216 0.40693933 -0.34147796 -0.091600165 -0.29975462 0.35825205 -0.60798776 -0.48461702 -0.26007757 0.066936545 -0.37852898 0.31668082 -0.2957835 -0.8057357 0.36772403 0.02123868 0.19582495 -0.00744422 -0.14196537 -0.13566445 -0.057951402 -0.31173563 0.3622 -0.19712669 -0.058329735 0.4242906 0.12732661 0.030393565 -0.12499687 0.23986661 0.5484423 -0.24411981 1.0207126 0.4570727 -0.39145827 0.60363036 0.1832422 -0.55188245 -0.29421353 0.2675683 0.35307246 0.5534938 0.4084391 0.7624004 -0.3008568 0.3412283 0.35001877 -0.6237788 0.17270514 -0.5210816 -0.00325775 -0.3419313 0.32321134 0.66502243 -0.18324335 0.63915193 0.21006224 -0.83448106 -0.82012475 0.07828082 0.34861118 -0.8700597 1.5203735 -0.026378086 0.4871601 -0.039667957 0.039857727 0.28294978 0.3117021 0.15269448 -0.15272419 -0.45598075 -0.56905776 0.4957098 -0.5323278 0.051483814 -0.8133088 0.9613485 -0.15541123 0.61324024 0.13843247 -0.27034673 0.18216148 0.69222826 -0.4538318 -0.29034775 -0.6309624 -0.4253482 0.22314851 0.18318453 0.5117458 0.30676082 -0.11914035 0.15766436 -0.111077815 0.8868636 0.9073191 -0.5928421 -1.5410721 0.61133045 0.6100066 -0.013758042 -0.21483313 -1.0767056 0.11419656 -0.4597427 -0.059253026 0.4425196 -0.7709104 -1.0252208 -0.28109416 0.26699084
1494 -0.6738162 0.6137076 -0.29879656 0.70295846 -0.5922312 0.14400387 0.12717435 -0.39176428 -0.5519437 0.57840157 -1.0879532 -0.2776215 -0.57455474 0.36329365 -0.23923948 -0.8471558 -0.9744195 0.41605577 -0.30871084 0.014425128 -0.559764 0.32558966 -0.3497846 -0.73240834 -0.08077327 -0.6818871 -0.4133817 0.7276802 -0.40495023 -0.52792376 0.6186202 -0.5874278 1.0385189 0.24736214 -1.0839715 0.34332657 -0.17498626 0.10275334 0.8843756 -0.5497136 0.4070485 -0.09300403 0.8308601 -0.24835469 0.71737736 0.07835497 0.18868682 -0.081477545 0.65650445 1.2293035 -0.88274556 0.5598382 -0.39264673 0.08990077 -0.52917886 0.5607762 -0.25851932 0.6615994 -0.44590184 -0.06834068 -0.09989948 0.3356918 0.048750997 0.27710772 0.09509252 -0.07574131 0.4189721 0.2308239 1.2115082 0.39514822 -0.65354526 0.9957858 -0.33823654 -0.37742096 -0.13639441 0.18645628 -0.6948289 -0.3548803 -0.122934446 0.443295 0.2769527 0.2450277 -0.4388961 0.10360616 0.09796885 -0.14539842 0.20420633 -0.049143113 0.4067818 -0.18680847 -0.81092453 -0.16604857 -0.30475792 0.54229355 -0.7429339 0.44965738 -0.35601184 -0.86089027 0.065284096 -0.20453578 0.43213633 -0.37298837 0.04031748 0.10859693 0.21505907 -0.21376659 -0.85532814 -0.4462597 -0.21747072 0.67492676 -0.45208043 0.20908174 0.26810348 -0.35379213 -1.257601 0.5227671 0.13369606 -0.063212626 0.6993394 -0.56394917 -0.535838 -1.2278376 0.2250719 0.2856397 -0.7761518 0.1533351 0.19314688 0.12459558
1750 0.57056123 0.37988952 -0.4753594 0.28358552 -0.6009716 0.41269177 -0.14133559 -0.20844948 -1.1911168 -0.39638722 -0.32532072 -0.42681706 0.5936127 0.4012452 -0.18022197 -0.00548795 -0.95187986 0.26375914 -0.37519753 -0.10054718 -0.29941076 0.35852903 -0.11483818 -0.11593349 0.43082654 -0.23376414 -0.8534247 0.5133157 -0.09397402 0.18277688 -0.0510689 -1.038986 -0.23536196 0.5999601 -0.72239685 -0.05318617 -0.26514283 -0.14628014 0.25116247 -0.18635666 -0.103413805 -0.092597336 1.1838568 -0.19861522 0.32374358 -0.5134199 0.22595187 0.8741174 0.36666822 0.5168454 0.27341953 1.0741779 -0.25904223 0.63225496 -0.5165765 0.80766034 -0.26461518 0.4577323 0.42976633 0.8371277 0.051890966 0.5762612 0.21800113 -0.45618492 -0.48706278 -0.49125564 0.6389583 0.1736413 0.22991616 0.24507847 -0.2141518 0.66308624 -0.3941666 -1.1801298 -0.098805554 0.056173157 0.15885575 -0.8991723 -0.2174996 0.31727138 0.05705495 0.93692493 0.11877679 0.18322949 0.4966405 0.34554324 0.004379079 0.14334331 -0.4034772 -0.8754573 -0.4542903 -1.0669428 0.4535188 0.4932888 -0.7654796 0.48599598 0.13181773 -0.2651369 0.19763681 0.08002473 0.58840317 -0.2975138 -0.12505527 0.015003265 -0.30566663 0.48725623 -0.5008864 -0.6296083 -0.25515357 0.25632685 0.2196398 -0.22913556 0.22926138 0.1915493 -0.87641704 0.750233 0.0004481381 0.063273415 0.47356245 0.24479337 -0.47250447 -0.9908775 0.3972321 -0.18470396 -0.06465853 -0.18189102 -0.06755757 0.44020143
485 -0.3513972 -0.24356788 0.021194788 0.1035763 0.808146 0.9418054 -0.2671752 -0.27592197 -0.38428023 -0.100732714 -0.5028929 0.19655901 0.6297975 -0.4744114 -0.44601965 -0.52060205 -0.31399584 0.1555568 -0.613136 0.17807192 -0.029684993 -0.7709863 -0.24845098 -0.37284774 -0.40013406 -0.80397964 -0.6838491 0.75419235 -0.08046294 -0.76554185 0.3744012 -0.6843928 0.2975597 0.9744414 0.068348564 -0.38289627 -0.43170175 -0.2816957 0.4042066 -0.13916007 0.0078599835 0.8366016 0.59924936 -0.08508943 -0.3964253 0.037732847 0.23958844 -0.22725435 -0.33449996 0.48252922 -0.6290606 1.0131005 -0.22429012 0.17030407 -0.25172922 0.87154 0.2782691 0.44350517 0.4041969 -0.074987985 0.35662928 0.2952099 0.05384921 -0.21111366 0.5571426 -0.21483459 -0.36761093 0.85813 0.5488901 -0.3107943 0.17916654 0.5721062 0.13944677 -0.6849553 -1.0619094 0.14624499 0.345159 -0.30571312 0.9288848 -0.30517954 0.43553492 0.42191547 -0.1425364 0.34015042 0.77636135 -0.08249252 0.5623778 -0.3109298 -0.50810736 -0.18445668 0.19894214 0.4698395 -0.27959123 0.98340064 -0.20741211 0.70589733 -0.45295838 -0.32295555 0.13625424 0.42696396 -0.0026255702 -0.2107516 0.5828392 -0.23941602 0.43418995 0.12451777 0.07056244 0.5775095 -0.65078515 0.7138866 -0.00867765 1.2226695 0.9764263 -0.65095484 -1.2936194 0.33767456 -0.27433896 -0.81845444 0.052778386 0.050883636 -0.76810205 -0.9941953 -0.23223034 0.016979191 0.5414344 -0.017867438 -0.21771336 0.24542613
1230 0.28141257 0.35334432 -0.24996094 0.2027148 -0.785474 0.53247386 0.063045174 -0.3624463 -1.2377634 0.04141732 -0.70663387 -0.24317649 0.5789609 0.4262157 -0.12721792 -0.05058778 -0.9486698 0.38568583 -0.5453002 -0.26191068 -0.45141158 0.2267794 -0.055982236 -0.34788495 0.02075772 -0.21855384 -1.0633088 0.5322302 -0.50074345 -0.1876681 0.09048614 -1.0763193 0.25671312 0.4595297 -0.875062 -0.08659567 -0.25193033 -0.40588135 0.27621672 -0.5840049 -0.0770349 -0.052979335 1.1038309 -0.07792725 0.3305987 -0.8294345 0.022121804 1.0146586 0.14704245 0.50161725 0.017234923 0.9468259 -0.3302778 0.22372992 -0.43702492 0.7511249 -0.17231357 0.37729383 0.30370796 0.77780557 -0.27020156 0.39830273 0.19900742 -0.4844165 -0.5091187 -1.0515972 0.7167257 -0.11340993 0.30068493 0.26113904 -0.599682 0.87147474 -0.18154326 -1.2430995 -0.33377907 0.0860499 -0.15225002 -1.0291305 0.021646041 0.27690086 -0.15711312 0.8096232 0.13974233 0.2974643 0.24589011 0.46536627 0.26711038 0.014792414 -0.30588904 -0.89932674 -0.44444513 -0.6111301 0.30699286 0.6048924 -0.714862 0.17765127 -0.37796646 -0.47414657 -0.040469706 0.046483673 0.52261674 -0.06830245 -0.23444921 -0.07568675 -0.21633045 0.6081068 -0.5797494 -0.5198077 -0.20201087 0.6876097 0.26204363 -0.094812095 0.1615992 0.16190621 -1.3919709 0.78217214 0.27152503 0.06644006 0.41735497 -0.0063181506 -0.38578606 -0.98825455 0.42208418 0.27620173 -0.4191789 -0.1054579 -0.090266526 0.47189036
