2414 128
1465 -0.35944107 0.8052297 -0.19634998 -0.95574373 -0.2250772 -0.94736814 -0.33652186 -0.4800138 -0.19412169 -0.18345538 -0.39843094 0.47505862 -0.5099224 0.53412896 -0.11817987 -0.8210673 0.033836056 0.348823 -0.3024338 -1.3054262 -0.11707748 -0.5842526 0.7324195 -0.88521314 -0.12488524 -0.15990132 0.005491562 0.00922086 1.1025169 0.5422182 0.36394665 -1.079937 1.0286707 -0.391254 -0.1951378 -0.51009774 0.2573696 0.29685757 -0.21241675 -0.8147841 0.13099886 -0.65461516 -0.714666 0.6210784 -0.10600666 -0.31308153 0.048097096 -0.19091047 0.24165319 -0.27630216 0.39733714 0.20774782 0.07733754 0.1699379 0.56140554 -0.5492836 0.53018546 -0.30274135 0.4819963 0.41050175 1.2485781 -0.75499356 -0.9109804 -0.75520056 -0.6541739 0.2765517 -0.24826896 0.39156199 -0.070904635 0.7713724 -0.30290702 0.23531072 -0.20464163 0.63451976 0.0074629663 0.3441925 0.22253856 -0.4355878 -0.8344085 -0.23781642 0.1364366 0.12530176 -0.7007886 -0.0986809 0.474437 0.35072133 -0.99025184 -0.14025478 -0.47064638 -0.92446357 0.94418794 1.0316545 0.315425 -0.15785073 0.26184106 -0.26061437 0.761949 -0.8818788 0.85752857 -0.09816933 0.40586656 -0.7448034 0.2968678 -0.8680589 0.56844026 1.3792486 -0.17594565 0.8701302 0.12921394 -1.3029674 -0.09959171 -0.51214015 -0.84658563 -0.9388401 -0.63120717 0.80621237 -0.037136506 -0.093228705 -1.0237248 0.04678361 0.64748335 -0.105634645 -0.112621 -0.32551768 0.058420546 0.22601701 0.3335821 -1.1889399
55 -0.1255017 -0.012538625 0.85987896 -0.47040236 -0.08699028 0.246232 1.3882084 0.931049 -1.1286198 -0.21044312 0.6495475 0.9266368 -0.48308906 0.16573155 -0.16810304 -0.08719046 0.48694944 0.78399724 0.34565973 0.3634959 -0.44081658 -0.6116149 -0.1513519 0.81489766 -0.5092681 0.32598156 0.23258184 0.04613826 0.9449475 1.0351739 0.119537614 -0.8038353 -0.2781456 -0.28483054 0.105342776 -0.5392916 0.6591445 0.44912636 -0.24460886 0.05660142 0.2808176 -0.6378618 -0.4911298 -0.146634 -1.0531062 0.30580398 -0.14984085 0.28509402 0.598944 0.23714411 0.59971917 -0.3030642 -0.2709784 -0.42576936 -1.204156 -1.0856019 0.05243709 0.5561292 -0.69247323 -0.51762503 0.5583324 0.64418167 -0.652684 -0.9258643 -0.35957554 -0.3134294 0.08315216 -0.03555956 0.6363871 0.060593713 -0.5864434 -0.4621708 0.6241941 0.43853676 -0.06510384 0.79012316 0.0918118 -1.2587204 -0.35177776 0.6002988 -0.19442059 0.905165 0.18973018 -0.52701205 -0.05092728 0.11211032 0.29418552 -0.053255312 0.10081987 -0.91025144 0.29913604 0.52182204 0.7067673 1.116409 0.46416044 0.7072386 0.4239198 -0.12882058 0.15081458 -0.50068295 0.4781378 0.17473122 -0.33462748 -0.35331553 0.4237613 1.0130566 0.45279282 -0.13062926 -0.86259246 -0.05436234 -0.18475193 -0.6566548 -0.15886006 0.13620079 0.2463418 0.3895126 -0.38714245 -0.4758942 0.54834104 0.09830515 0.17624544 -0.16521683 0.25161794 0.022226594 -0.15142691 0.12897412 0.69394207 0.2610422
694 -0.29644045 -0.49722707 -0.37830815 0.56374043 0.62835217 -0.93266153 -0.17941907 -0.29093996 0.26073727 0.6686191 -1.7079176 0.36506993 -0.48558125 -0.31929865 0.65305173 -0.16430956 -0.737822 1.0370841 0.19223677 -0.27320966 -0.48423308 0.9237933 -0.17375296 0.017341232 0.30424845 0.7661001 -0.29673126 0.2655786 0.12814835 0.5540978 -0.30005008 -0.15919763 0.13725242 0.058676068 0.5402252 -0.7394019 -0.42227215 -0.0031121706 0.19584534 0.015505344 -0.3454819 0.04453714 -0.82638454 0.06817663 0.037504867 -0.65595317 -0.0640626 -0.19622302 -0.13872331 -0.7798995 0.32872328 0.87480265 -0.49538013 -0.17118458 -0.5274563 -0.75500023 0.38989353 0.98908985 -0.68493366 0.82503307 0.5297809 -0.20031068 0.47427422 -1.0872248 -0.1444103 -0.31098217 -0.41030905 -0.08764073 0.9539263 -0.42576766 -0.35838753 -0.1983234 -0.06038678 0.55921036 1.5554814 1.2100079 0.94455063 0.14153798 0.18141037 -0.7475427 0.08447595 -0.2732725 0.26402947 0.6499417 -1.2144845 -0.011261501 -0.7492877 0.18005458 0.3603382 -0.2645433 -0.4438221 0.29038194 1.2030257 -0.059795998 -0.10788296 -0.12785974 0.45916814 0.79487544 -0.8101669 -0.76508677 -0.32519928 0.4492898 -0.36197215 0.5264238 0.006551872 0.43234098 -0.8917152 0.22315401 0.11517146 -0.44910932 -0.23152092 -0.25793475 -0.03043286 0.27994722 -0.2628396 -0.064927384 -0.092530295 -0.5829201 -0.13403359 -0.23161498 0.51236314 0.6795029 -0.37638026 -0.41738126 -0.18271638 0.12512869 0.6183761 0.5469717
2064 0.5229482 -0.099369 0.22927031 0.87393916 0.47714657 -0.8583397 0.60435677 0.6968699 0.38772342 0.14483334 0.6353453 0.60987633 0.13149562 0.19029796 0.69497955 0.7987675 -0.33958846 0.15678965 0.5007123 -0.025440663 0.1596899 0.6063769 -0.3387134 0.37373224 0.8518249 0.5207279 0.31307447 -0.024677325 0.8051179 1.0359885 -0.7391726 0.17199296 1.3155597 -0.08754764 0.046976224 -1.1735079 -1.2285094 0.03425524 -0.06888572 -0.06486636 -0.19797635 -1.00265 0.90344584 0.87909216 0.022616299 -0.2579634 -0.36532736 0.263573 0.012763954 -0.46616158 -0.004788745 -0.50464773 0.37703982 0.92125595 -0.60460216 -0.42290413 -0.4653823 0.1310306 0.62056804 -0.26562062 0.7742185 -0.69659245 -0.7396307 -1.5529066 -0.4945493 -0.54295254 0.4552548 -0.011322964 -0.026996553 -0.04795939 -0.110318564 -0.46547398 -0.22208051 0.11836 0.7107734 0.46675658 0.0555375 -0.034847252 -0.17271866 0.09623374 0.35521257 -0.035962477 0.017037041 -0.4915837 0.5974444 0.7122799 0.16534036 -0.2925025 -0.43249553 -0.8374749 0.9122219 -0.5711087 0.4100752 -0.12935394 0.054786444 -0.35707238 0.44660774 0.3719984 -0.98011756 -0.061307453 0.014593188 -0.19977356 -0.946014 -0.77021617 0.1530826 0.8253181 -0.28689873 -0.6768408 -1.152079 -0.959052 0.15021726 -0.49700934 -0.3894416 0.34842008 -0.66197205 -0.29016247 -1.1396089 -1.0184855 -0.578239 0.09566739 0.6871687 -0.5780091 0.17293172 0.04646016 -0.64154834 -0.03468461 -0.26057476 1.1626489
2427 -0.23773848 0.95230234 0.54788953 -0.4605643 -0.6018752 -0.30206922 -0.08292469 -0.11321799 0.19975814 0.28841677 -1.2811514 -0.37568584 -0.113304496 -1.1000485 -0.60313004 0.3478085 -0.6712016 0.50918156 0.082221955 0.8244972 0.12090873 0.5160195 -0.40122244 -0.15429963 -0.29715747 0.5229886 -0.009731774 0.09044728 0.009175947 -0.022172537 0.49260268 -0.67504585 0.47551242 -0.3403218 0.20420773 0.38287416 -0.638391 -0.5242517 -0.3613626 0.09646565 -0.8409303 -0.5379153 0.12856461 -0.3095313 0.0143889645 -0.35958713 -0.7827322 -0.4834138 0.31449476 -0.77272993 0.5235119 0.55252576 0.1495959 0.3490243 0.53362286 0.47303748 0.6647913 -0.17475379 -0.5920501 -0.07798878 0.6760547 0.47565886 0.16996436 -0.6407631 -1.2315209 -0.61424583 0.21106973 -0.37719333 -0.5329962 -0.7288974 -0.1665827 -0.72204906 -0.9215285 -0.5604003 0.055486638 1.3693527 -0.46663332 -0.6963026 0.032940812 0.49201858 0.09677205 0.14092152 0.44921917 -0.08770507 -0.5156942 -0.50501 -0.55208147 -0.1026139 -0.6350268 -0.5989827 -0.3471668 0.69589627 0.5101454 1.1004403 -0.15812898 -0.27631775 -1.0430005 0.596789 0.0750714 -0.9554235 -0.41965654 0.28065878 0.31471384 -0.1951309 0.55769116 0.4429423 0.042968906 -0.91236186 0.29876885 -0.6311401 0.12339928 0.07874675 0.6434049 0.43449348 -0.29508483 0.8804926 0.39552942 0.2850587 -0.44129685 -0.53980774 0.502161 0.15218209 -1.1220706 -0.62118447 -0.5195488 0.25170243 -0.18620938 -0.18489347
424 0.045881744 0.8987728 0.13360171 -0.15258837 0.34434783 0.29974702 0.7209828 -0.33106548 -0.03744069 -0.39983565 -0.30123886 -0.003761921 -0.2594159 -0.5266223 0.34236965 -0.032990664 0.0065524457 -0.2357707 0.72331864 -0.3667735 -0.31814417 0.8815247 -0.31587788 0.04590894 0.00042772118 0.6257146 -0.72990066 0.6727942 0.3826189 -0.12525547 1.108617 -0.05831816 0.3727476 0.054655153 -0.5106123 -0.7922153 0.116865546 0.43451762 -1.0398016 0.7590616 -0.642118 -0.3568352 0.44655848 0.3967258 -0.40894398 0.23704508 0.19954091 0.19172962 0.24934661 -0.78165597 0.033999916 0.07921912 0.044693947 -0.9730066 -0.115242995 0.66199124 0.8148245 -0.48759776 -0.26263905 -0.3226329 0.437376 0.74754393 -0.16967745 -1.4367083 -0.50213706 0.019905468 0.28919464 -0.60968816 -0.17294881 0.34249043 -1.2608964 0.024730267 0.4180075 0.0053406814 0.68563724 1.2681285 -0.12656082 -0.35641286 -0.0794896 0.023710284 0.5865303 -1.1040307 1.1116413 -0.6282693 -0.46502787 0.15964477 -0.63356024 0.31598783 0.23544337 -0.62100565 0.38089004 -0.18342488 0.11936838 0.37631193 -0.78473914 -0.077143766 -0.29654372 -0.44731805 0.31150702 -1.574233 -0.11396533 -0.59040666 -0.58074564 -0.3058715 0.0748408 0.3336282 -0.07832676 -0.08621497 0.23265173 0.29293805 0.21247974 -0.46426305 0.091843106 -0.50907654 0.34572208 0.73391235 -0.596876 -0.18134916 -0.028893048 0.20941605 0.57958484 -0.32522714 -0.29667366 -0.86578345 -0.8346631 0.66135234 1.0533062 1.0085934
1319 -0.97136235 0.46448475 -0.19976315 0.04732951 -0.057774525 -0.31613132 0.60902834 -0.82607067 0.7275039 0.46138483 0.31945705 0.8272552 0.27049986 -0.8050829 -1.0044236 -0.6253542 0.35439876 0.25972518 0.35800716 0.0048803007 -0.023357505 -0.09558981 -0.73896074 -0.7779815 -0.37462872 -0.2738125 -0.13546199 0.49271962 0.63763326 0.268084 -0.30236334 -0.7908048 0.50525373 -0.23083417 -0.057206668 -0.48942012 -0.3794588 -0.6849758 -0.60782075 0.041362897 0.75580215 -0.64776504 0.32319203 0.43503797 -1.4828916 0.029423522 -0.12386242 -0.08739504 0.5819024 -0.6287595 0.6722978 -0.13369496 -0.7043383 0.08402054 -0.5122497 0.27139348 0.015769731 -0.5847553 -1.2085239 -0.25029236 -0.06405009 0.023700397 -0.7419548 -0.63251626 -0.9950618 -0.33549067 -0.3375673 -0.19618243 -0.07759444 0.16668661 -0.33346522 0.08887644 -1.3698723 0.18136911 -0.22671795 0.81962353 0.666512 -0.6491362 -0.1312834 0.713169 0.21880445 -0.29369265 -0.20509769 -0.06009846 -0.8012448 -0.65008026 -0.9790514 -0.31312814 0.044148814 -0.3523437 0.31712168 -0.26723388 -0.33128864 -0.37450045 -0.010832598 0.6518064 -0.36669347 -0.0024145448 0.21282896 0.020438438 -0.5604845 0.66295254 0.30851397 -1.1405367 0.7092654 0.3381219 -0.66653055 0.620829 -0.09305808 -1.100692 -0.21669911 -0.18272293 0.13585766 -0.91032326 -0.18892014 0.28083077 -0.7918585 0.4012122 -0.6044757 0.64909345 0.11472819 0.37292868 0.6788488 -0.5505434 0.35894653 0.55028933 0.05714097 0.16767062
715 0.85541266 0.49074486 -0.578942 -0.21992768 0.10401637 -0.9084999 0.3105394 0.6364323 0.22062173 -0.3319865 -0.2651058 -0.18628237 -0.5292482 -0.7857737 0.057862177 -0.80760336 -0.40447506 0.09924419 -0.070270136 0.103720754 -0.64558375 0.13268712 0.46454176 -0.07613605 0.009701142 0.06630668 0.2609022 0.27283773 1.5085901 0.5111839 0.5546038 0.10184697 0.18803188 -0.59024704 -0.0744631 -0.14144765 -0.21077982 0.15124169 -0.44332585 0.11918413 -0.55926186 -0.13803193 0.35770968 0.38089305 0.13396172 -0.4539088 -0.05304788 0.50347316 0.15245637 -0.6730387 -0.26477495 0.068201646 -0.6160371 0.041773032 0.20886892 -0.58121634 0.8146641 0.10394144 0.24110588 -0.6177164 1.4328759 -0.088658705 -0.17208771 -0.9952812 0.32798183 -0.35407025 -0.08342114 -1.1851634 0.7110744 0.37371713 -0.28164607 0.059397947 0.23786123 -0.05276231 0.44811526 0.2666621 -0.060722105 0.25230417 0.5860209 0.20085491 -0.6875329 0.1386618 -0.44256276 0.6668571 0.089612395 0.2930182 -0.12865892 0.71890587 -1.0446227 -0.93745667 0.7897422 0.15758441 0.39593595 -0.31479788 0.01688802 -0.8332684 0.5804641 -0.2624509 0.08767517 -0.5895645 -0.59472805 -0.25748807 0.24668375 -0.30460432 0.054893345 -0.32686216 -0.6125217 0.55782825 0.2073942 0.16112435 -0.1758483 -0.77618337 -0.7821703 -0.6430943 0.15817833 0.95204866 -0.7169992 -0.18874556 -1.2600849 0.43682498 0.23031975 -0.17740501 -0.46048126 -0.16687077 -1.0860481 -0.06269943 -0.40900385 -0.38504803
645 0.5137756 0.088934205 -0.3883157 -0.3777685 0.75108 0.013203579 0.55283576 0.7892819 -1.1989703 -0.49322 -0.08855875 -0.113990515 -0.8216323 -1.1456527 -0.2173763 1.0733378 -0.74381614 0.9634035 0.28301677 0.2673468 -0.47019982 0.006946851 -0.64189273 0.57577986 0.85984427 -0.009091408 -0.13818593 0.5543324 1.2055743 0.33281744 0.40231946 -0.7115942 0.65689903 -0.91594756 0.73314226 -0.85795176 -0.24422494 -0.29289484 0.014474965 0.055813983 -0.6489572 -0.7528732 1.3426379 0.655364 0.11143849 0.027614389 0.12669393 0.011246104 0.22910202 -0.17596908 0.04685548 -0.47130108 -0.52820456 0.60882145 -0.6589581 -0.48820248 0.29417723 -0.45617446 0.12677844 -0.5461259 0.8640289 0.40649584 0.4000558 -1.4312129 -0.3242056 -0.50409 -0.18848325 -1.0537832 0.31097117 -0.19497465 -0.32774198 -0.14554411 -0.5817233 0.7687859 0.094555214 0.49103275 -0.1379064 -0.35381883 0.8389579 -0.05240317 -0.037255023 0.16735344 0.3780775 0.009508173 0.6669675 -0.29383862 0.6747382 -0.019905603 -0.5973601 -1.4038498 1.2292913 -0.13455434 0.1963963 0.17402361 -0.47550812 -0.6259398 0.03617562 -0.1127655 -0.17676544 0.31124732 -0.8696223 0.107348815 0.28635705 -0.04599737 -0.11780391 -0.018426001 0.015098122 -0.5215471 -0.094361 -0.0072417036 -0.41870826 0.056073498 0.038351487 -0.46494514 -0.30150095 0.19112074 -1.043495 0.37353975 -0.24279927 0.3638444 -0.21956548 -0.64882976 -0.42073077 -0.051995188 -1.444771 0.037850976 -0.20812097 0.18083538
988 -0.7290595 0.5916635 1.3303415 0.26201242 0.09842327 -0.50970834 -0.46085635 -0.12816621 0.3278832 0.3007995 -0.33494884 -1.1676326 0.33251137 -0.4986679 0.08007246 0.113069914 0.012731913 -0.44477844 0.626488 -0.1917879 0.07308919 0.4809445 0.38975826 -0.24943422 -0.1641949 -0.12699726 -0.18544419 1.0545326 0.5322366 0.14532395 -0.581673 -0.50378895 0.032418866 0.058858052 -0.335799 -0.37420338 0.07107056 -0.05349245 -1.0024977 -0.27821708 -0.6896428 -0.42818326 0.42934874 0.28777623 0.4781468 -0.42936602 -0.09439774 0.2527646 0.29265398 -1.0748937 -0.2721715 0.26866528 -0.6932295 -0.37401012 -0.3215428 -0.050587673 -0.09137218 0.6568471 -0.62220293 0.86640334 -0.00088716735 -0.17185917 0.28207904 -0.4969692 -0.95905375 -0.1422316 -0.55627793 0.13377576 -0.20999107 -1.1366132 -0.041333485 0.07265186 -0.76649046 -0.09472437 0.8670162 1.0601785 0.7251132 -0.9225753 -0.107259415 0.18700002 0.76513505 -1.0707695 0.9512633 0.659809 -0.053997293 0.108264506 0.017341949 -0.15147422 0.2909976 -0.7438817 0.75526226 -0.23384616 0.5599171 0.21051328 -0.07669776 0.2595258 0.43898186 1.3096852 -0.6740686 -0.7392984 0.021466631 -0.17775558 0.20054045 0.10588789 0.8638545 0.9532579 -0.56082207 0.030510169 -0.6935486 -0.42702407 0.24738248 -0.1727741 1.0799739 -0.48544535 -0.21491219 -0.26345584 -0.0835666 -1.2112379 -0.13393107 -0.26952496 0.44037747 0.116570674 -0.05755772 -1.2716712 0.19563405 0.42092252 0.6961527 0.47635603
1016 -0.1452646 -0.30040348 -0.6172877 -0.8499759 -0.0402892 -0.47756603 0.8937129 0.085993305 -1.451865 -0.55092454 0.3941111 0.54711413 -0.20903948 -0.52180386 -0.38347766 -0.07844353 -0.1638062 -0.21982583 -0.7174023 -1.5486811 -0.23584116 0.5239415 0.07219296 0.07463749 -0.6603317 0.70233643 0.4591079 0.40842396 0.7250592 0.5800357 0.61376035 0.4151277 0.15937501 -0.010656137 0.007919445 -0.56610435 0.23279086 0.29187244 0.20110953 -0.3117674 -0.11854499 -1.3749697 -0.05107492 0.06591797 -0.1429277 -0.1870125 -0.56157464 0.15500285 0.30529702 -0.8941119 0.24207848 -0.23021781 -0.28763428 0.12630527 0.6064566 -0.36023214 0.9624418 0.30492166 -0.4906866 -0.30390608 1.3064238 0.53928953 -0.36010438 -1.0510374 0.04245667 0.34555325 0.3283152 -0.10746597 0.20377664 0.03766796 -0.35396394 0.07400176 -0.083884805 0.935708 0.6109709 0.38432145 -0.16307017 -0.27237698 -0.43824294 -0.3155298 0.32237235 -1.0570459 -0.24209276 -0.08032129 0.4335334 -0.43005663 0.9940556 0.47502533 0.14287995 -0.6709097 0.6585747 0.22193532 0.5744508 0.87033856 0.88620526 0.5132741 0.460661 -0.44129902 0.13286519 -0.45359027 -0.61556584 -0.074615054 -0.14343616 -0.27927572 -0.13216934 0.8259828 -0.05626655 -0.23070616 0.3401493 -0.5900138 -0.5237083 -0.78563106 0.2850733 0.12484765 0.19060464 0.100630164 -0.710783 -0.16608882 -0.52697235 -0.1538541 0.8669487 0.12841453 0.37269747 0.6122155 -0.40223327 0.0117195 -0.40187904 0.17987522
725 -0.62051666 -0.25344658 -0.16999902 -0.9537136 -0.008539437 -0.6258106 0.0138839055 -0.38596565 -1.4006064 -0.040512864 0.2743297 0.17564526 -0.52179646 -0.5536106 -0.29213887 -0.31440362 -0.061011005 -0.18773772 -0.33320603 -0.8856719 -0.12174977 0.37098613 0.3434822 0.3230612 -0.50353414 0.94860387 0.32905537 0.3535049 0.48807594 0.3554694 0.92287236 0.7340442 0.11605536 0.15567665 0.1014964 -0.2550694 0.38478246 0.21515663 0.15173756 -0.23468255 -0.5016578 -0.39176506 -0.9699098 -0.061753567 -0.06464164 -0.5935885 -0.13811174 -0.07147437 0.55493975 -1.0950719 0.17814939 0.12431045 -0.12777382 -0.29331717 0.4197303 0.094814874 0.9768445 0.33384117 -1.4177938 0.12240652 1.5433297 0.103937015 0.1134145 -0.9229003 0.38920403 0.37461498 0.48613188 -0.12025059 0.49938112 -0.35919783 -0.55984807 -0.28468695 0.39303857 0.6487309 0.6419448 0.0015800608 -0.17428015 -0.5077491 0.39961177 -0.6408444 0.21630658 -1.132325 -0.050869707 0.27178103 -0.21196982 -0.80664384 0.4122308 0.3275925 0.3862579 -0.8958132 0.39073357 0.034833584 1.1427346 0.9749151 1.0883998 0.65462613 0.6411262 -0.38632578 -0.26234815 -0.5208131 -0.8647205 -0.09947913 -0.13218498 0.30525848 0.10687151 0.8502413 -0.22343226 0.16311198 -0.11205343 -0.64791596 -0.50163037 -0.15529117 0.62549 0.11437889 0.12448655 -0.0044672806 -0.66364545 -0.5101231 -0.14104754 -0.19536328 1.0270262 -0.09097641 0.3644174 -0.14954588 0.12132018 0.34531718 -0.081810795 0.44436973
572 0.2721977 -0.90346944 -0.5441258 -0.37180927 0.050568603 0.16593258 0.9499541 -0.23712833 0.32981575 -0.6505357 0.36014813 0.5010695 -0.72359157 -0.13771792 1.0464354 0.35562012 0.19014235 0.2669024 -0.24571957 -1.0196325 0.1498496 0.4914581 1.0583253 0.4072445 0.30131406 0.07175417 -0.2619581 0.76694757 0.7921404 0.41532263 0.2934871 -1.1300032 -0.07536121 -0.12734511 -0.13236865 -0.5663906 1.5230258 0.39078715 0.656276 0.5607851 0.077695295 0.06951243 -0.47465014 0.6886313 0.9474194 0.5670185 0.23766378 0.43994647 0.74764234 -0.47845188 1.117386 0.5983823 0.20379755 -0.8842601 -0.19328997 -0.24105187 0.3562134 -0.4746443 -0.010048083 -0.24833818 0.43091914 -0.25561637 -0.16241786 -0.70668167 0.34890723 0.69804513 -0.24839208 -1.1236 0.6781043 -0.029597653 -0.8480557 0.35944173 0.7429946 0.14466481 0.1672854 0.46719158 0.6740755 -0.73488694 -0.474079 0.03550497 -0.32614097 -0.018366622 -0.32602483 -0.47838572 -0.5327604 -0.17841123 -0.21773976 -0.092428684 0.52062476 -0.63911986 0.12929377 -0.2146681 0.61639124 -0.095014594 -0.10024357 0.24116582 0.4552002 -0.059684593 -0.1014637 -0.17032163 -0.74725264 -0.58507514 0.2609607 -0.52915657 0.3704597 0.5640775 0.082784906 -0.88262135 0.043364104 -0.5151184 -0.28912604 -0.32606813 0.067892194 -0.65161014 0.7539208 0.3499011 -1.0744507 -0.19092269 0.48211974 0.19513354 0.13540207 0.18308382 0.21178348 -0.2858018 -0.39476192 0.29068875 0.102441154 0.47528267
1990 0.4435463 0.4157767 -0.011096843 -0.28729966 0.7954974 -0.11289965 0.0074364743 0.53909254 -0.42035013 -0.4702793 -0.37945333 0.17007129 -0.065798566 -0.19612637 -0.37648913 -0.24063519 -0.10950475 -0.38442066 -0.5866102 -0.14245202 0.09267691 0.55895877 -0.010680899 -0.79034865 -0.33138403 -0.13827622 0.050816018 0.73125184 1.058692 0.05324525 0.19998297 -0.33935314 -0.42263815 0.78215444 0.18859947 0.42661732 -0.2419099 1.5590447 0.3376132 0.34618548 -0.24099442 -0.3100238 0.18300438 0.25273547 -0.5842952 0.15780067 -0.31283388 -0.14567481 0.60852295 -0.5452691 0.6878548 -0.56498265 -0.37040785 0.36349472 0.4843968 -0.18273185 1.3736647 -0.0073687984 -0.9619479 -0.110075586 1.005189 -0.0855567 -0.36644647 -1.014385 -0.5037005 0.8216352 -0.32292622 -0.21229026 0.22321159 0.4249295 -0.18428206 0.5613469 0.5276409 0.08258638 0.7918923 0.3452701 -0.21785992 -0.14695942 -0.66614234 -0.17181343 0.0054589817 -0.46279618 -0.25632948 0.15394853 -0.6863181 0.27350459 -0.3831264 -0.37786946 0.6685567 -0.32017812 0.1600754 0.07605648 0.63954085 -0.32892314 0.5729027 -0.3911747 0.56245935 0.81011873 -0.45785728 -0.25626075 -0.8052719 -0.4123667 -0.05311433 -0.08624018 0.7753774 -0.44531226 -0.13222715 0.4042829 0.6612973 -0.6833027 -0.2080832 0.19018313 0.88919634 -0.8032152 0.29490125 -0.4351825 -0.36152944 -0.3390574 0.051382963 0.10343081 -0.37929994 1.0108652 0.8868175 -0.31447193 -0.21788551 0.5067283 0.33029953 0.56753916
1475 0.013027101 -0.15333168 -0.21281523 0.22827768 -0.1061886 -0.42898917 0.6550663 -0.19741912 -0.10100173 0.47862267 -0.021092843 -0.39252546 -0.36440578 -0.19263871 0.116013646 0.15701106 -0.23186098 -0.12233069 0.5900492 -0.25661793 -0.43055764 -0.14892288 0.2392133 0.46469906 -0.70616037 -0.24802189 0.5086544 0.7620604 0.31568885 0.010773794 0.39358717 -0.40962824 0.06691793 -0.84866965 0.032197036 -0.8422324 0.40377894 0.011812402 0.09798446 -0.31258678 -0.5698919 -1.2303512 -0.080818236 -0.41663885 0.22907436 -0.004314897 -0.7742048 0.8890917 0.32630157 -1.1874295 0.9143189 -0.6437584 -0.1753699 -0.0027364516 -0.14532673 0.22524296 -0.15196645 -0.2553068 0.53346497 -1.6962774 0.22066246 -0.6218119 -1.0997579 -1.016689 -0.72714555 -0.529369 0.1420408 -0.20598696 -0.7503709 -0.8646794 0.58544797 -0.22195287 -0.40694275 0.36296266 -0.8808593 1.1414148 0.009613864 -0.26268318 -0.35205206 0.41424567 -0.7272251 -0.19830705 0.17036387 -0.28232792 0.16098289 -0.3039214 0.42742553 -0.7595141 0.7368946 -0.6243318 -0.33978266 0.2399353 0.21029635 -0.31198642 0.77633345 -0.24546142 -0.269161 0.80558616 -0.18523428 0.07936429 0.02480507 -0.05817213 -0.37762806 -0.37880686 0.3141002 0.49230814 -0.6783047 -0.25864083 -1.1411282 -1.0227041 0.18822013 -0.6680507 0.37632403 0.39392182 0.4925731 -0.5980038 -0.09774715 -0.0895835 0.3792371 0.56546724 -1.1684427 0.9714925 0.033139788 -0.03336148 0.23477007 0.21514131 -0.13433133 -0.261702
824 0.26242504 -0.25458398 0.33044115 0.16453306 -0.4820446 -0.25574717 -0.07770679 0.1607856 -0.03968147 0.41042274 -0.29968682 0.25164688 -0.29778272 0.0099514015 0.5493216 -0.39051768 -0.5540707 -0.33081508 -0.016913908 -0.9793851 -0.33465987 0.9578186 1.0588903 -0.38256 -0.57936025 0.09290433 0.060317785 0.32201892 0.5415362 -0.0055263434 0.2728299 0.26666164 0.19424169 -0.65090233 0.12442075 0.049606103 -0.058434874 0.23892401 0.34746328 0.46742904 -0.22294974 -0.5915239 -0.46800497 0.19158927 -0.044083346 -0.2911344 -0.7068187 -0.2872555 0.7636864 -0.43424305 0.54657364 -0.09335012 -0.12576994 -0.5789308 -0.50984234 0.22964792 0.4668036 0.6348817 -0.527926 -1.8372473 -0.06614237 -0.31070125 -1.0713769 -0.7193683 -0.9176103 -0.20995879 -0.2486232 -0.7004015 -0.15965553 -0.9370467 -0.05251568 -0.3852043 -0.40525466 0.169622 -0.66626126 -0.17274255 -0.2062262 0.06606907 -0.5428164 0.08782254 -0.027549066 -0.055793434 -0.5119082 -1.0031215 -0.059233733 -0.49743098 0.5638911 -0.16010275 0.1729409 -0.41379148 0.5743106 0.35364974 1.1434517 0.09056375 0.5743289 0.16429703 -0.16488342 0.7237002 0.7300187 -0.32320195 1.0598986 0.16662006 -0.21195106 0.2792923 0.42895266 -0.051187642 -0.11033235 -0.42791307 -0.4381736 -1.260822 0.16662401 0.41085228 0.86106944 0.66698253 0.22761433 -0.70594704 -0.5724388 -0.98939836 0.45036757 0.22410838 0.5362583 0.71958953 0.9221854 -0.285247 0.48040512 0.67126477 -0.23798227 -0.07269537
2066 -0.6774657 -0.5140998 -0.1669068 -0.6081237 -0.26135325 -0.6662588 0.7195737 -0.6628066 0.5561305 -0.23439509 -0.14415282 0.3996655 -0.13707034 0.21409062 0.11184088 0.020483881 0.19860199 0.441707 -0.26840794 -0.23240413 -0.4453525 -0.17144695 -0.08077485 -0.7947318 0.37918928 0.5921167 0.00012804077 0.44758162 0.8728907 0.2903444 0.047686614 -0.7467001 0.5424607 -0.054376855 -0.087335154 -0.6068589 -0.4022823 0.4889354 -1.1101503 0.7532052 0.19350272 -0.05814272 -0.3655428 1.1861227 -0.51454586 -0.30741048 0.046839233 -0.90408343 -0.36187395 0.3722455 0.121712774 0.31396815 0.12239198 -0.026090417 0.13752884 -0.8468136 1.2070259 -0.3856739 0.07688195 0.25676402 0.21638535 -0.33810398 -0.560702 -0.95720935 -0.41130167 0.556757 0.33677098 -0.31169167 -0.51304704 -0.24869056 -0.47330296 -0.10401962 0.43043625 0.39512137 0.34202772 -0.11156418 -0.11566508 -1.3097645 -0.3783667 1.212912 -0.6512136 -0.17281023 0.4179713 0.2728746 -0.10282459 0.47607437 -0.27434993 -0.791298 0.12080396 0.23647524 0.03357298 0.002819874 0.07248534 -0.1673476 0.5206472 -0.8472321 0.724275 -0.39485428 -0.21154407 -0.15225878 -0.30909163 -0.5334755 -0.08587559 -0.66987884 0.6874679 0.43949422 0.006808933 0.5833 -0.6612277 -0.006403627 0.52698076 0.22208595 -0.042977367 -1.1632729 -0.28589565 0.5773895 -0.35817063 0.3523036 0.102171786 0.20182107 0.86849844 -0.07281473 0.81009185 -0.9227502 0.2872845 -0.0136901885 -0.5834755 0.24343593
1832 -0.56511825 0.19746451 0.48812062 0.255748 -0.116955355 -0.958165 -0.34344158 -0.27700475 -0.37441155 0.39263928 0.04658559 -0.88409364 -0.33874217 -0.42478994 -0.9761906 0.23161544 -0.12849326 -0.16077712 0.14488196 0.011067582 0.22599415 -0.06513386 -0.06412636 -0.6271314 -0.5004843 -0.11453496 0.6232525 0.75281835 0.5985951 0.8786168 0.055107027 -0.768318 0.46167785 -0.089788824 0.22625461 0.16324121 -0.7645781 -0.14316662 -0.20177412 -0.83214355 -0.7290653 -0.56672853 -0.1041778 0.17909162 -0.14749229 -0.42662746 -0.8833332 0.042285245 0.48036796 -1.005483 0.41377437 -0.008867746 -0.41318884 -0.5502821 -0.30901757 -0.624837 0.41052973 0.13893646 -1.6063901 -0.1630015 -0.30758262 -0.14267796 0.0024921373 -0.07277339 -1.179154 0.07159756 -0.40706137 0.21941628 -0.50961584 -0.74122673 0.18545906 0.15433276 -1.1253073 0.51485735 0.90423024 0.252102 0.07782431 -0.2645715 0.20909064 -0.31765682 -0.5910653 -0.6563618 -0.54479945 0.9292443 0.5600825 0.34315324 0.2729643 -0.52881634 0.06789257 -0.44137743 0.3728173 -0.33193156 -0.17144309 0.7249405 0.64952546 -0.30869383 -0.06864789 0.7972706 -0.66857797 0.0733458 -0.014377926 0.91503173 0.31807095 0.066042595 0.8842382 1.1332139 -0.06797454 0.29935825 -0.17368655 -0.15295322 -0.29211572 0.33947656 0.34482238 -0.24542107 0.16485827 -0.16571106 0.6358792 -0.971136 0.26715752 -0.058475535 -0.5300192 0.59264493 0.0028783649 -1.1166338 -0.030980956 0.41441515 0.3917065 -0.11764884
748 0.7707958 0.6722793 -0.20612024 -1.3516992 0.37079352 0.21131371 -0.51949567 -0.30557755 0.4994242 0.7151458 0.22613609 0.12984022 -0.2642943 -0.120921314 -0.11348909 -0.39431235 0.0907372 0.46628878 0.25680375 -0.024129614 -0.1887519 0.19395892 0.5718553 -0.057942513 0.4110895 0.7928355 -0.47333595 0.09824158 0.7128762 -0.19169965 0.632512 -0.104985975 0.4773939 -0.46663123 -0.06686142 -0.8098252 0.03508069 0.19284037 -0.41680256 -0.081626885 -0.8753047 -0.4015332 0.32871118 0.04377379 -0.11894227 -0.47699198 0.6155679 -0.17152977 0.5704018 -1.0151192 1.0224289 -0.059255812 0.65110797 -0.19916667 0.25996146 0.93417776 -0.29957813 -0.5790807 -0.5330093 -0.7370088 0.7186256 -0.59112984 0.061601363 -1.1178873 -0.05512439 -0.039532896 0.28609228 -0.58520085 -0.0468412 0.45006275 -0.59975713 -0.33857176 0.24676447 0.7138872 0.047490157 0.53388053 -0.43744966 -0.23006327 0.756846 -0.74677813 -0.028348004 -0.59493756 -0.5060972 -0.10916704 -0.6422494 -1.2683438 -0.9618259 0.33193085 0.95200336 -0.87455356 0.762424 0.15518174 -0.02227698 0.42553738 0.08713011 0.47747934 0.16572902 0.6436625 -0.8022741 -0.17180483 0.29919273 0.14982295 -0.63425386 -0.35864356 -0.03016824 0.27096507 -0.5804541 1.0793558 -0.4901663 -0.8543233 -0.15057382 0.02465565 -0.13275215 0.10053688 0.7216304 -0.13104126 -0.6844398 -0.16152532 -0.06275074 -0.17179647 0.037894707 0.5516893 0.04573852 -0.32199907 0.086758874 -0.15410896 0.31221324 -0.15130697
1288 -0.25553218 0.39802334 0.4712848 0.23641048 0.43717518 -0.4259638 -0.21270621 -0.028027914 0.27057147 -0.060667455 -0.83457553 -0.67282903 -0.41769546 0.23909278 0.13223323 0.16987003 -0.28028956 0.16846104 0.28954285 0.14463988 -0.27255982 -0.73846376 -0.53330237 0.35219744 0.6723576 0.38771138 -0.45243675 0.058584493 0.08677373 -0.007832933 0.48440647 -0.19486837 0.46045172 0.34797752 -0.6544848 -0.25132746 0.531544 0.22726497 -0.979655 -0.5439163 -1.2095495 -0.469901 -0.5477577 0.2860808 -0.52987754 -0.08554069 0.1903483 -0.24596308 0.14243905 -0.21513045 0.43193257 0.49953538 0.39321852 0.5008417 0.25240195 0.070070416 -0.0715417 -0.20537308 -0.15204673 0.30312297 0.3447936 -0.30058205 -0.5112764 -1.2375324 -0.69977593 0.5077783 0.07458586 -0.17952801 -0.27154055 -0.5046516 -0.4793032 -0.6893197 0.2159927 0.5310223 0.45087308 0.13181996 -0.33801937 -0.28160495 0.044622894 -0.36097202 0.050987806 -0.2646054 0.8100309 -0.08999272 -0.5765933 -0.3260523 -0.83613324 -0.83310896 0.09574986 -0.7026155 -0.439073 -0.041154813 0.28332716 0.5207238 0.9667554 0.08969391 -0.4224769 -0.035663523 0.18435891 -0.8825592 -0.25731078 -0.28940222 0.18365073 -0.5463951 0.7891918 0.70898974 0.024355514 -0.26315624 -0.68088996 -0.91959405 0.2826826 0.2753399 0.79788065 -0.16103517 -0.7120115 0.90141356 0.36951923 -0.12628283 0.38312826 0.15356854 0.40212575 -0.26064745 -0.45209917 -1.0934502 0.82864696 0.1388291 0.99494374 0.4001118
2017 0.81285113 -0.8568855 0.28043893 0.7924346 -0.5466702 -0.057566006 0.338203 0.017993953 -0.27067506 -1.3047023 -0.5903692 -0.6019719 -0.74643224 -0.23797007 -0.16185282 0.94415045 -0.85684574 -0.2693603 -0.13160637 -0.1764904 -0.5231301 0.08488125 0.7304237 0.28250504 0.077784635 0.135353 -0.03871813 1.0637453 0.7294757 0.41406128 0.1265625 -0.64750993 0.5728665 0.50201255 -0.03256256 -0.14860918 -0.01842725 0.6527287 -0.25339994 -0.559572 -0.35006785 -0.046298604 0.13630433 -0.15164326 0.072425514 -0.7141657 0.16720691 0.22550786 -0.24391891 -0.47836262 0.30148852 0.44171384 -0.41051418 0.0018095345 0.126311 0.22811675 0.7621695 -0.5818579 0.061199836 0.49067086 0.8198039 -0.074414335 -0.7408624 -1.1297666 -0.38927594 0.52692914 0.566494 -0.46494937 0.013048637 -0.67557913 -0.3426296 0.26240256 0.5931375 0.035044808 0.06000632 -0.35958624 -0.6965007 -0.17348231 -1.3961895 0.123358876 0.54196566 -0.21302387 -0.63141966 0.36356896 -0.07957791 -0.28632364 -0.14203429 -1.0599167 0.56159854 -0.033687603 0.13022318 -0.0026404 0.32112703 -0.75819135 -0.4630667 -0.52040255 0.044324305 0.3723191 -0.8225308 0.10523241 0.18738134 -0.16267629 -0.58240616 -0.47464883 0.847854 0.44506103 0.3348232 -0.21729457 0.21831316 -1.0675188 0.12192887 -0.27355403 0.7303977 -0.71140534 0.6987384 -0.109408155 -0.530842 -0.6784832 0.072396204 0.16735101 -0.09163402 0.70564145 0.10083234 -0.66401297 0.23421824 -0.21095444 -0.15736511 0.714313
534 0.5721661 -0.08376954 0.84119606 0.59583193 -1.1453017 0.19621277 0.55123276 -0.26529935 0.97438926 -0.6096745 0.06556262 -0.8407917 -0.823744 -0.35096484 0.0081802765 1.1042948 -0.75463736 -0.44216734 -0.40172583 0.33063346 0.32075423 0.6724163 0.02553941 0.34261075 -0.11007475 0.09977257 0.591693 0.40823567 0.30340508 0.23510808 -0.21647559 -0.80450577 0.62882787 -0.4487739 -0.6808997 -0.23669152 0.025610844 0.044567365 -0.2958271 0.18709853 0.22092775 -0.62444913 -0.026861595 -0.19276139 -0.026373513 0.07805238 0.0014877807 0.7173603 0.4450744 -0.44649014 0.6206204 0.24794835 0.099090144 -0.72210586 -0.23053655 -0.024677102 0.27414393 -0.65476304 0.2518314 -0.2641682 0.74823517 -0.17761119 -1.1750381 -0.5375518 -0.52901727 0.37584192 0.3186207 -0.98445934 -0.11120815 -0.7441555 0.02840318 -0.005036766 0.31504846 0.028054764 -0.88799393 0.4918399 -0.2973749 -0.059356906 -1.5272939 0.34782487 0.30413532 -0.33822817 -0.2421675 -0.071854554 -0.24287684 -0.40097702 -0.5039302 -0.22426535 0.45408258 -0.66725034 0.19316956 0.12482805 -0.19517258 -0.36407998 -0.5413216 -0.1698791 0.4764242 0.37209743 -0.17359866 -0.6460499 0.7072538 -0.61696094 -0.8122292 -0.9477261 0.8255706 0.9236719 -0.22359796 0.19719858 -0.17773548 -0.24100621 -0.12521264 -0.56151384 0.32896426 0.012552422 0.36375806 0.42276305 -0.15773587 -0.19618425 -0.30782244 0.29552966 0.088618435 0.41820264 0.13073601 -1.6668639 0.06856211 0.2344881 0.8775092 0.29684907
482 -0.4144437 0.6143025 0.7351091 -0.29998454 -0.21090299 -0.79032433 -0.4599981 -0.06490006 -1.0413791 0.37776613 -0.06721735 -0.6066433 -0.19892319 -0.76030713 -0.5904936 0.18991455 -0.30032352 0.21766318 -0.26266497 -0.15137061 -0.44987866 -0.36481026 -0.86383796 -0.15283528 -0.13898288 0.32986268 0.6222085 -0.0028982246 0.34310442 0.18411523 0.97629124 0.04103583 0.85052896 -0.0733399 0.19199102 -0.5747697 -0.24473524 0.16458304 0.29495183 -0.66240394 -0.462144 -0.9505113 -0.14413404 -0.53239226 -0.33623227 0.14759101 -0.18833342 -0.71180147 0.10413843 -0.7463716 0.64575934 -0.6504124 0.8964647 -0.99313456 0.011647719 -0.11252849 -0.15322706 -0.6599312 -1.1735159 -0.4772618 1.338284 -0.014951628 0.07177011 -0.45254728 -1.316247 -0.23587994 0.28946963 0.3029836 -0.2998521 0.4519433 -0.684962 -0.21688041 -0.5971121 -0.13007729 -0.45781165 0.55887973 -0.27214366 -0.5777117 0.16219768 -0.12688069 -0.09499476 -0.66103774 -0.0371144 -0.13273346 0.56414026 0.053302452 -0.5754936 -0.48665065 0.24081758 -1.2978497 0.5120533 0.23762807 -0.29053327 0.6954611 -0.058608003 0.13671647 -0.11684718 0.4599837 -0.064320765 0.6232633 0.30087873 1.0598112 -0.16405044 -0.6009283 0.41019347 1.0537343 0.27138808 -0.12745722 0.122420944 -0.44095492 -0.013449474 0.14439449 -0.58771515 -0.38250482 -0.28942358 -0.10530356 -0.0152355 0.059057903 0.14051233 0.15020356 -0.01753238 -0.116986655 -0.20376243 -0.86539656 0.12639228 -0.33618203 -0.12557994 0.047369316
485 0.4713201 0.47888976 -0.46262768 0.10277923 0.1913441 -0.5443219 -0.08374224 0.16319378 -0.33192483 -0.25469974 -0.154122 0.12662485 -0.62487775 -1.2518522 0.29763424 -0.5048931 -0.07564948 0.028023575 -0.06526109 0.034614716 -0.3383656 0.45283523 0.2633704 0.09063677 0.044576317 0.090936124 -0.54353917 0.22136115 1.4306773 -0.07344578 0.5103195 -0.0017811968 0.2437373 -0.7235817 -0.023392815 -0.7637903 -0.25270212 0.012128539 -0.14273511 0.058746994 -0.7641551 -0.4466748 0.71389705 0.56362957 -0.3557681 -0.075983234 -0.37906224 0.24639389 -0.259473 -0.4828703 -0.34273002 0.21720067 0.14868559 -0.78584963 0.07949599 0.18419893 0.8629415 -0.15388389 0.11612987 -0.7455449 1.4705838 0.37123474 -0.23970899 -1.0853796 0.012148167 -0.44831854 -0.4396218 -0.8120592 0.45793492 0.6148743 -1.2588873 0.2174222 0.6950364 0.06284939 0.31599164 0.35117924 -0.308777 0.097540826 0.2692181 0.27999508 -0.4498337 -0.40225136 -0.4794092 -0.7124422 0.33427265 0.3508123 -0.69070554 0.8063694 -0.32271302 -0.86407447 1.0048009 -0.48333228 0.6635968 0.08248397 -0.26324433 -0.039699666 0.7769002 -0.7047386 0.37619552 -0.8348276 -0.28379887 -0.36876857 0.08494588 -0.6188546 0.12964736 -0.038288333 0.08344726 0.16300613 0.24746838 -0.07220941 -0.017899144 -0.8601439 -0.52902085 -0.4742565 0.07821315 0.24593334 -1.170629 -0.013963193 -0.38038996 1.114821 0.36610007 -0.265446 0.19051939 0.07677535 -1.0368443 0.08787335 0.22513394 0.5530753
668 -0.19495746 0.105706476 -0.012010452 -1.1020579 -0.09690166 -0.95620257 -0.06431402 -0.2851841 -0.49562672 -0.5147351 -0.18679987 0.6488299 -0.52911985 -0.1534055 -0.25673774 -0.4700291 -0.18361385 0.113722116 -0.5020901 -0.8716021 -0.15319279 -0.51603806 1.0077629 -0.75773484 -0.48004353 -0.46332163 0.04107361 0.075554974 1.1978223 0.22525394 0.12405313 -0.9259822 0.22925676 -0.5883785 -0.12730107 -0.08917354 0.07851072 0.40376234 0.16447611 -0.69061005 0.26172778 -0.79426235 -0.578833 0.86864805 0.17333286 -0.30721283 0.0042820624 -0.060799617 0.61031854 -0.39854133 0.7662515 0.28538927 -0.29658863 0.25351813 0.7092397 -0.32803276 0.5540191 -0.4707029 0.5136857 -0.16434403 0.930726 -0.7236547 -0.3444021 -0.7542011 -0.4690341 0.3733607 0.051665757 0.25784245 -0.31246376 0.60076416 -0.14265387 -0.04206405 -0.00068963936 0.8632005 0.081333406 0.1476319 0.21204287 -0.80409473 -0.6471345 -0.109859236 0.36686763 0.3363036 -0.7254086 0.122612976 0.13097678 0.36183 -0.27667674 -0.14523326 -0.38185146 -0.8596786 0.9860257 0.6736509 0.5640092 0.07013573 0.45318505 -0.22896294 0.7514892 -0.56784266 0.8416257 0.23467496 0.41601157 -1.0011463 0.7296904 -0.5385198 0.8291805 1.1611567 -0.16383156 0.3079733 0.14406413 -1.14976 0.08179177 -0.33099025 -0.37003884 -0.48210004 -0.39977524 0.5392826 0.23289862 -0.13716279 -0.7275672 0.09809168 0.5754441 0.13475767 0.106007196 -0.31996492 -0.0023076138 -0.042687092 -0.17898208 -1.0588315
342 0.06868535 -0.2524462 -0.73273605 0.021805607 0.3161045 -1.2209271 0.6413361 0.19081177 0.18036138 0.5800497 -0.11257663 0.41853395 -0.9694371 -0.403611 0.34321758 0.88946575 -0.34641406 0.42159432 -0.61488104 -0.9221631 -0.62846744 0.02784458 -0.47593153 -0.5247599 0.31683984 0.2902939 -0.008773788 0.3338491 0.36297843 1.3245666 -0.24062556 -1.0081409 0.8541243 -0.38095984 0.30113563 -0.87983817 0.3646381 -0.078997 -0.033564318 0.017051483 0.026551658 -1.0849277 0.44399416 0.5698453 0.4207594 1.1456449 0.10545899 -0.14323407 0.37575743 -0.22630799 0.88960487 -0.07098523 -0.52070063 0.5615628 -0.22360696 -0.64855754 -0.33389595 -0.315946 0.6331341 -0.40958375 -0.17740746 0.094452955 -0.24391592 -0.47767198 -1.1294085 0.03315255 -0.20704305 -0.8483347 0.3112342 -0.06636901 -0.2190262 -0.022459019 -0.34691134 0.3372692 -0.6506395 0.7612676 0.92392236 -0.5284066 -0.7413581 0.53857684 -0.5715617 -0.18685797 -0.24417219 0.16091576 -0.5743835 -0.30936813 -0.17429817 -1.5464727 0.6862253 -0.9880059 0.24931206 0.027938802 -0.0002851006 -0.35653704 0.11089138 -0.20292984 -0.13437879 0.1804788 0.22620381 0.6258273 -0.10407967 0.6877924 -0.124685235 -0.5011879 0.6834486 0.7876698 -0.23988193 -0.18930933 -0.2199029 -1.0810074 0.17761077 0.64940184 -0.3037673 -0.21403684 0.02276375 -0.21061648 -0.24900368 0.63419086 0.47421134 -0.22903523 -0.5020902 0.11162129 0.1601813 -0.30820355 -0.06307896 -0.23663326 -0.0943654 -0.8982604
647 -0.054785933 0.16525045 -0.61076075 -0.30731723 0.13036416 0.02310158 0.2840188 -0.25956306 -0.6401171 -1.0886147 -0.5427766 -0.13295592 -0.12846063 -0.013108662 -0.09562314 1.0068758 -0.32178304 0.093479596 -0.49728924 -0.78484064 -0.18419042 0.37348995 0.17480458 -0.73986495 0.92732096 0.05883745 -1.0593083 0.8118268 0.80431306 0.29110196 0.28740475 -0.5657181 0.45418 0.6343584 -0.4857674 -0.18294086 0.08447242 -0.110582076 -1.0620801 0.11819657 0.7859828 0.43749744 -0.13046728 0.6288765 -0.19514619 -0.44980147 0.14461184 -0.27212903 0.13299054 0.07910177 1.3170986 0.2438843 -0.3363122 0.15508139 0.07696594 0.24896993 1.1099384 -0.20493218 -0.3986266 0.5809894 0.6112844 0.24134587 -0.31217477 -0.94564205 -0.745888 -0.04977212 -0.039510313 -0.94421226 0.2355687 -0.2848523 -0.015480865 -0.177388 0.12604542 0.49051028 -0.13263346 -0.3801503 0.5404877 -0.8656985 -0.9980454 -0.21420059 0.32732984 0.3885214 -0.22745383 -0.4625097 -0.95279956 0.008405607 -0.7493764 -0.33407325 -0.52107346 -0.034012035 0.78201234 0.2670351 -0.0032827219 -0.42996332 -1.0450041 -0.17495234 0.3975839 -0.487116 0.39747614 0.5260663 0.44640923 0.08801551 -0.18729219 0.16707778 0.17793813 0.37605727 -0.16744633 0.12507938 -0.3081967 -1.4529803 0.32902274 0.7946976 0.16224696 -0.064322144 0.23246291 -0.41036507 -0.52717865 0.36577663 0.068052515 -0.15163495 0.55002064 0.23640601 -0.029475033 -0.5730559 -0.11358279 -0.6843615 0.40334663 -0.40181586
1380 -0.073018625 -0.07789179 0.58615106 -0.21834025 -0.1463375 -1.2044978 -0.41579542 0.1480206 -0.39410463 0.59114134 0.37060258 0.09833693 -1.1634417 -0.90452313 -0.23818673 0.19799319 -0.054530837 0.5845438 -0.31857455 0.03235331 -0.06467257 -0.6079094 0.69607055 -0.25779778 -0.38388085 0.3341 0.95681787 -0.23360194 0.87471724 0.22679281 -0.5229566 -1.0368867 0.34101307 -1.3299719 0.11161316 0.23248346 0.0031624876 -0.50617415 0.87083554 -0.47242963 0.07180465 -1.0394033 -0.30859977 0.4649607 0.29084966 -0.07276744 0.30734357 0.15672016 0.6675996 -0.77077115 0.78907925 0.34037107 -0.1496357 0.5329208 -0.5033157 -0.789333 -0.55678666 0.08693358 -0.7647194 -0.8726374 0.4883981 -0.5449469 -0.14618185 -0.47794935 -0.6190365 -0.3933305 -0.33019015 0.04730265 0.056215983 -0.2963519 -0.7823897 -0.8279927 -0.9758066 0.16533846 -0.31530443 0.6882285 0.33095002 -0.43936267 0.27124205 -0.28131428 -0.21214372 0.021882705 -0.049428545 0.5208629 0.03130945 -0.44109046 0.024209024 -0.58591783 0.10040312 -1.3098152 0.5779062 0.06622145 0.6242656 0.68678856 0.36745563 0.19888212 0.4062021 0.19013458 0.35346293 0.18546306 0.16193569 0.12995155 0.62044954 -0.14222725 0.6289098 1.2754816 -0.44072467 0.0005180766 -0.3476264 -0.41356078 -0.25625876 0.20460965 0.19601858 0.36313906 -0.3585664 0.3473174 0.3076911 -0.5675397 -0.24339694 0.028912146 0.76219934 0.049823046 -0.061752696 -0.74696 0.21568473 0.132603 -0.5583409 -0.89093226
718 -0.06313703 0.50314766 0.8521535 -0.82372355 -0.24544948 -0.535689 -0.16851242 0.058627874 -0.71449524 0.4071683 -0.1987583 -0.13294095 -0.17191517 -0.36963606 -0.4938515 -0.17077275 0.27910748 0.28675047 -0.2727382 -0.28004533 -0.5776083 0.035889562 -0.6818207 -0.2614805 -0.24732018 0.59317666 0.27017495 -0.319139 0.8515054 -0.085574545 0.6013986 0.0033896116 0.6915547 -0.52167964 -0.061965495 -0.6724992 -0.5149573 -0.053039756 0.2164124 -0.8597843 -0.26390612 -1.0428926 -0.27776253 -0.21587497 -0.9536971 0.313281 -0.06536864 -0.48771134 0.100388534 -0.2364676 0.416252 -0.5902408 0.7899638 -0.8371908 0.1288763 -0.116721764 -0.35511023 -0.634514 -0.43554384 -0.76730406 1.0828824 0.033802424 -0.39192632 -0.4167468 -0.9325795 -0.3866644 0.2312014 0.32913178 -0.3019753 0.273336 -0.6323724 0.075387895 -0.45955434 -0.17879131 -0.56899387 0.9548275 -0.3582165 -0.8160274 -0.6295315 0.24203551 0.0046944157 0.18679039 -0.12032236 -0.1604658 0.60651064 0.25086698 -0.6760017 -0.2975537 0.34315288 -1.144403 0.3337985 0.558166 0.032353323 0.6838953 0.06242851 0.30915633 0.17645925 0.19780892 0.45872253 0.36597207 0.54357266 0.79388046 -0.11036222 -1.040014 0.6068261 1.4018979 0.15237157 0.10235638 -0.14391105 -0.48690414 0.3185445 -0.4234853 -0.57459813 -0.30655292 -0.145658 -0.41131353 -0.17321895 0.21484625 -0.23400058 0.119480625 0.2599182 -0.24484894 -0.07507177 -0.40300035 0.059961535 -0.0628148 -0.15866312 -0.16794726
929 -0.29112077 0.8176166 -0.13745712 0.46422124 0.7966638 -0.19403318 0.22801238 0.4191816 0.26771882 -0.10844724 0.06799824 -0.3600213 -0.38809192 -1.0305718 0.13355845 0.4586411 0.035711303 0.41471285 0.18009326 0.107550874 0.7555992 -0.018811118 -0.34682742 0.095111474 0.10172409 -0.298419 0.75207186 -0.110371925 0.79307765 -0.12722793 0.5649387 -0.5468909 0.01874389 0.2721175 -0.31807768 -0.5151543 -0.025352512 0.8729315 0.71258247 0.3489389 -0.011910916 -0.9986854 0.30397645 0.447828 0.638613 0.2502559 -0.9213412 0.24015982 0.40244403 -0.67030287 1.5548731 -0.20890479 0.079865195 0.37160888 0.1682037 -0.36131313 0.046549883 0.7372693 -1.0502596 0.16745858 0.6414939 0.083546765 0.35152465 -0.72652376 -0.121133335 0.85120946 -0.5645832 -0.74514043 0.3568661 0.6625545 -0.7691522 -0.33395293 0.3128295 0.15589711 0.14233273 0.4454662 0.2396429 -0.35503158 0.17737803 -1.1034937 0.12814748 0.4540552 -0.24707013 0.010080214 -0.5251956 -0.04302581 0.32762536 -0.006722174 -0.72210854 -1.048029 0.2330532 -0.39800215 0.24398781 -0.4517784 0.13856564 1.0258448 0.6470516 -0.03445133 0.21978767 0.042313356 -0.9454156 -0.77468103 -0.09201105 -0.008668666 0.82481194 0.6470716 -0.7521754 -0.7421551 0.22041138 -0.36729917 -0.47663835 -0.0431637 0.0027112085 0.2881456 -0.062162876 0.14569974 -1.0853387 -0.4688088 -0.0871863 0.1756521 0.5414619 0.6953041 0.6792008 -0.7334048 -0.30393046 -0.8944679 0.6148773 0.53385687
1114 0.15787512 0.5031028 -0.36429247 -0.044204097 0.32980135 -0.8107836 0.7806211 0.64927125 0.42022586 -0.106446035 0.60083854 -0.014264348 -0.31013846 -1.4187586 0.1892655 0.78590775 -0.54265916 -0.17147985 0.34628987 -0.26819226 0.33778 0.908209 -0.6059892 0.352285 0.6120668 0.53649944 0.3257258 0.25496346 0.6827337 0.84524435 -0.34002972 -0.34480774 0.39018914 -0.24687555 -0.71259624 -1.3854568 0.44579494 -0.62051964 0.011072754 -0.100393236 0.49435234 -0.9310621 0.6197279 0.17086603 0.45715111 -0.028940685 -0.07999858 0.7608786 0.5061969 -1.1357976 0.69648427 -0.15335846 0.13756558 0.9876076 -0.6490704 0.117314905 -0.1909202 0.13698165 -0.74218154 0.10841305 0.41406187 0.5899784 0.4063876 -1.1088172 0.26392823 -0.0051084533 -0.024508635 -0.6896337 0.61234945 0.12137346 -0.20584439 0.4376193 -0.26280394 -0.3906926 0.09809102 1.5990194 0.5248636 -0.20190156 -0.02897092 -0.041400462 -0.27542406 -0.040565837 0.13661379 0.17970954 -0.46240437 -0.3202424 0.10105638 0.4074719 0.4190122 -1.2379211 0.12897201 -0.17966484 0.34889835 -0.34423298 -0.6865675 0.11005366 0.6715424 0.48128247 -0.55282825 -0.5443102 -0.9602039 -0.2645579 -0.22654484 -0.049559448 0.15141602 0.8848854 -0.40724772 -0.66998893 -0.22264545 0.24181123 -0.39778256 -0.24387725 0.027773736 0.06982283 0.10880291 0.36066195 -0.9947041 0.08379266 -0.23555219 0.07740518 0.3439864 -0.13749748 0.2986029 -0.5024316 -0.9175323 -0.4409628 0.10419718 0.42025474
541 -0.6229794 -0.123866916 -0.14041764 0.13806236 0.18702793 -0.97974914 0.07514801 -0.16075891 -0.23725632 0.6420167 -0.056301817 -0.19878927 -0.7015454 -0.36509302 0.976011 0.067096405 0.013147245 0.4000792 0.30230024 -0.20054379 0.107937254 0.38052118 -0.5170549 0.109151766 -0.036528308 0.6323382 0.21739146 0.22944428 0.4836356 0.81493413 0.15855713 -0.9510058 0.38313144 -0.18008856 0.374834 -0.40835473 0.22175273 0.16454995 1.0642968 -0.383119 -0.14373809 -1.1290834 -0.096050136 0.43024802 0.75866765 0.52792037 -0.48071852 -0.42295104 0.04757278 -1.1208578 0.91841966 0.061729982 -0.3244768 0.2766246 0.091479816 -0.79899216 0.008178911 0.1050387 -0.19674438 -0.29058602 -0.124307744 -0.09068354 0.48821777 -0.3361204 -0.4177895 0.4728414 -0.6644596 -0.30465567 0.42096674 -0.5103375 -0.56070226 0.25257993 -0.23330969 -0.08262703 0.27640995 1.34573 0.58862966 -0.5895122 0.23664533 -0.19429134 -0.71589476 0.16618915 -0.06757187 0.52096546 -0.5273016 0.036806274 -0.071132444 -0.89328426 0.032453906 -0.8960882 -0.47894794 -0.7415865 0.9122353 0.14839993 0.8976493 -0.0069134347 0.645019 0.19977833 -0.13815208 0.8629697 -0.5726347 0.47151533 0.08945514 0.012278259 1.0039752 1.4557436 -0.81073135 -0.92605513 -0.3574745 -0.03835289 -0.20209466 -0.11675254 -0.21735393 0.54814506 0.19440249 -0.39935467 -0.6554383 -0.52161574 0.44750375 -0.19056126 -0.58525985 0.60332865 -0.01835841 -0.2802372 -0.36898768 -0.7549332 -0.33182493 0.1236967
2436 0.619873 -1.0578109 0.20767903 0.68765086 -0.63402057 0.07214681 0.16143054 0.02455562 -0.28359875 -0.6911212 -0.5556193 -1.0095559 -0.51523954 -0.0867722 -0.27216873 0.7763899 -0.743572 -0.46865004 -0.1548525 -0.36465442 -0.6257319 -0.25378534 0.32315937 0.40062353 0.26735577 0.078346625 0.3461801 1.2176583 0.21461561 0.63566643 0.4347442 0.11724457 0.605176 0.6128173 0.04571304 -0.21113966 -0.08430847 0.11342098 -0.053853426 -0.2822412 -0.81645334 0.22740848 -0.335033 -0.57004577 0.11397542 -0.6534462 -0.3159639 -0.104524024 0.06156592 -0.73503447 0.59357065 0.015805587 0.14485131 -0.7344908 0.024993844 -0.011753175 0.47341907 -0.40365157 -0.2949851 0.302765 1.3330468 -0.17071928 -0.3694206 -1.0777123 -0.17120925 0.53431565 0.49873814 -0.77098906 0.21183126 -0.29945654 -0.105461925 -0.13087524 0.89720154 0.049063466 0.057092097 -0.39167884 -1.147147 0.36549544 -0.8099295 0.17273483 -0.16044222 -0.7844705 -0.85407954 0.10703147 -0.0790591 -0.8223303 0.12626107 -0.54273564 0.28669456 -0.36314726 0.17306574 0.09101642 0.2232852 -0.51431113 -0.28607124 -0.008817901 0.19327204 0.8191123 -0.6374677 0.17793189 -0.28298882 0.12041924 -0.10525811 -0.24411316 0.456469 0.12509008 0.35518017 -0.44423595 0.024590803 -0.808555 -0.22970518 -0.059433483 0.27352256 -0.43891847 0.6313389 -0.012002509 -0.5872068 -0.7024753 0.14986166 0.39466375 0.14539845 0.4610976 0.033082493 -0.5378674 0.18338282 -0.34198314 -0.4893264 0.840472
1235 0.8091288 0.46675152 -0.24387065 0.35739875 -0.29509673 -0.12631488 -0.03547858 0.20031026 0.12147858 0.10751704 -0.6760527 -0.8724614 -0.5143108 0.4818087 0.9210827 0.5926111 0.29290524 0.38176093 0.18452126 -1.2444967 -0.58369523 0.35697636 0.06908933 -0.22812022 0.9461045 -0.27602357 -0.026928559 1.0822427 0.75283927 0.15164837 0.6830209 0.005130828 0.7055445 0.35352036 0.68115467 -0.38497016 -0.1938244 -0.07654987 0.076238506 0.35168517 -0.10850432 -0.014817276 -0.22736873 -0.39365843 0.41186053 -0.33705416 0.413256 -0.40633243 -0.24990459 -0.046749495 0.27775702 -0.4050043 -0.13062197 0.7595348 -0.881595 -0.69337624 -0.1355884 0.32404602 -0.52712524 -0.51468074 0.48505107 -0.2994769 -0.6413151 -1.0577482 -0.57619756 -0.7923263 -0.3560373 -1.0604221 0.56526333 -0.929412 1.0688165 -0.5427028 0.086942084 -0.06755508 -0.5386494 0.063803606 0.2357351 0.14022647 -0.72152764 -0.09208565 -0.2815141 -0.023349252 0.0045147035 0.40168193 -0.34400374 0.059365325 -0.34126806 0.15940283 0.20064221 -0.70980626 0.44442576 0.8163626 0.4306483 -0.5079944 -0.19977057 -0.46600053 -0.24717905 0.7233034 -0.31396353 0.6340789 1.2024269 0.18086904 -1.0041984 0.7056988 0.15204617 0.6246946 -0.13020514 0.29750204 -0.48022243 -1.5005608 0.2819185 0.13683738 -0.4798442 -0.6133538 0.3348993 -0.72373104 -0.14829177 -0.50139433 -0.27519393 -0.4556792 -0.44705492 0.016722204 -0.35266343 0.058005836 0.16365618 -0.08740038 0.1546167 -0.21841992
2010 -0.54573005 0.48941672 0.818786 -0.15299575 0.32690352 -0.17638272 -0.31264958 -0.3055765 -0.4966889 -0.23613043 0.20171896 -0.69795185 -0.4079872 -0.16474779 0.50771856 0.24237278 0.1716965 -0.24469618 -0.7033227 -0.5873322 -0.12935948 0.1402025 0.27866608 0.08563675 -0.2545724 0.8250127 0.39263284 -0.09562269 0.7767056 0.106306545 0.6917161 0.11904811 0.78583455 -0.00580007 0.16947973 0.34513238 0.10082549 0.051184796 0.6388096 -0.4746151 -1.2046379 -0.5524513 -0.66734 0.28105906 -0.063290745 0.6322617 -0.12864758 -0.22405002 0.8036224 0.33772743 0.7235029 0.38060543 0.3770847 -0.74146235 0.42867792 -0.47115612 0.4298023 -0.0015206416 -0.05369929 -0.34363693 1.2214509 -0.12803997 -0.4661262 -0.42140445 -0.8751333 -0.44517958 -0.36624223 -0.08630827 -0.003701781 -0.53026336 0.038593158 -0.861593 -0.013017903 0.8204537 -0.2411557 -0.36292514 -0.11376853 -0.4245022 -0.3029556 0.020036597 -0.20060736 -0.47467548 -0.22914761 -0.42507878 0.18885145 -0.00256711 0.22258802 -0.0023360264 -1.1758887 -1.1012089 0.0014062779 0.4811574 0.8740241 0.2914119 0.16330135 0.3995627 0.40900344 -0.3771356 0.8985175 0.58618563 0.48732698 0.7032805 0.15735403 -0.55283165 0.035902847 1.4520879 -0.6322853 -0.54551023 -0.79841834 -0.6012571 0.2748964 -0.45215812 -0.36427265 -0.07323322 -0.3622559 0.07202452 -0.5155029 -1.074422 -0.35479113 -0.10241944 0.02294479 -0.04480256 -0.6468672 -0.45057145 0.015827898 -0.41001028 -0.143106 0.10842724
724 0.14419189 0.5008066 0.76715446 0.3836802 -0.36753514 -0.12097948 -0.30015224 0.510692 0.012025347 -0.66309017 -0.09141282 -0.06583867 -0.255681 -0.050417453 0.14805892 -0.6238619 -0.23217799 0.1681097 -0.2550086 -0.74211645 -0.40073 0.1681677 -1.0252931 -0.25794077 0.6681262 0.98819 -0.39988276 0.51874304 1.6945325 0.67782044 0.31651708 -0.78733003 0.86408436 -0.08978038 0.6737961 0.056901854 -0.3138337 0.52865237 -0.03775439 -0.9254199 -0.26134056 -0.5108372 0.97653586 -0.15871798 -0.29789034 0.41251862 -0.5219427 -0.15470229 0.07341048 -0.118028305 0.49654287 0.11331814 -0.16463777 -0.54650706 0.5101035 -0.29111612 0.14975809 0.06909126 -0.0822114 -0.2292633 0.31629923 0.43289265 -0.019522833 -0.5523145 -0.73171836 -0.14416625 -0.21778749 -0.4471862 -0.05887162 -0.08939107 0.0897867 0.8517496 -0.28822398 -0.6559744 -0.23253842 0.14555992 -0.38984987 -0.5823864 -0.6747893 0.47625932 -0.1113096 0.4712224 -0.738899 0.027041176 0.31250596 0.03194678 0.30393076 -0.1789146 -0.5255162 -0.95873314 0.5114357 0.28725225 0.011573077 0.19174995 -0.17240961 0.6731437 -0.18934765 -0.031317953 -0.13377064 0.71033514 0.7135521 1.1431093 -0.13317205 -1.0674379 0.4341799 0.94677407 0.17530552 -0.12537307 0.05931708 -0.3182416 0.30854514 -0.963944 -0.3581859 -1.0676969 0.23541217 -0.4384453 -1.2597406 -0.95646393 -0.45474133 0.16166596 -0.8877821 0.6458048 -0.42557555 -0.43320498 -0.52341676 -0.35952887 0.4374229 0.19768
723 0.28333154 0.1691603 0.66728055 0.28180328 -0.39918092 -0.56117105 -0.35063294 -0.14385346 0.030791104 -0.23731174 -0.4432861 -0.3077652 -0.3425964 0.29275036 0.82782865 -0.51999485 -0.7614593 -0.07412148 0.13861158 -1.1411299 -0.6183431 -0.055883862 -0.17983913 0.30273968 0.46786922 0.84893405 -0.024266073 0.85165787 0.32940727 0.6737976 0.38562858 0.022989271 1.0071021 0.13110249 0.6604062 -0.47691983 0.08015283 0.6257829 -0.32712668 -0.93856424 -0.9000313 -0.41563654 0.16291003 -0.46776956 0.069722734 0.036370903 -0.21305045 -0.11956189 0.26477963 -0.75732607 0.27558023 -0.02354547 0.530961 -1.0171297 0.6386311 -0.30233347 0.22784041 0.42403302 0.07204337 0.120009854 0.59325224 -0.35210356 -0.002310909 -0.6771214 -0.88421565 -0.01946232 0.28612947 -0.24169329 -0.10030454 -0.26162863 0.41045454 0.05664682 0.29604205 -0.3361615 -0.061635576 -0.1376597 0.04830464 -0.452442 -0.6446866 0.19096477 0.28836572 -0.5388644 -0.6373033 -0.27095816 0.57663304 0.084013104 0.097068965 -0.2605538 -0.19312544 -0.99715537 0.54863524 0.109152295 0.43916383 -0.17294404 0.38412777 0.33101648 0.31266558 -0.11894505 -0.11816503 0.52712876 0.94799227 0.60203916 -0.62160003 -0.7119282 0.36641672 0.87473947 0.37175828 -0.14799607 -0.36924943 -0.7256872 0.24958058 -0.97126454 -0.35063687 -0.61472094 -0.12180553 -0.47038758 -0.7714853 -1.2029961 0.18296598 0.074546576 -0.46244392 -0.47363967 -0.11678012 -0.5148734 0.18015736 -0.47928038 0.043542024 0.4792472
684 -0.32023755 0.32442424 -0.8381981 -0.14573316 0.21379352 -0.13823612 0.11924781 -0.4275602 -0.48101065 -0.7173279 -1.0604478 0.0015935627 -0.18647543 0.16029865 -0.025698075 0.34605965 -0.2506839 0.16794099 -0.4590205 -0.87601644 -0.13674831 -0.23269145 -0.33686534 -0.44770205 1.1974661 0.535891 -0.79009646 0.88937557 0.45665702 0.7558908 0.20564972 -0.57920086 0.70339686 0.8046359 0.07803337 0.107546955 0.15399994 -0.06380178 -1.0761707 -0.26947787 0.35512498 0.27387667 -0.23302269 0.18826354 -0.21342513 -0.36107412 -0.19350998 -0.63552916 -0.034611065 -0.20103161 1.2753031 0.22544084 0.056432325 0.1709379 0.39367175 -0.08522027 1.0311381 0.1362061 -0.11350115 0.83170086 0.5212367 0.3498318 0.013358013 -1.0246867 -0.85462373 -0.4268135 0.12251544 -0.34109285 0.3522012 0.16666962 0.03089789 -0.07028393 0.13657095 0.50605536 0.45253086 -0.16181876 0.608706 -0.6722785 -0.6677949 0.029408416 0.06369088 0.038296945 -0.4128669 -0.64886785 -1.2086657 -0.008263855 -0.8264996 -0.503971 -0.7534319 -0.23846813 0.5559636 0.22341074 0.21125987 -0.49342462 -0.7207138 0.0077824863 0.0044484385 -0.34700286 0.22308211 0.5556295 -0.30167094 0.66889787 0.07292907 -0.15683228 -0.14667714 0.35769385 0.3771936 -0.50227267 -0.23575144 -1.1602591 0.13697799 0.41397175 -0.26655445 -0.16214195 -0.030498087 -0.0057318457 -0.3911542 0.11652439 0.21384034 -0.27273512 0.4242481 0.04041164 -0.84129137 -0.37330663 -0.21265693 -0.57895964 0.2855149 0.03824004
582 -0.26362082 0.5905854 0.18811038 -0.15639114 -0.18186444 0.056386746 0.27867207 -0.48659977 0.561604 -0.2306254 -0.81864655 0.35856068 0.043517977 0.07228222 -0.6770889 -0.28408647 -0.8797145 -0.49333164 0.5058742 -0.492728 0.49726608 0.3078046 -0.08286416 -0.5359338 -0.39900422 -0.43728018 -0.5754636 0.5759374 0.008973292 0.09070214 0.13909966 -0.6939952 1.3865123 0.22433081 -0.31429598 -0.5688173 0.21253307 -0.17312343 -0.922585 0.24750735 0.7705558 -0.35007396 -0.13809404 -0.19977798 -1.0090146 -0.49529684 -0.5753968 0.032217346 0.5150444 -0.8981654 0.4448265 -0.08577626 0.07981991 -1.0672657 -0.29425365 1.0028349 0.6747516 -0.16673335 -0.48050353 0.42291147 0.23631918 -0.28571156 -0.45154163 -1.1429317 -0.933081 0.26416567 0.39044768 -0.09007569 -0.20056789 0.25167876 -0.021321276 0.021989528 -0.78115696 0.4037684 0.41485807 0.42647755 0.122157715 -0.882759 -0.6041458 -0.43001735 0.4859805 -0.053317703 0.14276475 -0.9129115 -0.100934304 -0.34551498 -1.6001918 -0.10241226 -0.072004355 -0.19371887 0.24177574 0.4631567 -0.34289557 -0.47662672 -0.769388 0.037036557 -0.31596553 0.49273652 0.53747237 -0.32099977 0.5345623 -0.43755293 -0.21401109 -0.6587034 0.76843953 0.44101354 0.3352268 0.24704012 -0.045824274 -0.63466704 0.13082542 0.11035024 0.14388508 -0.3266486 -0.41806152 -0.091376506 0.14487067 0.099080175 0.048777558 0.28810698 0.72975236 -0.064315 -0.031033926 -1.1651691 -0.053583115 0.51034546 0.94176084 0.49017748
696 -0.27254045 0.39498743 -0.21548013 -0.3299646 0.4798103 -0.6323361 0.6080061 -0.24652533 0.20401041 -0.06237379 -0.37566084 0.50524104 0.1087406 0.620483 -0.58572495 -0.720288 -0.40895435 -0.26973143 0.9794496 -0.6527406 -0.21510698 0.8229776 -0.37503558 -0.5923276 -0.06525277 -0.3968807 -0.7610548 1.3541304 0.9373078 1.1462841 0.4838542 0.04361631 0.63899976 0.6608313 0.16603568 0.07055444 0.27916878 -0.0439426 -0.88781226 0.04834239 0.30590042 0.41582376 -0.26070592 -0.22141191 0.30439344 -0.27600077 -0.79091334 0.27770153 0.6476769 -0.9511652 0.489493 0.00958146 -0.6431054 -0.3923045 0.15996015 0.60044634 1.0740867 0.10516222 -0.2247881 1.2772833 0.5151908 -0.5030205 0.15566657 -1.1183022 -0.38657168 0.5014145 1.0077387 0.15672952 0.11859604 0.5273391 0.3070812 0.731243 -0.203448 -0.032802667 1.0154176 0.41968855 -0.05110174 -1.0629915 0.28476986 0.25814715 -0.13783899 -0.2652126 -0.09759279 0.44523376 -0.28425553 0.43452626 -0.38215688 -0.2539425 -0.36088267 -0.3868015 0.16351604 0.52056545 0.44644722 -0.21806246 -0.2054229 -0.26405713 -0.06675353 0.69369954 -0.23193277 -0.22893369 -0.61053216 0.034523528 0.34991413 -0.30556864 0.30132803 0.39474168 -0.28199843 -0.3275261 -0.29461414 -0.3398372 0.5764598 -0.16454841 -0.636308 -0.31541395 0.42816505 -0.029256636 -0.28038162 -0.3368216 -0.08398751 -0.5116751 -0.2568698 0.48072004 -0.34444988 -0.5093792 -0.6918168 -0.08533409 0.35350236 -0.28156105
1349 0.46396914 0.20584375 0.6530228 0.13483225 -0.64852107 0.4190554 0.74177116 0.3826852 -1.0213611 -1.2124608 -0.7815488 -0.574786 -0.31918958 -0.6284684 -0.90590626 1.2994952 -1.0636667 -0.2989183 -0.18942308 0.4535677 -0.10274195 0.3211029 -0.21932901 0.20363784 -0.47112718 0.30141473 -0.37172872 0.5022351 0.60268337 0.38511646 0.5735407 0.2974901 0.7623087 -0.7338731 0.34320197 -0.05171488 -0.7945025 0.20537302 -0.52913827 -0.23025468 0.2086635 -0.8722651 -0.03462539 -0.508609 -0.46429 -0.82709974 -0.3116826 0.13618927 -0.24188358 -0.4402787 0.6015608 0.09285029 -0.41960582 -0.5208543 -0.7569545 0.12373274 0.6667148 -0.15077832 -0.8292939 -0.37153846 0.7541445 0.8248589 -0.8300081 -0.58288187 -0.5284806 -0.23888914 0.65418124 -0.6405234 0.30113217 -0.02879377 0.59794647 0.039566383 -0.4792816 -0.057512462 0.32853442 0.16090626 -0.8186214 -0.09022667 -0.41490582 0.24403213 -0.004727734 -0.041193064 0.25265712 -0.6679382 0.6837826 -0.07696415 0.2636296 -0.18632455 -0.34022132 -0.70438313 0.64806724 0.22681394 -0.29996327 0.6186795 -0.33782375 -0.01984374 -0.65940404 0.75556743 0.22295499 -0.5264035 0.54923713 0.13643503 -0.10984345 -0.5616097 0.0021340898 0.5920198 0.64687186 0.10044884 -0.14351161 -0.23900367 0.14459638 -0.35029036 0.0028748314 -0.07304506 0.39744818 0.45581526 0.115087114 -0.41447222 -0.14764537 0.18865126 0.5903421 0.7682575 -0.64368224 -1.0344912 -0.17164151 -0.33459887 0.37027964 -0.1197593
809 0.043614723 -0.15224357 -0.6068038 0.36973146 0.48931828 -0.21414462 0.9336152 0.38384196 -0.8387445 -0.8010223 -0.54628974 0.5256214 -0.10930412 -0.37571195 0.14231402 0.9914871 -0.5759408 0.6394367 0.286959 -0.9189157 -0.33886057 1.0407907 0.23920776 -0.087780334 0.21252975 0.16266136 -1.2348515 0.88145655 1.1532093 0.22782782 0.25327834 0.0029086818 0.3447327 -0.13040374 0.5847088 -0.6798498 -0.75879073 -0.3608075 -0.27240407 0.29094285 0.14152473 -0.21635327 0.37570298 1.1978854 0.20324266 -0.2191243 -0.15158232 0.28718933 -0.38279352 -0.677937 0.07974811 0.5577937 -0.6412787 -0.5519586 -0.46086228 -0.6803268 0.7235593 0.35350874 -0.44609362 0.12455251 0.30326015 0.5058546 0.5980667 -1.4416218 -0.16422439 -0.23991781 -0.18703516 -1.6691792 0.31706342 -0.061594352 -0.35906187 -0.2639748 0.0745026 0.95008105 1.0832244 -0.117244974 -0.39570948 -0.5948157 0.19871353 0.059131816 -0.40795326 -0.25064948 0.51559496 0.25034216 0.68525785 0.78800213 -0.010384021 -0.025378074 -0.21981366 -0.35249245 0.051293246 0.34422386 0.15750103 0.3788882 -0.46717948 -0.10998491 -0.37444958 -0.13906392 -0.0005422083 0.3353987 0.63570106 -0.15871952 -0.18251301 0.21136945 -0.3585547 -0.015288274 -0.20524685 0.6110395 -0.028300963 -0.35983312 0.36694658 0.0019865811 -0.107984036 -0.35206413 0.48482952 0.031034308 -0.5321909 0.30072382 -0.5896014 0.3896411 -0.21370874 0.36397538 -0.059710726 -0.43609083 -0.4232132 -0.93193424 0.051018648 0.17836109
2263 -0.48056296 0.6006175 -0.5470146 -0.34121192 0.27012172 0.08679943 0.47602826 -0.42454284 -0.40604985 -0.11520862 -0.15625626 -0.048496205 0.37143567 0.24627584 -0.26622972 -0.065365985 -0.6635529 -0.022065496 -0.4168036 -1.2269967 0.6472612 0.14028907 0.6563809 -0.6096746 -0.4496195 0.73807687 -0.15290806 0.46245676 0.5581504 0.4019505 0.5048369 -0.88975835 0.45838082 0.031212004 -0.23459145 -0.47377354 -0.25061366 0.37134197 -0.17916782 -0.5016395 -0.2898208 -0.93822354 0.6763859 0.5381269 -0.8190138 0.064838216 -0.5516387 -0.26138264 0.31414795 -0.73905873 1.0191028 -0.32841012 0.030357108 -0.1787111 0.2507082 -0.42599052 0.94194096 0.1583327 -0.28331345 -0.57904494 -0.056736253 0.08987217 -0.3361007 -0.584864 -1.3535545 -0.43216512 -0.69169533 -0.5645312 -0.501578 -0.5939737 -0.20960818 -0.57332927 -0.98820263 1.2592771 0.38087976 0.14838627 0.028084204 0.32114372 -0.48291868 -0.42420232 0.037405297 -0.6411721 0.075364366 -1.0467802 0.14785057 -0.0602154 -0.014349685 -0.23059914 0.11292644 -0.36761832 0.2858907 0.39260274 -0.4599225 0.47447175 0.74648404 -0.19024365 -0.44594973 -0.27462295 -0.07412167 0.31527403 0.64119756 0.3829727 -0.8370683 -0.3664076 -0.06141191 0.57569003 -0.0018866481 0.39634088 0.016090784 -0.87530595 0.11682672 -0.11914112 0.62381744 0.43181878 0.4833072 -0.79854846 -0.7760224 -0.1303289 -0.32228273 0.10251072 -0.18038714 0.4664495 -0.343869 -0.6521034 0.7541119 0.077524304 0.73841023 0.15172037
1040 -0.13847387 -0.6364969 -0.40207535 0.41548175 -0.042927805 0.025068002 1.4158474 0.14952597 -1.0137852 -0.4867063 0.49172795 -0.007356976 -0.6612917 -0.67818403 0.14168584 0.7069995 -0.43613777 -0.21103658 -0.070105135 -0.24678208 0.015136941 0.5079977 -0.043813635 -0.5080486 0.09755651 -0.3197055 -0.54000026 1.3265095 1.2014811 0.2134108 0.46289116 -0.96683264 -0.1602958 -0.26518792 0.56259954 0.41501287 -0.7430029 -0.05012594 -0.1669681 0.5696381 -0.02728116 -0.62312716 0.5042094 0.19898956 0.41174558 0.007974144 -0.91825384 0.6801976 -0.039691057 -1.1456331 0.4166078 -0.25450426 -0.93623614 -0.22896452 -0.569597 -0.2657072 0.38142803 0.03609021 -0.60217184 -0.55096763 -0.15358986 0.34822926 -0.08336901 -0.71143186 0.02592614 0.3398198 0.05556873 -1.3904318 -0.9606452 -0.66337514 0.4918826 -0.105259374 -0.48329633 0.3036192 0.24855687 0.15652487 -0.6673541 -0.46928066 -0.20221278 -0.0925803 -0.35948703 -0.5516057 0.7798244 0.25983936 0.21232338 0.6154934 0.60212415 0.3283879 -0.21081677 -0.45057717 0.89562887 -0.5533297 -0.28519332 0.70160985 0.067353286 0.27351728 0.06959536 -0.2527017 0.27721167 -0.08222909 0.47818154 -0.12317161 0.060263637 0.5455379 0.3203416 0.83601385 -0.07063242 -0.09349902 -0.45218456 0.31273544 0.19770715 -0.14256945 0.46019456 0.14077212 0.5088609 0.2759389 -0.14364733 -0.9648317 -0.08829461 0.602778 -0.024937095 1.0781399 -0.0033818318 -0.6933198 -0.21376671 -0.4382616 -0.3563291 0.39055544
1281 -0.08242874 0.27635002 -0.36524916 -0.13522875 -0.2210858 -0.122129515 0.05109326 -0.13660043 -0.4408294 -0.12472302 -0.9297933 1.2654835 -0.021830074 -0.23496832 -0.5506735 0.35521966 -0.63609135 0.3807025 -0.066562295 -0.80513877 0.391396 -0.45010045 0.048852406 0.431069 -0.059829433 0.578743 0.29790536 0.67458034 0.36729577 0.6413032 -0.025514957 -0.23308381 0.75070065 -0.40294474 0.28522196 0.09070143 -0.96771437 0.39309898 -0.2076722 -0.17147158 0.035894535 -0.7571857 -0.36255965 0.31718072 -0.15518631 -0.27575126 -0.13091461 -0.57463336 0.6135897 -1.1803802 0.9417921 0.4292367 -0.1848341 -0.0030318182 -0.071907386 0.5226011 0.29132175 0.56429255 -0.34504628 -0.12774855 0.09100306 -0.46135074 0.33863628 -1.4989306 -0.88638526 -0.115553424 0.5093497 -0.04684005 0.22108391 0.23475844 0.19925149 -0.50590163 -0.46360385 1.0103395 0.40218434 0.25079083 0.19215804 -0.61632395 0.46488777 -0.6960318 0.530155 -0.005933498 -0.037357222 -0.15878727 -0.09493227 -0.5514976 -0.5225387 -0.75486064 0.48449108 -0.38067624 0.384602 0.7438677 0.34439734 0.48929068 -0.30337825 -0.07857123 -1.1043024 0.24097206 -0.7294119 0.16191033 0.944917 0.18291214 -0.21595271 -0.39707753 0.18724006 -0.10640011 0.90964144 -0.0529444 0.46474198 -1.1489077 -0.28756693 0.10557604 0.22642878 0.1797268 -0.04786602 0.3918259 0.7136061 -0.29132771 -0.2513319 -0.24764547 -0.18601133 0.82665896 -0.36373243 -0.5536819 0.36811876 0.1993989 0.7026807 0.18417595
2049 -0.18282804 -0.41802678 0.5860396 0.42654082 0.51229155 0.51098716 0.72179663 -0.20694076 0.0502234 -0.15514542 0.69300157 -0.035051133 -0.266123 -0.69019717 -0.81360555 0.8033023 -0.6305417 0.34396395 0.0903549 1.0164585 0.06285431 -0.18778476 0.28875795 -0.19318967 0.12727311 -1.0172071 -0.00926762 -0.041701306 0.71365625 0.23270084 -0.065252185 -0.41612703 0.061332155 -0.11724199 -0.027053319 -0.59779036 -0.0681443 0.14988808 0.6205225 0.7953782 -0.23976517 -0.70419335 0.23565483 0.6391193 -0.4609663 -0.46167532 -0.32268098 1.1009725 0.7606096 -0.05425688 -0.03802662 -0.22234546 -0.39061522 -0.18480134 -1.4498944 -0.31161705 -0.15867826 -0.5680508 -0.6134459 -0.5390193 0.27561796 0.19443375 -1.3577634 -0.91577375 -0.6725879 0.11400284 0.23149462 -0.40501094 -0.4618715 -0.10723525 0.35141033 -0.47655398 -0.059056908 0.87393737 0.1927168 -0.18863457 -0.41562322 -0.19479987 -0.40520385 -0.21191372 0.09480968 0.16648002 -0.49908063 0.09576232 -0.19553056 -0.025598783 0.44787276 -0.08211327 -0.36464655 -0.42502266 0.66259295 0.2783153 -0.22463778 0.10458816 0.09950015 -0.026445204 0.27485743 0.5255719 -0.5353306 -0.35994226 0.46672592 0.37397778 -0.10530213 -0.35137767 1.072652 0.82938397 -0.16558073 -0.4960979 -0.61237556 -0.7013948 -0.20363393 0.48808 0.56556225 -0.35641924 0.039674666 0.3692438 -0.5329078 -0.898068 0.20391512 0.54345196 0.4781501 0.77640414 0.5460075 -0.74218607 0.02441851 0.736654 0.09883374 0.7129429
758 -1.1652994 -0.4077116 0.031246912 -0.76036406 -0.19710846 -0.2549315 1.1128781 -0.3627358 -0.7165082 -0.2656488 -0.36381015 0.44672114 0.18063797 -0.40826854 -0.67852145 0.5210968 -0.46280214 0.17162597 0.5252603 -0.059037343 -0.2329416 -0.33419386 -0.4788321 0.45282254 0.09757565 -0.5459025 -1.4840026 0.5819434 0.20707376 0.015816942 -0.16898775 0.3580845 0.63226944 -0.049152564 0.35635883 -0.2650425 -0.24300744 -0.37949324 -0.15005715 -0.58211684 0.4385324 0.16010319 0.032318737 -0.23463956 -0.44900215 -1.015769 0.20309041 0.00106246 -0.18211886 -0.7340372 0.17807133 -0.34725952 -0.39309204 0.017092645 -1.0032946 -0.029028976 0.29579818 -0.21622111 -0.28632426 0.12873569 0.85845435 0.11525632 0.02358652 -1.3173915 0.46354368 -0.06318844 -0.13553566 -0.9310428 0.40301332 -0.35212243 0.41638052 -0.21907234 -0.6461547 0.2532014 0.27158326 0.17922229 -0.14372647 -1.350771 0.40397474 0.025686586 0.34198928 0.5863615 0.20612027 0.39567795 -0.04946151 -0.4972178 -0.6303678 -0.09014195 -0.43390128 -0.7498908 1.1265036 -0.12674722 0.40524802 0.89497584 -0.29988006 0.0070286524 -0.06303182 0.5259513 0.13749197 0.8475799 -0.7264435 0.1738417 0.20737359 -0.5646879 0.97974646 0.16586724 0.2812286 -0.3075525 -0.2364597 -1.2198614 0.30288166 -0.23126556 0.35935146 -0.36595067 0.24662909 0.20685688 -0.13917172 0.28776035 0.1261836 -0.036196284 0.3151624 0.036204364 -0.33304748 -0.66920245 -0.62009084 0.15904814 0.28836095 0.5401846
318 -0.31265804 0.07110804 0.080332 0.040154006 0.024391448 0.11528584 0.638358 0.012428204 -0.58934987 -0.45685652 -0.26709583 0.34426144 0.12547636 -0.33934736 -0.12142747 0.6470078 -0.28905055 -0.14026846 -0.6697014 -0.63555974 -0.6318091 0.5136536 -0.84136087 -0.3908997 0.9240488 0.21555705 -0.5795977 0.33859098 0.8717608 -0.54583025 -0.29950607 -0.37812123 0.38475236 -0.45006004 0.23423143 -0.8918075 0.07129404 -0.3326347 0.42201403 -0.08626232 1.1223727 -0.14085053 -0.026109433 0.43228585 -0.36500263 0.06185208 -0.3028324 0.34458196 0.18348512 0.4696931 0.6067313 -0.6467141 -0.07104694 0.29656598 -0.37702933 -0.17859863 0.12975189 -0.023373134 -0.605021 -0.6884315 0.24122328 0.4222009 -0.85646987 -0.96010643 -0.009563416 -0.11215519 -0.040683687 -0.74299836 0.22363374 -0.7482935 0.7090474 0.24590737 0.066119805 -0.1888096 -0.10884912 0.32148317 0.4222285 -0.6357434 -0.43877968 -0.10342532 0.3047636 0.7499176 -0.19207956 0.36605728 -0.35860193 -0.00912171 0.57884884 0.33867928 -0.4589301 -1.2720473 1.1275427 0.45752424 -0.00081324147 0.03439173 -0.67758477 0.38358903 0.32306102 0.20094799 1.053785 0.5867534 0.043260515 0.10883221 0.18218842 -0.045870326 0.38114357 1.0668111 -0.0035622374 -0.99984485 -0.9664923 -1.5051237 0.65027064 0.02491354 0.20482059 -0.085749865 -0.13642456 -1.119727 -0.18684804 -0.13715756 -0.14603682 -0.18255162 0.13102666 0.21563052 -0.12101107 -0.018527843 -0.8955367 0.06650366 0.09509719 -0.023991758
2063 -0.9014609 0.24135661 -0.43816137 -0.52213466 -0.48746482 -0.2847418 0.6550947 -0.14697042 -0.7209995 0.122019365 -0.4620895 -0.13706903 -0.6776138 -0.26762667 -1.2449219 -0.6845477 0.28109473 0.42247045 -0.14452189 0.0080073215 -0.33993766 -1.1469427 -0.56801313 0.22726546 -0.064875096 0.20494084 1.1158082 0.4526031 0.4761786 0.16157344 0.3703784 -1.0182861 0.34493724 -1.0299109 0.38428202 -0.28458264 0.131002 -0.40651804 -0.5178098 -0.07511755 -0.24000883 -0.6177528 -0.30946064 -0.0012457242 -1.1007595 -0.6955295 -0.8686142 0.1088829 0.03653407 -0.42837182 0.38264114 -0.26992816 0.27826586 -0.43446302 -0.57998604 -1.3657053 0.539822 0.0036215254 -0.83834153 -1.1694791 0.0567203 -0.23052564 -0.95324373 -0.41747925 -0.6548673 -0.2525747 -0.07089442 -0.38178417 0.06754828 -0.081656046 -0.6531524 -0.29374892 -0.10655582 0.32596764 0.6556852 0.50144124 -0.21851724 -0.23827875 -0.012330518 0.12745629 -0.8385993 0.16393726 -0.28094813 0.2925617 0.30239362 0.08203065 0.07145324 -0.33914393 -0.19172263 -0.7741185 0.46956325 0.17237093 -0.39687964 0.28262937 0.36516318 -0.13870278 -0.14374886 -0.66746 0.45086738 0.047844257 -0.6142667 0.3689324 0.26644513 -0.6110552 0.67094094 0.76452446 0.6628992 0.029336879 -0.19661212 -0.13802731 -0.11331997 -0.312506 -0.04411772 0.015242333 -0.038017813 0.45984828 0.037554458 0.23959412 0.22231954 0.4589656 0.09556871 -0.49544546 -0.06501242 -0.66518015 -0.048112795 0.9466478 0.0020814904 -0.46840072
1429 -0.6571244 0.31160626 -0.6626913 -0.88563 0.51646996 -0.19925933 0.6285439 -0.40582913 -0.675144 -0.5193108 0.16230464 0.7140185 -0.30440313 -0.20658876 -0.5963441 0.1811265 -0.22444251 0.9173315 -0.31944853 -0.9000596 -0.16633296 -0.38724828 0.11404852 -0.43169865 0.28815418 0.5951553 -0.2505824 0.53471917 1.4329145 0.059243727 0.035920613 -0.7396994 0.6040584 0.00846171 0.3296566 -0.42702106 0.29383492 -0.25295398 -0.14430258 -0.08168225 0.02812207 -0.64622223 -0.1040902 1.3305764 -0.52938 -0.25852844 0.36100593 0.60585093 0.74006015 -0.0512042 0.27606228 0.54332227 -0.2520467 0.18413718 0.3454134 -0.7728243 0.99964845 -0.10933644 -0.31728646 0.24589548 0.23585697 0.37062943 0.18595845 -0.96358347 -0.17218427 0.05907607 0.019889561 -0.6947733 -0.32482508 -0.43289432 -0.4693742 -0.25464594 0.19495998 0.83425117 0.74402016 -0.0056109047 0.21770957 -1.2543952 -0.34722173 0.37107986 -0.033037696 0.34352612 0.21911807 0.80797327 0.4678476 0.42995942 0.14128517 -0.44800147 -0.30937955 -0.29608497 -0.10344042 0.63634616 0.41369987 0.441282 0.09729182 -0.25793418 0.081085056 -1.3081014 -0.07622145 0.60492694 -0.24984723 -0.12392532 0.6312286 -0.47722504 0.5704059 0.6314336 -0.19645946 0.19450769 -0.3682707 -1.1397241 0.4895975 -0.13944103 0.3260386 -0.5204788 0.46866193 0.2624001 -0.47526512 0.29816204 -0.27392307 -0.10432227 -0.67562926 -0.2595809 0.16110276 -0.23073177 -0.22820932 -0.29037154 -0.33674487 -0.101769134
2118 0.18498184 0.40624145 0.7825457 -0.9484001 -0.2990944 -0.42923895 -0.43324655 -0.25653785 0.2965457 0.47266683 -0.7922135 -0.6304509 -0.3925561 -1.0838912 -0.17084633 0.28313553 -0.62687624 -0.23475249 0.27427036 0.8750489 0.46112236 0.9417455 -0.07841359 -0.44208524 -0.46779776 0.49361572 -0.2886573 0.16610831 0.10653308 0.073215336 0.6212269 -0.29855987 0.5743452 -0.24076699 0.1663746 0.35937452 -0.3372524 -0.42684034 0.20509136 0.01607821 -0.77368015 -0.7009175 0.5862197 -0.41205457 0.3661201 -0.04536307 -0.46499515 -0.25101537 0.8351019 -0.87234455 0.5965957 0.25148717 -0.09759348 0.2815966 0.3392238 0.97158307 0.31570774 -0.5281528 -0.33610347 -0.29980808 0.6443265 -0.14976777 0.78463733 -0.25842854 -0.87523365 -0.2736284 0.07060066 -0.23361698 -0.29276687 -0.3446236 -0.4215351 -0.39123482 -0.72829837 -0.22077286 -0.32520747 1.2282722 -0.41054302 -0.47485754 -0.062311135 -0.044464767 -0.17565034 0.46892282 -0.00556561 -0.8398615 -0.84089404 -0.66004664 -1.0834223 -0.050905425 -0.18382661 -0.84393144 0.19835325 0.008199659 0.49162868 0.83487386 0.064164095 -0.28975794 0.11713111 0.6095355 0.15551023 -0.44696328 -0.15302655 -0.02657578 -0.02871944 0.064477034 0.67025274 1.0158614 -0.30233455 -0.4764235 0.10757342 -0.16054681 0.06609675 0.39851716 0.4858158 0.6757535 -0.12704405 0.29410124 -0.3649507 -0.04398284 0.11336159 -0.00047480952 0.47315037 0.15496242 -0.42944917 -0.69680804 -0.68696177 -0.38544393 -0.13042335 -0.2638925
937 0.088140115 0.34676164 0.56077 -0.8414854 0.08025441 -0.3154273 -0.04063956 0.030546615 -0.69607097 0.4432393 -0.24395557 -0.17606044 -0.422677 -0.41868252 -0.69050753 -0.2504756 0.29729754 0.16977622 -0.04285924 -0.06638262 -0.23662528 0.16428097 -0.46293348 -0.4681301 -0.36929578 0.41234234 0.28996074 -0.23221475 0.9979975 0.015267314 0.6024189 -0.16458803 0.4940712 -0.6397426 -0.17101836 -0.38948217 -0.46120593 -0.11106448 0.43145126 -0.81980336 -0.42324197 -1.1522511 0.16916335 -0.09028135 -0.97370267 0.569817 -0.36745876 -0.31586453 0.45255595 -0.25685042 0.7048958 -0.7898427 0.2459477 -0.61266494 0.12110615 0.1302514 -0.31796995 -0.58127457 0.27818468 -0.9115362 0.85443664 -0.3425966 -0.66055477 -0.4179629 -1.1076729 -0.32656065 -0.044895113 0.429993 -0.26228192 0.31163585 -0.47072545 0.36087883 -0.54965526 -0.051026613 -0.65800136 1.1233524 -0.7016152 -0.36548603 -0.9291876 0.32327285 -0.18842766 0.7703218 -0.45387122 -0.70421237 0.23990303 -0.011826744 -0.39499277 -0.49644998 0.07289289 -1.1526586 0.46796554 0.52290756 0.18963799 0.4172096 0.06359793 0.046386264 0.3945484 0.15835373 0.6530447 0.4492412 0.3515384 0.56996197 0.16733848 -1.046708 0.589847 1.2871433 0.021436566 -0.34294394 0.010406963 -0.36889946 0.32863358 -0.18255317 -0.28752002 0.1605026 -0.14417465 -0.46340272 -0.72431064 0.17207329 -0.14653033 0.3670859 0.1507966 0.11614403 -0.09953526 -0.0031092998 -0.18393525 0.016761482 -0.2867177 -0.53920203
2065 -0.623068 0.20335117 -0.26112533 -0.13634872 0.089059584 0.05147083 0.26714817 -0.6852993 0.43814373 -0.19798937 -0.030073714 0.16481179 -0.6752488 -0.87156445 0.32254416 0.5815786 -0.11934531 -0.30028594 -0.6313771 -0.5461275 0.20766772 0.91684055 -0.38498756 -0.7754521 0.81381196 0.8966379 -0.3840578 0.09979374 0.86138374 0.03029091 -0.33330244 -0.3618912 0.7937255 -0.1626505 0.40195107 -0.23092872 -0.60657114 -0.59406745 0.018382112 0.57149994 0.29972887 0.013943618 -0.28586513 0.63358295 -0.21772332 0.39217168 -0.24301854 -0.16704719 0.6678093 0.18932404 0.41866618 0.3546571 0.25548205 0.25785246 -0.06599956 -0.023578646 0.62947613 0.39611924 -1.0474322 -0.5231025 -0.049171854 0.07657099 0.11007833 -1.0376697 0.21848765 -0.25786203 -0.13949545 -0.97058004 -0.15356646 -0.5456321 -0.6760734 -0.61883366 0.44851673 0.49246973 0.3353737 0.6087336 0.14390847 -0.034586504 -0.09358376 0.41027722 -0.512607 -0.5346506 0.080527715 -0.45830554 -0.9263397 0.26614943 0.25933737 0.5785127 -0.7213767 -0.65268403 0.62052166 -0.2357732 0.8487939 0.12622283 -1.1743509 0.02874636 0.46561176 -0.82593274 0.48797038 -0.1994473 -0.5864022 -0.06387767 -0.06375499 -0.10633205 -0.55146337 0.74223065 -0.5345528 -0.78786194 -0.33959955 -0.16791016 0.17986684 0.045413725 0.33513436 -0.18442704 -0.24158439 0.56129414 -0.8492704 0.024245087 -0.7816822 0.5342806 1.0358938 -0.12298154 -0.15219228 -0.7359514 -1.0209863 0.07086311 -0.050915252 0.5804625
71 0.34874982 0.5121535 -0.32258174 -0.741402 -0.10021141 -0.4682965 0.26026246 -0.1231993 0.18746006 0.6278309 -0.29384267 0.20152064 0.09287656 -0.2006145 0.96790546 -0.6757263 0.023156099 -0.005584169 0.06392511 -0.6415326 -0.10496233 0.7400616 0.06320831 0.25640136 -0.2954358 0.76691246 0.5289303 0.44629088 -0.12345109 0.5027851 0.82393104 -0.37333757 0.20992474 -0.22377361 0.45245343 -0.43829516 0.5684235 -0.28756207 -0.4173895 0.29389596 -0.8150614 -0.4046223 0.58388996 -0.38663247 -0.33301303 0.11354594 0.08518539 0.011597151 0.6165097 -1.3013321 0.6425149 -0.1497843 0.44335166 -1.0006694 -0.20285636 -0.0033250027 0.8281459 -0.50674176 0.02008278 -0.3197019 1.3049138 -0.3770436 -0.5011632 -0.29458562 -0.20748748 -0.113888815 0.23793638 -0.50066066 0.5394205 0.16827048 -0.5127677 0.031681303 -0.32896987 0.9957334 -0.62093633 0.24158682 -0.04532696 -0.21259728 -0.27754894 0.0184184 -0.023748612 -0.8547925 0.2919334 -0.1779956 0.5207275 -0.33667424 -1.3384497 0.019085912 0.17525917 -0.3617666 0.13055761 0.16676246 -0.030572152 -0.28496614 1.2628143 0.0032174967 0.08168711 -0.07892485 0.7658223 -0.37686244 -0.07590137 -0.24728303 -0.53310645 -0.90502065 -0.09915237 0.8362287 -0.13064738 1.0537652 0.2495812 -0.54138535 0.41003907 -0.49267167 -0.020723155 -0.02266464 0.35024235 0.6817137 -0.2433925 0.049057145 -0.7035897 -0.27863982 -0.06902012 -0.66810584 -0.3664174 -0.43467003 -0.26241517 0.25574917 0.34588233 -0.031428
471 0.038445182 0.49737453 -0.6299402 -0.03132077 0.63169676 -0.42607453 0.07270373 0.36713827 -0.63830286 0.057153855 -0.8965209 0.3795371 0.20097344 -0.11565401 -0.40050516 -0.3054289 -0.06555588 0.096713506 0.11578497 -0.30472675 0.12568995 0.49773836 0.5341453 -0.7734917 -0.67823035 -0.41389877 -0.24907896 0.9008482 0.90484965 -0.4106227 0.6785111 0.1166901 -0.60656345 0.39976537 0.21289992 -0.19130675 -0.17331168 1.061626 0.21033023 0.3087959 -0.41949093 -0.20842619 0.07279305 0.76454926 -0.47391018 -0.601753 -0.2279274 0.028670063 0.060280234 -0.86656314 0.4171915 -0.37306103 -0.6259918 -0.19183144 0.14284639 0.036619984 1.1643139 -0.010618619 -0.47324634 0.30926394 0.96490073 -0.3747715 -0.5191161 -1.4863359 -0.5153946 0.39934298 -0.42635962 -0.098423116 0.36187097 -0.016914053 -0.15791142 0.18538098 0.14946547 0.3470696 0.9720012 0.68991977 -0.34242958 -0.019295285 -0.5524817 -0.07241046 0.21053304 0.18485442 0.6327001 0.07303407 -0.52460474 0.39297667 -0.5095863 -0.17793164 0.7706694 -0.069042414 0.013889628 0.31912762 0.4784328 -0.15012042 1.0950143 -0.7905402 0.10560272 0.5090904 -0.26973727 -0.44231537 -0.36135226 -0.60840905 0.2543941 -0.06193346 0.63781255 -0.40192488 0.038070366 -0.13832636 0.6077937 -1.088749 0.45526642 0.100970976 0.7276308 -0.782746 0.052142616 -0.53502333 -0.6494288 0.13855384 -0.3369939 0.15901792 -0.15121311 1.2089949 0.5495888 0.10087295 0.09961323 0.5452912 0.27017426 0.3666063
1717 -0.39001662 1.2069215 0.2477356 0.22735612 -0.4896727 -0.383126 -0.096511394 -0.5013464 -0.040265612 0.724789 -0.35515 -0.14781094 0.03162471 -0.58507043 -0.16056617 0.53211045 0.232954 0.90644217 -0.025794523 0.6645518 -0.64793015 0.0035026981 -0.6549611 -0.1389367 1.0165527 0.21457465 0.13520975 0.44594046 0.24111092 0.12566428 0.14667112 -0.6832893 0.5763469 -0.34416005 0.7660824 -0.019430634 -0.36494207 -0.18911421 -0.22324117 0.1954384 -0.2889064 0.48905388 0.23227757 -0.30958882 0.1372884 -0.935192 -0.60644746 -0.5553528 -0.24878664 -0.28124866 0.36242723 -0.39645737 0.52187985 0.019344348 -0.58710957 -0.37245354 -0.02886263 0.4560562 -1.3506382 0.68208003 0.7793374 0.707136 -0.6037382 -0.24274343 -1.0482267 -0.6167425 -0.1682267 0.031132651 0.5753667 -0.57229084 -0.14681017 -0.3610848 -0.107817814 -0.4005276 -0.32913345 0.7909241 0.55752146 -0.46210393 0.14374325 -0.319505 0.62934595 0.12409236 0.16243686 0.40457898 -0.24614537 -0.63335294 0.20015548 0.24145137 -0.5715665 -0.47176862 0.42303538 -0.03490886 0.67809445 0.69483835 -0.21417049 -0.04027097 -0.20013808 0.5266112 0.09492354 -0.6072114 -0.3709593 0.7328635 -0.1280979 0.09245771 0.7498139 0.39881095 0.39427587 -0.38001987 -0.34965667 -1.4012096 -0.17533213 0.14114326 -0.12935248 -0.53298485 -0.44015747 -0.15592079 -0.44992638 -0.17319202 0.38015375 -0.88080186 0.8341745 0.36185977 -0.7346885 0.17148486 -0.5221775 -0.06774628 0.57873094 0.29566875
1005 1.0164647 0.009513074 0.13729778 -0.0126269655 0.4684257 -0.4292138 0.13391985 0.31844398 0.563115 -0.044540495 -0.07977548 -0.38498303 -1.1518447 -0.34063905 0.3190813 -0.576723 -0.25587094 0.17495085 0.17966656 0.29529157 -0.8029989 -0.29691634 0.8100237 0.41448185 0.4511321 -0.11973125 0.3674531 0.5978752 1.2070361 0.23961212 -0.0206729 -0.22501534 0.11778401 -0.0086165285 -0.262551 -0.27994916 0.06598955 -0.16945381 -0.34671396 0.10026269 -0.43407115 -0.05321925 0.16325031 0.14480539 0.17761472 -0.31428885 0.19040906 0.23292693 0.37879637 0.0085164085 0.28833663 -0.08156592 -0.0501242 -0.10584982 0.13191308 -1.0994151 0.25326502 -0.11162582 0.5064747 -0.8169381 1.4408532 -0.249981 -0.40865073 -1.3813398 0.512081 -0.13723107 0.31420094 -1.3794135 0.5151559 -0.21341254 -0.36129317 -0.16426322 0.6756061 -0.1863788 0.39253274 0.043709923 -0.29326445 -0.43279436 0.22413833 0.47252598 -0.15297362 0.12786022 -0.8344974 0.8403878 -0.30443594 -0.010677079 0.0030076324 0.21753392 -0.53554475 -0.52485216 0.017150387 -0.15532558 0.8743856 0.031437214 0.1561224 -0.7410724 0.061029136 0.3429775 -0.19455296 -0.40480635 -0.48907232 -0.32907748 0.06942853 -0.12239421 0.6687749 -0.3737532 -0.93472403 0.29746684 -0.4603458 0.22191891 -0.6682901 -0.9096103 -0.6212474 -0.62231445 0.23827335 0.89279705 -0.19034594 -0.16377093 -0.41100568 0.37541172 0.37225565 -0.14805657 -0.10351017 -0.048034634 -0.6946488 0.29976416 -0.41791514 0.12326891
1860 0.6571941 -0.51409996 0.22521597 -0.4343402 0.05377602 -0.9409701 0.3979473 0.42758814 0.18529639 0.7919622 -0.06534458 -0.17740586 -0.78509563 0.14714053 0.9945491 -0.09478203 0.12836482 -0.09076293 -0.1769476 -0.41012424 -0.49560913 0.2512018 0.15450977 0.15251625 0.13995133 0.714123 0.67703426 0.27832523 0.5526057 0.6925831 0.23664004 -0.037420865 0.39042124 -0.02730797 0.3579679 -0.2665574 0.49198025 -0.115280315 0.44551575 0.69430494 0.2287856 -0.62249714 -0.04460953 -0.36981648 0.39801514 -0.1940707 -0.122568116 0.27002668 0.5324642 -0.19404209 0.18285018 -0.3421703 0.2553451 0.59395915 0.26687202 -1.1613119 -0.09654285 -0.6573107 0.38685045 -1.1866252 1.567545 -0.4696116 0.016190931 -0.67815584 -0.2781624 -0.17765506 0.6042105 -0.5161174 0.49350953 -0.5668531 0.011790678 -0.5965828 -0.33309653 0.51316816 -0.5860331 -0.089075826 -0.085913405 -0.685766 -0.16606052 -0.0699188 0.07531108 -0.14571722 0.50623584 -0.26394066 0.13810393 0.29351032 -0.25818637 -0.79704064 0.00096348894 -0.42526838 -0.5776013 -0.22468369 0.63774663 0.6872092 0.89328706 -0.5618259 0.40525305 0.43316013 0.115717866 -0.57245564 0.17316975 -0.4549544 0.04659446 0.006335541 0.17921531 0.676481 -1.0172863 0.502801 -0.19945316 0.083602324 -0.34865543 -0.17353219 -0.5349107 -0.109125175 -0.44273958 0.81075084 -0.018589815 -0.16165 -0.1304243 -0.43988702 1.0021583 -0.30453712 -0.18696868 0.22665986 -0.0638231 0.0033618384 -0.29203394 0.5853566
247 0.8844457 -0.01583012 -0.09211905 -0.07670818 -0.37842137 -0.49765888 0.66144663 0.20411599 -0.8746761 -0.12807932 -0.74634975 0.19108604 -0.93393 -0.40384266 -0.14401524 -0.7354466 -0.4885327 0.08429249 0.7504878 0.750096 0.1631647 0.6216297 0.1548896 -0.14485547 -0.58887833 -0.5568303 -1.0734257 0.59448105 1.2491064 0.5198688 0.36561245 -0.21712975 0.61235976 0.55618775 -0.09388752 -0.10030224 0.5848531 0.22487971 0.42769054 0.18987931 0.024670636 -0.30256724 0.2248241 0.018133834 -0.35363334 -0.49128827 -1.0874722 0.55321914 -0.09397172 -0.32596442 -0.22281359 0.10592646 -1.0064876 -0.23907374 0.19522518 -0.07736407 0.8532577 -0.28201678 -0.23819023 -0.5014362 0.75929785 0.23513164 -0.32562014 -0.6854038 0.0007397734 0.360823 -0.098584615 -0.78492564 0.17382726 0.040228646 -0.09649584 0.4448741 -0.042117212 0.039923277 -0.17591685 -0.45685327 -0.791543 -0.5604978 -0.26699865 -0.19827735 -0.3019584 1.1025047 -0.5486857 -0.33267823 0.7207224 0.4967746 -0.7673517 -0.15102407 -0.23367685 -0.6248349 0.46312225 -0.14383925 0.28688413 -0.394528 0.3771496 -0.31345883 1.0480783 0.14329144 0.19848932 -0.41853926 -0.34235647 -0.76509696 -0.07057052 -0.29371828 1.1087466 0.037242893 -0.0870317 0.98565805 0.23228301 -0.36801478 0.26087752 -0.045963027 0.24066214 -0.3517959 0.71597147 -0.3668756 -0.51585764 -0.40313938 0.48052466 0.3505352 0.1850269 0.27879474 0.36599147 -0.5240277 -0.3051185 -0.012725078 0.46836728 0.35568362
1371 -0.25159764 -0.29951152 0.56375587 0.22011316 0.6798218 -0.20502487 -0.1033788 -0.10118874 -0.5069785 0.49764615 0.27129495 -0.30667976 -0.14948848 0.10529409 -0.28336516 -0.31728593 0.9740156 -0.15492901 0.2795776 1.0489317 -0.0066169766 0.6986787 0.03894528 -0.33470422 -0.7526683 0.6638406 0.074625626 0.06258197 1.1191791 0.20959292 0.6075154 -0.11404897 -0.31166598 -0.10246336 -0.2420626 0.2634926 -0.30213824 0.57162917 0.08179539 0.6688781 -0.6348233 -0.29765046 -0.17555283 0.6220354 -0.03232893 0.029596807 -1.0740477 -0.42463145 0.6095553 -0.3754805 1.0873832 -0.60876364 -0.45872018 -0.32632414 0.050927583 -0.4181922 0.67418796 -0.7390601 -0.07379687 -0.47956005 0.9998508 -0.7022288 -0.78975886 -0.7814602 -0.9484002 -0.16889839 -0.21094388 0.10681779 0.029396366 0.09871986 -1.0213773 0.03724414 0.37168983 0.36789897 0.023778219 0.018146537 -1.0951676 -0.23378123 -0.23240902 0.2296674 -0.8535257 -0.06964966 0.4598727 -0.78950816 -0.68444026 -0.19079198 -0.15588412 -0.870941 0.3025406 -0.23020412 -0.42662415 0.28595558 0.5253675 0.3136065 0.2876831 -0.1673592 -0.064999014 0.5616295 -0.10172623 -0.07244982 -0.14113362 0.5048249 -0.18045442 -0.35621586 0.3664304 1.0360808 -0.6853774 -0.2598588 -0.53513676 0.3408446 0.45781323 0.42682198 -0.06081496 0.042512853 0.013928115 -0.16284424 -0.75662076 -0.6226775 0.4303871 -0.07820614 0.14257671 1.0217187 0.0340578 -0.42826653 0.22289616 0.21594086 0.39946926 0.533056
1864 -0.46370625 0.12074418 0.16173433 0.63613296 -0.3645448 -0.71959007 0.51097447 0.25544 -0.40932834 -0.042757653 -0.5594465 -0.033762183 0.2196016 -0.8403293 -0.2810645 -0.0857408 -0.5540079 0.22473766 0.46595103 -0.019335557 -0.13891643 -0.19085942 -0.32315117 0.1412284 -0.083724104 0.13427731 0.34027377 0.3871253 1.137242 -0.057293754 0.19898218 -0.38194284 0.81165755 0.2194636 0.2685232 -0.85082006 0.38501173 -0.26970658 0.65766644 0.38716763 0.46481106 -0.28667971 0.15646926 0.917134 0.06400611 -0.7119825 0.33552304 -0.3418338 0.10410696 -0.95777315 0.3615829 0.28649908 -0.29545826 0.12222603 -0.4897027 -0.5455052 0.42009997 -0.15554786 -1.1852802 -0.15188788 0.67709744 -0.5749473 0.8104457 -0.73184025 -0.55906355 0.025293592 -0.29219705 -0.4689467 0.7858465 -0.7688344 -0.6437427 0.005885961 -0.6708163 0.09901542 -0.3428849 0.29570872 0.4374007 -0.9631852 0.27074245 -0.07804972 0.15848076 0.66321266 1.1055868 0.214159 0.22117601 -0.32676312 -0.43193963 -1.0403458 0.23952942 -0.47803497 -1.0502919 0.07419222 0.006429205 -0.17961231 0.35811868 -0.2637449 -0.29139555 0.36559424 -0.29470947 1.1822433 0.2805147 0.37810642 0.06779966 0.2704232 0.3838701 0.3101128 -0.29554015 0.3640581 -0.0029295974 -0.75524247 0.37165695 0.32814336 0.24798748 -0.5398753 -0.14335306 -0.36103293 -0.6109338 0.25482494 0.030182907 -0.15042037 -0.34623536 0.4768249 -0.03138755 -0.51688695 0.9313058 -0.7998032 -0.34877315 0.5387345
1630 0.14675377 -0.077993445 0.514011 -0.62725866 0.08998231 -0.30054426 -0.09960273 0.062236354 0.56446946 0.42019892 -0.95403874 -0.057724185 -0.4284376 0.22067882 -0.3080786 -0.65473676 0.28846404 0.8615716 0.12161531 -0.14070985 -0.42083457 0.19574739 -0.52072316 -0.089946255 -0.2594847 0.4470448 -0.21287462 -0.5003054 1.2178525 0.37198186 0.3371491 -0.45703992 0.7730384 -0.36032414 0.34200352 0.24854742 -0.41802755 -0.82993054 -0.32119897 0.31582722 -0.19686379 -0.21479884 -0.81096846 0.19370762 -0.7466739 -0.8753622 0.041283913 -0.43103823 0.84391016 -0.55140007 0.23485595 0.25460035 0.32435438 -0.16851474 -0.042330004 -0.41209012 0.55201566 -0.42176244 -0.66821295 -1.4464363 0.29710156 -0.17817073 0.11816164 -0.59843713 0.14159426 -0.45287818 0.34014428 -0.407701 0.19159898 -0.35845393 -0.907543 -0.18776605 -0.8396252 0.55222523 0.7167094 0.5371883 -0.6299894 -0.5723257 0.17541385 0.31473866 -0.6466826 0.7416696 -0.45269242 -0.054695044 -0.31123948 0.36756435 -0.48934266 -0.49932545 -0.41483498 -0.11715197 -0.33140072 0.58491737 0.8059488 1.1715113 0.5247589 0.22739848 -0.28697622 0.017334359 -0.19979595 -0.08323473 -0.3131197 0.69103324 0.45696124 0.170768 0.014875191 0.7679685 -0.7797771 0.28550115 0.015131874 0.12327393 -0.080828406 0.43180987 -0.51969075 0.5509466 0.2932741 0.96117604 0.47528988 -0.18168515 -0.108805396 -0.30004585 0.46928266 0.53984666 -0.45895588 -0.69584817 -0.87600684 0.17713228 -0.44489226 -0.27641326
2250 -0.051526133 0.1212888 -0.122010574 -0.46876746 0.420228 -0.1556588 -0.29210907 -0.34356928 -0.01859224 0.22112378 -0.82872796 0.07757335 -0.45641592 -0.053983193 0.20804942 -0.14003344 -0.57453763 0.05095776 0.2769971 -0.81445545 0.083928965 -0.0044047753 0.93204063 0.028939087 0.5713963 0.4200991 -0.43214497 0.8200403 -0.006706444 0.08586046 -0.19325265 0.13506603 0.47374228 0.47136208 0.2853628 -0.8729541 -0.46734607 0.118449055 0.32888854 -0.86258334 -0.05755489 -0.58658063 -0.67946166 0.4554505 -0.28975394 -0.4936044 0.30012473 0.10406482 0.30592093 -0.81187975 -0.2589783 -0.33015335 0.22545095 -0.37051955 0.060267285 -0.060039386 0.03903651 0.42698 0.095024005 1.0281914 0.8920638 -0.68622905 -0.34794095 -1.8666248 0.04207071 0.18799119 -0.2756821 -0.13558698 0.26389286 0.039647415 0.64202046 -0.5367394 1.0883051 0.38063493 1.5263044 0.50483483 -0.3267644 0.22733605 -0.5904707 0.16408354 0.69213426 -0.27102125 -0.08357265 0.4587315 -0.6481887 0.027280431 -0.4396977 0.4860571 0.0062506553 -0.41826287 0.57290787 0.19914065 0.4643222 0.19823869 0.14987412 -0.0035857544 0.96403944 0.057135157 -0.31974542 -0.0414427 0.60168964 -0.56798345 -0.38294962 -0.33919087 1.0472717 0.33177522 -0.03470436 0.3224219 -0.24976318 -0.90779346 0.13620852 -0.42096296 0.34768453 -0.23818268 -0.51976156 -0.23882587 -0.28468624 -0.6406381 -0.45506376 -0.091191255 0.43651825 -0.24725662 0.13321583 -0.031998593 0.17838897 0.4863514 0.46477368 0.5814326
739 0.29310295 -0.27598038 0.4131879 0.60358477 -0.3033734 -0.006873243 0.8136566 0.56487125 -0.07374047 0.056750376 -1.0843052 -0.6219919 -0.2717084 -0.3942788 0.18980055 0.6400968 -0.72934073 0.13083816 0.03650222 -0.36024737 -0.5303182 0.5142438 -0.7285864 0.29426852 -0.18031141 -0.30356845 0.23502246 0.35334772 0.023746036 -0.35073185 0.20710704 0.25339293 1.0802993 0.43986806 0.37082285 -1.0710325 0.046197698 -0.30222267 0.111956716 0.8889674 0.080081604 -0.8142259 -0.33638847 -0.4495594 -0.9962321 -0.032052137 -0.04472693 0.16554007 0.13200583 0.26029876 -0.20428331 -0.53624374 -0.22910556 -0.023921374 -0.5290267 -0.3250306 -0.29411322 -0.022161694 -0.35564741 -0.47505206 0.917192 0.14714509 -1.2255777 -1.4338609 -0.48062888 -0.12394854 -0.11212499 -0.50301987 0.11695832 -0.64067096 0.6666278 -0.4585019 -0.279362 0.27827305 -0.44341424 -0.1767641 -0.5548425 -0.19746049 -1.4766754 0.04524792 0.49518862 0.08595446 0.6162551 -0.38081044 0.4018084 0.044792227 -0.37439218 -0.26276863 -0.23840737 -0.24950486 0.21762754 0.9281357 0.25729614 -0.5340166 -0.47682497 -0.017311329 0.8077913 0.7810335 0.41593766 -0.76868993 0.4540195 -0.021890646 -0.59306914 -0.17159122 0.18810911 0.47275025 -0.06254582 0.46076873 -0.00031388024 -0.97894776 -0.021536252 0.35677978 0.26582652 -0.56302744 -0.8308017 0.1860861 0.102698356 0.15953788 -0.26810062 0.3677789 0.8007685 0.38256302 0.19733994 -0.39755803 0.26476538 0.6097917 -0.085921064 0.50571537
1840 0.14134394 0.93603617 -0.42063165 0.23340209 -0.6313952 -0.12172958 0.66392344 -0.3580866 1.298861 0.5698305 -0.50362474 -0.14817014 -0.10548198 0.7720533 0.2530656 -1.0336025 -0.116490215 0.33803958 0.55638516 -0.7344903 0.06633575 0.6243155 -0.5499177 -0.5676406 0.39649588 -0.12031482 0.5405325 -0.017051103 0.3119158 0.35085076 0.72526485 -0.57461286 1.2840797 0.3846482 0.2311462 -0.23566929 0.38989857 -0.4010824 -0.18725291 0.5037061 -0.9169091 -0.30192113 -0.13425687 -0.3770972 -0.3392237 -0.03453839 -1.0196213 -0.16618681 0.73302394 -0.53430194 0.7912597 -0.5347287 0.52945346 -0.58418286 -0.24484695 0.12948942 0.20053786 -0.049789734 -0.5205156 -0.5134816 0.21430512 -0.12845583 -1.0725745 -0.4527184 -0.7066032 -0.23277873 -0.03348537 -0.31137973 -0.16594964 -0.44875073 -0.17508338 -0.38885173 -0.42503577 0.1502362 -0.75351995 0.25069958 -0.3028878 0.46819535 -0.8919603 -0.32786605 -0.61896837 0.56057906 -0.35285825 -0.7929708 -0.26094803 -0.5483257 -0.45823708 0.32837537 -0.5489707 -0.098048516 -0.39909577 0.53078574 -0.038733274 -0.37805566 0.74020684 0.50520325 -0.5625321 -0.1609996 0.4651682 -0.511124 0.19674726 0.19644411 -0.42246848 -0.71608686 -0.0010871096 0.7799675 -0.54233634 -0.04558062 -0.20569524 -0.5929785 0.14708619 -0.52425885 -0.7131777 0.028667817 -0.030161921 0.35385537 -0.7926901 -0.19335496 -0.38137558 -0.26970226 0.43778294 -0.063070245 -0.006876516 -0.047507882 -0.19487214 0.6116091 0.25978726 0.3438764
2006 -0.11264379 1.0376946 0.06506862 -0.15384029 0.33913752 -0.14472064 0.10562038 0.14360227 0.6085511 0.33014905 0.28810617 -0.73530227 -0.048633337 0.10348026 -0.27088755 0.058955975 -0.11064616 -0.30217975 -0.18410157 -0.3599169 -0.00017298613 0.81537414 0.043444093 -0.93518174 0.47236294 1.1147914 0.5199622 0.16694668 1.2063454 0.23185724 0.63270235 0.27231267 0.6358851 0.2992086 0.17133652 -0.32791317 -0.70365727 0.19655395 -0.30978 -0.23459601 -0.63545763 -0.32763374 0.29993683 0.47112754 -0.21986787 0.26487052 -1.0379562 -0.04106583 1.1329745 -0.4063759 0.2471325 -0.796149 0.31885582 -0.014990575 0.23570332 0.31755805 0.20696825 0.09929284 -0.061901145 -0.083367825 -0.1722218 -0.30379558 -0.29635018 -1.0040995 -1.066391 -0.2695464 -0.2685295 0.036560334 -0.63590413 -0.15713565 0.17590933 -0.39844418 0.29478106 0.005104072 0.1853106 0.710537 -1.0723212 0.5502131 -1.0389657 0.30168116 -0.5097992 0.07226579 -0.3144121 -0.9137027 -0.25365922 -0.24307296 0.034341328 0.24826783 -0.27640486 -0.621302 0.06470707 0.32370523 0.17000341 0.34685796 -0.024827113 -0.19743279 0.20441204 -0.16644129 -0.80229396 -0.37615713 0.34317023 0.47862974 -1.0342242 -0.23514268 0.45734313 0.5569681 -0.022258598 -0.41879568 -0.41282633 -0.25938377 -0.1099069 0.14217441 0.019056195 0.18768935 -0.03130699 -0.5643607 -1.6832182 -0.47180414 -0.2901065 0.12907404 -0.1639707 0.6037126 0.30266213 -0.17006402 -0.41295677 0.16552925 0.35389316 0.41076845
163 0.32135487 -0.25482878 0.87080234 0.5334057 -0.2670728 0.4940082 -0.30593055 0.3606974 -0.51857436 -0.45084143 -0.03976172 -1.4053955 -0.5417098 0.57544285 -0.36016586 0.4274178 -0.56617564 -0.36256802 -0.3180625 0.19585384 0.017887464 -0.25250956 -0.053840704 0.37174523 0.28043586 0.025917605 0.54640955 0.5266874 0.6519514 0.5607399 0.8251869 0.0324043 0.5929834 0.19860968 -0.71248287 -0.56801534 -0.4360695 0.40787473 0.07315548 -0.4674824 -0.23473087 -0.5295905 -0.045643877 -0.14019354 -0.47407493 -0.26694328 -0.71635246 -0.68277895 0.1857314 -0.2988488 0.59919006 -0.2108566 0.4165432 -0.44172156 -0.2734915 -0.17039621 -0.12147904 -0.53171206 0.10941077 0.10363711 1.2495338 0.032484185 -1.3298229 -0.6149944 -0.8741162 0.51324105 0.3888728 -0.71660596 -0.01236184 0.43795007 0.040234175 0.114496216 0.07502119 -0.110381365 0.1443106 -0.29173413 -1.3490813 0.31862882 -0.682829 0.24294521 -0.13046072 -0.18569933 -0.7161204 -0.52167475 -0.27293292 -0.583712 0.25017944 -0.54572743 -0.14854747 -0.8467197 0.22772431 0.037528787 0.118689075 0.21733375 0.0385716 0.653334 8.803273e-05 0.9413993 -0.39706975 0.64778894 0.18556963 0.31154326 -0.018503029 -0.6187456 0.8770617 0.6364968 0.02023366 -0.97603816 -0.44322255 -0.37735695 -0.32375106 0.13828559 -0.44498223 0.39594322 0.43165663 0.05329228 -1.0979502 -0.4570376 -0.24193561 0.3483602 0.31803623 0.45901915 -0.018026046 -0.64374346 0.32691318 -0.5914254 -0.0019163786 0.34790277
1683 0.24576212 0.8461392 -0.3793744 0.23096468 -0.088070355 0.036490604 0.2616048 -0.19662593 0.019787945 0.55827993 -0.30629432 -0.39689928 -0.9781362 -0.23899321 -0.51362765 -0.06541721 -0.21925336 0.27543262 0.38665217 -0.38518485 -0.21323046 -0.16784522 0.5082267 -0.35155752 0.39471176 0.057775915 0.8060972 0.6278542 0.5162448 -0.33304557 0.11986176 -0.5024063 0.4389387 0.020455612 -0.22163157 -1.528401 0.61336666 0.031081254 -0.15874287 -0.25438726 0.34989557 -0.03449775 0.17114916 0.20297104 0.03896325 0.1275226 -0.8249503 0.15046729 0.840682 -0.26407424 1.0182813 -1.1096576 -0.20977578 -0.8996979 0.43819183 -0.11296886 -0.09991093 0.3028699 -0.21709172 -0.03412091 0.5170186 -0.5554526 -0.96241397 -0.5859348 -1.0868895 -0.040271033 0.004240962 -0.7664407 0.19429526 -0.43079212 0.2103903 0.13087812 0.16945387 -0.09547411 -0.6040953 0.6011611 0.3152562 -0.05129122 -0.621541 -0.5009608 0.08170058 0.85222995 -0.2165233 -0.27338767 0.07355957 -0.97440875 0.54888254 -0.41921258 -0.16022657 -0.77881426 -0.25277317 0.09735177 -0.4156056 -0.23609827 -0.4358585 -0.18436757 0.13359396 0.34930643 -0.11599662 0.3460341 0.33999354 0.07224408 -0.32388347 -0.18984567 0.33065018 0.4187993 -0.75971735 -0.06020043 -0.18138045 -1.4887977 -0.22754765 -0.15028659 -0.6850355 -0.26356494 0.10452026 -0.93040377 -1.445456 0.27248403 0.2068307 0.19365042 -0.26338166 0.6074628 0.28399834 0.41549385 0.48135385 -0.17539747 0.37315926 -0.52415824
1992 -0.104324766 0.28951713 0.2856907 -0.199531 -0.0032807596 0.27962565 0.43271726 -0.10489704 0.12220063 -0.44036695 0.25700122 0.06776552 -0.26942307 -0.0944215 -0.58161515 0.6917896 -0.53785515 0.10695788 0.039044224 0.051619787 0.7123596 -0.21614648 0.089100525 0.6949783 0.17852421 -0.13783975 0.556383 0.38904235 0.17869338 0.32740626 -0.19872656 -1.0953796 0.25774068 -0.2541009 -0.7254606 -0.79010016 0.8509509 -0.23443213 -0.13040473 -0.08328415 0.28091747 -0.56677866 0.20168918 0.28573427 -0.14801872 0.11734399 -0.19464888 0.3475784 0.79855734 -0.045172215 1.0395172 -0.1553172 -0.087813236 -0.30606315 0.12365085 0.47703147 0.44742766 -0.75704396 0.40448686 0.11658142 0.41665232 -0.3021184 -0.79124767 -1.0356765 -1.3129556 0.52104443 0.46205974 0.048416894 0.11576144 -0.16956839 -0.41361487 0.21621373 -0.18751556 0.5112023 0.360547 0.30631405 0.2792468 -1.013573 -0.5512269 -0.25668463 1.0513047 0.37722838 -0.69654405 -0.8381864 -0.22974724 -0.77903664 -0.5735237 -0.5096939 -0.20611782 -0.98574424 0.69974893 0.11144425 -0.006410438 -0.1434017 -0.20917872 0.17348403 0.42998913 0.41221094 -0.1398424 0.00873941 -0.095425054 -0.306801 0.015844205 -1.0530517 0.59876895 0.70690227 0.051028874 -0.95435554 -0.42972413 -1.1259197 -0.12467001 -0.26999232 0.24379107 0.4869967 -0.12788771 -0.22212227 -0.2539538 -0.15699083 0.3745627 0.06867033 0.26695567 -0.11942375 0.055594996 -0.22052614 -0.19464016 0.51779723 0.55574554 -0.3687223
