9 128
7 -0.0010179033 0.0015130993 0.008838439 0.0042459643 -0.007641337 -0.009407779 0.004909354 0.010769959 -0.0037522141 -0.0017409503 0.011623858 0.001664458 -0.006308157 0.005035487 -0.008662229 -0.0025142112 0.0021449917 0.002048357 -0.009564266 -0.0047706584 0.0106008155 0.0020657843 0.010008188 -0.003376543 0.0040488914 -0.0014835995 -0.00607302 0.00623663 -0.0054996233 -0.0054545444 -0.009845671 0.0016427665 0.0063494076 -0.005967187 0.00027503702 -0.00021673864 0.01187233 -0.002879541 0.0028935198 -0.0027104674 -0.0073337057 0.00793008 -0.008997256 -0.008018943 0.0017454483 0.002911187 -0.0054784953 0.0070993616 0.0021513486 0.009040215 -0.00766876 0.0074371025 -0.0034368415 0.0017153561 0.012614594 -0.0025509445 0.0075294576 -0.0060549593 -0.00048104778 0.005692781 5.9347833e-05 -0.0035811646 -0.0031603368 -0.0056167156 -0.00028061663 0.003672137 0.0045492505 0.00811098 -0.005634806 0.0017822569 0.0029445323 0.006416653 0.0007794689 -0.010241837 0.003931587 -0.0003576946 0.008565471 -0.001008241 -0.0026297097 -0.007524837 -0.0005621778 0.0014118057 0.004180829 0.008564759 -0.0037398739 0.002391772 0.009246432 -0.0038233702 -0.0008477866 0.008984131 -0.0007603137 -0.0022253112 0.0011648993 -0.0022131773 0.0076912595 0.0032253044 -0.010786333 -0.010032082 0.002580797 0.0054439967 -0.01321746 0.006632323 0.0077634733 0.0054549086 0.009590428 -0.0058229812 0.0005561915 0.0006939344 -0.0032071373 -0.009022884 -0.0032771004 -0.005968364 -0.0067472546 0.0015664073 0.0052763224 0.0074199694 0.007399255 0.009964569 -0.002478484 -0.00013031844 0.0009978062 -0.0040220194 0.008304865 -0.010336065 0.0032462806 0.0034440197 -0.004102807 0.0040363194
3 -0.0027242142 0.006644468 0.014884306 -0.008461477 -0.00015092874 -0.011228889 0.0027662374 0.008297426 0.0064524305 0.006803073 0.016873129 0.011844155 0.001442826 -0.0061004614 -0.014735464 -0.001018643 -0.0023074117 0.008594122 0.0014087986 0.0051580137 0.0099826595 -0.0016486207 0.013111217 -0.014312879 -0.002422009 0.0049082637 -0.009260147 0.00913119 0.008941254 0.0010103963 -0.0062606945 0.008870263 -0.009579567 0.0034318168 -0.0004934331 -0.0002670033 0.012321765 0.0074574505 0.012205539 -0.0032915748 0.006597705 0.012019236 -0.0044021322 -0.0146774715 0.007852696 0.010626331 0.0010956308 -0.00688799 -0.008704292 -0.00050509337 0.0021749146 0.002577496 -0.0070359055 0.005719049 0.014345166 -0.0039607394 0.006866403 -0.0024876848 0.0039532348 -0.012776843 0.00486565 -0.010903298 0.0013261398 -0.0007707841 0.0038527513 -0.0028608814 0.0062683006 0.008834314 -0.0013697373 -0.0011327387 -0.00910539 0.0018871138 0.0025271205 -0.0011125711 -0.0050767935 -0.0024529211 0.008861308 0.0047490243 -0.0030050622 0.0028817274 -0.0065183416 0.0026153 -0.004495192 0.0025830695 0.009661294 0.0015158211 0.013429702 -0.00538059 0.00790467 0.013048964 -0.009255874 -0.008652575 -0.009034254 -0.007669861 -0.0019190632 -0.0081271455 -0.00013004136 -0.010693862 0.009281018 0.0051918426 -0.015935171 0.010129437 0.009423381 -0.005268737 -0.00026777264 -0.001746611 -0.0073852167 -0.008567431 -0.0026637742 -0.0048127146 -0.0040620714 0.0010723069 -0.008477907 -0.00636366 0.004794989 0.007293214 0.007265678 0.0099781575 0.002163515 -0.0030840072 -0.00581098 -0.00023412863 0.0023024664 -0.0057699834 -0.009447358 -0.0051505356 -0.0057015647 -0.0034941197
5 -0.0019354542 -0.0023723308 -0.00070359284 -0.006619189 0.0040063267 -0.0068416274 0.0068736854 0.0054888586 -0.0054037473 0.009104553 0.0119779715 0.0071321586 -0.00958321 0.005239677 -0.001939702 0.0039933617 0.0039380454 0.0025525172 -0.005442741 0.011465029 0.014040105 0.000711915 0.0025634682 -0.0048745233 -0.00053087244 -0.0059905252 -0.012904566 0.0011379392 0.0018234423 -0.007889785 -0.007692496 -0.0037469293 0.0054374984 0.0003249733 -0.0013588548 0.0072150542 0.014296649 -0.00071336364 0.009900387 0.00557408 0.0050811386 0.0046112956 0.005680691 -0.011321844 -0.0044704624 0.011464973 0.0010074634 -0.0023754607 0.001427236 -0.0015222352 -5.326577e-05 0.010547495 0.0054837265 -0.0048175096 0.015010448 0.004871739 0.007882095 -0.0052212426 0.010193356 -0.0051893215 0.0086706225 -0.009190534 -0.006448247 0.005973446 0.002683588 0.001060258 0.013949983 0.012095678 -0.013156773 0.0028699609 0.0040581976 0.002707208 0.0041418923 -0.0018687838 0.0013130138 -0.0039934944 -0.003998173 -0.0024839416 0.0026520174 0.0069685625 0.008448884 -0.006395392 -0.008850598 0.011050373 0.0041162223 0.0048924778 0.01041074 -0.002390091 0.008209923 0.0059725177 0.00043745918 -0.0052798837 -0.004553393 -0.0051357383 0.0036469311 -0.00013205063 -0.012383986 -0.012428175 -0.0038706649 0.00051224075 -0.005298506 0.012642739 0.008000333 -0.0027011097 0.004947556 0.0039610644 0.005970375 -0.0056140567 0.0018899664 -0.009885031 -0.0049865753 0.008229336 -0.004819547 -0.0139044635 0.008514134 -0.0017873379 0.0019606198 0.012755102 -0.0013504389 -0.0039595696 -0.005144561 0.0059269518 -0.0037662818 -0.0009809958 -0.0062327627 0.0069375504 0.0049701566 0.003744196
4 -0.0052740374 -0.005684965 0.0138378125 0.0027808205 -0.006165024 -0.01666394 -0.013128425 -0.0003534389 -0.0034964927 -0.004586089 0.017526206 0.0037907136 0.0054341904 -0.013137698 -0.003986131 -0.012660499 -0.010125559 0.004783896 -0.008758044 -0.005488181 0.0034401335 0.002510218 0.0035799008 0.0048193517 -0.0039811386 0.01370341 -0.008028885 0.0054490217 -0.007059179 -0.00027196828 -0.010989957 -0.004478487 -0.006343614 0.0057665743 0.01005146 -0.0035137064 0.00095219986 -0.010956946 0.0111589795 0.009837739 -0.001553784 0.0063716774 -0.004618798 0.0081454115 -0.006020135 -0.0018842344 0.006578467 0.00017971091 0.0038595526 -0.011512233 0.014897852 -0.010489517 -0.0025494436 0.0071096984 -0.00029242536 0.003983849 0.00012906762 -0.011365858 -0.01199157 0.0145420525 0.010108331 -0.007570492 0.0052901153 0.0031523705 0.0030296978 -0.006959032 0.0074669383 0.007532868 0.016552666 -0.009352706 -0.0016775988 -0.015376662 -0.012822618 -0.017780837 -0.00297681 -0.0051052715 0.0076823356 -0.007656705 0.0069467057 0.0033319807 -0.008662217 -0.0030017071 0.019475123 0.015161679 -0.0067790565 0.008252644 -0.0059889383 0.006728636 -0.0012465647 0.0027409452 0.0024905868 0.009417016 -0.0029690957 0.012600975 0.0113059115 -0.01325482 -0.012046454 -0.011196525 0.008934296 -0.0045927614 -0.013472151 -0.007512929 0.010630768 0.0038091296 -0.00764875 -0.004872849 0.004847316 -0.012493566 0.006286117 -0.0078188535 0.0066669844 -0.0107926065 0.008414564 0.0070143533 0.0007314844 0.0021360582 -0.01102579 0.0014852354 0.0023555495 -0.0078015234 -0.013096813 -0.0020777287 0.005797085 0.003976967 -0.012438822 -0.013288627 -0.008996562 -0.00797072
6 -0.008706487 -0.010562954 0.002781669 -0.007238017 -0.008033162 -0.011287919 -0.007295249 -0.00142161 -0.009400987 -0.002504728 0.01384263 0.008858674 -0.0048448923 -0.008362728 0.0011774078 -0.013785451 -0.0023418972 0.00788045 0.002155681 -0.010057649 -0.0032393103 -0.007449064 0.0017203869 0.010060944 0.0041265986 0.009978244 0.0017866563 -0.0011690147 0.0067095417 -0.007034368 -0.010906961 -0.0030489538 -0.0033768238 -0.0012547148 0.0034866147 0.0058583524 -0.00043629677 -0.0049239043 0.006123098 -0.0044218027 0.0067211734 0.01063422 -0.011188421 0.0051502315 0.0077684657 -0.007927049 -0.004354098 -0.0072460063 0.008999382 -0.004194529 0.013703647 -0.011052712 0.002648517 0.005222645 0.00053788465 0.00385763 -0.0069159307 -0.012305508 -0.0018268797 0.010818036 0.010602469 0.0028461828 0.0013708974 0.008884535 -0.007817386 0.0011600428 0.003181341 0.0060960418 0.012730364 -0.00978828 0.004166944 -0.01466784 -0.0049375324 -0.014769578 -0.0057526254 0.0071297307 0.0013435486 8.677524e-05 0.010899189 0.009214035 -0.010962023 -0.003911904 0.016545925 0.010025831 -0.003892862 -0.005594703 0.0007704533 -0.0036467188 0.0071242778 -0.0033658075 -0.00051715365 0.004145272 -0.0010551736 0.0054437933 0.009173906 -0.0045982846 -0.0070166606 -0.0051846984 0.009283149 -0.00051020173 -0.006054101 0.006123347 -0.00078454014 0.00088199804 0.0064184307 0.0044158874 0.0030216707 -0.013267398 0.002956178 -0.004985997 0.011026825 -0.0026399659 0.0042199627 0.004624466 -0.0015292385 -0.0039818888 -0.0034461536 -0.0016630798 0.007309353 0.006259557 -0.0050064577 0.0017176914 -0.0032624386 0.0026028939 -0.010974371 -0.012893223 -0.008723568 -0.011554645
8 0.0055933376 -0.0042645168 0.009645431 -0.0077953856 0.0027306965 0.005370793 -0.0061774584 -0.005692711 -0.003922892 -0.0011893684 0.0038613565 -0.0054573035 -0.009445296 0.0027144172 -0.009746649 -0.007993585 -0.0017349882 -0.006386974 -0.008168391 -0.0049414 0.003463253 -0.0047915415 0.008395482 -0.0011693338 -0.0032897727 0.005389937 -0.008826614 -0.0028123185 -0.0059461514 -0.0055545536 -0.004329211 0.006421985 -0.0024470352 0.0038630757 0.0069481423 -0.0050138603 0.007877895 0.005885647 -0.0002949612 0.0064177117 0.0051884246 -0.0027671494 -0.0066420357 -0.001120741 -0.0006345432 -0.0027002834 0.008203224 -0.0043842755 -0.0062359753 0.0010107837 -0.0031696463 0.0033032706 -0.002707564 5.697828e-06 0.0037711472 0.0014967555 0.009632604 -0.005573649 0.00040937602 0.0036758462 0.007969047 -0.0063941237 0.0071147243 0.0073030954 -0.003028438 0.0014603297 0.0073908865 -0.000332526 -0.0074321274 -0.0051730894 -0.0009000402 -0.0001485343 0.0049867984 -0.0041288864 0.00037657245 0.0013502467 0.0054648705 -0.0004986218 -0.0054346137 -0.007857035 0.000608448 0.004670796 0.0008909096 -0.0048967795 -0.0061869775 0.0062892023 1.0796117e-05 0.0050509144 -0.00431207 0.0094895 -0.0064031878 0.0011387465 -0.0019183026 -0.0072249705 -0.0021879985 -0.0012672156 -0.0077303243 -0.004391736 -0.005504761 0.0025150601 0.0033855536 0.00086291897 0.0017726861 0.003532504 0.009836168 -0.0053448365 -0.0054713525 -0.0050135097 0.0070998766 -0.0024205423 -0.009239048 -0.0005768057 0.006256503 -0.009256778 -0.002379812 0.008706045 -0.0061229253 0.0063024135 0.00068608124 0.005475682 0.0061893747 -0.0023811487 -0.0023910224 0.00572574 0.00038704247 0.0063662836 -0.0076727946 0.00867286
1 -0.0017889611 -0.004198998 0.0062400256 -0.0042100763 0.0046686376 -0.005716757 -0.003025562 0.0055687753 0.0071317703 -0.0021194026 0.00794546 -0.003432338 -0.009148135 -0.00021010301 -0.011578966 0.0023242966 0.0017811822 -0.0005256002 0.0020544685 0.012811186 0.012853813 -0.0035621552 0.0058402987 -0.0077838753 -0.0081633795 0.005833911 -0.00743698 0.0007066883 9.852526e-05 -0.0066740387 -0.00026019302 -0.0018328066 -0.009213792 0.007916034 0.0051083756 0.010289975 0.011914609 0.0047586127 0.01193739 -0.0024504387 -0.0043532336 0.0074577685 0.0028350584 -0.010022241 0.009809432 0.0012036 0.008980838 -0.0007845907 -0.0071797743 -0.000830529 -0.007296027 0.001710507 0.0015739875 0.008841252 0.01469665 -0.004293914 0.006851005 0.0013567302 0.0013755764 -0.011380987 0.002984946 -0.011447606 0.0050824345 -0.0038047042 0.0058383024 0.010181941 0.0057878443 0.008166495 -0.006110107 0.0066710566 0.0024156247 -0.008035169 0.00016007022 0.00130817 0.00014923658 -0.0018974579 0.00018085889 -0.0020350567 0.0004563683 0.004339854 -0.0026021414 -0.0048521277 -0.0016837476 0.0033839731 0.0017625313 -0.003207141 0.008620201 -0.0022042522 0.0046042213 0.0039063175 0.0031203271 -0.008820667 -0.007905367 -0.0065963943 0.007982336 -0.0019089 -0.011876847 -0.0049296655 -0.002587961 0.0054812497 -0.013952755 0.0074723475 -0.0042298734 0.0009876462 0.0086402595 0.006596983 -0.0062793535 -0.0095960535 -0.006820091 -0.011229941 -0.011419176 0.00036486384 -0.003392816 -0.011934485 0.009284309 0.0018038673 0.0073617245 0.0057015023 0.001222514 -0.0065623145 -0.0031909235 0.0043919394 -0.0040967604 -0.0011182085 -0.00026992135 0.00010579568 0.009557903 0.007928657
0 -0.0011919726 0.018402362 0.016806979 -0.016891534 -0.0062232506 -0.016114134 -0.01874465 0.021660468 0.0025800082 -0.0069990167 0.0034606135 0.017498696 -0.0068822023 -0.009717753 -0.0062942854 -0.007176471 -0.004569264 0.003936682 -0.013260065 0.025529796 0.00878318 -0.027183041 0.015616763 -0.018757805 -0.004837706 0.011106428 -0.019778423 -0.0030046331 0.012138186 -0.009869851 -0.017796505 0.020569893 -0.0097947605 -0.010738619 0.024510982 0.013350343 0.008541092 0.017670905 -0.0112537 0.012928168 -0.0022108238 0.016842552 -0.0048328205 -0.0011471799 0.0137258135 0.013346293 -0.0034936606 -0.00371064 -0.004780299 0.0128939375 -0.0057928683 0.022597542 0.012388076 0.010881064 0.009634148 0.022007322 0.004937324 0.02111593 0.014662257 -0.012411076 -0.01290994 -0.0063264384 0.0062871524 0.0012139487 -0.00031231332 0.020647194 0.029890714 0.0026348075 -0.014087832 -0.005537474 -0.014971614 -0.020469436 0.010779696 -0.016149478 0.007911792 0.0046828254 0.0014423451 -0.014162914 0.004273457 -0.009473684 0.0055205324 -0.013619601 0.01385848 0.01017548 0.0050154408 -0.0076185665 0.0050867517 0.016878648 0.0040271827 -0.0101660695 -0.013386744 -0.0041148984 0.008660852 0.0046421853 -0.020021588 0.009905099 0.00047707208 0.003710042 0.023337925 -0.020333063 -0.03313472 0.010444393 0.01828721 0.012516261 0.020587115 -0.0033735554 0.013942046 -0.02950846 -0.017050423 -0.01807756 -0.01042084 0.011183453 -0.009792874 -0.02086812 0.014592544 -0.01028316 0.013801418 -0.0064183553 0.010008094 0.014900346 0.0014986828 -0.007417653 0.01410528 -0.019421702 -0.010391582 0.0009727403 0.016371738 -0.010935426
2 -0.008142246 0.016936267 0.012351705 -0.015567307 0.0033036268 -0.007821175 -0.01554673 0.016298369 0.011638267 0.0047353096 0.0119734295 0.017397022 -0.002894707 -0.007986674 -0.013251496 -0.0051237997 -0.004510399 0.0025904083 -0.016399989 0.025079068 0.00088128983 -0.025342586 0.009140103 -0.015413604 -0.011559429 0.00803725 -0.02056646 -0.002147543 -0.00013252611 -0.005026727 -0.009435708 0.013946644 -0.0123948995 -0.008699372 0.023581808 0.012825618 -0.0014029085 0.008142996 -0.0029369558 0.010613986 -0.011503344 0.017418703 -0.013356691 -0.0111807 0.013129163 0.0063010007 0.0017528452 0.007140437 -0.0077180807 0.019000338 -0.0024792652 0.02659542 0.013517753 -0.002591775 0.0055025723 0.02090806 0.01110335 0.0220697 0.017676076 -4.558714e-05 -0.018016146 -0.0012187144 -0.0016284907 0.0045000114 0.0068528266 0.018227626 0.029029256 0.0051903883 -0.011838255 0.0029046629 -0.016072309 -0.012333599 0.017798029 -0.017265242 0.00923199 -0.006299399 0.012874684 -3.503885e-05 0.0036122792 -0.0007572922 0.0049589984 -0.015640175 0.006800494 0.014732717 -0.001309785 -0.00851546 0.010881977 0.013120582 0.0013481663 -0.007372733 -0.002893535 -0.010010139 0.001060845 -0.00537154 -0.016869763 -0.003466511 -0.006246211 -0.009190089 0.016968705 -0.02146933 -0.034506835 -0.00038766794 0.0060100947 0.015282934 0.018506566 -0.0022792718 0.0052065863 -0.028018149 -0.010574265 -0.012672701 -0.0076841763 0.008082318 -0.006653338 -0.014833725 0.0017959119 -0.011660277 0.0007937302 -0.0032121204 0.008294962 0.017212067 -0.0016446565 -0.0073689185 0.019926019 -0.013458669 -0.009978361 0.010421936 0.012830903 -0.012234943
