9 128
5 -0.00043126667 0.0002014017 0.0043741544 0.0069873314 -0.0073638693 -0.005817962 0.0051981206 0.007199594 -0.0039644763 -0.0028371203 0.006263524 -0.0010775656 -0.003683288 0.0051743495 -0.0041974513 -0.0015180104 0.0022481952 0.0008824493 -0.006664083 -0.0075130076 0.006063238 0.0040518814 0.005651539 0.0003933448 0.004996256 -0.0026244365 -0.0010107765 0.0047449656 -0.005936316 -0.0031724484 -0.0061340183 -0.0006089157 0.00746583 -0.005705263 -0.0018605645 -0.0016133569 0.006749506 -0.0046169916 0.00031941794 -0.0037651954 -0.007464058 0.004142193 -0.0070786416 -0.003784116 1.5349871e-05 -6.2208856e-05 -0.005989559 0.0075069005 0.003794261 0.0072978623 -0.0064486493 0.0036337934 -0.003450419 0.00070163904 0.0070763724 -0.003629142 0.0038250661 -0.0055938694 -0.0027667608 0.007346932 -0.0010175413 -1.7067108e-05 -0.0032546646 -0.0060341083 -0.001146685 0.0018615365 -0.00053632323 0.0046070246 -0.0022742646 0.0017432178 0.004235105 0.006731638 -0.0010977391 -0.007386208 0.0033839033 0.00038355304 0.0061174864 -0.0005603658 -0.0021933953 -0.0069413856 -0.00076603505 0.0023431429 0.0041860016 0.005663452 -0.0044438643 0.0016286134 0.0050924188 -0.0039032788 -0.002364135 0.0057781013 0.0011242549 2.5906626e-05 0.0025570185 -3.141683e-05 0.00768613 0.003836823 -0.007244737 -0.0059118504 0.0007584135 0.0052419626 -0.007050429 0.0031065424 0.0043242197 0.0044792313 0.005979192 -0.0049818167 0.00071388227 0.0046691806 -0.0021713953 -0.005022361 -0.00045908123 -0.006661289 -0.004526411 0.005476219 0.0027247681 0.005979301 0.0054292893 0.00629979 -0.0030086904 -0.00051638135 0.0017832487 -0.0035873184 0.0066617993 -0.007844423 0.0052132835 0.0023082155 -0.0041348445 0.0035538843
3 -0.0014154555 0.005301141 0.008026762 -0.0034674683 -0.0005333315 -0.004679554 0.003102715 0.0023636702 0.0053977882 0.0048540845 0.007799328 0.0074048177 0.0061098337 -0.0054720766 -0.0074018873 -0.00031682366 -0.0024223991 0.0062911026 0.0045497357 -0.0011994771 0.0014115779 0.0014168086 0.006341232 -0.0076038092 -0.00014900479 0.0027405685 -0.0009158396 0.00671455 0.00707174 0.0050509498 -0.00073590124 0.006105588 -0.006697147 0.0024956283 -0.0036366521 -0.0039728577 0.0030736653 0.004218756 0.0062755956 -0.0045578694 0.005821402 0.005393389 -0.0030336578 -0.0070917313 0.0043290835 0.0052368203 -0.0006477138 -0.0052500316 -0.0055954643 -0.0018869189 0.0039943038 -0.002763565 -0.0074234866 0.003046273 0.004118078 -0.005085484 0.0011065003 -0.0017482952 6.63181e-05 -0.0077818558 0.0021964982 -0.0038798384 0.00081254635 -0.0012673095 0.0017616239 -0.006170951 -0.0019890522 0.0022913576 0.0041058282 -0.0018624096 -0.007480648 0.0036090577 0.00010617799 0.00227567 -0.0053462824 -0.0011225723 0.0061730975 0.0057890727 -0.0029129218 0.0020590522 -0.006569211 0.0048783054 -0.0036421684 -0.002322277 0.0073377467 0.00074092456 0.006107691 -0.0048562875 0.004127632 0.00800263 -0.00669888 -0.0041307593 -0.0056289164 -0.0039132596 -0.0028640993 -0.0067530773 0.0060640844 -0.004048672 0.006690204 0.004228607 -0.0054195807 0.0032807016 0.004457952 -0.0058158897 -0.0056996197 -0.0019984338 -0.0068073715 -0.0013321204 -0.00034652845 0.0024234045 0.0010604729 -0.0007319064 -0.0045208046 0.0012899498 -0.00059836044 0.005458183 0.0032295038 0.0037794414 0.0011159405 -0.0021595699 -0.0034910657 -0.0008297921 0.001215593 -0.0022100161 -0.0056219087 -0.0061143036 -0.0072431006 -0.0046348837
7 -0.0014487135 -0.0033789356 -0.0049108705 -0.0029773072 0.003357427 -0.0030297006 0.006606932 0.001279225 -0.00569101 0.0074523464 0.0061811903 0.004365986 -0.005448175 0.0045843874 0.0029802634 0.004033863 0.0033358852 0.001553421 -0.0025747335 0.0065648328 0.007696598 0.0029780397 -0.002075346 -9.978451e-05 0.00094107824 -0.0066127484 -0.00660056 -0.00010635332 0.0009565255 -0.0045601674 -0.0038157431 -0.0057041007 0.0065181158 0.000114150374 -0.003519425 0.0044578067 0.007389977 -0.0031813884 0.00636341 0.004235147 0.004642941 0.00049310125 0.0063748974 -0.005655211 -0.006448944 0.007384463 -0.00012620632 -0.0015639488 0.0035512904 -0.003186185 0.002119883 0.0055257445 0.0047008893 -0.005871904 0.0075464803 0.0036430112 0.00324767 -0.004984571 0.006671872 -0.0017190153 0.0070116706 -0.004338217 -0.006374041 0.005366571 0.001335254 -0.0017297203 0.0075777424 0.007565012 -0.00775844 0.00195803 0.0048046703 0.003092063 0.0016252928 0.0002676246 0.0005233705 -0.0030307947 -0.0054994393 -0.0016261279 0.0030311802 0.0068881162 0.0072522885 -0.00466102 -0.0074067507 0.0077245245 0.0027061622 0.0041254153 0.00506396 -0.002231113 0.0057799453 0.002395185 0.0021845358 -0.001928285 -0.0025239359 -0.0019512408 0.0033921169 1.2604074e-05 -0.0076406095 -0.0077457847 -0.004806908 -3.1696105e-05 0.0014292995 0.007505904 0.004495606 -0.003365306 0.00029414857 0.0038429862 0.0059918086 -0.0009636141 0.0034081372 -0.0046600085 -0.0007179459 0.006342469 -0.001906787 -0.0076737194 0.0045920024 -0.0029713253 -0.0009204217 0.007995133 -0.001779116 -0.0037555937 -0.004204469 0.0054646917 -0.0044479384 0.0016119828 -0.004171637 0.0048354557 0.0033450546 0.002097908
4 -0.0011924257 -0.002143323 0.007063163 0.0040440517 -0.0016931824 -0.0074534044 -0.005824661 -0.0008173402 -0.0006408754 -0.001969882 0.007649424 -0.00029823606 0.0045917346 -0.005849813 -0.0019743147 -0.004369688 -0.005601436 0.0009967509 -0.005656763 -0.0017375745 0.0029251596 0.004542763 0.0009533751 0.001637961 -0.0032223724 0.0056645656 -0.0049901875 0.0036455672 -0.0064281356 0.0015788159 -0.003943429 -0.003318752 -0.002435914 0.0044161202 0.0045627984 -0.0038830673 0.0006213601 -0.006663115 0.0061414097 0.007281201 -0.002125214 0.00066211156 0.0005608902 0.004266981 -0.006748074 0.00048544005 0.005375097 0.0017370197 0.0008907663 -0.007297775 0.0066839005 -0.004872447 -0.0023228894 0.0027128046 -0.0005835456 0.0011512127 0.0014146058 -0.0053628846 -0.0075801224 0.007102479 0.0048745535 -0.0054261843 0.0026441973 0.00020516879 0.0037247245 -0.0055829077 0.0032204648 0.0034407745 0.0077884397 -0.0035224685 -0.0011049081 -0.005743638 -0.0075742803 -0.007160579 -0.0008019077 -0.005108015 0.0038167844 -0.0048248773 0.0019946564 0.00060605846 -0.002647153 -0.00079307496 0.0078241285 0.0072177034 -0.003491818 0.007125408 -0.00439152 0.004654259 -0.002401385 0.002697482 0.0023510936 0.0053999936 -0.0018692864 0.006868582 0.005933112 -0.007505026 -0.006302184 -0.0060367654 0.0023188537 -0.0022206795 -0.0054696295 -0.0063457955 0.006548174 0.0015640985 -0.0072917957 -0.003757266 0.0024835838 -0.0037450988 0.0041546035 -0.00334036 0.0020823507 -0.0062804297 0.0048601856 0.0037494737 0.00061664265 0.00234281 -0.006858876 0.0016930841 -0.0006702659 -0.007277319 -0.0074106692 -0.0011042748 0.0034896664 0.0028966519 -0.0051432583 -0.0053766603 -0.0039300127 -0.0018282662
6 -0.0057101906 -0.0074618435 -0.0020353985 -0.006635974 -0.004756744 -0.0045339656 -0.0019348507 -0.0012697068 -0.0069913645 -0.00058534933 0.006471846 0.0061222385 -0.0056437743 -0.0029585022 0.0023766698 -0.0075665205 0.0011078843 0.005153053 0.004450314 -0.006797804 -0.0035185164 -0.0064845933 0.00011613773 0.0071866065 0.00464379 0.0040588346 0.0038751026 -0.0025283198 0.0075287973 -0.0057844515 -0.005779012 -0.0016889032 -0.000695702 -0.0025348186 -0.0003561434 0.0058978307 -0.0005223584 -0.0012199308 0.002157094 -0.0065012504 0.006163087 0.0067831473 -0.007571529 0.0019023004 0.007825397 -0.005968099 -0.005449824 -0.006091781 0.0065448885 -0.0005085385 0.007199258 -0.0063428693 0.0029532544 0.002116088 0.000616264 0.0019010626 -0.005826585 -0.007285285 0.0018800494 0.0047980538 0.006237509 0.00445479 -0.000571583 0.0065339427 -0.0073069725 0.002713589 0.0003294408 0.0030512507 0.0057912758 -0.005316692 0.0042890306 -0.007561622 -0.0006024838 -0.006904574 -0.0039930744 0.007279208 -0.0013986251 0.0022561953 0.007130938 0.0069940793 -0.0064605204 -0.0024020192 0.007828671 0.004057477 -0.001230231 -0.006828503 0.002348829 -0.0051713698 0.006394717 -0.0034996334 -0.00089767796 0.00077505247 -0.00015178169 0.0009137154 0.0047280057 -4.7632282e-05 -0.0025531012 -0.0012164318 0.004742272 0.0011113256 -0.0007298067 0.0073334193 -0.0037782888 -0.00061531796 0.00724199 0.0052635367 0.0011993835 -0.007111631 0.0008627243 -0.0018574953 0.0073244176 0.0009630785 0.0011492185 0.0018305373 -0.0014113252 -0.0039368547 0.00019562388 -0.0015911475 0.0052254675 0.0070582437 -0.0005576574 0.0022971656 -0.004718197 0.0012785695 -0.0055142487 -0.006848827 -0.004618279 -0.0070967586
8 0.0056844256 -0.0045006503 0.0067114774 -0.005719109 0.0026190795 0.007379744 -0.00601005 -0.0076202913 -0.0034707417 -0.0020220259 0.00012842548 -0.006808952 -0.0068926513 0.0022614065 -0.006653932 -0.0071619935 -0.0018197051 -0.0067037633 -0.005743465 -0.0065871817 3.7833706e-05 -0.0035470012 0.0054224087 0.0010648828 -0.0025964906 0.004772479 -0.0049659293 -0.003517142 -0.0057180026 -0.0035150906 -0.0016484465 0.0051399097 -0.0020983284 0.0038142665 0.0054331454 -0.0058611156 0.0038910138 0.0047837226 -0.0021510078 0.00523863 0.004793028 -0.004886789 -0.005429755 0.0017574512 -0.0012946106 -0.0045956797 0.007425775 -0.00398252 -0.005154828 -6.0157736e-06 -0.0021796084 0.0005314393 -0.0028335147 -0.0003364617 -0.00024061928 0.000646198 0.00664421 -0.004660258 -0.0012371171 0.0044070366 0.006523291 -0.0036633667 0.0069827815 0.006476035 -0.003445823 0.00023911036 0.00356565 -0.0028529826 -0.0045236857 -0.005104811 -0.00052054884 -0.000112718895 0.0035522573 -0.0021260742 -9.9964454e-05 0.0018656543 0.0039808652 -3.4114248e-05 -0.005018501 -0.0073249666 4.5607376e-05 0.005233088 0.001137598 -0.006831148 -0.006235295 0.0052661696 -0.0027391412 0.0048505208 -0.0051891813 0.006908976 -0.005177185 0.002504614 -0.00089303515 -0.00542386 -0.002472161 -0.00094564905 -0.0045412933 -0.0012530326 -0.0058937585 0.0021614265 0.0068531497 -0.0016835652 -0.00053312007 0.0027959351 0.006938346 -0.004744908 -0.0053922446 -0.002378882 0.007191712 0.00048064522 -0.0069060773 -0.0011697041 0.007318174 -0.0060248678 -0.0040857266 0.0074580577 -0.0069632814 0.0032867047 0.00048539808 0.0051874113 0.0064688036 -0.0022674354 -0.003023208 0.0068471674 0.001575605 0.0049850405 -0.007512655 0.0075908857
1 -0.001077964 -0.004691677 0.002543812 -0.00039441843 0.0036114054 -0.0019327307 -0.0031585416 0.0019014931 0.0065462943 -0.0038632154 0.0023282818 -0.0061538178 -0.0053355712 -0.00037289603 -0.007064381 0.0021327499 0.0012483121 -0.0017255388 0.0038728428 0.007557645 0.0067607784 -0.0014496116 0.0018091511 -0.0032565785 -0.0064165527 0.0049468367 -0.0016191984 -0.00038807292 -0.0013519388 -0.0035736635 0.0030545853 -0.0032478315 -0.007523323 0.0069884453 0.0032255468 0.0071845264 0.0053932914 0.0023278277 0.007801284 -0.003544224 -0.0052945106 0.0034585067 0.0027777923 -0.004615684 0.0076780003 -0.0027005703 0.0074321646 0.00063043006 -0.0050173565 -0.0014890488 -0.0058016162 -0.0022943655 0.00068978354 0.0074806768 0.007529051 -0.005251848 0.0028297817 0.0016645176 -0.0019416976 -0.0072638895 0.00087764143 -0.006497741 0.0049403775 -0.004579478 0.004336511 0.0076668714 -8.28379e-05 0.0036697234 -0.0014438946 0.005743182 0.003036772 -0.006953937 -0.0018565514 0.0027580007 -0.00011408302 -0.0009448857 -0.00066457706 -0.001244003 0.00041018846 0.003216128 -0.0034197478 -0.0029218171 -4.830571e-05 0.00026307916 -8.823365e-05 -0.003705634 0.0035591624 -0.001804332 0.001700296 0.0007370686 0.0045692017 -0.005434906 -0.0054101194 -0.0036022337 0.007441083 -0.0013014657 -0.0074495045 -0.0005976051 -0.0033955493 0.0048239618 -0.0076877545 0.0023750411 -0.0071166363 0.00095786987 0.004759603 0.005715799 -0.0060604094 -0.004771246 -0.005368138 -0.0062743966 -0.007476174 -0.0017233732 -0.0007633461 -0.005686087 0.005359984 0.0010347499 0.0046664397 0.0013266709 0.00061417953 -0.005783415 -0.0017270995 0.003343627 -0.0039149937 0.00077866914 0.0022105065 -0.001234615 0.007626009 0.0065428927
0 0.0017873534 0.005952809 0.0049129776 -0.0047218623 -0.004099859 -0.005434764 -0.006525693 0.0068866764 -0.001444322 -0.005424674 -0.0031228587 0.0043970244 -0.0023611456 -0.003126179 0.0010938349 -0.0023775653 -0.0013549284 0.00088004547 -0.002719962 0.007146441 0.003073661 -0.008427389 0.005147994 -0.005584729 0.00044311202 0.0036716836 -0.0044158846 -0.0017562151 0.0064147455 -0.0034978313 -0.0062953443 0.0076399413 -0.0018973516 -0.0039674602 0.0072912476 0.0036177514 0.003377887 0.0075212326 -0.006869585 0.0044021923 0.0014143382 0.0036302686 0.0010453787 0.0034411852 0.00379414 0.0049150074 -0.0025543068 -0.0035061608 -0.00042540324 0.002391057 -0.0026295849 0.005297684 0.0035693105 0.006126182 0.0020810314 0.0068912283 -0.00092955126 0.0068085166 0.0032592497 -0.0062944395 -0.0034609302 -0.0019319388 0.00387968 -0.0005779004 -0.0021939692 0.006582492 0.007958077 -0.0012311937 -0.0043005976 -0.0037510716 -0.0041313097 -0.007899264 0.001413292 -0.0037550656 0.002197873 0.0044039506 -0.0029979222 -0.007670196 0.001311961 -0.0054079215 0.0020771318 -0.003286388 0.0058553717 0.000778357 0.0027415524 -0.0023367635 -0.0012259817 0.0063739847 0.001101853 -0.0048316503 -0.0063049328 0.00086823525 0.0052251955 0.0043749427 -0.0074654147 0.0068204016 0.0031048683 0.005813264 0.008084547 -0.0062305364 -0.0077829342 0.004610993 0.007595531 0.0031220908 0.0060318434 -0.0013273543 0.006468349 -0.008069306 -0.006558099 -0.0055099614 -0.0032904316 0.004096602 -0.003109733 -0.0068523334 0.006694582 -0.0032036502 0.0068288725 -0.0039984225 0.00328521 0.0043099676 0.0019223233 -0.0024154745 0.0026528093 -0.006814119 -0.0023682953 -0.0018726212 0.005958316 -0.0030003109
2 -0.00520873 0.003576361 -0.00023339406 -0.0030013376 0.005347424 0.0029028277 -0.00326441 0.0007906238 0.0072148954 0.0060178074 0.005008942 0.0038395505 0.0018220156 -0.0015634972 -0.0050441935 -0.00031835624 -0.0012789764 -0.0004052899 -0.005011205 0.006072283 -0.005141073 -0.005969914 -0.002039179 -0.0013466415 -0.0060441704 0.00067281164 -0.0043368298 -0.0010481311 -0.005644287 0.0014554231 0.0024196636 0.00017753096 -0.004397559 -0.0014567506 0.005802132 0.0030726912 -0.0069405665 -0.0025085106 0.0017287814 0.0017828482 -0.007443491 0.0037522267 -0.006856181 -0.0057869796 0.002893992 -0.0026311215 0.0027613824 0.0069340467 -0.002847165 0.007436841 0.0013157486 0.007917434 0.004609298 -0.0070770863 -0.0025623562 0.0053441157 0.0044122 0.007052655 0.005577917 0.0061997306 -0.007848531 0.003347744 -0.0038823886 0.0027832892 0.0047406284 0.003651338 0.006163091 0.0011790075 -0.0010896932 0.004466665 -0.004578499 -0.00019711202 0.00752839 -0.0044537783 0.0030569304 -0.0063099577 0.007678499 0.0062927976 0.0010652071 0.0039372593 0.001135064 -0.0052057095 -0.0009706299 0.0051457994 -0.0035779916 -0.0032423013 0.0038974439 0.002290093 -0.0014066214 -0.0023936073 0.0045961277 -0.0045242533 -0.0024572264 -0.0050422233 -0.0035294895 -0.0066530104 -0.0034746265 -0.0066196527 0.0013410831 -0.0069766818 -0.008088388 -0.0063564666 -0.005182273 0.0053623407 0.0031636287 0.0002672048 -0.0021976023 -0.006130061 0.0002540249 0.00024417965 8.2357525e-05 0.0007807297 0.0005392749 -0.0002335168 -0.0061741606 -0.0047350577 -0.0064646937 -0.0011331445 0.00154476 0.0059921104 -0.0015260151 -0.0018937045 0.007573396 -0.000106448286 -0.0019978292 0.0067410576 0.0022658126 -0.0043348246
